tree
version=v3
num_class=1
num_tree_per_iteration=1
label_index=0
max_feature_idx=11
objective=regression
feature_names=symbol dayofyear dayofweek week month year quarter shift_close shift_high shift_low shift_open shift_volume
feature_infos=-1:0:1:2:3:4:5:6:7:8:9:10:11:12:13:14:15:16:17:18:19:20:21:22:23:24:25:26:27:28:29:30:31:32:33:34:35:36:37:38:39:40:41:42:43:44:45:46:47:48:49:50:51:52:53:54:55:56:57:58:59:60:61:62:63:64:65:66:67:68:69:70:71:72:73:74:75:76:77:78:79:80:81:82:83:84:85:86:87:88:89:90:91:92:93:94:95:96:97:98 [2:366] [0:4] [1:53] [1:12] [2015:2022] [1:4] [0:3731.4099999999999] [0:3773.0799999999999] [0:3696.79] [0:3744] [0:280615000]
tree_sizes=1144 1144 1126 1161 1173 1129 1153 1111 1165 1112 1166 1158 1150 1123 1153 1151 1120 1150 1099 1166 1097 1128 1145 1155 1138 1130 1125 1156 1162 1107 1084 1083 1087 1052 1124 1129 1134 1097 1090 1142 1100 1141 1067 1146 1077 1089 1070 1115 1096 1170 1079 1111 1071 1085 1048 1193 1119 1100 1147 1064 1086 1064 1104 1053 1067 1131 1067 1079 1042 1087 1046 1074 1083 1123 1085 1052 1117 1073 1058 1082 1070 1104 1052 1041 1051 1051 1035 1045 1094 1068 1166 1030 1109 1155 1029 1093 1091 1082 1113 1046 1106 1030 1044 1078 1054 1087 1070 1083 1066 1042 1063 1042 1060 1059 1037 1057 1032 1101 1067 1114 1029 1073 1094 1062 1061 1130 1043 1064

Tree=0
num_leaves=11
num_cat=1
split_feature=9 9 8 8 9 10 0 8 8 8
split_gain=7.38447e+09 1.31867e+09 9.32652e+08 3.50942e+08 1.84533e+08 1.01122e+08 9.87031e+07 6.52127e+07 5.22414e+07 4.21801e+07
threshold=1072.2800000000002 287.2000000000001 2305.1000000000008 103.12500000000001 536.5200000000001 1525.1250000000002 0 187.66500000000002 49.82500000000001 791.21000000000015
decision_type=2 2 2 2 2 2 9 2 2 2
left_child=1 3 5 6 -3 -2 -1 -5 -8 -6
right_child=2 4 -4 7 9 -7 8 -9 -10 -11
leaf_value=226.76505660424161 276.66620312401864 145.81357422490629 533.31564240937121 108.0154959961408 184.08053995698009 358.70903728749192 93.138991552933916 121.87581107889126 99.076156997912008 227.30323844958718
leaf_weight=116 661 4625 660 29940 1980 658 80858 9919 54422 661
leaf_count=116 661 4625 660 29940 1980 658 80858 9919 54422 661
internal_value=104.896 101.81 389.538 99.2459 163.655 317.594 95.6489 111.465 95.5282 194.899
internal_weight=0 182521 1979 175255 7266 1319 135396 39859 135280 2641
internal_count=184500 182521 1979 175255 7266 1319 135396 39859 135280 2641
cat_boundaries=0 2
cat_threshold=128 512
is_linear=0
shrinkage=1


Tree=1
num_leaves=11
num_cat=1
split_feature=9 9 9 7 9 0 7 7 5 7
split_gain=5.35848e+09 9.63704e+08 6.76826e+08 2.7201e+08 1.19409e+08 7.29234e+07 7.23452e+07 5.38221e+07 4.25461e+07 3.90273e+07
threshold=1072.2800000000002 306.42500000000007 2257.9350000000004 116.78500000000001 599.2700000000001 0 1520.7300000000002 58.485000000000007 2017.5000000000002 201.52500000000003
decision_type=2 2 2 2 2 9 2 2 2 2
left_child=1 3 6 5 -3 8 -2 -7 -1 -5
right_child=2 4 -4 9 -6 7 -8 -9 -10 -11
leaf_value=41.584459699768416 146.62278989270587 39.890206438699657 365.09262410489566 4.5299469273205082 83.362136467183547 -9.6462594991236124 215.99061480993126 -3.6373123867485608 225.00044713503638 16.2187003012525
leaf_weight=70 661 4624 659 23217 1981 93735 659 50259 46 8589
leaf_count=70 661 4624 659 23217 1981 93735 659 50259 46 8589
internal_value=0 -2.62803 242.472 -4.71398 52.9285 -7.45083 181.254 -7.5484 105.247 7.68642
internal_weight=0 182521 1979 175916 6605 144110 1320 143994 116 31806
internal_count=184500 182521 1979 175916 6605 144110 1320 143994 116 31806
cat_boundaries=0 2
cat_threshold=128 512
is_linear=0
shrinkage=0.148151


Tree=2
num_leaves=11
num_cat=0
split_feature=8 8 8 8 7 8 8 11 7 8
split_gain=3.88938e+09 7.04363e+08 4.9165e+08 2.12636e+08 7.61798e+07 5.27619e+07 4.95349e+07 2.50956e+07 2.37558e+07 2.27597e+07
threshold=1095.5150000000001 337.63000000000005 2305.1000000000008 128.49500000000003 694.4000000000002 1541.5600000000002 69.895000000000024 1819041.0000000002 217.86500000000004 477.87500000000006
decision_type=2 2 2 2 2 2 2 2 2 2
left_child=1 3 5 6 9 -2 -1 -4 -5 -3
right_child=2 4 7 8 -6 -7 -8 -9 -10 -11
leaf_value=-7.7475299363989905 124.70182244506222 29.972491890471318 264.63193538241461 5.6788634963986997 79.354792216873676 183.94160329850297 -1.7915577965420943 328.95730881872828 15.669120316081793 50.977148407324279
leaf_weight=107935 660 2641 185 18572 1318 660 42803 475 7269 1982
leaf_count=107935 660 2641 185 18572 1318 660 42803 475 7269 1982
internal_value=0 -2.23955 206.524 -3.92769 47.9353 154.322 -6.05629 310.927 8.4891 38.9778
internal_weight=0 182520 1980 176579 5941 1320 150738 660 25841 4623
internal_count=184500 182520 1980 176579 5941 1320 150738 660 25841 4623
is_linear=0
shrinkage=0.148151


Tree=3
num_leaves=11
num_cat=2
split_feature=8 7 7 8 0 0 8 8 5 11
split_gain=2.82232e+09 5.13921e+08 3.56935e+08 1.66312e+08 5.25711e+07 4.70094e+07 4.60306e+07 3.83788e+07 3.30749e+07 1.83343e+07
threshold=1095.5150000000001 358.20500000000004 2293.4600000000005 140.51500000000001 0 1 699.15500000000009 1541.5600000000002 2019.5000000000002 1819041.0000000002
decision_type=2 2 2 2 9 9 2 2 2 2
left_child=1 3 7 4 8 -6 -3 -2 -1 -4
right_child=2 6 9 -5 5 -7 -8 -9 -10 -11
leaf_value=58.124524738085107 106.22717799820401 35.658245383300475 225.42669538643153 8.8377124447023654 -8.3447454257715474 -3.0296380657536237 67.605839637508126 156.73226407170645 253.41557532354213 280.42459895644993
leaf_weight=92 660 3958 185 21851 58810 96465 1320 661 24 474
leaf_count=92 660 3958 185 21851 58810 96465 1320 661 24 474
internal_value=0 -1.90776 175.927 -3.26435 -4.96613 -5.04313 43.6482 131.499 90.7115 264.985
internal_weight=0 182520 1980 177242 155391 155275 5278 1321 116 659
internal_count=184500 182520 1980 177242 155391 155275 5278 1321 116 659
cat_boundaries=0 2 5
cat_threshold=128 512 4094722048 3464980572 344004770
is_linear=0
shrinkage=0.148151


Tree=4
num_leaves=11
num_cat=2
split_feature=8 10 7 8 10 7 0 3 0 8
split_gain=2.05942e+09 3.69252e+08 2.92821e+08 8.2872e+07 5.76563e+07 5.24737e+07 3.91305e+07 1.96455e+07 1.69849e+07 1.10874e+07
threshold=791.21000000000015 2277.4700000000007 236.83500000000004 89.485000000000014 1525.1250000000002 418.23500000000007 0 10.500000000000002 1 153.00500000000002
decision_type=2 2 2 2 2 2 9 2 9 2
left_child=2 4 3 6 -2 -4 7 -1 -8 -5
right_child=1 -3 5 9 -6 -7 8 -9 -10 -11
leaf_value=25.031195219694446 80.109184401215018 225.97563055561102 15.017693018019962 0.64121471004255248 133.75226610622477 37.549569249957081 -7.2200023288401205 147.04246902755344 -3.7823306189743806 5.7701913499062574
leaf_weight=60 1322 659 7268 30654 659 3298 58235 56 69040 13249
leaf_count=60 1322 659 7268 30654 659 3298 58235 56 69040 13249
internal_value=0 129.911 -1.88535 -3.36181 97.9542 22.0506 -5.2748 77.2728 -5.35569 2.18903
internal_weight=0 2640 181860 171294 1981 10566 127391 116 127275 43903
internal_count=184500 2640 181860 171294 1981 10566 127391 116 127275 43903
cat_boundaries=0 2 5
cat_threshold=128 512 4103110656 3431426134 344004770
is_linear=0
shrinkage=0.148151


Tree=5
num_leaves=11
num_cat=0
split_feature=10 10 10 8 10 10 8 11 8 8
split_gain=1.50005e+09 2.78e+08 1.85288e+08 7.24372e+07 5.07686e+07 1.87107e+07 1.34274e+07 1.30709e+07 1.25383e+07 1.01059e+07
threshold=1085.5150000000001 267.00500000000005 2277.4700000000007 92.135000000000005 475.08500000000009 1525.1250000000002 791.21000000000015 2242650.0000000005 170.72500000000002 40.895000000000003
decision_type=2 2 2 2 2 2 2 2 2 2
left_child=1 3 5 9 -3 -2 -6 -4 -5 -1
right_child=2 4 7 8 6 -7 -8 -9 -10 -11
leaf_value=-5.675549995240643 78.632308657748396 15.638427293204227 162.81854173160465 0.97621996198988503 34.324677049353888 113.93680043755421 57.912144541952848 207.16790843048446 6.5905640495042812 -3.0515318504163953
leaf_weight=68860 659 5281 218 32631 2635 659 663 441 11920 60533
leaf_count=68860 659 5281 218 32631 2635 659 663 441 11920 60533
internal_value=0 -1.38993 128.356 -2.67398 24.6448 96.2847 39.0665 192.497 2.47839 -4.44797
internal_weight=0 182523 1977 173944 8579 1318 3298 659 44551 129393
internal_count=184500 182523 1977 173944 8579 1318 3298 659 44551 129393
is_linear=0
shrinkage=0.148151


Tree=6
num_leaves=11
num_cat=2
split_feature=8 7 7 0 8 0 5 7 7 11
split_gain=1.08673e+09 2.03126e+08 1.34656e+08 4.83958e+07 4.62507e+07 2.42697e+07 2.2971e+07 1.38993e+07 1.38745e+07 9.99791e+06
threshold=1095.5150000000001 244.50500000000002 2293.4600000000005 0 477.87500000000006 1 2017.5000000000002 32.005000000000003 1520.7300000000002 1819041.0000000002
decision_type=2 2 2 9 2 9 2 2 2 2
left_child=1 3 8 5 -3 6 -1 -5 -2 -4
right_child=2 4 9 7 -6 -7 -8 -9 -10 -11
leaf_value=18.895478515803884 66.729360329479832 12.148857138988156 134.6557920148704 -5.759483021829447 33.299932184135407 1.4874066719371051 153.6667628031139 -2.5979539189362613 97.096347454309978 175.26864590164988
leaf_weight=70 662 7264 185 52627 3300 46550 46 72663 659 474
leaf_count=70 662 7264 185 52627 3300 46550 46 72663 659 474
internal_value=0 -1.18395 109.167 -2.40895 18.7561 1.66349 66.5991 -3.92561 81.8785 163.868
internal_weight=0 182520 1980 171956 10564 46666 116 125290 1321 659
internal_count=184500 182520 1980 171956 10564 46666 116 125290 1321 659
cat_boundaries=0 4 6
cat_threshold=55005130 806879872 8176708 4 128 512
is_linear=0
shrinkage=0.148151


Tree=7
num_leaves=11
num_cat=0
split_feature=10 10 10 7 7 10 11 5 3 3
split_gain=7.9749e+08 1.38645e+08 1.14185e+08 3.02221e+07 2.49572e+07 2.06662e+07 7.09274e+06 6.76115e+06 6.57124e+06 5.60026e+06
threshold=786.92500000000007 2277.4700000000007 212.50500000000002 81.245000000000019 390.31500000000005 1525.1250000000002 1819041.0000000002 2019.5000000000002 32.500000000000007 27.500000000000004
decision_type=2 2 2 2 2 2 2 2 2 2
left_child=2 5 3 -1 -4 -2 -3 -7 -9 -8
right_child=1 6 4 -5 -6 7 9 8 -10 -11
leaf_value=-3.4975109511439841 50.576597223651135 115.24116185033452 7.8783770468180698 0.84592508945874256 21.933538700382137 71.051375721980904 132.10260119860777 115.95145995471752 60.25490438043952 164.42662997762361
leaf_weight=118703 1318 186 9239 49960 3962 411 220 186 62 253
leaf_count=118703 1318 186 9239 49960 3962 411 220 186 62 253
internal_value=0 80.904 -1.17238 -2.21093 12.0967 61.2874 139.754 82.7088 102.028 149.393
internal_weight=0 2636 181864 168663 13201 1977 659 659 248 473
internal_count=184500 2636 181864 168663 13201 1977 659 659 248 473
is_linear=0
shrinkage=0.148151


Tree=8
num_leaves=11
num_cat=3
split_feature=9 0 9 9 0 5 5 0 5 9
split_gain=5.78296e+08 1.11623e+08 6.9308e+07 4.43537e+07 1.67842e+07 2.18493e+07 1.08166e+07 1.05165e+07 6.7038e+06 6.40161e+06
threshold=1072.2800000000002 0 2257.9350000000004 122.61500000000002 1 2019.5000000000002 2019.5000000000002 2 2016.5000000000002 227.02500000000003
decision_type=2 9 2 2 9 2 2 9 2 2
left_child=1 4 6 7 5 8 -2 -3 -1 -5
right_child=2 3 -4 9 -6 -7 -8 -9 -10 -11
leaf_value=22.809538707549063 50.679047899843916 -4.7783855080559077 118.89437757758093 2.5367641881851215 14.376960672311437 159.96739006756229 79.227572102967656 -1.8416256982275498 41.996137080910685 7.6252994595176053
leaf_weight=1028 886 35055 659 21503 3690 29 434 113304 654 7258
leaf_count=1028 886 35055 659 21503 3690 29 434 113304 654 7258
internal_value=0 -0.863438 79.6554 -1.50366 20.0975 32.2795 60.0655 -2.53598 30.2698 3.82089
internal_weight=0 182521 1979 177120 5401 1711 1320 148359 1682 28761
internal_count=184500 182521 1979 177120 5401 1711 1320 148359 1682 28761
cat_boundaries=0 2 4 7
cat_threshold=262272 1049088 128 512 2417000448 2357618688 83957792
is_linear=0
shrinkage=0.148151


Tree=9
num_leaves=11
num_cat=0
split_feature=10 10 10 8 8 5 8 1 5 11
split_gain=4.19317e+08 8.09132e+07 5.08133e+07 2.86775e+07 9.95434e+06 7.62142e+06 5.89882e+06 5.55502e+06 7.72727e+06 7.15497e+06
threshold=1085.5150000000001 333.76500000000004 2277.4700000000007 96.965000000000018 604.8850000000001 2019.5000000000002 167.85000000000005 187.50000000000003 2020.5000000000002 2242650.0000000005
decision_type=2 2 2 2 2 2 2 2 2 2
left_child=1 3 5 -1 -3 -2 -5 8 -4 -10
right_child=2 4 7 6 -6 -7 -8 -9 9 -11
leaf_value=-2.4030522376301362 43.133504504941065 11.979721940271443 20.637273623845896 0.7156420642856538 24.840854398809117 67.064491502201662 4.3107059958687488 113.2906296398928 58.479841912007643 112.26246707748497
leaf_weight=132063 881 3956 35 29299 1983 437 15222 375 80 169
leaf_count=132063 881 3956 35 29299 1983 437 15222 375 80 169
internal_value=0 -0.734799 67.8631 -1.30685 16.274 51.0682 1.94482 101.453 85.8213 94.9834
internal_weight=0 182523 1977 176584 5939 1318 44521 659 284 249
internal_count=184500 182523 1977 176584 5939 1318 44521 659 284 249
is_linear=0
shrinkage=0.148151


Tree=10
num_leaves=11
num_cat=3
split_feature=0 5 7 0 5 0 9 5 7 7
split_gain=3.0846e+08 8.47013e+07 3.77055e+07 1.44429e+07 9.90267e+06 9.82469e+06 9.40019e+06 8.78984e+06 7.83052e+06 6.86841e+06
threshold=0 2019.5000000000002 151.55500000000004 1 2017.5000000000002 2 387.03000000000003 2020.5000000000002 6.7650000000000006 21.325000000000003
decision_type=9 2 2 9 2 9 2 2 2 2
left_child=1 4 5 7 -1 8 -4 -3 -2 -7
right_child=2 3 6 -5 -6 9 -8 -9 -10 -11
leaf_value=20.106863783444989 9.7939131179357091 76.110596395225912 3.5662119629517668 55.635151615498465 38.883770567736306 -4.2174907711533161 12.337236819263632 113.32099178010269 -0.079833064611459975 -1.6688775006251331
leaf_weight=1540 1854 258 19763 561 1028 31424 3103 303 35887 88779
leaf_count=1540 1854 258 19763 561 1028 31424 3103 303 35887 88779
internal_value=0 42.3454 -0.86626 76.4177 27.6235 -1.68033 4.75648 94.5235 0.405099 -2.33495
internal_weight=0 3690 180810 1122 2568 157944 22866 561 37741 120203
internal_count=184500 3690 180810 1122 2568 157944 22866 561 37741 120203
cat_boundaries=0 2 3 7
cat_threshold=128 512 128 54791514 806880384 1081926725 6
is_linear=0
shrinkage=0.148151


Tree=11
num_leaves=11
num_cat=2
split_feature=0 10 7 10 7 0 8 1 2 7
split_gain=2.24105e+08 5.31633e+07 2.74985e+07 1.10364e+07 7.22583e+06 8.53377e+06 7.12581e+06 4.62321e+06 5.57599e+06 3.74236e+06
threshold=0 1525.1250000000002 145.40500000000003 2277.4700000000007 63.545000000000009 1 392.86000000000007 187.50000000000003 1.0000000180025095e-35 277.25000000000006
decision_type=9 2 2 2 2 9 2 2 2 2
left_child=1 9 4 -3 5 -2 -4 8 -5 -1
right_child=2 3 6 7 -6 -7 -8 -9 -10 -11
leaf_value=48.888151630749796 12.875761729725321 46.490742891665299 2.9358401486624897 16.004770613358019 -0.10979173376278771 -2.3314030676766802 10.54189095856518 84.404329895177753 69.288483154580163 21.601994904929004
leaf_weight=116 807 659 21090 53 56142 99670 3101 375 231 2256
leaf_count=116 807 659 21090 53 56142 99670 3101 375 231 2256
internal_value=0 36.0942 -0.737923 60.048 -1.45601 -2.20821 3.91085 73.605 59.345 22.9364
internal_weight=0 3690 180810 1318 156619 100477 24191 659 284 2372
internal_count=184500 3690 180810 1318 156619 100477 24191 659 284 2372
cat_boundaries=0 2 5
cat_threshold=128 512 38013250 805306496 803840
is_linear=0
shrinkage=0.148151


Tree=12
num_leaves=11
num_cat=2
split_feature=8 10 0 0 7 5 8 10 3 5
split_gain=1.638e+08 2.71776e+07 2.62598e+07 8.50188e+06 8.58658e+06 1.13429e+07 7.95542e+06 6.09001e+06 3.89214e+06 4.22026e+06
threshold=791.21000000000015 2277.4700000000007 0 1 6.7650000000000006 2016.5000000000002 73.435000000000016 1525.1250000000002 19.500000000000004 2019.5000000000002
decision_type=2 2 9 9 2 2 2 2 2 2
left_child=2 7 3 4 5 -1 -4 -2 -7 -10
right_child=1 -3 6 -5 -6 8 -8 -9 9 -11
leaf_value=7.7497630750245099 22.168885236402172 62.700436593256285 -1.8853985527076493 2.7656870612964379 8.461040941952394 42.364622144185823 0.36276287408488656 39.603116154276258 66.679671304645098 148.38070787484523
leaf_weight=128 1322 659 110189 16605 4505 49 50326 659 35 23
leaf_count=128 1322 659 110189 16605 4505 49 50326 659 35 23
internal_value=0 36.6384 -0.531232 4.34951 9.88038 37.5095 -1.18046 27.9686 73.109 99.0808
internal_weight=0 2640 181860 21345 4740 235 160515 1981 107 58
internal_count=184500 2640 181860 21345 4740 235 160515 1981 107 58
cat_boundaries=0 3 5
cat_threshold=38013058 269484672 1573888 262272 1049088
is_linear=0
shrinkage=0.148151


Tree=13
num_leaves=11
num_cat=4
split_feature=0 5 8 5 0 0 0 1 7 1
split_gain=1.19781e+08 3.71135e+07 1.59445e+07 9.19913e+06 5.86199e+06 5.60767e+06 4.45533e+06 3.96318e+06 3.66757e+06 3.5144e+06
threshold=0 2020.5000000000002 192.09500000000003 2017.5000000000002 1 2 3 93.500000000000014 2293.4600000000005 93.500000000000014
decision_type=9 2 2 2 9 9 9 2 2 2
left_child=1 3 4 -1 -2 -5 7 -3 9 -8
right_child=2 6 -4 5 -6 -7 8 -9 -10 -11
leaf_value=11.771366999639227 -2.1413273365885392 54.265614842103624 4.0987196534073682 37.00743629653816 -0.30191337443157129 18.185810133973455 46.006754581856491 89.572971620445912 31.556442500607734 104.08475834196561
leaf_weight=1540 59040 109 14925 772 106845 772 66 194 202 35
leaf_count=1540 59040 109 14925 772 106845 772 66 194 202 35
internal_value=0 26.388 -0.539392 19.8733 -0.956725 27.9541 59.9775 74.416 41.7062 66.134
internal_weight=0 3690 180810 3084 165885 1544 606 303 303 101
internal_count=184500 3690 180810 3084 165885 1544 606 303 303 101
cat_boundaries=0 2 5 6 7
cat_threshold=128 512 4170219520 2408016150 419502240 128 128
is_linear=0
shrinkage=0.148151


Tree=14
num_leaves=11
num_cat=3
split_feature=0 5 0 7 10 0 10 5 7 5
split_gain=8.70864e+07 2.84715e+07 1.19871e+07 5.89122e+06 4.89084e+06 4.76481e+06 4.17783e+06 3.50908e+06 3.31785e+06 3.25614e+06
threshold=0 2019.5000000000002 1 788.3850000000001 277.29000000000002 2 24.185000000000006 2016.5000000000002 6.7650000000000006 2020.5000000000002
decision_type=9 2 9 2 2 9 2 2 2 2
left_child=1 7 4 -3 8 9 -4 -1 -2 -5
right_child=2 3 6 5 -6 -7 -8 -9 -10 -11
leaf_value=7.256703136954525 8.5185858814494892 114.86166543584562 -2.4322692380007607 39.594210610253327 5.6743820404287799 28.862395530032554 -0.60252849326026248 18.434227349014851 0.8243644309741438 62.484936504502095
leaf_weight=1028 1284 24 36799 253 6321 549 107111 1540 29295 296
leaf_count=1028 1284 24 36799 253 6321 549 107111 1540 29295 296
internal_value=0 22.5007 -0.459501 42.2495 1.92239 40.6622 -1.07033 13.9598 1.14744 51.0071
internal_weight=0 3690 180810 1122 36900 1098 143910 2568 30579 549
internal_count=184500 3690 180810 1122 36900 1098 143910 2568 30579 549
cat_boundaries=0 2 6 7
cat_threshold=128 512 54790226 806355072 7882240 4 128
is_linear=0
shrinkage=0.148151


Tree=15
num_leaves=11
num_cat=4
split_feature=0 5 7 0 11 9 0 0 5 9
split_gain=6.32688e+07 2.07257e+07 9.58949e+06 4.30276e+06 4.95222e+06 3.88793e+06 3.17739e+06 2.95926e+06 2.54634e+06 2.36578e+06
threshold=0 2019.5000000000002 110.06500000000001 1 2068850.0000000002 415.93500000000006 2 3 2016.5000000000002 783.80000000000007
decision_type=9 2 2 9 2 2 9 9 2 2
left_child=1 8 6 4 -3 -4 -2 -8 -1 -7
right_child=2 3 5 -5 -6 9 7 -9 -10 -11
leaf_value=6.1816184110416161 -2.8974480880775721 109.60186364848209 1.2419276727179598 25.14864295319844 43.39083901743161 7.8500791521195579 12.121528078586934 -0.7557823922475555 15.703185132918597 -34.010349598480751
leaf_weight=1028 16605 26 38366 561 535 2414 383 123012 1540 30
leaf_count=1028 16605 26 38366 561 535 2414 383 123012 1540 30
internal_value=0 19.1788 -0.391426 36.0284 45.646 1.6069 -0.973966 -0.714834 11.8916 7.33621
internal_weight=0 3690 180810 1122 561 40810 140000 123395 2568 2444
internal_count=184500 3690 180810 1122 561 40810 140000 123395 2568 2444
cat_boundaries=0 2 3 6 9
cat_threshold=128 512 128 32768 2357600256 32 264448 268435456 525312
is_linear=0
shrinkage=0.148151


Tree=16
num_leaves=11
num_cat=4
split_feature=0 5 8 5 0 1 2 9 0 0
split_gain=4.5966e+07 1.64219e+07 7.20032e+06 3.49477e+06 3.53102e+06 3.01356e+06 5.54418e+06 3.59918e+06 3.36005e+06 2.79862e+06
threshold=0 2020.5000000000002 173.97000000000003 2017.5000000000002 1 67.500000000000014 1.0000000180025095e-35 2257.9350000000004 2 3
decision_type=9 2 2 2 9 2 2 2 9 9
left_child=1 3 9 -1 -5 6 -3 -7 -9 -2
right_child=2 5 -4 4 -6 7 -8 8 -10 -11
leaf_value=7.0169969283594442 -2.4684474885921266 -27.593625482167557 2.4578049620352362 24.067921843301605 9.4803702684771345 80.524368603490203 36.023973209299406 52.621507702108708 19.557564387959822 -0.43907165512218105
leaf_weight=1540 16605 38 18239 772 772 56 144 208 160 145966
leaf_count=1540 16605 38 18239 772 772 56 144 208 160 145966
internal_value=0 16.3475 -0.333366 12.0107 16.9915 38.6877 22.7408 45.5326 40.2075 -0.646531
internal_weight=0 3690 180810 3084 1544 606 182 424 368 162571
internal_count=184500 3690 180810 3084 1544 606 182 424 368 162571
cat_boundaries=0 2 3 4 7
cat_threshold=128 512 128 128 32768 2357600256 32
is_linear=0
shrinkage=0.148151


Tree=17
num_leaves=11
num_cat=2
split_feature=7 7 0 11 5 0 5 5 3 5
split_gain=3.43244e+07 8.40664e+06 5.17291e+06 3.39744e+06 4.88975e+06 4.36644e+06 3.36111e+06 3.34322e+06 2.64157e+06 2.41679e+06
threshold=539.21000000000015 1520.7300000000002 0 1.0000000180025095e-35 2016.5000000000002 1 2020.5000000000002 2020.5000000000002 11.500000000000002 2021.5000000000002
decision_type=2 2 9 2 2 9 2 2 2 2
left_child=2 -2 3 4 -1 6 8 -3 -6 -9
right_child=1 7 -4 -5 5 -7 -8 9 -10 -11
leaf_value=0.33200615315270326 8.6187181255921352 15.877481223037098 -0.84521328680609986 0.6411485116516128 -17.385597439853054 10.30924833875898 88.880903851766945 34.781073992224044 44.295454749342881 7.9167555469004123
leaf_weight=1249 3300 726 125460 52170 20 891 28 506 64 86
leaf_count=1249 3300 726 125460 52170 20 891 28 506 64 86
internal_value=0 12.6135 -0.321993 0.884189 6.51837 14.222 40.7862 22.6155 29.6087 30.8786
internal_weight=0 4618 179882 54422 2252 1003 112 1318 84 592
internal_count=184500 4618 179882 54422 2252 1003 112 1318 84 592
cat_boundaries=0 4 6
cat_threshold=54808274 806879872 1618765313 6 33816704 512
is_linear=0
shrinkage=0.148151


Tree=18
num_leaves=11
num_cat=0
split_feature=8 9 8 1 2 11 1 8 2 1
split_gain=2.5079e+07 5.45015e+06 4.2081e+06 3.6999e+06 3.224e+06 2.17273e+06 2.111e+06 1.72208e+06 1.27971e+06 4.00065e+06
threshold=604.8850000000001 2257.9350000000004 86.25500000000001 187.50000000000003 1.0000000180025095e-35 2914650.0000000005 131.50000000000003 260.46000000000009 1.0000000180025095e-35 21.500000000000004
decision_type=2 2 2 2 2 2 2 2 2 2
left_child=2 8 -1 4 5 -3 -6 -4 9 -2
right_child=1 3 7 -5 6 -7 -8 -9 -10 -11
leaf_value=-0.73686134002332926 -42.159451655849452 -54.717142315473211 0.49145747324103828 33.625923031549746 29.98231687736444 5.5420456910270026 0.88017974110499908 2.9347882729107226 10.616880382784673 6.2712244357180085
leaf_weight=124054 40 24 49220 375 142 29 89 7266 2677 584
leaf_count=124054 40 24 49220 375 142 29 89 7266 2677 584
internal_value=0 11.6643 -0.254219 23.9654 11.2091 -21.7444 18.7701 0.805753 9.20854 3.16655
internal_weight=0 3960 180540 659 284 53 231 56486 3301 624
internal_count=184500 3960 180540 659 284 53 231 56486 3301 624
is_linear=0
shrinkage=0.148151


Tree=19
num_leaves=11
num_cat=4
split_feature=0 5 5 10 0 10 1 1 0 0
split_gain=1.85328e+07 7.46059e+06 3.99201e+06 3.1454e+06 3.13718e+06 2.83224e+06 1.80335e+06 5.9387e+06 1.62512e+06 1.38146e+06
threshold=0 2019.5000000000002 2018.5000000000002 786.92500000000007 1 6.7950000000000008 21.500000000000004 15.500000000000002 2 3
decision_type=9 2 2 2 9 2 2 2 9 9
left_child=1 -1 9 -3 5 -4 7 -5 -8 -2
right_child=2 3 4 6 -6 -7 8 -9 -10 -11
leaf_value=6.0056236793481714 -2.1763981972446973 73.544039769910157 12.201459510569631 23.380638872368991 -0.076530081909763126 1.6697729648705115 27.198392371543587 -63.816525096549491 14.097554328899173 -0.60797374475344834
leaf_weight=2568 14378 24 573 60 53988 25603 507 24 507 86268
leaf_count=2568 14378 24 573 60 53988 25603 507 24 507 86268
internal_value=0 10.3808 -0.211031 20.487 0.568961 1.89959 19.3272 -1.53244 21.0553 -0.832312
internal_weight=0 3690 180810 1122 80164 26176 1098 84 1014 100646
internal_count=184500 3690 180810 1122 80164 26176 1098 84 1014 100646
cat_boundaries=0 2 6 7 10
cat_threshold=128 512 63393618 806355072 1157113345 6 128 8421408 2357600512 75497504
is_linear=0
shrinkage=0.148151


Tree=20
num_leaves=11
num_cat=0
split_feature=10 10 5 5 5 1 1 7 1 1
split_gain=1.40664e+07 3.45497e+06 2.77674e+06 1.74736e+06 1.57593e+06 2.26991e+06 2.14995e+06 1.5381e+06 1.16793e+06 1.04852e+06
threshold=539.67500000000007 1525.1250000000002 2018.5000000000002 2020.5000000000002 2021.5000000000002 19.500000000000004 51.500000000000007 66.595000000000013 350.50000000000006 15.500000000000002
decision_type=2 2 2 2 2 2 2 2 2 2
left_child=2 -2 -1 -3 5 -5 9 -4 -7 -6
right_child=1 3 7 4 6 8 -8 -9 -10 -11
leaf_value=-0.72197045264585125 5.5147187645907119 9.6176464427201811 -0.16900134410437043 -20.852422955737019 43.135128661458396 27.345651064087225 -40.630100752235997 1.1385578729788113 -9.2196330123914301 2.5019204177210366
leaf_weight=100686 3297 726 41672 24 20 462 20 37527 20 46
leaf_count=100686 3297 726 41672 24 20 462 20 37527 20 46
internal_value=0 8.07769 -0.205733 14.489 20.4628 23.614 1.92083 0.450561 25.8283 14.8163
internal_weight=0 4615 179885 1318 592 506 86 79199 482 66
internal_count=184500 4615 179885 1318 592 506 86 79199 482 66
is_linear=0
shrinkage=0.148151


Tree=21
num_leaves=11
num_cat=0
split_feature=10 10 5 11 3 3 8 7 5 4
split_gain=1.02072e+07 2.50708e+06 2.16475e+06 1.43952e+06 2.98011e+06 1.21322e+06 1.15641e+06 1.2528e+06 1.19198e+06 1.13796e+06
threshold=539.67500000000007 1525.1250000000002 2017.5000000000002 5437125.0000000009 46.500000000000007 12.500000000000002 54.545000000000009 1.0000000180025095e-35 2020.5000000000002 1.5000000000000002
decision_type=2 2 2 2 2 2 2 2 2 2
left_child=2 -2 -1 9 5 -5 7 8 -4 -3
right_child=1 3 6 4 -6 -7 -8 -9 -10 -11
leaf_value=-0.77815296455703287 4.6977095957316202 -0.72998069456423165 0.90158946284193109 -13.29738908621003 -37.793465581156802 16.288720719224894 0.69024096592808104 -0.54916019608054933 7.288946847947062 15.908950377351445
leaf_weight=75704 3297 99 3064 40 36 127 59540 40766 811 1016
leaf_count=75704 3297 99 3064 40 36 127 59540 40766 811 1016
internal_value=0 6.88098 -0.175254 12.3424 0.867297 9.20184 0.262848 -0.307187 2.23842 14.4315
internal_weight=0 4615 179885 1318 203 167 104181 44641 3875 1115
internal_count=184500 4615 179885 1318 203 167 104181 44641 3875 1115
is_linear=0
shrinkage=0.148151


Tree=22
num_leaves=11
num_cat=2
split_feature=0 5 7 0 7 5 11 1 8 5
split_gain=8.19817e+06 4.13941e+06 5.63662e+06 3.20813e+06 2.28672e+06 1.51669e+06 2.11945e+06 1.49992e+06 1.42185e+06 1.35351e+06
threshold=0 2017.5000000000002 1085.7900000000002 1 6.7650000000000006 2020.5000000000002 5437125.0000000009 131.50000000000003 1541.5600000000002 2016.5000000000002
decision_type=9 2 2 9 2 2 2 2 2 2
left_child=1 -1 -3 4 7 8 -7 -2 -4 -5
right_child=3 2 5 9 -6 6 -8 -9 -10 -11
leaf_value=1.5618980568332641 5.0959933950258822 88.344508225586097 27.947098024133108 -1.0063585888563567 1.3751776434608414 26.571150891558108 -23.371645720097519 20.158662991647539 8.2944599693480274 -0.052197756153358248
leaf_weight=770 412 23 92 45232 19659 276 20 224 664 117128
leaf_count=770 412 23 92 45232 19659 276 20 224 664 117128
internal_value=0 9.80038 15.7925 -0.0984512 1.65722 14.2062 23.1964 10.4012 10.6862 -0.317999
internal_weight=0 1845 1075 182655 20295 1052 296 636 756 162360
internal_count=184500 1845 1075 182655 20295 1052 296 636 756 162360
cat_boundaries=0 1 4
cat_threshold=128 38010880 269484672 3686400
is_linear=0
shrinkage=0.148151


Tree=23
num_leaves=11
num_cat=2
split_feature=8 2 1 1 7 0 7 0 1 5
split_gain=6.16115e+06 2.11049e+06 4.10118e+06 1.38803e+07 2.05146e+06 1.58411e+06 1.58554e+06 2.70451e+06 3.39315e+06 1.57398e+06
threshold=420.21000000000009 1.0000000180025095e-35 21.500000000000004 15.500000000000002 2293.4600000000005 0 6.7650000000000006 1 73.500000000000014 2018.5000000000002
decision_type=2 2 2 2 2 9 2 9 2 2
left_child=5 2 3 -2 -3 6 7 8 -1 -10
right_child=1 4 -4 -5 -6 -7 -8 -9 9 -11
leaf_value=4.0464836604965315 9.2575894798101555 4.958314003546044 1.2484203759836456 -130.25061372116485 14.679919781640887 -0.44230422819650939 0.36409289548282253 2.5469004735800533 24.143655544038062 60.80010422014729
leaf_weight=130 49 4287 1045 23 536 125460 51128 1737 60 45
leaf_count=130 49 4287 1045 23 536 125460 51128 1737 60 45
internal_value=0 4.69482 -1.10788 -35.3075 6.03873 -0.155243 0.522985 4.6452 19.2279 39.8544
internal_weight=0 5940 1117 72 4823 178560 53100 1972 235 105
internal_count=184500 5940 1117 72 4823 178560 53100 1972 235 105
cat_boundaries=0 4 6
cat_threshold=54987410 806880928 544924168 6 262272 269484032
is_linear=0
shrinkage=0.148151


Tree=24
num_leaves=11
num_cat=2
split_feature=0 10 1 7 0 1 1 7 1 1
split_gain=4.71362e+06 1.93099e+06 1.81115e+06 4.6576e+06 1.34046e+06 1.18938e+06 2.49211e+06 1.50252e+06 1.64517e+06 2.33757e+06
threshold=0 237.08500000000001 103.50000000000001 358.20500000000004 1 325.50000000000006 332.50000000000006 1085.7900000000002 133.50000000000003 187.50000000000003
decision_type=9 2 2 2 9 2 2 2 2 2
left_child=2 4 -1 -4 -2 7 -7 -5 -9 -10
right_child=1 -3 3 5 -6 6 -8 8 9 -11
leaf_value=0.33034013905693521 -1.5481444319501516 1.7914637279240322 79.691817836156858 4.8651497472933078 -0.071656616323427097 -37.181926157010587 6.6125119008350373 35.281202042330989 -2.6459642106155083 19.087348148055764
leaf_weight=548 14760 11410 21 465 156485 35 154 84 151 387
leaf_count=548 14760 11410 21 465 156485 35 154 84 151 387
internal_value=0 -0.0746689 7.43124 10.4887 -0.199013 9.34969 -1.49736 11.2358 15.9982 12.9874
internal_weight=0 182655 1845 1297 171245 1276 189 1087 622 538
internal_count=184500 182655 1845 1297 171245 1276 189 1087 622 538
cat_boundaries=0 1 4
cat_threshold=128 32768 2357469184 32
is_linear=0
shrinkage=0.148151


Tree=25
num_leaves=11
num_cat=3
split_feature=8 8 0 1 1 0 0 8 1 1
split_gain=3.44839e+06 1.11494e+06 2.67097e+06 2.13757e+06 3.81613e+06 1.42339e+06 999971 1.061e+06 1.10595e+06 1.81237e+06
threshold=420.21000000000009 44.355000000000011 0 73.500000000000014 45.500000000000007 1 2 1095.5150000000001 21.500000000000004 13.500000000000002
decision_type=2 2 9 2 2 9 9 2 2 2
left_child=1 2 3 4 -1 -5 7 -2 9 -9
right_child=6 -3 -4 5 -6 -7 -8 8 -10 -11
leaf_value=4.4151735239923067 1.760854815452068 0.19376545142080592 -0.69733661940818237 25.677809429008651 -21.822881607123108 7.7981606955936655 2.2714448149462703 11.097918595121683 10.644564874330355 -37.797753445758786
leaf_weight=756 634 104981 71843 112 145 723 4230 41 1007 28
leaf_count=756 634 104981 71843 112 145 723 4230 41 1007 28
internal_value=0 -0.11616 -0.558356 5.16745 0.192542 10.5974 3.51232 6.53034 9.40124 -8.74311
internal_weight=0 178560 73579 1736 901 835 5940 1710 1076 69
internal_count=184500 178560 73579 1736 901 835 5940 1710 1076 69
cat_boundaries=0 3 5 6
cat_threshold=38162383 805865088 1852740 33816704 512 128
is_linear=0
shrinkage=0.148151


Tree=26
num_leaves=11
num_cat=1
split_feature=0 5 7 1 1 1 5 5 7 5
split_gain=2.55815e+06 1.33279e+06 1.16448e+06 2.60298e+06 2.24697e+06 4.96431e+06 2.88638e+06 1.82377e+06 1.05377e+06 1.28972e+06
threshold=0 2019.5000000000002 6.7650000000000006 131.50000000000003 45.500000000000007 73.500000000000014 2015.5000000000002 2019.5000000000002 93.565000000000012 2019.5000000000002
decision_type=9 2 2 2 2 2 2 2 2 2
left_child=2 -2 3 4 6 -6 -1 -5 -4 -10
right_child=1 -3 8 7 5 -7 -8 -9 9 -11
leaf_value=0.36297355651951241 -0.39581797008624209 0.49227165655711136 -10.124736452522349 18.213663081035953 -82.728832465161986 11.358922338771738 52.85391070806682 62.218798776327894 1.1541919167987911 5.0897970855688568
leaf_weight=111 121980 53295 152 72 20 32 29 29 6186 2594
leaf_count=111 121980 53295 152 72 20 32 29 29 6186 2594
internal_value=0 -0.125773 2.40409 11.597 1.4688 -24.8281 11.2367 30.8497 2.10522 2.31695
internal_weight=0 175275 9225 293 192 52 140 101 8932 8780
internal_count=184500 175275 9225 293 192 52 140 101 8932 8780
cat_boundaries=0 2
cat_threshold=33816704 1049088
is_linear=0
shrinkage=0.148151


Tree=27
num_leaves=11
num_cat=2
split_feature=0 5 11 2 1 5 7 0 7 1
split_gain=2.12573e+06 2.2355e+06 1.66285e+06 1.45736e+06 1.08671e+06 1.0768e+06 1.76977e+06 1.1797e+06 1.17159e+06 1.01309e+06
threshold=0 2020.5000000000002 2103000.0000000005 1.0000000180025095e-35 21.500000000000004 2018.5000000000002 1085.7900000000002 1 6.7650000000000006 328.50000000000006
decision_type=9 2 2 2 2 2 2 9 2 2
left_child=1 4 -3 -4 -1 6 -2 8 -7 -5
right_child=5 2 3 9 -6 7 -8 -9 -10 -11
leaf_value=-13.653523422294166 -0.34715100985992764 54.944993920162737 -8.6136277750729882 21.830130168076018 3.6756872480955693 7.7791863399089936 -16.397894490973922 -0.037779242597402958 1.0228372326676205 -12.326166292403375
leaf_weight=84 101522 23 53 206 1458 576 151 54806 25600 21
leaf_count=84 101522 23 53 206 1458 576 151 54806 25600 21
internal_value=0 4.99062 16.6513 13.5054 2.73164 -0.0499549 -0.37099 0.353098 1.17107 18.67
internal_weight=0 1845 303 280 1542 182655 101673 80982 26176 227
internal_count=184500 1845 303 280 1542 182655 101673 80982 26176 227
cat_boundaries=0 1 5
cat_threshold=128 63261295 1342178176 1157367360 4
is_linear=0
shrinkage=0.148151


Tree=28
num_leaves=11
num_cat=5
split_feature=9 5 0 8 0 0 3 0 5 0
split_gain=1.68686e+06 941956 976121 914335 2.62057e+06 992515 946134 739013 710277 605098
threshold=688.7700000000001 2016.5000000000002 0 7.5150000000000006 1 2 19.500000000000004 3 2020.5000000000002 4
decision_type=2 2 9 2 9 9 2 9 2 9
left_child=1 7 -3 4 6 8 -4 -1 -6 -2
right_child=9 2 3 -5 5 -7 -8 -9 -10 -11
leaf_value=-2.0061517080570863 5.4484457231034149 -0.43017101442840894 12.036373397919728 0.35141691378660833 3.9607796013352732 0.081633407660337942 40.000200836691782 -0.37323507305179043 14.259179286408244 1.407266412183779
leaf_weight=7054 1545 42592 49 85052 588 1667 58 43944 196 1755
leaf_count=7054 1545 42592 49 85052 588 1667 58 43944 196 1755
internal_value=0 -0.0598419 0.151559 0.43437 3.19418 2.13766 24.8707 -0.599566 6.45316 3.32007
internal_weight=0 181200 130202 87610 2558 2451 107 50998 784 3300
internal_count=184500 181200 130202 87610 2558 2451 107 50998 784 3300
cat_boundaries=0 4 7 10 13 14
cat_threshold=3626016768 2414245968 402721186 1 128 269484032 524288 55003979 536905344 7603781 8421536 2349080832 75498016 262272
is_linear=0
shrinkage=0.148151


Tree=29
num_leaves=11
num_cat=3
split_feature=0 0 8 1 1 1 1 8 1 0
split_gain=1.35901e+06 660413 566832 1.54371e+06 1.51758e+06 3.23122e+06 1.51417e+06 712667 539004 376393
threshold=0 1 7.5150000000000006 131.50000000000003 45.500000000000007 73.500000000000014 31.500000000000004 74.225000000000009 19.500000000000004 2
decision_type=9 9 2 2 2 2 2 2 2 9
left_child=2 -2 3 4 6 -6 8 -4 -1 -9
right_child=1 -3 7 -5 5 -7 -8 9 -10 -11
leaf_value=-6.5211498928801852 -0.93871300943115454 -0.0012933435476009474 -8.6712222063586566 20.911940491045009 -60.661800200829994 7.5662145462851642 41.375487059160044 3.5021997836509349 11.956299154635229 1.1422784655412128
leaf_weight=77 18450 154980 152 122 25 39 25 1787 63 8780
leaf_count=77 18450 154980 152 122 25 39 25 1787 63 8780
internal_value=0 -0.101068 1.59129 7.45118 0.279643 -19.0848 7.79111 1.40088 1.79329 1.54577
internal_weight=0 173430 11070 351 229 64 165 10719 140 10567
internal_count=184500 173430 11070 351 229 64 165 10719 140 10567
cat_boundaries=0 2 5 6
cat_threshold=33816704 1049216 32768 2357487616 32 128
is_linear=0
shrinkage=0.148151


Tree=30
num_leaves=11
num_cat=0
split_feature=8 2 1 1 8 1 1 8 8 5
split_gain=1.03391e+06 1.424e+06 2.75909e+06 9.21516e+06 5.38854e+06 1.0913e+06 1.83423e+07 6.02454e+06 1.0445e+06 971236
threshold=269.48500000000007 1.0000000180025095e-35 21.500000000000004 13.500000000000002 604.8850000000001 251.50000000000003 244.50000000000003 477.87500000000006 2305.1000000000008 2021.5000000000002
decision_type=2 2 2 2 2 2 2 2 2 2
left_child=-1 2 3 -2 -5 6 9 -8 -7 -4
right_child=1 -3 5 4 -6 8 7 -9 -10 -11
leaf_value=-0.085932662905339061 8.8391280545645472 2.2505496500833453 1.0596235174844959 -32.75187464986054 -132.71502041870426 2.5579660332906471 -42.548487350187706 -156.16914265558711 25.95476889520911 -18.292534804716741
leaf_weight=173935 76 8581 1109 29 20 604 20 21 45 60
leaf_count=173935 76 8581 1109 29 20 604 20 21 45 60
internal_value=0 1.42351 -2.1535 -23.4594 -73.5557 -0.720842 -3.34972 -100.748 4.18036 0.0662941
internal_weight=0 10565 1984 125 49 1859 1210 41 649 1169
internal_count=184500 10565 1984 125 49 1859 1210 41 649 1169
is_linear=0
shrinkage=0.148151


Tree=31
num_leaves=11
num_cat=2
split_feature=5 0 9 9 4 2 4 11 0 11
split_gain=990662 1.89718e+06 1.94496e+06 1.85369e+06 2.04194e+06 1.54143e+06 2.1283e+06 1.95989e+06 728554 1.96779e+06
threshold=2020.5000000000002 0 783.80000000000007 2257.9350000000004 3.5000000000000004 1.0000000180025095e-35 9.5000000000000018 2914650.0000000005 1 1546600.0000000002
decision_type=2 9 2 2 2 2 2 2 9 2
left_child=-1 3 -3 4 -2 6 7 -5 -7 -10
right_child=1 2 -4 5 -6 8 -8 -9 9 -11
leaf_value=-0.15174884442208841 11.565956759913172 0.643906464496242 -37.097036047632685 -47.054860416891827 54.33364199995934 14.14278797401199 26.061550234069877 3.3107321712331821 8.6116777953076067 -33.895421238438026
leaf_weight=154200 69 29664 30 39 38 241 24 30 136 29
leaf_count=154200 69 29664 30 39 38 241 24 30 136 29
internal_value=0 0.77487 0.60557 8.91339 26.7553 5.26605 -11.9379 -25.1561 9.20701 1.0751
internal_weight=0 30300 29694 606 107 499 93 69 406 165
internal_count=184500 30300 29694 606 107 499 93 69 406 165
cat_boundaries=0 2 3
cat_threshold=128 512 128
is_linear=0
shrinkage=0.148151


Tree=32
num_leaves=11
num_cat=0
split_feature=5 10 2 3 11 7 3 11 3 2
split_gain=739341 780789 1.02022e+06 1.53136e+06 3.64527e+06 1.05187e+06 851100 2.22838e+06 1.9534e+06 1.19212e+06
threshold=2016.5000000000002 390.34000000000009 1.0000000180025095e-35 8.5000000000000018 1463019.5000000002 788.3850000000001 46.500000000000007 5613550.0000000009 49.500000000000007 2.5000000000000004
decision_type=2 2 2 2 2 2 2 2 2 2
left_child=-1 -2 3 4 -3 -6 -4 9 -9 -8
right_child=1 2 6 -5 5 -7 7 8 -10 -11
leaf_value=-0.47676033407794571 0.11178183265811638 4.3834958639035539 3.6986523147357091 0.31115774718254019 -14.351799371941988 -51.452821259150419 7.2538314176039966 -69.088116348981913 -3.6066959126552587 -7.8873832850868348
leaf_weight=51400 127811 94 3791 830 25 51 242 20 20 216
leaf_count=51400 127811 94 3791 830 25 51 242 20 20 216
internal_value=0 0.184776 1.9487 -2.31256 -15.1228 -39.2496 2.94224 -2.81577 -36.3496 0.112863
internal_weight=0 133100 5289 1000 170 76 4289 498 40 458
internal_count=184500 133100 5289 1000 170 76 4289 498 40 458
is_linear=0
shrinkage=0.148151


Tree=33
num_leaves=11
num_cat=0
split_feature=5 7 7 11 1 1 1 1 9 11
split_gain=647482 824794 1.55022e+06 1.13457e+06 746497 2.38595e+06 754956 765057 934630 1.48117e+06
threshold=2020.5000000000002 1520.7300000000002 788.3850000000001 5437125.0000000009 19.500000000000004 11.500000000000002 350.50000000000006 299.50000000000006 2257.9350000000004 2242650.0000000005
decision_type=2 2 2 2 2 2 2 2 2 2
left_child=-1 2 -2 4 5 -3 7 8 -6 -10
right_child=1 3 -4 -5 6 -7 -8 -9 9 -11
leaf_value=-0.12261944842286199 0.54906256535655629 20.576303582876509 -35.6416461968902 -28.581702388684146 22.077970180285529 -44.928113158138544 -19.273455457031293 24.328142761954126 -6.653084676493096 12.784944143557098
leaf_weight=154200 29682 26 26 20 81 23 20 71 151 200
leaf_count=154200 29682 26 26 20 81 23 20 71 151 200
internal_value=0 0.626502 0.517386 6.1021 7.31496 -10.1696 8.95322 10.0757 7.73311 4.42255
internal_weight=0 30300 29708 592 572 49 523 503 432 351
internal_count=184500 30300 29708 592 572 49 523 503 432 351
is_linear=0
shrinkage=0.148151


Tree=34
num_leaves=11
num_cat=2
split_feature=0 2 3 0 3 3 3 8 10 3
split_gain=716058 548638 1.57119e+06 2.45702e+06 2.99716e+06 1.95871e+06 4.559e+06 692452 625113 793314
threshold=0 1.0000000180025095e-35 8.5000000000000018 1 6.5000000000000009 4.5000000000000009 2.5000000000000004 7.5150000000000006 693.43000000000018 46.500000000000007
decision_type=9 2 2 9 2 2 2 2 2 2
left_child=1 2 3 4 5 6 -1 -4 -3 -10
right_child=-2 8 7 -5 -6 -7 -8 -9 9 -11
leaf_value=17.42804412084433 -0.16367021792579248 0.60074076957794487 6.3281711138092582 -3.0018233199342697 -65.20541327229212 17.007362479539623 -66.089777002908377 0.0088758148611936868 3.8962730381835269 -3.9653620084287025
leaf_weight=26 140220 32893 403 1342 32 32 32 6845 2355 320
leaf_count=26 140220 32893 403 1342 32 32 32 6845 2355 320
internal_value=0 0.519653 -0.533917 -4.9608 -24.2733 -12.4156 -28.65 0.360247 0.777861 2.95579
internal_weight=0 44280 8712 1464 122 90 58 7248 35568 2675
internal_count=184500 44280 8712 1464 122 90 58 7248 35568 2675
cat_boundaries=0 4 6
cat_threshold=54790290 537920160 544924160 2 128 512
is_linear=0
shrinkage=0.148151


Tree=35
num_leaves=11
num_cat=3
split_feature=0 9 0 0 1 1 8 1 1 11
split_gain=553199 445471 940449 330252 952841 4.10663e+06 1.83336e+06 944393 1.79733e+06 1.11452e+06
threshold=0 17.185000000000006 1 2 187.50000000000003 182.50000000000003 420.21000000000009 244.50000000000003 251.50000000000003 5613550.0000000009
decision_type=9 2 9 9 2 2 2 2 2 2
left_child=3 2 -2 4 5 -1 -6 -8 -9 -10
right_child=1 -3 -4 -5 6 -7 7 8 9 -11
leaf_value=0.6825688544673868 3.1977052453555226 -0.030552936403868886 -0.90967827330708029 0.3110300142142991 49.087183157889662 -60.159785364851054 11.898426144693619 -31.139515913797773 6.4771804492517138 -11.30827291279577
leaf_weight=934 1276 98755 25429 57195 21 25 278 35 459 93
leaf_count=934 1276 98755 25429 57195 21 25 278 35 459 93
internal_value=0 -0.17571 -0.712563 0.374193 2.31998 -0.903499 5.8353 4.78515 1.41623 3.4806
internal_weight=0 125460 26705 59040 1845 959 886 865 587 552
internal_count=184500 125460 26705 59040 1845 959 886 865 587 552
cat_boundaries=0 4 8 9
cat_threshold=55381138 538445440 1652220425 2 2253645 268468257 2281964868 1 128
is_linear=0
shrinkage=0.148151


Tree=36
num_leaves=11
num_cat=3
split_feature=0 8 1 1 1 1 0 8 10 0
split_gain=416673 439161 738856 750580 1.65459e+06 957662 699508 454107 335717 904160
threshold=0 7.5150000000000006 131.50000000000003 45.500000000000007 73.500000000000014 31.500000000000004 1 44.355000000000011 19.345000000000002 2
decision_type=9 2 2 2 2 2 9 2 2 9
left_child=1 2 3 5 -5 -1 -4 -3 9 -2
right_child=8 7 6 4 -6 -7 -8 -9 -10 -11
leaf_value=1.3229403545334213 -0.8216492702691065 -7.6684682765916747 19.006200550835381 -25.221837275896764 4.127311985285524 22.798203368682117 4.0232215579553401 0.45078698604847411 0.0094361719608944856 1.8509186162899225
leaf_weight=369 26699 152 101 70 106 52 228 28442 125189 3092
leaf_count=369 26699 152 101 70 106 52 228 28442 125189 3092
internal_value=0 0.510285 3.6858 0.579062 -7.54536 3.97564 9.32305 0.407624 -0.0969253 -0.543917
internal_weight=0 29520 926 597 176 421 329 28594 154980 29791
internal_count=184500 29520 926 597 176 421 329 28594 154980 29791
cat_boundaries=0 3 5 8
cat_threshold=38013056 537920128 7921664 4196480 1049088 2626715696 3431360772 1434524192
is_linear=0
shrinkage=0.148151


Tree=37
num_leaves=11
num_cat=2
split_feature=5 0 1 1 5 1 5 1 1 0
split_gain=486688 908616 1.2133e+06 1.23109e+06 3.47155e+06 2.14158e+06 727257 647505 591552 581498
threshold=2019.5000000000002 0 187.50000000000003 133.50000000000003 2020.5000000000002 101.50000000000001 2020.5000000000002 45.500000000000007 35.500000000000007 1
decision_type=2 9 2 2 2 2 2 2 2 9
left_child=-1 2 3 5 -5 7 -7 8 -2 -3
right_child=1 9 -4 4 -6 6 -8 -9 -10 -11
leaf_value=-0.15864148287884339 0.78958982385616261 0.99727967884273072 13.876016679481232 -48.674686243388471 15.500985023024052 53.434867366098345 16.138214417338236 -10.554414915222345 29.548575570461171 -0.027502740523107132
leaf_weight=128400 73 17952 256 37 37 22 24 92 20 37587
leaf_count=128400 73 17952 256 37 37 22 24 92 20 37587
internal_value=0 0.364433 6.24439 0.0433537 -16.5862 5.37086 33.9776 -1.74194 6.97514 0.303859
internal_weight=0 56100 561 305 74 231 46 185 93 55539
internal_count=184500 56100 561 305 74 231 46 185 93 55539
cat_boundaries=0 1 5
cat_threshold=128 121997155 1342211720 1148720641 4
is_linear=0
shrinkage=0.148151


Tree=38
num_leaves=11
num_cat=1
split_feature=5 0 11 8 2 1 1 1 1 1
split_gain=413068 838890 1.66743e+06 835916 495899 1.5662e+06 941057 2.04271e+06 915281 1.50034e+06
threshold=2016.5000000000002 0 1575150.0000000002 791.21000000000015 1.0000000180025095e-35 53.500000000000007 325.50000000000006 332.50000000000006 185.50000000000003 178.50000000000003
decision_type=2 9 2 2 2 2 2 2 2 2
left_child=3 2 -2 -1 5 -4 8 -8 9 -6
right_child=1 -3 4 -5 6 -7 7 -9 -10 -11
leaf_value=-0.33907316198936849 38.384962358657894 0.10057178948421855 -31.037288580701851 -21.003792831856362 3.5298553727210669 2.0552913633225245 -51.439631063478579 1.1238965300488719 11.364026058220505 -37.798101534205934
leaf_weight=51357 30 131769 37 43 535 207 20 86 396 20
leaf_count=51357 30 131769 37 43 535 207 20 86 396 20
internal_value=0 0.13811 3.82487 -0.356362 3.05728 -2.96267 4.44699 -8.79345 5.92287 2.0404
internal_weight=0 133100 1331 51400 1301 244 1057 106 951 555
internal_count=184500 133100 1331 51400 1301 244 1057 106 951 555
cat_boundaries=0 1
cat_threshold=128
is_linear=0
shrinkage=0.148151


Tree=39
num_leaves=11
num_cat=1
split_feature=2 1 1 7 8 0 7 1 1 1
split_gain=394458 1.31807e+06 3.2011e+06 6.59821e+06 1.5522e+06 460520 451526 529859 424394 5.70727e+06
threshold=1.0000000180025095e-35 21.500000000000004 15.500000000000002 475.37500000000006 136.37500000000003 0 7.495000000000001 19.500000000000004 251.50000000000003 244.50000000000003
decision_type=2 2 2 2 2 9 2 2 2 2
left_child=1 2 -1 4 -4 6 7 -2 9 -3
right_child=5 8 3 -5 -6 -7 -8 -9 -10 -11
leaf_value=-0.091518919984836494 -3.4489474246718581 -0.16084282369362463 -6.9577173043549507 -96.093559999247219 -27.65227467097586 0.041486497350125821 0.98671159959873833 13.578785352424056 0.53669815799489629 -13.747417957566418
leaf_weight=1500 58 22200 588 20 92 139308 8704 130 11200 700
leaf_count=1500 58 22200 588 20 92 139308 8704 130 11200 700
internal_value=0 -0.437397 -3.95208 -12.2246 -9.75768 0.107513 1.14059 8.32523 -0.210642 -0.576156
internal_weight=0 36300 2200 700 680 148200 8892 188 34100 22900
internal_count=184500 36300 2200 700 680 148200 8892 188 34100 22900
cat_boundaries=0 3
cat_threshold=262272 1049216 16384
is_linear=0
shrinkage=0.148151


Tree=40
num_leaves=11
num_cat=2
split_feature=5 0 7 1 1 0 1 1 1 2
split_gain=346362 710382 1.62005e+06 613015 1.10977e+06 599617 2.19345e+06 5.61903e+06 513029 2.4439e+06
threshold=2020.5000000000002 0 35.345000000000006 45.500000000000007 213.50000000000003 1 185.50000000000003 213.50000000000003 357.50000000000006 3.5000000000000004
decision_type=2 9 2 2 2 9 2 2 2 2
left_child=-1 2 3 -2 -5 6 -3 -8 -4 -10
right_child=1 5 8 4 -6 -7 7 -9 9 -11
leaf_value=-0.089722571697911105 41.081720892629718 4.4540960083296026 2.101132662345973 -9.5442110944124803 29.968710641088482 0.25766760131788852 -93.246794395263095 -7.8792257838018154 8.5047746553211301 -47.123445869326261
leaf_weight=154200 26 173 3770 26 39 26058 20 110 52 26
leaf_count=154200 26 173 3770 26 39 26058 20 110 52 26
internal_value=0 0.45818 2.31125 21.8548 14.1627 0.180337 -6.26567 -21.0136 1.85506 -10.0374
internal_weight=0 30300 3939 91 65 26361 303 130 3848 78
internal_count=184500 30300 3939 91 65 26361 303 130 3848 78
cat_boundaries=0 3 5
cat_threshold=295394 268435968 68682752 0 1048576
is_linear=0
shrinkage=0.148151


Tree=41
num_leaves=11
num_cat=3
split_feature=2 4 0 8 9 8 0 0 5 5
split_gain=291641 856126 1.37555e+06 576533 380081 379968 327344 257269 1.38495e+06 237632
threshold=1.0000000180025095e-35 2.5000000000000004 0 292.9550000000001 155.66500000000002 2305.1000000000008 1 2 2018.5000000000002 2019.5000000000002
decision_type=2 2 9 2 2 2 9 9 2 2
left_child=1 2 3 -1 7 -5 -4 8 -2 -6
right_child=4 -3 6 5 9 -7 -8 -9 -10 -11
leaf_value=-38.346685174646332 -1.6463077616737998 -0.036966850831030476 -3.0923302918358146 -8.3869687392844003 0.20769226228456159 -29.853096557236416 -0.84142987320199913 -0.0091369900430330279 35.983101446856679 1.2201012014274244
leaf_weight=24 92 29700 2112 85 10772 23 4356 127663 28 9645
leaf_count=24 92 29700 2112 85 10772 23 4356 127663 28 9645
internal_value=0 -0.376135 -1.90238 -16.338 0.0924068 -12.9592 -1.58007 -0.00242956 6.58481 0.685958
internal_weight=0 36300 6600 132 148200 108 6468 127783 120 20417
internal_count=184500 36300 6600 132 148200 108 6468 127783 120 20417
cat_boundaries=0 2 6 9
cat_threshold=128 512 55005018 805831808 1081869893 4 128 268435968 1024
is_linear=0
shrinkage=0.148151


Tree=42
num_leaves=11
num_cat=0
split_feature=5 10 1 5 1 1 1 1 2 2
split_gain=264577 203647 410524 1.1994e+06 364696 1.46976e+06 469004 866722 2.04956e+06 4.80975e+06
threshold=2017.5000000000002 539.67500000000007 49.500000000000007 2021.5000000000002 357.50000000000006 361.50000000000006 339.50000000000006 328.50000000000006 2.5000000000000004 3.5000000000000004
decision_type=2 2 2 2 2 2 2 2 2 2
left_child=-1 -2 -3 4 6 -6 7 -4 -9 -10
right_child=1 2 3 -5 5 -7 -8 8 9 -11
leaf_value=-0.20946633230407888 0.11391004956234194 5.2050462593139368 1.2692959124178587 -28.865418989285988 -39.021773401631037 7.8069393518412546 9.1960302473639235 4.3091226101911584 -83.585777719600756 15.750011736571114
leaf_weight=77000 104181 500 2468 30 24 38 151 65 23 20
leaf_count=77000 104181 500 2468 30 24 38 151 65 23 20
internal_value=0 0.150306 1.29274 0.598795 0.915757 -10.3196 1.17122 0.700799 -12.2898 -37.3822
internal_weight=0 107500 3319 2819 2789 62 2727 2576 108 43
internal_count=184500 107500 3319 2819 2789 62 2727 2576 108 43
is_linear=0
shrinkage=0.148151


Tree=43
num_leaves=11
num_cat=1
split_feature=0 2 1 1 8 8 8 1 1 8
split_gain=264988 214738 834144 2.4867e+06 5.28711e+06 849769 616397 286449 2.71517e+06 3.22877e+06
threshold=0 1.0000000180025095e-35 21.500000000000004 13.500000000000002 604.8850000000001 146.80500000000004 699.15500000000009 45.500000000000007 53.500000000000007 420.21000000000009
decision_type=9 2 2 2 2 2 2 2 2 2
left_child=-1 2 3 6 5 -5 -2 -4 9 -9
right_child=1 -3 7 4 -6 -7 -8 8 -10 -11
leaf_value=-0.32468469396977312 0.71447795144498172 0.18732643880094768 1.6034553146508597 -5.9664392389410059 -85.343340095673355 -21.361795364254139 25.789650450455156 -7.2584964247180288 0.075971172184455454 -66.158249894297555
leaf_weight=42435 979 114114 2079 582 20 91 22 749 23408 21
leaf_count=42435 979 114114 2079 582 20 91 22 749 23408 21
internal_value=0 0.0971738 -0.27085 -3.45718 -10.2791 -8.04824 1.26566 -0.0652782 -0.208771 -8.86499
internal_weight=0 142065 27951 1694 693 673 1001 26257 24178 770
internal_count=184500 142065 27951 1694 693 673 1001 26257 24178 770
cat_boundaries=0 4
cat_threshold=471892289 2376343560 209716256 1
is_linear=0
shrinkage=0.148151


Tree=44
num_leaves=11
num_cat=2
split_feature=0 5 0 10 4 4 8 4 4 4
split_gain=218721 252439 604778 1.32929e+06 560075 746166 554870 941993 891518 380808
threshold=0 2018.5000000000002 1 1525.1250000000002 3.5000000000000004 4.5000000000000009 1541.5600000000002 5.5000000000000009 10.500000000000002 7.5000000000000009
decision_type=9 2 9 2 2 2 2 2 2 2
left_child=-1 6 3 -3 -5 -6 -2 -8 9 -9
right_child=1 2 -4 4 5 -7 7 8 -10 -11
leaf_value=-0.63805158613707147 -0.10380563554532639 36.600330324375072 0.19775400905486293 -3.2396549999766786 20.808446798171893 3.7199621529926956 -36.479638747985049 -8.0659013535773401 -23.69981367383307 9.9606660651602219
leaf_weight=11070 96370 27 76074 217 63 511 23 43 38 64
leaf_count=11070 96370 27 76074 217 63 511 23 43 38 64
internal_value=0 0.0408797 0.241158 4.22359 3.17173 5.59566 -0.118636 -8.62542 -4.2066 2.71577
internal_weight=0 173430 76892 818 791 574 96538 168 145 107
internal_count=184500 173430 76892 818 791 574 96538 168 145 107
cat_boundaries=0 3 4
cat_threshold=0 2290360320 32 128
is_linear=0
shrinkage=0.148151


Tree=45
num_leaves=11
num_cat=2
split_feature=0 11 5 0 1 1 5 7 1 1
split_gain=195174 291556 526135 512424 762059 339498 260632 256723 203050 1.26696e+06
threshold=0 1.0000000180025095e-35 2020.5000000000002 1 77.500000000000014 41.500000000000007 2017.5000000000002 19.835000000000004 73.500000000000014 45.500000000000007
decision_type=9 2 2 9 2 2 2 2 2 2
left_child=1 2 3 4 5 -1 -6 -3 9 -4
right_child=-2 7 8 -5 6 -7 -8 -9 -10 -11
leaf_value=-12.245302036534023 -0.10443673051204504 -5.9462473965511817 13.954335147000046 1.620178463822328 -5.5420087323605909 -35.701095271635616 18.373587070144012 0.17056678218061563 12.520978804526129 -22.57830392554413
leaf_weight=42 125460 151 74 2082 20 20 20 56475 127 29
leaf_count=42 125460 151 74 2082 20 20 20 56475 127 29
internal_value=0 0.222193 1.81676 1.10695 -8.67654 -19.813 6.41439 0.154254 8.55657 3.66778
internal_weight=0 59040 2414 2184 102 62 40 56626 230 103
internal_count=184500 59040 2414 2184 102 62 40 56626 230 103
cat_boundaries=0 4 6
cat_threshold=38684824 538509985 578478090 6 128 512
is_linear=0
shrinkage=0.148151


Tree=46
num_leaves=11
num_cat=2
split_feature=5 0 0 8 5 5 1 1 1 1
split_gain=185883 511939 283470 585267 263770 458535 374664 679161 394935 366153
threshold=2015.5000000000002 0 1 477.87500000000006 2021.5000000000002 2020.5000000000002 210.50000000000003 164.50000000000003 249.50000000000003 328.50000000000006
decision_type=2 9 9 2 2 2 2 2 2 2
left_child=1 -1 3 -2 5 -5 7 -7 -8 -10
right_child=2 -3 -4 4 -6 6 8 -9 9 -11
leaf_value=-3.5927252074128826 21.55960458810134 -0.23370224775386469 0.039950359886189148 0.79034718940108728 -9.8199260417972472 7.0102109476829826 -14.813597336600708 30.942991227545352 12.886842429445615 -8.386559311069945
leaf_weight=1028 33 24672 157212 1259 43 111 26 34 56 26
leaf_count=1028 33 24672 157212 1259 43 111 26 34 56 26
internal_value=0 -0.369554 0.0599127 2.02315 1.62152 1.94694 7.70225 12.6226 1.09565 6.14087
internal_weight=0 25700 158800 1588 1555 1512 253 145 108 82
internal_count=184500 25700 158800 1588 1555 1512 253 145 108 82
cat_boundaries=0 3 4
cat_threshold=128 256 8389120 128
is_linear=0
shrinkage=0.148151


Tree=47
num_leaves=11
num_cat=3
split_feature=5 0 7 0 1 1 7 0 7 1
split_gain=163575 478676 783456 377303 1.48783e+06 4.20294e+06 331837 262030 1.30844e+06 313857
threshold=2020.5000000000002 0 35.345000000000006 1 185.50000000000003 213.50000000000003 694.4000000000002 2 358.20500000000004 358.50000000000006
decision_type=2 9 2 9 2 2 2 9 2 2
left_child=7 2 -2 4 6 -6 -3 8 -1 -10
right_child=1 3 -4 -5 5 -7 -8 -9 9 -11
leaf_value=24.519390521051925 10.333569490346854 -6.5156747895033851 1.021642829884831 0.013505380420080685 -79.786212414938433 -5.9550956891216176 7.7975138084943634 -0.081253213873246438 1.3246905130330686 -15.415827195050714
leaf_weight=54 203 50 8584 21210 20 110 123 152658 1463 25
leaf_count=54 203 50 8584 21210 20 110 123 152658 1463 25
internal_value=0 0.314738 1.23537 -0.0618385 -5.16802 -17.3146 3.6604 -0.06179 1.85353 1.04338
internal_weight=0 30300 8787 21513 303 130 173 154200 1542 1488
internal_count=184500 30300 8787 21513 303 130 173 154200 1542 1488
cat_boundaries=0 4 6 8
cat_threshold=75859947 1342211592 1175979265 4 0 1048576 0 1048576
is_linear=0
shrinkage=0.148151


Tree=48
num_leaves=11
num_cat=0
split_feature=2 1 10 1 10 11 10 1 1 10
split_gain=173074 629834 1.90261e+06 1.14392e+06 867074 513613 294123 258733 4.17953e+06 1.36613e+07
threshold=1.0000000180025095e-35 21.500000000000004 1085.5150000000001 13.500000000000002 92.375000000000014 304707.00000000006 190.19000000000003 251.50000000000003 244.50000000000003 475.08500000000009
decision_type=2 2 2 2 2 2 2 2 2 2
left_child=1 2 3 -1 -5 -6 -7 8 -3 -10
right_child=-2 7 -4 4 5 6 -8 -9 9 -11
leaf_value=0.5551258234822205 0.071053905200764517 -0.063130219138740964 -45.105889888226123 -3.5452901237499836 8.1670041797101103 -12.40235085588214 -24.091676116113621 0.45038284301957959 -8.0499694068857313 -129.37418478239746
leaf_weight=1286 148200 22200 23 651 21 150 69 11200 679 21
leaf_count=1286 148200 22200 23 651 21 150 69 11200 679 21
internal_value=0 -0.28989 -2.71946 -2.2716 -6.35155 -13.9633 -16.0856 -0.133142 -0.418537 -11.6899
internal_weight=0 36300 2200 2177 891 240 219 34100 22900 700
internal_count=184500 36300 2200 2177 891 240 219 34100 22900 700
is_linear=0
shrinkage=0.148151


Tree=49
num_leaves=11
num_cat=4
split_feature=7 0 0 0 7 0 8 5 1 3
split_gain=159582 695324 347463 338717 335586 386505 213221 1.39794e+06 572945 836244
threshold=36.255000000000003 0 1 2 6.7650000000000006 3 1095.5150000000001 2018.5000000000002 288.50000000000006 46.500000000000007
decision_type=2 9 9 9 2 9 2 2 2 2
left_child=1 4 -3 -2 5 -1 -5 -8 -9 -10
right_child=3 2 -4 6 -6 -7 7 8 9 -11
leaf_value=8.6318830375831066 0.77744686373209715 -0.90801148080512495 -0.080068739439639033 0.027851344427936846 -4.0754905341106049 2.2347086467007866 -15.164352440888088 -1.7649866246991941 20.076960799638094 -1.3968239207081643
leaf_weight=235 14228 14728 45417 107268 154 1566 153 590 72 89
leaf_count=235 14228 14728 45417 107268 154 1566 153 590 72 89
internal_value=0 -0.193405 -0.282929 0.0981742 2.54916 3.1298 0.00875538 -2.25699 0.372533 8.20603
internal_weight=0 62100 60145 122400 1955 1801 108172 904 751 161
internal_count=184500 62100 60145 122400 1955 1801 108172 904 751 161
cat_boundaries=0 3 6 9 12
cat_threshold=38154055 806913024 572294477 142639280 2147754240 92275232 746619008 1074856324 343937570 256 269484032 1024
is_linear=0
shrinkage=0.148151


Tree=50
num_leaves=11
num_cat=0
split_feature=2 3 3 7 7 3 7 3 7 7
split_gain=130984 504043 1.21777e+06 2.66216e+06 420297 276286 870464 567801 2.347e+06 453881
threshold=1.0000000180025095e-35 8.5000000000000018 7.5000000000000009 418.23500000000007 157.32500000000002 4.5000000000000009 788.3850000000001 2.5000000000000004 788.3850000000001 694.4000000000002
decision_type=2 2 2 2 2 2 2 2 2 2
left_child=1 2 5 4 -4 7 -7 9 -9 -1
right_child=-2 -3 3 -5 -6 6 -8 8 -10 -11
leaf_value=0.27977961660747824 0.06189286323384996 -0.0039969700073529462 -4.4801584935517118 -60.238957670144245 -17.10172665963988 0.21330309583663604 27.468705888494291 -2.8388542423452976 -51.563644733391172 20.843926227098006
leaf_weight=1276 148200 30200 717 20 63 2374 26 1578 22 24
leaf_count=1276 148200 30200 717 20 63 2374 26 1578 22 24
internal_value=0 -0.25211 -1.48046 -6.86829 -5.49968 -0.667191 0.508603 -1.64028 -3.50888 0.659483
internal_weight=0 36300 6100 800 780 5300 2400 2900 1600 1300
internal_count=184500 36300 6100 800 780 5300 2400 2900 1600 1300
is_linear=0
shrinkage=0.148151


Tree=51
num_leaves=11
num_cat=4
split_feature=0 1 8 0 1 0 8 0 8 1
split_gain=134696 109040 235699 469093 159702 762128 1.50145e+06 536425 301902 754789
threshold=0 101.50000000000001 7.5150000000000006 1 45.500000000000007 2 292.9550000000001 3 7.5150000000000006 19.500000000000004
decision_type=9 2 2 9 2 9 2 9 2 2
left_child=1 4 3 -3 7 6 -6 8 9 -1
right_child=-2 2 -4 -5 5 -7 -8 -9 -10 -11
leaf_value=-5.6608983707203349 -0.08673923756004874 11.636924389707799 0.26625407726258488 1.296739225618897 -42.086106509453138 -0.1970924828157376 -4.2365067816689903 0.039616977527990094 3.7023792294149969 27.152173616332387
leaf_weight=25 125460 105 41073 646 24 8670 554 7470 433 40
leaf_count=25 125460 105 41073 646 24 8670 554 7470 433 40
internal_value=0 0.184606 0.313812 2.91475 -0.129173 -0.548011 -5.70949 0.356941 5.01517 14.5309
internal_weight=0 59040 41824 751 17216 9248 578 7968 498 65
internal_count=184500 59040 41824 751 17216 9248 578 7968 498 65
cat_boundaries=0 4 7 9 11
cat_threshold=1111771288 538510001 1082061320 2 4196480 1048576 524288 128 512 0 1049088
is_linear=0
shrinkage=0.148151


Tree=52
num_leaves=11
num_cat=2
split_feature=5 0 0 7 1 2 1 5 2 1
split_gain=136930 364830 229027 460921 251879 1.45278e+06 1.86405e+06 915375 385801 291150
threshold=2015.5000000000002 0 1 475.37500000000006 325.50000000000006 2.5000000000000004 337.50000000000006 2019.5000000000002 3.5000000000000004 187.50000000000003
decision_type=2 9 9 2 2 2 2 2 2 2
left_child=1 -1 3 -2 9 7 -7 -6 -8 -5
right_child=2 -3 -4 4 5 6 8 -9 -10 -11
leaf_value=-3.4702505179299794 19.153654922170002 -0.21807095318048841 0.033585898420378228 0.29645456059947012 -3.6456883365083339 -57.695004329800312 11.255373525623183 25.967603560017068 -17.173886960130819 4.6425029257234787
leaf_weight=771 33 24929 157212 814 63 21 20 36 22 579
leaf_count=771 33 24929 157212 814 63 21 20 36 22 579
internal_value=0 -0.317074 0.0515289 1.8162 1.4599 -4.06904 -21.6562 7.12228 -3.63474 2.10293
internal_weight=0 25700 158800 1588 1555 162 63 99 42 1393
internal_count=184500 25700 158800 1588 1555 162 63 99 42 1393
cat_boundaries=0 3 4
cat_threshold=128 256 512 128
is_linear=0
shrinkage=0.148151


Tree=53
num_leaves=11
num_cat=1
split_feature=5 0 11 9 8 11 5 11 6 11
split_gain=114200 392433 1.08384e+06 630110 285364 625162 360201 379161 367401 362931
threshold=2020.5000000000002 0 609037.50000000012 783.80000000000007 1541.5600000000002 2006350.0000000002 2018.5000000000002 5168350.0000000009 2.5000000000000004 3709150.0000000005
decision_type=2 9 2 2 2 2 2 2 2 2
left_child=4 2 -2 -3 -1 -6 7 8 -7 -8
right_child=1 3 -4 -5 5 6 9 -9 -10 -11
leaf_value=-0.037658773996701679 35.064656487660052 0.19064059439456263 2.489583769841293 -21.291003075972451 -18.16439364939696 -15.167583871504863 -4.3351585914861257 -16.42860878013261 3.9943430597372944 3.6877914727163135
leaf_weight=153472 23 29361 886 30 55 32 217 66 70 288
leaf_count=153472 23 29361 886 30 55 32 217 66 70 288
internal_value=0 0.263069 3.27785 0.168654 -0.0515399 -2.97778 -1.73657 -7.67893 -2.01671 0.240185
internal_weight=0 30300 909 29391 154200 728 673 168 102 505
internal_count=184500 30300 909 29391 154200 728 673 168 102 505
cat_boundaries=0 2
cat_threshold=32896 512
is_linear=0
shrinkage=0.148151


Tree=54
num_leaves=11
num_cat=0
split_feature=9 11 4 2 7 7 11 4 11 4
split_gain=112098 295712 221978 319233 730057 703907 330005 213743 1.32815e+06 2.27112e+06
threshold=688.7700000000001 10370650.000000002 11.500000000000002 3.5000000000000004 1520.7300000000002 2293.4600000000005 5259350.0000000009 6.5000000000000009 623862.50000000012 7.5000000000000009
decision_type=2 2 2 2 2 2 2 2 2 2
left_child=-1 2 7 5 -5 6 -4 -2 9 -9
right_child=1 -3 3 4 -6 -7 -8 8 -10 -11
leaf_value=-0.015475498235185585 1.5358768924028481 15.257260891679385 4.9897133353777692 7.8532207644539085 -26.401423521216344 22.310398066749006 -15.230506740116503 -60.15110182582125 0.10332676579784875 -3.6797370482362846
leaf_weight=181200 1565 31 155 36 22 52 20 22 1343 54
leaf_count=181200 1565 31 155 36 22 52 20 22 1343 54
internal_value=0 0.855819 0.719228 4.66952 -5.13904 7.17595 2.67843 0.341917 -0.974846 -20.0279
internal_weight=0 3300 3269 285 58 227 175 2984 1419 76
internal_count=184500 3300 3269 285 58 227 175 2984 1419 76
is_linear=0
shrinkage=0.148151


Tree=55
num_leaves=11
num_cat=5
split_feature=0 7 0 0 0 1 7 0 1 1
split_gain=111998 115910 207746 182449 113630 101987 205507 412203 152013 148182
threshold=0 35.345000000000006 1 2 3 101.50000000000001 7.495000000000001 4 185.50000000000003 325.50000000000006
decision_type=9 2 9 9 9 2 2 9 2 2
left_child=1 3 -3 -1 -5 -2 7 -7 -9 -8
right_child=5 2 -4 4 -6 6 9 8 -10 -11
leaf_value=2.9495139121807097 -0.12891327650044201 0.92261461479391937 -0.13537967864294675 -1.2377069351793297 -0.31217422916348175 5.7373937688642513 0.21326056926765424 -3.1019797239745781 1.1545596020077069 -0.33157419996260634
leaf_weight=348 36584 4868 24692 3276 25856 420 74253 220 1130 12853
leaf_count=348 36584 4868 24692 3276 25856 420 74253 220 1130 12853
internal_value=0 -0.168154 0.0391172 -0.376047 -0.416645 0.0792746 0.164981 1.74537 0.457467 0.132866
internal_weight=0 59040 29560 29480 29132 125460 88876 1770 1350 87106
internal_count=184500 59040 29560 29480 29132 125460 88876 1770 1350 87106
cat_boundaries=0 4 7 10 13 17
cat_threshold=480280897 3450138634 226493856 1 209747968 1073741824 75497504 321 32768 1280 134217728 0 92274688 21187202 806879744 4980741 4
is_linear=0
shrinkage=0.148151


Tree=56
num_leaves=11
num_cat=1
split_feature=2 9 1 1 1 1 1 0 9 1
split_gain=100746 427089 1.54442e+06 2.15115e+06 920260 324555 932370 574087 765763 435673
threshold=1.0000000180025095e-35 2257.9350000000004 254.50000000000003 185.50000000000003 57.500000000000007 53.500000000000007 45.500000000000007 0 274.24500000000006 21.500000000000004
decision_type=2 2 2 2 2 2 2 9 2 2
left_child=1 5 3 4 -3 6 9 -8 -9 -1
right_child=-2 2 -4 -5 -6 -7 7 8 -10 -11
leaf_value=-1.9065662205405074 0.054323538263409764 -27.050695830108332 13.005188765127158 -54.373029273589751 13.384840862121193 0.0041659785283834462 0.20916147879626182 -6.7857923017340696 -33.717296752087464 0.90730276400462662
leaf_weight=2191 148200 21 45 28 30 30297 300 673 24 2691
leaf_count=2191 148200 21 45 28 30 30297 300 673 24 2691
internal_value=0 -0.22106 -8.90083 -21.3797 -3.26404 -0.191306 -1.19867 -5.32722 -7.60415 -0.355525
internal_weight=0 36300 124 79 51 36176 5879 997 697 4882
internal_count=184500 36300 124 79 51 36176 5879 997 697 4882
cat_boundaries=0 3
cat_threshold=4027613184 2358732884 268654770
is_linear=0
shrinkage=0.148151


Tree=57
num_leaves=11
num_cat=2
split_feature=5 10 0 0 11 10 5 1 11 1
split_gain=96561.6 595023 291026 265562 570246 351022 1.15042e+06 692571 422991 651524
threshold=2016.5000000000002 786.92500000000007 0 1 1758350.0000000002 1525.1250000000002 2017.5000000000002 51.500000000000007 5437125.0000000009 318.50000000000006
decision_type=2 2 9 9 2 2 2 2 2 2
left_child=1 2 -1 4 -2 6 -6 -8 -7 -10
right_child=3 -3 -4 -5 5 8 7 -9 9 -11
leaf_value=-0.86407375550803889 21.389152062368154 -18.234441985824734 0.017923207918159802 0.045607896514928907 0.5674745723546355 1.8289671740588733 6.3545207825567172 32.24480608017317 -1.6976392841000258 -23.002083350358188
leaf_weight=10251 33 40 41109 131769 251 753 43 48 164 39
leaf_count=10251 33 40 41109 131769 251 753 43 48 164 39
internal_value=0 -0.172348 -0.158279 0.066727 2.14104 1.66812 5.74145 20.0117 0.210859 -5.79097
internal_weight=0 51400 51360 133100 1331 1298 342 91 956 203
internal_count=184500 51400 51360 133100 1331 1298 342 91 956 203
cat_boundaries=0 3 4
cat_threshold=46727651 268468480 79168000 128
is_linear=0
shrinkage=0.148151


Tree=58
num_leaves=11
num_cat=4
split_feature=0 5 7 0 0 3 2 3 0 3
split_gain=87920.1 94261.6 366246 681024 276425 243803 594378 243252 222558 191598
threshold=0 2017.5000000000002 6.7650000000000006 1 2 10.500000000000002 1.0000000180025095e-35 7.5000000000000009 3 35.500000000000007
decision_type=9 2 2 9 9 2 2 2 9 2
left_child=-1 4 3 5 -2 6 7 -3 9 -4
right_child=1 2 8 -5 -6 -7 -8 -9 -10 -11
leaf_value=-0.29072601060920267 -1.686104702347121 0.57265611992842513 1.5243023629592212 0.89419492176443549 -0.040856438498281543 11.526840942103675 14.138719335263803 -17.803206697167649 0.025884878234814012 -0.24203743796482585
leaf_weight=20295 2310 43 4142 1872 66220 204 59 25 87332 1998
leaf_count=20295 2310 43 4142 1872 66220 204 59 25 87332 1998
internal_value=0 0.0360586 0.13106 2.01916 -0.0965671 8.10928 3.25767 -6.1824 0.0865597 0.947969
internal_weight=0 164205 95675 2203 68530 331 127 68 93472 6140
internal_count=184500 164205 95675 2203 68530 331 127 68 93472 6140
cat_boundaries=0 3 6 9 12
cat_threshold=134250752 2357469184 134217760 38078594 269484160 8913408 128 0 75497472 262272 512 75497984
is_linear=0
shrinkage=0.148151


Tree=59
num_leaves=11
num_cat=0
split_feature=1 1 7 7 7 1 1 1 11 1
split_gain=82837.8 2.17836e+06 7.24312e+06 778651 276917 541132 585391 1.31616e+06 307497 475907
threshold=187.50000000000003 183.50000000000003 694.4000000000002 137.34500000000003 2293.4600000000005 355.50000000000006 331.50000000000006 321.50000000000006 3311050.0000000005 299.50000000000006
decision_type=2 2 2 2 2 2 2 2 2 2
left_child=1 -1 3 -3 -2 6 7 8 9 -6
right_child=4 2 -4 -5 5 -7 -8 -9 -10 -11
leaf_value=0.0050430071701604304 0.086277629278817172 -2.5578032048570059 -70.88178658787524 -11.228543535188301 -1.9555429382974989 -18.984613235465051 20.346822142169174 -31.851729842062721 11.753871909875725 18.35767944587338
leaf_weight=94000 88225 1599 36 265 138 21 50 22 113 31
leaf_count=94000 88225 1599 36 265 138 21 50 22 113 31
internal_value=0 -0.0953422 -5.0618 -3.79054 0.103354 4.12072 5.49159 3.04805 5.77102 1.77025
internal_weight=0 95900 1900 1864 88600 375 354 304 282 169
internal_count=184500 95900 1900 1864 88600 375 354 304 282 169
is_linear=0
shrinkage=0.148151


Tree=60
num_leaves=11
num_cat=0
split_feature=10 5 1 5 7 10 5 1 1 7
split_gain=73794.9 100498 119020 144320 218710 386099 465776 302935 391726 232948
threshold=36.315000000000005 2015.5000000000002 95.500000000000014 2019.5000000000002 1085.7900000000002 693.43000000000018 2017.5000000000002 111.50000000000001 137.50000000000003 1520.7300000000002
decision_type=2 2 2 2 2 2 2 2 2 2
left_child=-1 -2 -3 4 5 -4 -7 -6 -9 -10
right_child=1 2 3 -5 7 6 -8 8 9 -11
leaf_value=-0.13134537606496968 -0.30301193881604244 -0.13720797206412089 0.048378214845032158 0.48366679651595962 -15.240854616267137 2.1512765134428684 14.048476205936963 9.6069466905536736 -6.0131490567847941 -0.12125913720527559
leaf_weight=62183 14245 29653 49345 27637 39 667 81 60 284 306
leaf_count=62183 14245 29653 49345 27637 39 667 81 60 284 306
internal_value=0 0.0668692 0.115624 0.211229 0.0629601 0.0990195 3.4397 -2.55861 -1.79757 -2.95746
internal_weight=0 122317 108072 78419 50782 50093 748 689 650 590
internal_count=184500 122317 108072 78419 50782 50093 748 689 650 590
is_linear=0
shrinkage=0.148151


Tree=61
num_leaves=11
num_cat=0
split_feature=2 8 1 1 1 1 1 7 1 1
split_gain=76038 354272 1.08387e+06 1.53415e+06 669775 223687 663845 354805 333844 313326
threshold=1.0000000180025095e-35 2305.1000000000008 254.50000000000003 185.50000000000003 57.500000000000007 53.500000000000007 45.500000000000007 157.32500000000002 51.500000000000007 21.500000000000004
decision_type=2 2 2 2 2 2 2 2 2 2
left_child=1 5 3 4 -3 6 9 -8 -9 -1
right_child=-2 2 -4 -5 -6 -7 7 8 -10 -11
leaf_value=-1.6052227214407451 0.047125050728809841 -23.545487344681479 10.253861520542573 -46.414260596836399 10.9506745646396 -0.0027375163293534193 -3.6482352402593112 -25.946311063584883 -6.4494060269621354 0.7810589733847777
leaf_weight=2191 148200 21 45 28 30 30297 915 31 51 2691
leaf_count=2191 148200 21 45 28 30 30297 915 31 51 2691
internal_value=0 -0.192118 -8.09741 -18.5514 -3.25257 -0.16502 -1.00132 -4.48499 -13.8211 -0.289872
internal_weight=0 36300 124 79 51 36176 5879 997 82 4882
internal_count=184500 36300 124 79 51 36176 5879 997 82 4882
is_linear=0
shrinkage=0.148151


Tree=62
num_leaves=11
num_cat=3
split_feature=0 5 0 1 7 0 1 1 5 5
split_gain=72099.2 65693.5 182477 211888 128581 285052 275207 966920 393769 128375
threshold=0 2015.5000000000002 1 29.500000000000004 6.7650000000000006 2 45.500000000000007 73.500000000000014 2019.5000000000002 2021.5000000000002
decision_type=9 2 9 2 2 9 2 2 2 2
left_child=1 2 3 -1 5 6 -3 -8 -9 -7
right_child=-2 4 -4 -5 -6 9 7 8 -10 -11
leaf_value=-13.340356211159069 -0.063485046799361733 16.87772062900801 -0.071156358834579297 -2.1115734939065036 0.16149826125757413 0.059821389212429396 -21.653769687062134 3.0553388337330696 17.516307763677894 7.7775188940969491
leaf_weight=40 125460 44 7710 474 49630 878 28 124 62 50
leaf_count=40 125460 44 7710 474 49630 878 28 124 62 50
internal_value=0 0.135038 -0.2534 -2.92857 0.19793 1.72241 5.97483 4.01198 7.87603 0.470645
internal_weight=0 59040 8224 514 50816 1186 258 214 186 928
internal_count=184500 59040 8224 514 50816 1186 258 214 186 928
cat_boundaries=0 4 6 9
cat_threshold=3259829396 537985940 578478081 2 128 256 38013056 1048576 1572864
is_linear=0
shrinkage=0.148151


Tree=63
num_leaves=11
num_cat=0
split_feature=9 1 1 11 1 1 9 3 1 1
split_gain=65485.1 289105 653957 730969 289700 618577 786022 551699 3.50904e+06 2.07398e+06
threshold=688.7700000000001 49.500000000000007 53.500000000000007 2006350.0000000002 103.50000000000001 131.50000000000003 1505.4400000000003 27.500000000000004 183.50000000000003 187.50000000000003
decision_type=2 2 2 2 2 2 2 2 2 2
left_child=-1 -2 3 -3 -4 6 -6 8 -7 -10
right_child=1 2 4 -5 5 7 -8 -9 9 -11
leaf_value=-0.011872887963273486 4.1083189415841721 1.3129094063247935 -3.2571202211187607 -38.738529518806956 1.8186663768925151 0.37752608829498147 19.697466309931571 1.5322276988936094 -60.225393411987767 -3.2696425567849539
leaf_weight=181200 458 20 413 20 151 455 84 1640 36 23
leaf_count=181200 458 20 413 20 151 455 84 1640 36 23
internal_value=0 0.65407 0.0973814 -18.7116 0.365916 0.992277 8.20968 0.204832 -4.03032 -38.0236
internal_weight=0 3300 2842 40 2802 2389 235 2154 514 59
internal_count=184500 3300 2842 40 2802 2389 235 2154 514 59
is_linear=0
shrinkage=0.148151


Tree=64
num_leaves=11
num_cat=0
split_feature=2 8 1 11 1 1 1 5 7 5
split_gain=56292.2 259290 764510 1.17882e+06 2.37981e+06 161067 448829 362582 301227 416030
threshold=1.0000000180025095e-35 2305.1000000000008 254.50000000000003 3204607.0000000005 173.50000000000003 53.500000000000007 45.500000000000007 2016.5000000000002 157.32500000000002 2018.5000000000002
decision_type=2 2 2 2 2 2 2 2 2 2
left_child=1 5 3 4 -3 6 -1 -8 -9 -10
right_child=-2 2 -4 -5 -6 -7 7 8 9 -11
leaf_value=-0.26678974409835099 0.040532956723441642 0.23124503208833155 8.4838459069450725 4.0689856124064079 -69.641884417846896 -0.0044258091693645052 0.58996785171397159 -4.5162293074077686 -29.612309791451203 -6.2545017500167042
leaf_weight=4882 148200 23 45 36 20 30297 300 624 26 47
leaf_count=4882 148200 23 45 36 20 30297 300 624 26 47
internal_value=0 -0.165316 -6.92836 -15.7082 -32.2671 -0.142132 -0.851783 -3.71625 -5.5698 -14.5748
internal_weight=0 36300 124 79 43 36176 5879 997 697 73
internal_count=184500 36300 124 79 43 36176 5879 997 697 73
is_linear=0
shrinkage=0.148151


Tree=65
num_leaves=11
num_cat=2
split_feature=0 1 1 9 2 2 10 9 9 0
split_gain=58909.7 54918.3 812907 2.22076e+06 1.38991e+06 2.39811e+06 3.65417e+06 634490 584542 371906
threshold=0 325.50000000000006 332.50000000000006 1505.4400000000003 2.5000000000000004 3.5000000000000004 217.98000000000005 89.765000000000015 415.93500000000006 1
decision_type=9 2 2 2 2 2 2 2 2 9
left_child=-1 -2 3 4 -3 6 7 -6 -8 -4
right_child=1 2 9 -5 5 -7 8 -9 -10 -11
leaf_value=-0.15312371984078765 0.077542103436599105 0.64209410911002629 7.1471523717489758 -44.05867434487422 -6.0846432583405496 0.76432144658547108 -38.458304605020153 -18.014153663348026 -71.630219907692208 0.18927617233182867
leaf_weight=42435 126973 1601 161 28 349 533 28 136 20 12236
leaf_count=42435 126973 1601 161 28 349 533 28 136 20 12236
internal_value=0 0.0457818 -0.221392 -2.5534 -2.11761 -6.26241 -13.2892 -9.42997 -52.282 0.285561
internal_weight=0 142065 15092 2695 2667 1066 533 485 48 12397
internal_count=184500 142065 15092 2695 2667 1066 533 485 48 12397
cat_boundaries=0 3 5
cat_threshold=211845441 3452186632 134219040 0 512
is_linear=0
shrinkage=0.148151


Tree=66
num_leaves=11
num_cat=0
split_feature=5 9 1 1 1 7 11 11 7 7
split_gain=58575.4 251225 3.06712e+06 230751 2.42776e+06 3.68926e+06 221693 227911 219898 217003
threshold=2020.5000000000002 2257.9350000000004 187.50000000000003 357.50000000000006 360.50000000000006 195.27500000000003 3471450.0000000005 6466525.0000000009 475.37500000000006 1520.7300000000002
decision_type=2 2 2 2 2 2 2 2 2 2
left_child=1 -1 -3 9 5 -5 -4 -8 -6 -2
right_child=3 2 6 4 8 -7 7 -9 -10 -11
leaf_value=-0.030827442104935522 0.18998877257048305 -44.668214596008461 -8.9337664536580768 -9.531336911286866 0.89200743210288269 -80.671667542776689 11.137495161160738 -6.4580602142118115 16.746935514645532 3.0840383387247372
leaf_weight=154040 29120 35 21 80 480 20 84 20 20 580
leaf_count=154040 29120 35 21 80 480 20 84 20 20 580
internal_value=0 -0.0369223 -5.90437 0.188396 -2.68804 -23.7605 4.94922 7.75313 1.52635 0.246508
internal_weight=0 154200 160 30300 600 100 125 104 500 29700
internal_count=184500 154200 160 30300 600 100 125 104 500 29700
is_linear=0
shrinkage=0.148151


Tree=67
num_leaves=11
num_cat=1
split_feature=0 5 9 1 7 1 1 1 7 1
split_gain=54933 142038 500839 428878 548742 269285 166699 742173 170397 119577
threshold=0 2021.5000000000002 7.4850000000000012 15.500000000000002 2293.4600000000005 19.500000000000004 51.500000000000007 55.500000000000007 2293.4600000000005 357.50000000000006
decision_type=9 2 2 2 2 2 2 2 2 2
left_child=1 9 -3 4 -4 -5 8 -8 -7 -1
right_child=-2 2 3 5 -6 6 7 -9 -10 -11
leaf_value=0.40795650459047722 -0.023775287017569674 20.150544941292303 -1.5705843183970012 -21.843220158118633 26.764488486574422 -5.4365698332740724 -29.254294168090727 0.44877781307055326 5.7519236063633112 -2.6414442872820265
leaf_weight=14112 169740 20 60 24 20 118 30 48 40 288
leaf_count=14112 169740 20 60 24 20 118 30 48 40 288
internal_value=0 0.274109 -2.63233 -3.97272 5.5126 -6.89151 -5.37068 -10.9749 -2.60364 0.346964
internal_weight=0 14760 360 340 80 260 236 78 158 14400
internal_count=184500 14760 360 340 80 260 236 78 158 14400
cat_boundaries=0 3
cat_threshold=33816704 1049216 4210688
is_linear=0
shrinkage=0.148151


Tree=68
num_leaves=11
num_cat=0
split_feature=8 1 5 1 2 11 1 1 2 2
split_gain=52133.2 843273 1.62905e+06 872599 921744 958494 587497 1.55097e+06 814570 702237
threshold=2305.1000000000008 187.50000000000003 2020.5000000000002 15.500000000000002 1.0000000180025095e-35 2914650.0000000005 247.50000000000003 257.50000000000006 1.0000000180025095e-35 2.5000000000000004
decision_type=2 2 2 2 2 2 2 2 2 2
left_child=-1 2 -2 -4 5 -5 8 -8 -3 -9
right_child=1 6 3 4 -6 -7 7 9 -10 -11
leaf_value=0.0047771435614466107 -36.387029779529954 36.726720943500119 20.626423788470582 -49.5492540985137 -1.6855160923189589 -4.2286051125922608 -40.45113122963739 9.2770601219771045 5.9160233137331728 -7.511988971805704
leaf_weight=183840 37 23 30 20 177 21 20 137 104 91
leaf_count=183840 37 23 30 20 177 21 20 137 104 91
internal_value=0 -1.31429 -7.38882 -3.06215 -6.32237 -26.3382 3.3022 -0.893882 11.4966 2.5759
internal_weight=0 660 285 248 218 41 375 248 127 228
internal_count=184500 660 285 248 218 41 375 248 127 228
is_linear=0
shrinkage=0.148151


Tree=69
num_leaves=11
num_cat=2
split_feature=0 1 0 11 7 7 11 11 1 1
split_gain=47935.1 72710.8 149974 372150 155134 687552 591369 305190 296139 263560
threshold=0 101.50000000000001 1 1072950.0000000002 1085.7900000000002 1520.7300000000002 4229250.0000000009 7473600.0000000009 15.500000000000002 29.500000000000004
decision_type=9 2 9 2 2 2 2 2 2 2
left_child=1 2 3 -1 -5 6 -6 8 -7 -10
right_child=-2 -3 -4 4 5 7 -8 -9 9 -11
leaf_value=-16.73926037511707 -0.051752526609784293 0.21562220215622807 -0.06674650887836843 -4.9507898463483455 -3.7673715075147745 10.890828255048291 24.205429971433219 -20.306470697636868 -16.939644988848794 -1.5962347300820234
leaf_weight=38 125460 41824 16678 184 27 35 43 21 29 161
leaf_count=38 125460 41824 16678 184 27 35 43 21 29 161
internal_value=0 0.11012 -0.146117 -2.55771 -1.53092 0.460212 13.4151 -3.22593 -1.63142 -3.9385
internal_weight=0 59040 17216 538 500 316 70 246 225 190
internal_count=184500 59040 17216 538 500 316 70 246 225 190
cat_boundaries=0 4 5
cat_threshold=56510610 537920416 8319498 2 128
is_linear=0
shrinkage=0.148151


Tree=70
num_leaves=11
num_cat=0
split_feature=5 8 11 4 5 3 3 3 10 3
split_gain=45573.5 186932 496835 245108 210474 691355 495506 386783 233433 1.641e+06
threshold=2020.5000000000002 1541.5600000000002 2036100.0000000002 10.500000000000002 2018.5000000000002 21.500000000000004 42.500000000000007 28.500000000000004 2277.4700000000007 27.500000000000004
decision_type=2 2 2 2 2 2 2 2 2 2
left_child=1 -1 3 -3 5 -4 7 -7 -6 -10
right_child=-2 2 4 -5 8 6 -8 -9 9 -11
leaf_value=-0.021363196570816586 0.16614615715783326 -25.481656805131539 -30.93398046890335 -6.3556104106663485 2.4606992484890435 -9.3849206071924485 -15.146712687641465 9.9672151673392566 -32.752446934344313 3.5404502525139461
leaf_weight=153472 30300 28 21 31 341 34 45 68 35 125
leaf_count=153472 30300 28 21 31 341 34 45 68 35 125
internal_value=0 -0.0325981 -2.40098 -15.4336 -1.25151 -5.78941 -2.19679 3.51589 0.27006 -4.39835
internal_weight=0 154200 728 59 669 168 147 102 501 160
internal_count=184500 154200 728 59 669 168 147 102 501 160
is_linear=0
shrinkage=0.148151


Tree=71
num_leaves=11
num_cat=1
split_feature=10 1 1 2 2 1 1 7 8 0
split_gain=51887.9 153405 399593 777407 638489 358721 381238 516163 296617 532236
threshold=693.43000000000018 43.500000000000007 21.500000000000004 1.0000000180025095e-35 1.0000000180025095e-35 101.50000000000001 133.50000000000003 1520.7300000000002 1541.5600000000002 0
decision_type=2 2 2 2 2 2 2 2 2 9
left_child=-1 2 3 -2 -4 -3 7 -7 -8 -10
right_child=1 5 4 -5 -6 6 8 -9 9 -11
leaf_value=-0.010559641608228608 -20.617797964454944 -3.4778501490980496 24.042240417866775 3.012481302065309 3.6896442335522255 1.2461304936540409 1.7212415797807594 14.703022148739146 0.40569069880280317 -7.8366122820752349
leaf_weight=181205 38 484 42 156 174 170 1269 99 637 226
leaf_count=181205 38 484 42 156 174 170 1269 99 637 226
internal_value=0 0.582669 3.26417 -1.61588 7.64744 0.201568 0.943301 6.19892 0.280156 -1.83882
internal_weight=0 3295 410 194 216 2885 2401 269 2132 863
internal_count=184500 3295 410 194 216 2885 2401 269 2132 863
cat_boundaries=0 1
cat_threshold=128
is_linear=0
shrinkage=0.148151


Tree=72
num_leaves=11
num_cat=0
split_feature=2 1 1 8 11 8 8 1 8 1
split_gain=45478.5 181341 1.31463e+06 2.35191e+06 771763 540649 473897 105752 958854 604274
threshold=1.0000000180025095e-35 21.500000000000004 15.500000000000002 231.56500000000003 1463019.5000000002 791.21000000000015 68.145000000000024 45.500000000000007 1095.5150000000001 51.500000000000007
decision_type=2 2 2 2 2 2 2 2 2 2
left_child=1 2 5 6 -5 -1 -4 8 -3 -9
right_child=-2 7 3 4 -6 -7 -8 9 -10 -11
leaf_value=0.69462917238403654 0.036373246892344342 0.55524795959765771 -1.4976301584221556 -17.568954070492808 -53.77878792247774 25.216627873956398 -10.006666292354216 -4.4450825526414626 29.704327625970073 -0.042908343282691393
leaf_weight=1480 148200 2675 433 24 28 20 215 700 25 30700
leaf_count=1480 148200 2675 433 24 28 20 215 700 25 30700
internal_value=0 -0.148651 -1.45231 -6.75372 -37.0682 1.02164 -4.32095 -0.0645416 0.825177 -0.141048
internal_weight=0 36300 2200 700 52 1500 648 34100 2700 31400
internal_count=184500 36300 2200 700 52 1500 648 34100 2700 31400
is_linear=0
shrinkage=0.148151


Tree=73
num_leaves=11
num_cat=3
split_feature=0 5 8 0 0 10 5 3 5 3
split_gain=42893.6 51876.5 514882 190521 152053 350742 851887 1.20919e+06 250923 491897
threshold=0 2016.5000000000002 791.21000000000015 1 2 1525.1250000000002 2017.5000000000002 8.5000000000000018 2018.5000000000002 21.500000000000004
decision_type=9 2 2 9 9 2 2 2 2 2
left_child=-1 2 3 -2 5 6 -3 -8 9 -7
right_child=1 4 -4 -5 -6 8 7 -9 -10 -11
leaf_value=-0.28263251589510907 -0.50771450061543266 0.7600253320315945 -16.316526346771376 0.11340720060216607 0.05137319090448763 -25.687625629039228 -0.034681021095528508 30.403632464036509 1.2618327634578728 -1.9345145698986432
leaf_weight=11070 16418 256 43 31855 123783 22 54 61 791 147
leaf_count=11070 16418 256 43 31855 123783 22 54 61 791 147
internal_value=0 0.0180286 -0.112357 -0.0979213 0.0683822 1.63748 5.51842 16.1104 0.154655 -5.02709
internal_weight=0 173430 48316 48273 125114 1331 371 115 960 169
internal_count=184500 173430 48316 48273 125114 1331 371 115 960 169
cat_boundaries=0 3 6 7
cat_threshold=0 2290360320 32 248075235 1342210312 1169691204 128
is_linear=0
shrinkage=0.148151


Tree=74
num_leaves=11
num_cat=0
split_feature=1 1 2 8 2 2 1 8 1 8
split_gain=39334.6 286486 623089 2.90224e+06 7.73377e+06 743806 1.49808e+06 1.88566e+06 461388 625751
threshold=339.50000000000006 325.50000000000006 2.5000000000000004 791.21000000000015 3.5000000000000004 3.5000000000000004 332.50000000000006 136.37500000000003 338.50000000000006 180.69500000000002
decision_type=2 2 2 2 2 2 2 2 2 2
left_child=1 -1 8 5 -5 6 7 -4 -3 -10
right_child=-2 2 3 4 -6 -7 -8 -9 9 -11
leaf_value=0.020858347364438791 0.25263847579462823 0.54164737615238701 -5.9507266721069447 -102.23502567478796 23.4549365750314 0.36947129471127926 0.38032073565799557 -26.885173602007995 -3.9109894691125406 -30.943722882439033
leaf_weight=164900 12600 4000 575 22 21 1379 690 113 179 21
leaf_count=164900 12600 4000 575 22 21 1379 690 113 179 21
internal_value=0 -0.0185467 -0.946826 -2.65872 -40.8508 -2.06301 -4.49731 -9.3892 0.194419 -6.74983
internal_weight=0 171900 7000 2800 43 2757 1378 688 4200 200
internal_count=184500 171900 7000 2800 43 2757 1378 688 4200 200
is_linear=0
shrinkage=0.148151


Tree=75
num_leaves=11
num_cat=0
split_feature=9 1 1 1 1 7 2 1 1 1
split_gain=40965.9 178143 2.28675e+06 279425 760565 242489 185552 1.00724e+06 8.02149e+06 720979
threshold=688.7700000000001 332.50000000000006 328.50000000000006 357.50000000000006 361.50000000000006 2293.4600000000005 1.0000000180025095e-35 244.50000000000003 257.50000000000006 21.500000000000004
decision_type=2 2 2 2 2 2 2 2 2 2
left_child=-1 2 6 5 -5 -3 7 9 -9 -2
right_child=1 3 -4 4 -6 -7 -8 8 -10 -11
leaf_value=-0.0094437788059320293 -17.379998382603389 3.7612490742236551 -36.435141896584057 -26.404643733315702 6.8388359708544115 15.094838987413878 1.187248268018162 -90.677877213030243 2.8317639569887594 4.06791097537005
leaf_weight=181200 38 190 37 23 44 53 2403 24 125 363
leaf_count=181200 38 190 37 23 44 53 2403 24 125 363
internal_value=0 0.517273 0.166761 3.89782 -4.57236 6.23347 0.625398 -1.82927 -12.2301 2.03526
internal_weight=0 3300 2990 310 67 243 2953 550 149 401
internal_count=184500 3300 2990 310 67 243 2953 550 149 401
is_linear=0
shrinkage=0.148151


Tree=76
num_leaves=11
num_cat=3
split_feature=0 5 8 5 5 0 1 10 0 1
split_gain=39008.7 106747 168281 299944 215991 239827 308722 201616 186192 169207
threshold=0 2015.5000000000002 7.5150000000000006 2020.5000000000002 2021.5000000000002 1 15.500000000000002 539.67500000000007 2 73.500000000000014
decision_type=9 2 2 2 2 9 2 2 9 2
left_child=1 -1 3 8 -4 6 -6 -8 -3 -5
right_child=-2 2 4 9 5 -7 7 -9 -10 -11
leaf_value=-0.39589186639466123 -0.046750230731067342 5.9143636374267148 0.18980570322448989 2.1865513346854328 3.414860035013469 -0.71647667354062916 -6.335940915108087 -18.111763559413454 -0.034330351071787925 10.395494069588205
leaf_weight=8224 125460 124 48250 98 60 1116 158 40 844 126
leaf_count=8224 125460 124 48250 98 60 1116 158 40 844 126
internal_value=0 0.0992745 0.179432 1.91895 0.137647 -1.69395 -5.67414 -8.71526 0.788378 6.80437
internal_weight=0 59040 50816 1192 49624 1374 258 198 968 224
internal_count=184500 59040 50816 1192 49624 1374 258 198 968 224
cat_boundaries=0 4 7 9
cat_threshold=55397010 806881153 1081668096 4 37748866 128 512 264192 1573888
is_linear=0
shrinkage=0.148151


Tree=77
num_leaves=11
num_cat=0
split_feature=2 7 3 3 3 3 7 3 2 7
split_gain=37312.9 182644 324707 757491 383166 177796 89662.8 145332 455081 1.48259e+06
threshold=1.0000000180025095e-35 2293.4600000000005 41.500000000000007 33.500000000000007 8.5000000000000018 25.500000000000004 157.32500000000002 46.500000000000007 2.5000000000000004 2293.4600000000005
decision_type=2 2 2 2 2 2 2 2 2 2
left_child=1 -1 3 4 -3 -6 -2 -8 -9 -10
right_child=6 2 -4 -5 5 -7 7 8 9 -11
leaf_value=-0.11521543917733455 -0.013029897683997253 -19.579770927934295 6.4805061583944825 -35.133358666117303 13.038712141580675 -5.2211201984470081 0.46677657524598265 1.1732893979295052 -1.9774987704581402 -33.839789603534363
leaf_weight=36177 127809 21 34 21 25 22 17967 1274 1117 33
leaf_count=36177 127809 21 34 21 25 22 17967 1274 1117 33
internal_value=0 -0.134594 -5.83382 -10.5389 -2.94233 4.49032 0.0329979 0.321499 -0.755294 -2.89188
internal_weight=0 36300 123 89 68 47 148200 20391 2424 1150
internal_count=184500 36300 123 89 68 47 148200 20391 2424 1150
is_linear=0
shrinkage=0.148151


Tree=78
num_leaves=11
num_cat=0
split_feature=1 1 7 7 5 1 7 1 1 1
split_gain=38932.7 1.46469e+06 3.4929e+06 592592 200393 372186 188792 410630 311871 558118
threshold=187.50000000000003 183.50000000000003 694.4000000000002 148.60500000000005 2019.5000000000002 185.50000000000003 2293.4600000000005 355.50000000000006 331.50000000000006 321.50000000000006
decision_type=2 2 2 2 2 2 2 2 2 2
left_child=1 -1 3 -3 5 -5 -2 8 9 -8
right_child=6 2 -4 4 -6 -7 7 -9 -10 -11
leaf_value=0.016921408387965232 0.056724138566772192 -2.2346385444665202 -49.845406520597201 -14.112084953134794 -15.784755009035454 0.40681782777538167 4.5717258992839174 -16.739346281711619 15.425096955944797 -19.927659346304132
leaf_weight=94000 88225 1622 36 78 87 77 282 21 50 22
leaf_count=94000 88225 1622 36 78 87 77 282 21 50 22
internal_value=0 -0.0653933 -4.13783 -3.25502 -10.0938 -6.89911 0.0708242 3.38793 4.58212 2.7985
internal_weight=0 95900 1900 1864 242 155 88600 375 354 304
internal_count=184500 95900 1900 1864 242 155 88600 375 354 304
is_linear=0
shrinkage=0.148151


Tree=79
num_leaves=11
num_cat=1
split_feature=10 11 11 4 4 11 8 0 11 4
split_gain=35993 144750 207963 114694 192705 147322 131048 368163 1.00276e+06 425209
threshold=418.35000000000008 8381950.0000000009 7720000.0000000009 4.5000000000000009 2.5000000000000004 5806700.0000000009 1541.5600000000002 0 1575150.0000000002 7.5000000000000009
decision_type=2 2 2 2 2 2 2 9 2 2
left_child=-1 2 3 4 -2 -6 -5 -8 9 -9
right_child=1 -3 -4 6 5 -7 7 8 -10 -11
leaf_value=-0.011912141580444686 0.73143060614146438 5.8107764982648789 -12.959254265169706 1.2159817790685457 -2.7740515361797358 6.3345489765469116 1.0428964619120975 -11.13519908633255 -21.608670756408689 4.9447359942678579
leaf_weight=178565 1002 105 26 3108 787 41 631 52 65 118
leaf_count=178565 1002 105 26 3108 787 41 631 52 65 118
internal_value=0 0.358941 0.260741 0.319974 -0.650516 -2.32294 0.766893 -0.844776 -5.71482 0.0257864
internal_weight=0 5935 5830 5804 1830 828 3974 866 235 170
internal_count=184500 5935 5830 5804 1830 828 3974 866 235 170
cat_boundaries=0 1
cat_threshold=128
is_linear=0
shrinkage=0.148151


Tree=80
num_leaves=11
num_cat=0
split_feature=1 7 7 1 2 7 8 7 7 11
split_gain=37130.6 380024 154040 91833.3 886451 2.11622e+06 528514 213588 154289 80267.2
threshold=13.500000000000002 2293.4600000000005 1520.7300000000002 21.500000000000004 1.0000000180025095e-35 602.81000000000006 124.02500000000002 788.3850000000001 50.975000000000001 429550.00000000006
decision_type=2 2 2 2 2 2 2 2 2 2
left_child=1 2 -1 4 5 6 8 -6 -2 -8
right_child=3 -3 -4 -5 7 -7 9 -9 -10 -11
leaf_value=0.31460998246345867 -0.34785868761027655 18.218505503366856 -11.830375175244303 0.004473091047229834 0.21902629470436041 -52.48840941317227 -3.3766837377887664 10.166329449150078 -4.7239502322474518 -13.274035362120715
leaf_weight=6651 435 26 23 173200 3652 20 21 48 298 126
leaf_count=6651 435 26 23 173200 3652 20 21 48 298 126
internal_value=0 0.342397 0.272746 -0.0128783 -0.666209 -4.83617 -3.75306 0.348091 -2.12704 -11.8606
internal_weight=0 6700 6674 177800 4600 900 880 3700 733 147
internal_count=184500 6700 6674 177800 4600 900 880 3700 733 147
is_linear=0
shrinkage=0.148151


Tree=81
num_leaves=11
num_cat=3
split_feature=0 8 5 0 8 1 1 0 1 1
split_gain=31828 38124.2 35237.3 256545 451333 327159 441486 221654 790709 2.06061e+06
threshold=0 28.935000000000006 2020.5000000000002 1 36.555000000000007 45.500000000000007 213.50000000000003 2 185.50000000000003 213.50000000000003
decision_type=9 2 2 9 2 2 2 9 2 2
left_child=1 -1 -2 4 5 -4 -7 8 -5 -10
right_child=2 -3 3 7 -6 6 -8 -9 9 -11
leaf_value=-0.35562791281716172 -0.016703348884590553 1.7982494674654785 22.411717712256834 2.4702956786459653 0.89788053544168267 -7.860369561674224 13.933253539944683 0.0092218247399039541 -56.56325233210012 -4.8664682999800508
leaf_weight=7195 148032 185 34 173 5032 34 51 23634 20 110
leaf_count=7195 148032 185 34 173 5032 34 51 23634 20 110
internal_value=0 -0.301219 0.0125877 0.161659 1.109 10.129 5.2151 -0.0426423 -3.95928 -12.8205
internal_weight=0 7380 177120 29088 5151 119 85 23937 303 130
internal_count=184500 7380 177120 29088 5151 119 85 23937 303 130
cat_boundaries=0 3 6 8
cat_threshold=0 2147753984 32 361955 268435968 68683008 0 1048576
is_linear=0
shrinkage=0.148151


Tree=82
num_leaves=11
num_cat=0
split_feature=10 3 1 1 1 7 11 11 3 7
split_gain=33282.3 197052 903533 234067 1.68862e+06 129686 121721 178178 129950 431705
threshold=693.43000000000018 51.500000000000007 354.50000000000006 332.50000000000006 328.50000000000006 788.3850000000001 7976300.0000000009 7473600.0000000009 41.500000000000007 2293.4600000000005
decision_type=2 2 2 2 2 2 2 2 2 2
left_child=-1 2 3 4 6 -3 7 8 -2 -10
right_child=1 5 -4 -5 -6 -7 -8 -9 9 -11
leaf_value=-0.0084681204035077246 0.1169429445441283 -1.4766075744091505 -29.617894712108743 5.1832295499747216 -30.865409448148629 12.810587393002058 6.8077315159136642 -13.514460336416914 0.45489243504285165 12.364917025277668
leaf_weight=181205 2466 20 22 219 38 46 67 20 312 85
leaf_count=181205 2466 20 22 219 38 46 67 20 312 85
internal_value=0 0.466644 0.302827 0.508108 0.165432 8.48025 0.565179 0.420082 0.517449 3.00507
internal_weight=0 3295 3229 3207 2988 66 2950 2883 2863 397
internal_count=184500 3295 3229 3207 2988 66 2950 2883 2863 397
is_linear=0
shrinkage=0.148151


Tree=83
num_leaves=11
num_cat=0
split_feature=8 1 1 5 2 1 1 2 1 1
split_gain=45278.8 482951 1.03992e+06 443074 467699 415860 883911 677836 433447 405489
threshold=2305.1000000000008 187.50000000000003 51.500000000000007 2020.5000000000002 1.0000000180025095e-35 247.50000000000003 257.50000000000006 1.0000000180025095e-35 236.50000000000003 159.50000000000003
decision_type=2 2 2 2 2 2 2 2 2 2
left_child=-1 2 -2 -4 -5 7 -7 -3 -9 -6
right_child=1 5 3 4 9 6 -8 8 -10 -11
leaf_value=0.0044119501533321998 6.3497343815713965 32.178288493386425 -26.902850315670776 -25.646567145791057 -9.6850083829603371 -31.124202569898682 1.3577856132714827 -0.73793566291466584 23.086501055878717 10.230585402363985
leaf_weight=183840 100 23 37 29 89 20 228 83 21 30
leaf_count=183840 100 23 37 29 89 20 228 83 21 30
internal_value=0 -1.22489 -5.82196 -12.4016 -8.77574 2.26873 -1.26157 9.16299 4.07231 -4.66373
internal_weight=0 660 285 185 148 375 248 127 104 119
internal_count=184500 660 285 185 148 375 248 127 104 119
is_linear=0
shrinkage=0.148151


Tree=84
num_leaves=11
num_cat=1
split_feature=9 11 11 11 3 2 11 0 11 3
split_gain=33674 406366 275112 795068 616007 308727 786202 300958 847666 332316
threshold=2257.9350000000004 6571250.0000000009 3311050.0000000005 2961550.0000000005 26.500000000000004 1.0000000180025095e-35 2135650.0000000005 0 1546600.0000000002 33.500000000000007
decision_type=2 2 2 2 2 2 2 9 2 2
left_child=-1 2 3 5 -5 6 -2 -7 9 -9
right_child=1 -3 -4 4 -6 7 -8 8 -10 -11
leaf_value=0.0038017911834946965 3.0759121418296189 -17.34160819166938 3.8651625206072415 -4.5913342459885547 -34.267484319486854 7.8062277877637225 -32.477783857526752 -4.3820241759502219 -26.466686444017757 10.270622443469758
leaf_weight=183841 39 32 229 34 28 114 21 70 26 66
leaf_count=183841 39 32 229 34 28 114 21 70 26 66
internal_value=0 -1.05712 -0.225904 -2.57996 -17.9947 0.26427 -9.36711 2.35829 -1.84318 2.72839
internal_weight=0 659 627 398 62 336 60 276 162 136
internal_count=184500 659 627 398 62 336 60 276 162 136
cat_boundaries=0 1
cat_threshold=128
is_linear=0
shrinkage=0.148151


Tree=85
num_leaves=11
num_cat=0
split_feature=9 3 11 3 5 5 8 5 3 11
split_gain=36988.4 160446 184920 154861 825005 152559 500713 1.432e+06 521266 499184
threshold=688.7700000000001 51.500000000000007 8381950.0000000009 50.500000000000007 2019.5000000000002 2019.5000000000002 1095.5150000000001 2017.5000000000002 18.500000000000004 2612350.0000000005
decision_type=2 2 2 2 2 2 2 2 2 2
left_child=-1 2 3 5 -5 6 7 8 -2 -8
right_child=1 -3 -4 4 -6 -7 9 -9 -10 -11
leaf_value=-0.0088788164610994168 -6.3482520514688581 7.6675200358378648 8.1043396673503825 6.19164387731107 -29.357201926192392 1.5348680717414778 -7.1334829931317607 15.620155073582486 1.7675766637213401 0.22516412280460418
leaf_weight=181200 246 67 66 38 23 1319 387 139 591 424
leaf_count=181200 246 67 66 38 23 1319 387 139 591 424
internal_value=0 0.491615 0.342883 0.181114 -7.21121 0.326316 -0.565694 1.69485 -0.617652 -3.28623
internal_weight=0 3300 3233 3167 61 3106 1787 976 837 811
internal_count=184500 3300 3233 3167 61 3106 1787 976 837 811
is_linear=0
shrinkage=0.148151


Tree=86
num_leaves=11
num_cat=0
split_feature=9 11 11 11 4 11 5 11 4 4
split_gain=33658.3 309721 197295 576675 455042 224875 1.34219e+06 662599 378218 565628
threshold=2257.9350000000004 6571250.0000000009 3311050.0000000005 2961550.0000000005 4.5000000000000009 2242650.0000000005 2021.5000000000002 1912050.0000000002 4.5000000000000009 7.5000000000000009
decision_type=2 2 2 2 2 2 2 2 2 2
left_child=-1 2 3 5 -5 7 -7 8 -2 -10
right_child=1 -3 -4 4 -6 6 -8 -9 9 -11
leaf_value=0.0038509723313568073 13.63322068024798 -15.273606485298963 3.1333340388726456 2.279035887007903 -24.536138731554743 12.659459445804515 -28.649545242638958 -23.998164801240641 -16.194356179306158 3.2478154426206549
leaf_weight=183841 38 32 229 21 41 97 21 28 48 104
leaf_count=183841 38 32 229 21 41 97 21 28 48 104
internal_value=0 -1.05683 -0.331138 -2.32467 -15.4527 0.0976088 5.30722 -2.722 0.413191 -2.89147
internal_weight=0 659 627 398 62 336 118 218 190 152
internal_count=184500 659 627 398 62 336 118 218 190 152
is_linear=0
shrinkage=0.148151


Tree=87
num_leaves=11
num_cat=0
split_feature=9 3 9 3 3 5 3 2 3 5
split_gain=30938.2 119203 124740 375933 310468 676850 337494 357291 374118 299761
threshold=688.7700000000001 51.500000000000007 2257.9350000000004 49.500000000000007 27.500000000000004 2020.5000000000002 7.5000000000000009 1.0000000180025095e-35 22.500000000000004 2019.5000000000002
decision_type=2 2 2 2 2 2 2 2 2 2
left_child=-1 2 9 4 5 -4 -7 -8 -9 -2
right_child=1 -3 3 -5 -6 6 7 8 -10 -11
leaf_value=-0.0081339377395076278 -0.20710153717118154 6.6348384645218088 -23.601971903127257 -18.315055548905086 2.3900484629680778 5.0787762076323331 -20.786786845987368 -7.8525297501106319 9.7367800443146599 3.3532282388936792
leaf_weight=181200 1873 67 35 28 324 100 29 88 38 718
leaf_count=181200 1873 67 35 28 324 100 29 88 38 718
internal_value=0 0.4496 0.321399 -1.52728 -0.761598 -4.28295 -1.63103 -5.96033 -2.54731 0.77949
internal_weight=0 3300 3233 642 614 290 255 155 126 2591
internal_count=184500 3300 3233 642 614 290 255 155 126 2591
is_linear=0
shrinkage=0.148151


Tree=88
num_leaves=11
num_cat=3
split_feature=0 1 0 11 0 1 1 7 2 11
split_gain=27094 50611.2 150906 273319 126520 186271 847074 242181 192246 337214
threshold=0 101.50000000000001 1 1072950.0000000002 2 244.50000000000003 251.50000000000003 1085.7900000000002 1.5000000000000002 3055500.0000000005
decision_type=9 2 9 2 9 2 2 2 2 2
left_child=1 2 3 -1 5 7 -7 -3 -9 -10
right_child=-2 4 -4 -5 -6 6 -8 8 9 -11
leaf_value=-14.710211068003344 -0.038900366104765348 0.12464325585636378 -0.051385552260328357 -1.6767293084788322 0.12428921584637009 -22.671168794590795 1.0783549266166408 9.6709767608436525 12.965860867990461 -0.083422748648441042
leaf_weight=38 125460 308 16678 500 40517 35 566 158 57 183
leaf_count=38 125460 308 16678 500 40517 35 566 158 57 183
internal_value=0 0.0827972 -0.130983 -2.55004 0.170817 1.59993 -0.304653 3.244 5.65782 3.01556
internal_weight=0 59040 17216 538 41824 1307 601 706 398 240
internal_count=184500 59040 17216 538 41824 1307 601 706 398 240
cat_boundaries=0 4 5 6
cat_threshold=1112293518 537985940 1618405889 2 128 128
is_linear=0
shrinkage=0.148151


Tree=89
num_leaves=11
num_cat=0
split_feature=1 7 7 1 9 11 7 3 7 8
split_gain=26321.1 197337 121107 70251.4 636945 98610.8 148551 109805 121799 41843.7
