tree
version=v3
num_class=1
num_tree_per_iteration=1
label_index=0
max_feature_idx=10
objective=regression
feature_names=symbol dayofyear week month year quarter shift_close shift_high shift_low shift_open shift_volume
feature_infos=-1:68:81:78:0:1:2:3:4:5:6:7:8:9:10:11:12:13:14:16:17:18:19:20:21:22:23:24:25:26:27:28:29:30:31:32:33:34:35:36:37:38:39:41:42:43:44:46:47:48:49:51:53:54:56:57:60:61:62:64:65:66:67:70:71:72:74:75:76:77:79:80:82:83:84:85:86:89:91:92:93:94:95:96:97:98:99:55:52:88:73:40:58:59:63:45:50:87:90:15 [2:366] [1:53] [1:12] [2015:2022] [1:4] [0:3731.4099999999999] [0:3773.0799999999999] [0:3696.79] [0:3744] [0:280615000]
tree_sizes=1988 2060 2055 2052 2044 2008 2047 1987 2064 2052 2002 2067 1990 2052 1979 2024 2034 2004 2010 2020 2009 1966 1953 1918 2001 1916 1982 1907 1951 1894 1969 1984 1912 1951 1890 1902 1948 1901 1891 1960 1917 1975 1975 1879 1897 1907 1932 1920 1930 1917 1913 1945 1940 1950 1893 1908 1928 1982 1912 1902 1903 1891 1948 1874 1970 1901 1929 1931 1961 1912 1948 2000 1894 1944 2012 1989 1918 1907 1897 1933 2005 1904 1919 1915 1960 1929 1886 1871 1886 1937 1917 2012 1934 1916 1954 1941 1924 1929 1981 1940 1957 2036 1937 1925 2004 1936 1964 1934 1955 1934 1957 1972 2053 1865 1939 1992 1976 1880 1933 1883 2022 1896 1937 1874 2018 1916 1911 2007 1998 1920 1918 1928 1884 1953 1883 2083 1990 2022 1970 1947 1851 1891 1890 1898 1872 1880 1947 2041 1953 2043 1982 1977 1985 1919 1935 1915 1939 1925 1927 1941 1896 2026 2008 1936 1958 1943 2004 1952 1952 1910 1933 1988 1899 1909 1899 1896 1888 1894 1931 1898 2022 1888 1915 1923 1906 1955 1923 1888 1926 1931 1970 1962 1983 1987 1944 1911 1999 1940 1956

Tree=0
num_leaves=21
num_cat=0
split_feature=9 8 9 7 7 7 7 7 7 10 7 7 7 7 4 1 7 1 4 10
split_gain=7.61799e+09 1.35289e+09 9.84462e+08 3.68321e+08 1.66393e+08 1.00761e+08 6.96633e+07 5.47648e+07 3.2815e+07 2.81038e+07 2.78027e+07 1.01666e+07 8.41051e+06 8.28483e+06 6.19367e+06 8.01086e+06 5.79674e+06 5.14306e+06 4.88194e+06 4.93644e+06
threshold=1083.0150000000001 304.63000000000005 2186.7700000000004 108.21500000000002 605.17500000000007 1534.2750000000003 187.28500000000003 52.755000000000003 791.18000000000018 1786550.0000000002 419.50500000000005 142.99500000000003 238.84000000000003 78.175000000000026 2019.5000000000002 230.50000000000003 32.995000000000012 101.50000000000001 2019.5000000000002 4016275.0000000005
decision_type=2 2 2 2 2 2 2 2 2 2 2 2 2 2 2 2 2 2 2 2
left_child=1 3 5 7 10 18 11 16 -6 -4 -3 -5 -8 -9 -7 17 -1 -16 19 -2
right_child=2 4 9 6 8 14 12 13 -10 -11 -12 -13 -14 -15 15 -17 -18 -19 -20 -21
leaf_value=104.83253901202482 198.44781722990425 132.1459911137938 322.86017805193569 112.54845913814522 157.94688267463636 244.66306480511048 119.39952470852228 107.89057265149073 179.80225040022009 359.42261411612412 144.70030348945139 115.83700013177547 123.95931812992995 109.89863229001884 260.78627044411934 235.47828130748184 106.284759477992 290.78450547653 217.19155570643346 221.69025902442505
leaf_weight=44703 393 2637 191 17218 1312 409 5924 30130 660 463 1969 9226 4586 23268 136 61 28932 51 190 69
leaf_count=44703 393 2637 191 17218 1312 409 5924 30130 660 463 1969 9226 4586 23268 136 61 28932 51 190 69
internal_value=112.088 110.286 268.663 108.86 145.832 228.646 115.884 106.817 165.262 348.752 137.513 113.696 121.389 108.766 250.742 260.756 105.403 268.987 206.376 201.924
internal_weight=0 170565 1963 163987 6578 1309 36954 127033 1972 654 4606 26444 10510 53398 657 248 73635 187 652 462
internal_count=172528 170565 1963 163987 6578 1309 36954 127033 1972 654 4606 26444 10510 53398 657 248 73635 187 652 462
is_linear=0
shrinkage=1


Tree=1
num_leaves=21
num_cat=2
split_feature=7 7 7 7 7 7 7 7 7 7 7 0 7 7 4 1 0 1 7 4
split_gain=6.44872e+09 1.14333e+09 8.35671e+08 2.95359e+08 1.61715e+08 8.57319e+07 5.68825e+07 4.06734e+07 3.92944e+07 1.52581e+07 9.32274e+06 7.42507e+06 6.3969e+06 6.27652e+06 5.17694e+06 6.74503e+06 5.08033e+06 5.05177e+06 5.0271e+06 4.84728e+06
threshold=1093.7850000000001 292.24500000000006 2211.6300000000006 102.99500000000002 541.61000000000013 1534.2750000000003 183.81000000000003 49.815000000000005 791.18000000000018 419.50500000000005 140.17500000000004 0 231.05500000000004 71.985000000000014 2019.5000000000002 230.50000000000003 1 186.50000000000003 699.46000000000015 2020.5000000000002
decision_type=2 2 2 2 2 2 2 2 2 2 2 9 2 2 2 2 9 2 2 2
left_child=1 3 5 7 9 -2 10 11 18 -3 -5 -1 -8 -9 -7 -16 -13 19 -6 -4
right_child=2 4 17 6 8 14 12 13 -10 -11 -12 16 -14 -15 15 -17 -18 -19 -20 -21
leaf_value=8.3478184878161539 86.653001000659486 17.516945239787788 178.51650497152605 0.17437812256566301 36.800696005737485 121.9781593071592 6.2697428872220149 -4.121433349760844 62.251994630858341 27.714530264956096 3.2494868605388287 -7.2259179868777927 10.242310201335272 -2.3959595217462231 144.29900394181155 113.53048193096035 -5.7744062618009391 223.74803797812834 45.375506110526423 213.0425895551391
leaf_weight=216 656 3280 30 19876 1312 409 5927 28840 656 1313 9223 24262 4601 25279 186 61 45120 378 656 247
leaf_count=216 656 3280 30 19876 1312 409 5927 28840 656 1313 9223 24262 4601 25279 186 61 45120 378 656 247
internal_value=0 -1.65966 143.911 -3.03536 29.4768 107.093 2.97075 -4.95914 45.308 20.4322 1.14904 -6.23725 8.00587 -3.31547 127.53 136.711 -6.28295 217.652 39.6594 209.317
internal_weight=0 170561 1967 163344 7217 1312 39627 123717 2624 4593 29099 69598 10528 54119 656 247 69382 655 1968 277
internal_count=172528 170561 1967 163344 7217 1312 39627 123717 2624 4593 29099 69598 10528 54119 656 247 69382 655 1968 277
cat_boundaries=0 3 6
cat_threshold=264576 268435968 17408 2416967680 2357618688 71680
is_linear=0
shrinkage=0.0799375


Tree=2
num_leaves=21
num_cat=2
split_feature=9 6 9 6 8 9 8 6 9 6 6 0 0 6 4 4 4 9 1 4
split_gain=5.45999e+09 9.71553e+08 7.05393e+08 2.64301e+08 1.19471e+08 7.12338e+07 4.66439e+07 4.28678e+07 2.2864e+07 1.99949e+07 7.90846e+06 7.83677e+06 5.76805e+06 5.49504e+06 4.69003e+06 4.37952e+06 4.25038e+06 4.1523e+06 4.1377e+06 4.16104e+06
threshold=1083.0150000000001 308.70500000000004 2186.7700000000004 111.08500000000002 599.42000000000019 1518.2550000000003 192.66500000000002 56.355000000000011 786.92500000000007 474.40000000000003 144.70500000000001 0 1 83.195000000000007 2020.5000000000002 2020.5000000000002 2019.5000000000002 236.61500000000004 186.50000000000003 2020.5000000000002
decision_type=2 2 2 2 2 2 2 2 2 2 2 9 9 2 2 2 2 2 2 2
left_child=1 3 5 7 9 16 10 11 -6 -3 -5 -1 -13 -9 -10 -7 -2 -8 19 -4
right_child=2 4 18 6 8 15 17 13 14 -11 -12 12 -14 -15 -16 -17 -18 -19 -20 -21
leaf_value=-6.1654954744068995 75.899044422972537 18.201865201406275 164.25647483461799 0.57907813919188844 38.979120812608919 114.71588035518651 6.6262013865122018 -3.2476071735301382 58.590871297467771 29.872381775037621 3.4600314172568618 13.219504956011871 -4.5854609550461687 -1.5282092886917422 23.260609982767942 133.80189232664904 90.102052165702318 10.019226131662936 205.86318474392539 196.24688531711237
leaf_weight=49951 464 3286 30 15895 1323 564 4650 29407 630 1313 9869 108 29613 19925 25 90 191 4570 378 246
leaf_count=49951 464 3286 30 15895 1323 564 4650 29407 630 1313 9869 108 29613 19925 25 90 191 4570 378 246
internal_value=0 -1.52557 132.556 -2.7338 28.5997 98.6824 3.42876 -4.40499 45.0277 21.5339 1.68264 -5.55163 -4.51633 -2.55315 57.2432 117.347 80.0435 8.30801 200.349 192.783
internal_weight=0 170565 1963 163988 6577 1309 34984 129004 1978 4599 25764 79672 29721 49332 655 654 655 9220 654 276
internal_count=172528 170565 1963 163988 6577 1309 34984 129004 1978 4599 25764 79672 29721 49332 655 654 655 9220 654 276
cat_boundaries=0 3 5
cat_threshold=4237295616 3464980572 268507266 262272 268435968
is_linear=0
shrinkage=0.0799375


Tree=3
num_leaves=21
num_cat=2
split_feature=6 6 6 6 6 6 6 6 10 6 6 0 10 6 6 0 4 3 2 4
split_gain=4.6225e+09 8.20258e+08 5.98194e+08 2.23975e+08 1.00459e+08 5.98828e+07 4.14278e+07 3.45833e+07 2.40565e+07 1.75391e+07 1.70952e+07 7.44313e+06 6.97852e+06 5.8637e+06 5.10388e+06 4.94444e+06 4.51935e+06 6.56521e+06 4.24971e+06 3.7905e+06
threshold=1081.0950000000003 308.70500000000004 2169.5450000000005 116.53500000000001 602.3950000000001 1516.6750000000002 58.905000000000008 194.67500000000004 1786550.0000000002 787.35500000000013 416.84500000000008 0 681050.00000000012 91.285000000000011 151.05500000000004 1 2020.5000000000002 6.5000000000000009 23.500000000000004 2019.5000000000002
decision_type=2 2 2 2 2 2 2 2 2 2 2 9 2 2 2 9 2 2 2 2
left_child=1 3 5 6 10 19 11 14 -4 -6 -3 -1 -11 -8 -5 -13 17 -10 -18 -2
right_child=2 4 8 7 9 -7 13 -9 16 12 -12 15 -14 -15 -16 -17 18 -19 -20 -21
leaf_value=-5.6380984364423199 69.741468795036994 15.594975036023667 160.19129330320447 0.8857849279749388 36.050458462272324 107.72425539764332 -2.689597780140828 7.6486227031529683 148.12319157157245 5.5459353659607951 25.442842664835268 12.350996915513683 53.506829915381466 -0.77898768809095653 3.3669177542310744 -4.1274807590719487 190.53494749224782 190.5892460033902 209.62471583048591 83.276749613131642
leaf_weight=51917 471 2629 191 13894 1315 656 34722 9210 29 20 1971 108 637 14572 8563 31002 161 128 147 185
leaf_count=51917 471 2629 191 13894 1315 656 34722 9210 29 20 1971 108 637 14572 8563 31002 161 128 147 185
internal_value=0 -1.40549 121.81 -2.51525 26.2858 90.6442 -3.96047 3.52361 184.137 41.3805 19.8147 -5.05033 52.0471 -2.1248 1.83186 -4.06632 193.965 182.766 199.66 73.5612
internal_weight=0 170560 1968 163988 6572 1312 132321 31667 656 1972 4600 83027 657 49294 22457 31110 465 157 308 656
internal_count=172528 170560 1968 163988 6572 1312 132321 31667 656 1972 4600 83027 657 49294 22457 31110 465 157 308 656
cat_boundaries=0 3 6
cat_threshold=4237295616 3464980574 268507266 128 268435968 1024
is_linear=0
shrinkage=0.0799375


Tree=4
num_leaves=21
num_cat=1
split_feature=8 8 9 9 9 9 9 9 9 8 9 0 9 9 4 1 1 8 4 1
split_gain=3.91369e+09 6.94391e+08 5.08132e+08 1.79622e+08 9.91334e+07 5.2028e+07 3.66635e+07 2.33198e+07 2.26831e+07 1.02971e+07 5.87397e+06 5.45831e+06 4.84213e+06 3.99581e+06 3.95268e+06 4.70715e+06 4.68655e+06 3.56561e+06 3.50791e+06 3.1395e+06
threshold=1067.5500000000002 286.21000000000009 2186.7700000000004 98.555000000000021 539.90500000000009 1518.2550000000003 172.09500000000003 46.045000000000009 786.92500000000007 386.22500000000008 222.98500000000004 0 129.12500000000003 69.355000000000004 2019.5000000000002 231.50000000000003 95.500000000000014 688.59000000000015 2020.5000000000002 186.50000000000003
decision_type=2 2 2 2 2 2 2 2 2 2 2 9 2 2 2 2 2 2 2 2
left_child=1 3 5 7 9 -2 12 11 17 -3 -8 -1 -5 -9 -7 16 -16 -6 -10 -4
right_child=2 4 19 6 8 14 10 13 18 -11 -12 -13 -14 -15 15 -17 -18 -19 -20 -21
leaf_value=1.6450746416135353 67.600255037831701 12.625676798385383 163.02945874494648 -0.19911062812594557 28.676123147430527 94.531397458999166 4.3240752656943346 -3.3317558010005066 49.542020406406337 20.252185676065434 7.8408648584688549 -5.0287407338781582 1.9204516773212941 -1.9818809198619562 105.00034037473876 87.39614892485163 132.28578032860614 35.873072762753445 18.98201773413394 174.41357953838909
leaf_weight=794 662 2629 276 17873 1299 407 7231 31452 623 1986 5230 64273 11205 25272 130 58 59 666 25 378
leaf_count=794 662 2629 276 17873 1299 407 7231 31452 623 1986 5230 64273 11205 25272 130 58 59 666 25 378
internal_value=0 -1.29389 112.025 -2.36687 22.9521 83.4028 2.1723 -3.91504 35.3934 15.9077 5.80012 -4.94782 0.617648 -2.73035 99.396 107.403 113.532 31.1158 48.3637 169.615
internal_weight=0 170558 1970 163330 7228 1316 41539 121791 2613 4615 12461 65067 29078 56724 654 247 189 1965 648 654
internal_count=172528 170558 1970 163330 7228 1316 41539 121791 2613 4615 12461 65067 29078 56724 654 247 189 1965 648 654
cat_boundaries=0 3
cat_threshold=38014402 806880896 1885252
is_linear=0
shrinkage=0.0799375


Tree=5
num_leaves=21
num_cat=0
split_feature=9 9 9 9 9 9 9 8 10 9 8 9 9 9 4 1 4 1 1 8
split_gain=3.31336e+09 5.90152e+08 4.27812e+08 1.61236e+08 7.21899e+07 4.341e+07 2.99079e+07 2.50008e+07 2.08552e+07 1.35698e+07 1.29627e+07 4.68443e+06 4.38093e+06 4.12112e+06 3.88353e+06 4.79558e+06 3.34705e+06 3.98452e+06 3.98329e+06 3.28424e+06
threshold=1083.0150000000001 309.72000000000008 2186.7700000000004 116.64500000000002 604.05000000000007 1518.2550000000003 57.965000000000011 198.81500000000003 1786550.0000000002 786.92500000000007 471.14500000000004 32.045000000000009 88.745000000000019 148.28500000000003 2020.5000000000002 182.50000000000003 2019.5000000000002 231.50000000000003 101.50000000000001 1.0000000180025095e-35
decision_type=2 2 2 2 2 2 2 2 2 2 2 2 2 2 2 2 2 2 2 2
left_child=1 3 5 6 10 -2 11 13 -4 -6 -3 19 -8 -5 15 -10 -7 18 -18 -1
right_child=2 4 8 7 9 16 12 -9 14 -11 -12 -13 -14 -15 -16 -17 17 -19 -20 -21
leaf_value=-2.1665604744464244 62.331210309119911 14.133767087421997 133.78504207279244 0.70557485228215266 30.458734592498573 86.975191547092066 -2.3445203666579038 6.6817612134703674 124.61780598925797 44.55234394295929 23.505754733384418 -3.6543015011188933 -0.75942392032292472 2.8670915907586778 170.51023799621203 161.43091660813343 97.35971351496751 80.412483094622075 123.61883746914413 -5.0454420103770525
leaf_weight=2700 655 3260 191 13210 1310 407 34020 8585 28 655 1327 38358 16568 9831 307 128 138 58 51 40741
leaf_count=2700 655 3260 191 13210 1310 407 34020 8585 28 655 1327 38358 16568 9831 307 128 138 58 51 40741
internal_value=0 -1.18839 103.261 -2.12819 22.3371 76.8815 -3.3532 2.99975 156.057 35.157 16.8451 -4.29807 -1.82539 1.62784 165.238 154.841 91.4516 98.8196 104.459 -4.86651
internal_weight=0 170565 1963 164013 6552 1309 132387 31626 654 1965 4587 81799 50588 23041 463 156 654 247 189 43441
internal_count=172528 170565 1963 164013 6552 1309 132387 31626 654 1965 4587 81799 50588 23041 463 156 654 247 189 43441
is_linear=0
shrinkage=0.0799375


Tree=6
num_leaves=21
num_cat=2
split_feature=6 7 9 7 6 7 7 7 7 0 7 0 7 7 4 3 3 4 3 4
split_gain=2.8051e+09 4.99925e+08 3.63462e+08 1.4552e+08 5.1567e+07 3.80406e+07 2.82387e+07 2.23014e+07 1.40874e+07 5.85723e+06 5.68712e+06 4.06909e+06 3.60343e+06 3.37101e+06 2.94273e+06 3.77623e+06 2.93619e+06 2.86701e+06 2.60418e+06 2.48265e+06
threshold=1081.0950000000003 336.81500000000005 2186.7700000000004 121.39500000000002 694.09000000000015 1534.2750000000003 63.515000000000008 213.77500000000003 478.03500000000003 0 791.18000000000018 1 93.095000000000013 158.46500000000003 2019.5000000000002 7.5000000000000009 3.5000000000000004 2019.5000000000002 6.5000000000000009 2020.5000000000002
decision_type=2 2 2 2 2 2 2 2 2 9 2 9 2 2 2 2 2 2 2 2
left_child=1 3 5 6 8 17 9 13 -3 -1 -6 -11 -8 -5 -7 16 -16 -2 19 -4
right_child=2 4 18 7 10 14 12 -9 -10 11 -12 -13 -14 -15 15 -17 -18 -19 -20 -21
leaf_value=-4.4999005092811988 53.670220055755692 13.929230419777934 114.66375145258108 0.98333559928733161 30.477405612694977 80.069277148384742 -1.9588053703308461 6.7980789106100703 22.879014105767048 11.688521364744641 40.999129970489101 -3.2330974217042776 -0.49115628639195774 2.9966601489322979 89.521691595004057 73.811115287482707 110.74255299366845 65.338723939316893 147.86429035590859 140.11482556293012
leaf_weight=45577 467 2624 28 12537 659 409 30022 7888 1966 108 655 42699 16601 9224 123 61 64 190 384 242
leaf_count=45577 467 2624 28 12537 659 409 30022 7888 1966 108 655 42699 16601 9224 123 61 64 190 384 242
internal_value=0 -1.09484 94.8896 -1.91434 21.76 70.6518 -3.028 3.15669 17.7627 -3.86767 35.7228 -3.19272 -1.43622 1.83674 84.2546 91.1495 96.7963 57.0467 143.584 137.485
internal_weight=0 170560 1968 164656 5904 1314 135007 29649 4590 88384 1314 42807 46623 21761 657 248 187 657 654 270
internal_count=172528 170560 1968 164656 5904 1314 135007 29649 4590 88384 1314 42807 46623 21761 657 248 187 657 654 270
cat_boundaries=0 3 5
cat_threshold=4103077888 3431426132 268507266 262272 268435968
is_linear=0
shrinkage=0.0799375


Tree=7
num_leaves=21
num_cat=0
split_feature=9 9 9 9 9 9 9 10 9 9 9 4 1 9 1 4 4 9 10 4
split_gain=2.37479e+09 4.25828e+08 3.06478e+08 1.03416e+08 6.80078e+07 3.10526e+07 1.99566e+07 1.78711e+07 1.43324e+07 1.37098e+07 7.98113e+06 3.23812e+06 3.44879e+06 3.12192e+06 3.11205e+06 2.94705e+06 2.79521e+06 2.79154e+06 2.71539e+06 3.73695e+06
threshold=1083.0150000000001 276.65500000000003 2186.7700000000004 97.195000000000007 539.90500000000009 1518.2550000000003 168.89000000000001 1786550.0000000002 44.105000000000011 786.92500000000007 390.04500000000002 2020.5000000000002 183.50000000000003 217.64500000000001 93.500000000000014 2020.5000000000002 2017.5000000000002 127.28500000000001 4903650.0000000009 2019.5000000000002
decision_type=2 2 2 2 2 2 2 2 2 2 2 2 2 2 2 2 2 2 2 2
left_child=1 3 5 8 10 18 17 -4 -1 -6 -3 12 -9 -8 -13 16 -11 -5 19 -2
right_child=2 4 7 6 9 -7 13 11 -10 15 -12 14 -14 -15 -16 -17 -18 -19 -20 -21
leaf_value=-3.908497314667609 47.004163012037836 9.4924427505189186 111.49697343228435 -0.21194414437729628 24.340169493182703 77.416342502244333 3.1508805311686463 106.03846897881817 -2.1686382383126617 35.743832293048598 15.935590402649739 134.35394998440555 136.83448359211994 5.7106854160728195 151.39675573959349 10.767451936211325 48.171448960610746 1.39723631187023 70.524189842665521 60.541282121645224
leaf_weight=62389 413 3278 191 17875 1965 654 7232 29 58740 477 1965 108 127 5258 199 25 153 11208 51 191
leaf_count=62389 413 3278 191 17875 1965 654 7232 29 58740 477 1965 108 127 5258 199 25 153 11208 51 191
internal_value=0 -1.00605 87.4211 -1.8841 17.1627 65.0933 1.55596 132.107 -3.06477 27.6792 11.9073 140.604 131.125 4.22851 145.411 37.6953 38.7635 0.408202 52.787 51.2869
internal_weight=0 170565 1963 162702 7863 1309 41573 654 121129 2620 5243 463 156 12490 307 655 630 29083 655 604
internal_count=172528 170565 1963 162702 7863 1309 41573 654 121129 2620 5243 463 156 12490 307 655 630 29083 655 604
is_linear=0
shrinkage=0.0799375


Tree=8
num_leaves=21
num_cat=2
split_feature=9 7 9 7 7 7 7 7 7 7 0 0 1 4 7 7 7 2 7 4
split_gain=2.01033e+09 3.60654e+08 2.59449e+08 8.75632e+07 5.77134e+07 2.70954e+07 1.69167e+07 1.21131e+07 1.19134e+07 6.95602e+06 4.22136e+06 2.76352e+06 2.66632e+06 2.63006e+06 2.61134e+06 2.43481e+06 2.24166e+06 2.22843e+06 2.2106e+06 2.0032e+06
threshold=1083.0150000000001 279.11500000000007 2186.7700000000004 98.105000000000004 541.61000000000013 1534.2750000000003 173.59500000000003 47.265000000000008 791.18000000000018 361.00500000000005 0 1 271.50000000000006 2019.5000000000002 131.47500000000002 231.05500000000004 71.305000000000021 33.500000000000007 699.46000000000015 2019.5000000000002
decision_type=2 2 2 2 2 2 2 2 2 2 9 9 2 2 2 2 2 2 2 2
left_child=1 3 5 7 9 19 14 10 18 -3 -1 -12 13 -7 -5 -8 -9 -4 -6 -2
right_child=2 4 17 6 8 12 15 16 -10 -11 11 -13 -14 -15 -16 -17 -18 -19 -20 -21
leaf_value=4.2385417626960793 45.493515263264968 8.0271482533566569 117.46269253936089 -0.14278923151846887 20.436847021686546 69.467702891569175 3.1732386440352407 -2.3823352691672004 34.743927983983376 13.84728924748781 -4.5506471530300896 -3.313949851397116 62.96651311249726 81.538042999677131 1.4223255046609846 5.604777613836351 -1.3482017189445943 126.99648755499908 26.122205072863764 55.262818176551129
leaf_weight=436 462 2624 374 19229 1312 281 7904 31515 660 2625 15237 50578 178 198 10549 3945 23295 280 656 190
leaf_count=436 462 2624 374 19229 1312 281 7904 31515 660 2625 15237 50578 178 198 10549 3945 23295 280 656 190
internal_value=0 -0.925627 80.4336 -1.73445 15.7794 59.8903 1.42818 -2.82193 25.4496 10.9378 -3.54922 -3.60091 71.3486 74.4605 0.411661 3.9828 -1.94282 121.548 22.3322 48.3421
internal_weight=0 170565 1963 162688 7877 1309 41627 121061 2628 5249 66251 65815 657 479 29778 11849 54810 654 1968 652
internal_count=172528 170565 1963 162688 7877 1309 41627 121061 2628 5249 66251 65815 657 479 29778 11849 54810 654 1968 652
cat_boundaries=0 3 6
cat_threshold=33819072 805831168 1852420 0 2357618688 65536
is_linear=0
shrinkage=0.0799375


Tree=9
num_leaves=21
num_cat=2
split_feature=7 7 7 7 7 7 10 7 7 0 7 0 7 4 1 7 1 7 10 4
split_gain=1.70178e+09 3.04967e+08 2.20072e+08 7.03416e+07 5.39516e+07 2.30816e+07 1.50661e+07 1.31201e+07 1.28829e+07 1.00098e+07 3.83615e+06 3.10858e+06 2.91853e+06 2.77607e+06 2.81634e+06 2.59078e+06 2.56811e+06 2.48458e+06 2.29196e+06 2.62085e+06
threshold=1093.7850000000001 269.03500000000003 2211.6300000000006 95.495000000000019 478.03500000000003 1534.2750000000003 1786550.0000000002 161.27500000000003 791.18000000000018 0 361.00500000000005 1 699.46000000000015 2020.5000000000002 182.50000000000003 21.515000000000004 161.50000000000003 67.095000000000013 4903650.0000000009 2019.5000000000002
decision_type=2 2 2 2 2 2 2 2 2 9 2 9 2 2 2 2 2 2 2 2
left_child=1 3 5 9 10 18 -4 -5 12 15 -3 -11 -6 14 -8 -1 -15 -13 19 -2
right_child=2 4 6 7 8 -7 13 -9 -10 11 -12 17 -14 16 -16 -17 -18 -19 -20 -21
leaf_value=-4.1380124529828226 39.517287295038265 7.1796734669958227 92.845458096248208 0.19302884268764456 17.876535658875948 65.637928520592354 87.652264456634015 3.1944065223269869 31.940181760893406 11.038246079829774 11.643518773698631 -2.3802867844977258 24.034127646918307 116.88991261611795 115.83398967448903 -2.9964369237129458 131.64392882110747 -1.3746200282527792 61.077071802021912 50.841197244954095
leaf_weight=20144 416 3282 191 28464 1969 656 28 13828 656 108 1968 38663 656 160 128 34394 148 26429 49 191
leaf_count=20144 416 3282 191 28464 1969 656 28 13828 656 108 1968 38663 656 160 128 34394 148 26429 49 191
internal_value=0 -0.852522 73.9278 -1.62813 13.8785 55.034 111.77 1.17438 21.9199 -2.61798 8.85302 -1.94842 19.4155 119.556 110.788 -3.41746 123.988 -1.97166 44.4282 43.0822
internal_weight=0 170561 1967 162030 8531 1312 655 42292 3281 119738 5250 65200 2625 464 156 54538 308 65092 656 607
internal_count=172528 170561 1967 162030 8531 1312 655 42292 3281 119738 5250 65200 2625 464 156 54538 308 65092 656 607
cat_boundaries=0 3 6
cat_threshold=4103077920 3481757790 268507266 384 512 1024
is_linear=0
shrinkage=0.0799375


Tree=10
num_leaves=21
num_cat=0
split_feature=9 7 9 7 7 7 10 7 7 9 7 4 1 1 1 4 7 7 7 1
split_gain=1.44081e+09 2.58785e+08 1.85942e+08 6.68696e+07 3.70229e+07 1.93791e+07 1.28558e+07 1.15067e+07 1.12969e+07 7.14254e+06 5.65245e+06 2.41486e+06 2.42118e+06 2.25542e+06 2.23905e+06 2.22053e+06 2.0354e+06 2.02234e+06 2.39194e+06 1.99037e+06
threshold=1083.0150000000001 292.24500000000006 2186.7700000000004 109.43500000000002 605.17500000000007 1534.2750000000003 1786550.0000000002 191.66000000000003 54.995000000000012 417.72000000000008 791.18000000000018 2020.5000000000002 173.50000000000003 271.50000000000006 93.500000000000014 2019.5000000000002 138.05500000000004 27.745000000000001 1.0000000180025095e-35 231.50000000000003
decision_type=2 2 2 2 2 2 2 2 2 2 2 2 2 2 2 2 2 2 2 2
left_child=1 3 5 8 9 -2 19 16 17 -3 -6 12 -8 15 -13 -7 -5 18 -1 -4
right_child=2 4 6 7 10 13 11 -9 -10 -11 -12 14 -14 -15 -16 -17 -18 -19 -20 -21
leaf_value=-1.0723391760477285 40.935997824064643 8.2424911002915788 77.746644613330403 0.17387335945904614 20.327695320501071 58.668513343674149 76.50472314272433 4.0563735124832281 -1.366029357400059 14.340023802614681 29.398542645894718 104.88628589545519 105.87751022165354 52.687423269339874 119.31955829519063 69.753739165930597 1.5932416016590645 -2.533162937439243 -3.5503909892550807 94.202991450381063
leaf_weight=2700 652 3291 102 15236 1312 281 21 9209 50686 1958 660 108 135 178 199 198 11203 42451 31859 89
leaf_count=2700 652 3291 102 15236 1312 281 21 9209 50686 1958 660 108 135 178 199 198 11203 42451 31859 89
internal_value=0 -0.783569 68.0937 -1.43824 14.0255 50.7024 102.9 1.62291 -2.2928 10.5171 23.3639 110.105 101.934 60.3927 114.25 63.2536 0.775303 -2.90277 -3.35679 85.4245
internal_weight=0 170565 1963 163344 7221 1309 654 35648 127696 5249 1972 463 156 657 307 479 26439 77010 34559 191
internal_count=172528 170565 1963 163344 7221 1309 654 35648 127696 5249 1972 463 156 657 307 479 26439 77010 34559 191
is_linear=0
shrinkage=0.0799375


Tree=11
num_leaves=21
num_cat=3
split_feature=6 6 9 7 6 7 6 7 7 6 0 1 6 7 0 1 1 0 7 6
split_gain=1.21998e+09 2.19189e+08 1.57931e+08 5.07912e+07 3.90586e+07 1.6522e+07 9.5222e+06 7.11186e+06 6.94413e+06 5.02814e+06 3.31919e+06 1.90923e+06 1.88986e+06 1.60394e+06 1.59395e+06 1.51378e+06 2.02739e+06 1.41602e+06 1.40691e+06 1.38404e+06
threshold=1081.0950000000003 266.25500000000005 2186.7700000000004 94.27500000000002 538.77500000000009 1534.2750000000003 171.89500000000001 40.875000000000007 791.18000000000018 356.52000000000004 0 271.50000000000006 124.22500000000001 70.52500000000002 1 188.50000000000003 131.50000000000003 2 219.41500000000002 694.09000000000015
decision_type=2 2 2 2 2 2 2 2 2 2 9 2 2 2 9 2 2 9 2 2
left_child=1 3 5 7 9 -2 12 10 19 -3 -1 -7 -5 -9 -12 16 -4 -16 -8 -6
right_child=2 4 15 6 8 11 18 13 -10 -11 14 -13 -14 -15 17 -17 -18 -19 -20 -21
leaf_value=10.575555709098291 37.63464514016222 6.0684471114584158 95.592304126858693 -0.24998182536515526 15.998214410869348 58.197739008173734 2.2345730039647935 -1.9368514218747206 26.996769241451901 10.759175411326208 -3.8295304104133843 48.476228032403839 1.0014343689465663 -1.0851824075852232 0.55180084973530541 98.043879619979847 81.541790346015276 -2.7611344315926951 4.0567896426897194 20.488234329680857
leaf_weight=108 657 3285 173 18559 1315 479 6606 39595 655 2629 9822 178 13193 21971 843 373 108 46732 4588 659
leaf_count=108 657 3285 173 18559 1315 479 6606 39595 655 2629 9822 178 13193 21971 843 373 108 46732 4588 659
internal_value=0 -0.721945 62.578 -1.37998 11.7575 46.6009 0.976733 -2.22998 19.8643 8.15369 -2.86921 55.5656 0.269984 -1.63292 -2.89585 94.6761 90.1987 -2.70233 2.98144 17.4974
internal_weight=0 170560 1968 162017 8543 1314 42946 119071 2629 5914 57505 657 31752 61566 57397 654 281 47575 11194 1974
internal_count=172528 170560 1968 162017 8543 1314 42946 119071 2629 5914 57505 657 31752 61566 57397 654 281 47575 11194 1974
cat_boundaries=0 2 4 8
cat_threshold=2176 268435968 0 2357600256 54789442 538477696 8176708 6
is_linear=0
shrinkage=0.0799375


Tree=12
num_leaves=21
num_cat=0
split_feature=8 7 7 7 7 7 7 7 7 7 7 4 4 4 1 1 7 4 1 2
split_gain=1.03327e+09 1.85331e+08 1.33571e+08 5.44471e+07 1.94545e+07 1.39544e+07 1.09587e+07 8.49704e+06 3.87777e+06 3.10296e+06 2.25231e+06 1.8738e+06 2.3025e+06 1.75047e+06 2.34233e+06 2.81343e+06 1.53464e+06 1.45951e+06 1.80361e+06 1.39329e+06
threshold=1067.5500000000002 336.81500000000005 2211.6300000000006 121.39500000000002 605.17500000000007 1534.2750000000003 64.475000000000009 213.77500000000003 791.18000000000018 478.03500000000003 35.155000000000008 2020.5000000000002 2017.5000000000002 2019.5000000000002 230.50000000000003 101.50000000000001 1.0000000180025095e-35 2019.5000000000002 183.50000000000003 33.500000000000007
decision_type=2 2 2 2 2 2 2 2 2 2 2 2 2 2 2 2 2 2 2 2
left_child=1 3 5 6 9 17 10 -5 -6 -3 16 12 -10 -7 15 -15 -1 -2 -19 -4
right_child=2 4 19 7 8 13 -8 -9 11 -11 -12 -13 -14 14 -16 -17 -18 18 -20 -21
leaf_value=-0.87142334813932432 32.279046918434553 8.4232373835025172 83.83651382758076 1.1235012642826856 17.243661518884497 47.905397187522453 -0.83092219777562482 4.1859335984473685 22.958758700293348 13.183463687632393 -1.919680112416329 2.8590549634576075 34.419343289021654 54.930857426551576 42.822830400043671 77.151085002139112 -2.8322934136465081 34.823413401495571 51.274063493023228 91.356101604052753
leaf_weight=2700 472 2624 375 21761 1312 409 45276 7888 483 1313 40991 24 146 136 61 50 46040 121 66 280
leaf_count=2700 472 2624 375 21761 1312 409 45276 7888 483 1313 40991 24 146 136 61 50 46040 121 66 280
internal_value=0 -0.664723 57.5611 -1.16361 13.2533 42.8695 -1.84481 1.93825 19.7495 10.0108 -2.35639 24.7836 25.62 51.124 56.4489 60.9122 -2.72367 34.6513 40.6347 87.0539
internal_weight=0 170558 1970 164656 5902 1315 135007 29649 1965 3937 89731 653 629 656 247 186 48740 659 187 655
internal_count=172528 170558 1970 164656 5902 1315 135007 29649 1965 3937 89731 653 629 656 247 186 48740 659 187 655
is_linear=0
shrinkage=0.0799375


Tree=13
num_leaves=21
num_cat=3
split_feature=9 7 9 7 9 7 10 7 0 0 9 0 10 9 7 7 1 1 1 7
split_gain=8.74177e+08 1.58298e+08 1.128e+08 3.68934e+07 2.79803e+07 1.17311e+07 1.09111e+07 7.29378e+06 6.70278e+06 4.87991e+06 2.60822e+06 2.49402e+06 2.02778e+06 1.95388e+06 1.66233e+06 1.52572e+06 1.46107e+06 1.43587e+06 1.23354e+06 1.17738e+06
threshold=1083.0150000000001 269.03500000000003 2186.7700000000004 92.055000000000021 476.09000000000009 1534.2750000000003 1786550.0000000002 152.62500000000003 0 1 693.94500000000005 2 5068750.0000000009 357.71000000000009 20.545000000000005 219.41500000000002 220.50000000000003 271.50000000000006 29.500000000000004 73.405000000000015
decision_type=2 2 2 2 2 2 2 2 9 9 2 9 2 2 2 2 2 2 2 2
left_child=1 3 5 9 13 12 16 -5 10 14 -6 -11 -2 -3 -1 -9 -4 18 -7 -13
right_child=2 4 6 7 8 17 -8 15 -10 11 -12 19 -14 -15 -16 -17 -18 -19 -20 -21
leaf_value=-3.0842501236631348 30.650937510473721 5.1979406900674094 56.839922380046957 0.033407628184355415 14.873499672811091 38.242428916027315 86.785459474548446 1.6714135254224032 12.292742517129144 10.185169176544314 22.285640553337082 -1.6734586838097747 47.898615303680835 8.3821923569922898 -2.1482148316124463 3.4003544604230664 70.891589324646304 40.88675452951928 50.810121906078813 -0.90995435850578166
leaf_weight=18636 605 3293 93 28483 431 57 463 11203 1818 108 1026 46429 47 1967 34695 4601 98 178 422 17875
leaf_count=18636 605 3293 93 28483 431 57 463 11203 1818 108 1026 46429 47 1967 34695 4601 98 178 422 17875
internal_value=0 -0.610306 53.0401 -1.16922 10.0003 39.4944 80.1499 0.79756 15.8007 -1.909 19.9563 -1.43989 31.8958 6.38873 -2.47484 2.17476 64.0568 47.0339 49.3164 -1.461
internal_weight=0 170565 1963 162030 8535 1309 654 44287 3275 117743 1457 64412 652 5260 53331 15804 191 657 479 64304
internal_count=172528 170565 1963 162030 8535 1309 654 44287 3275 117743 1457 64412 652 5260 53331 15804 191 657 479 64304
cat_boundaries=0 2 5 8
cat_threshold=128 512 4103110656 3481757782 285284482 262272 512 262144
is_linear=0
shrinkage=0.0799375


Tree=14
num_leaves=21
num_cat=0
split_feature=8 8 9 9 9 9 10 9 9 9 10 1 1 4 8 1 1 10 4 4
split_gain=7.40611e+08 1.33564e+08 9.58401e+07 2.95804e+07 2.58013e+07 9.77226e+06 9.23571e+06 5.50613e+06 5.25359e+06 4.39953e+06 2.88434e+06 3.98371e+06 7.05565e+06 2.12693e+06 1.98111e+06 1.858e+06 1.81242e+06 1.76092e+06 2.25575e+06 1.43809e+06
threshold=1067.5500000000002 254.68000000000004 2186.7700000000004 93.495000000000019 476.09000000000009 1518.2550000000003 1786550.0000000002 693.94500000000005 144.85500000000005 39.645000000000003 218717.50000000003 183.50000000000003 237.50000000000003 2020.5000000000002 352.52500000000003 95.500000000000014 173.50000000000003 4016275.0000000005 2019.5000000000002 2019.5000000000002
decision_type=2 2 2 2 2 2 2 2 2 2 2 2 2 2 2 2 2 2 2 2
left_child=1 3 5 9 14 17 -4 -6 -5 -1 11 -9 -13 16 -3 -15 -8 18 -2 -7
right_child=2 4 6 8 7 19 13 10 -10 -11 -12 12 -14 15 -16 -17 -18 -19 -20 -21
leaf_value=-2.2542992317682837 24.644122316372155 4.6261527691260458 58.937392978711699 0.0099684744088826202 11.836151772588911 40.305449164513234 50.258435919972342 17.9202910549972 1.8391383337423965 -1.281299567098338 20.019292809119293 -40.081211777742865 14.871441357552809 75.287026733556559 7.7203522334274206 88.363223309270595 75.612493489896082 41.081643319407455 35.327695067938791 48.05386192275617
leaf_weight=56307 404 3945 191 25801 1965 407 21 113 16418 62830 1128 25 37 109 1989 198 135 74 184 247
leaf_count=56307 404 3945 191 25801 1965 407 21 113 16418 62830 1128 25 37 109 1989 198 135 74 184 247
internal_value=0 -0.562653 48.7325 -1.09686 8.80456 36.302 73.7435 14.5083 0.721291 -1.74116 18.5379 8.98776 -7.29303 79.8484 5.66331 83.7261 72.2068 29.4533 27.9884 43.2333
internal_weight=0 170558 1970 161356 9202 1316 654 3268 42219 119137 1303 175 62 463 5934 307 156 662 588 654
internal_count=172528 170558 1970 161356 9202 1316 654 3268 42219 119137 1303 175 62 463 5934 307 156 662 588 654
is_linear=0
shrinkage=0.0799375


Tree=15
num_leaves=21
num_cat=3
split_feature=8 6 9 6 8 6 10 6 0 6 4 0 0 4 8 2 2 2 4 4
split_gain=6.26951e+08 1.13265e+08 8.11332e+07 2.40879e+07 2.35649e+07 8.28787e+06 7.84201e+06 5.24794e+06 3.69859e+06 3.32748e+06 2.91345e+06 2.80183e+06 2.36944e+06 1.93623e+06 1.81866e+06 1.73721e+06 1.66029e+06 1.57427e+06 1.27573e+06 1.2613e+06
threshold=1067.5500000000002 250.09000000000003 2186.7700000000004 83.77500000000002 536.0200000000001 1516.6750000000002 2003678.5000000002 133.54500000000004 0 389.38500000000005 2017.5000000000002 1 2 2020.5000000000002 782.98500000000013 13.500000000000002 33.500000000000007 27.500000000000004 2020.5000000000002 2019.5000000000002
decision_type=2 2 2 2 2 2 2 2 9 2 2 9 9 2 2 2 2 2 2 2
left_child=1 3 5 11 9 19 16 -5 10 -3 -6 -1 -13 17 -10 -15 -4 -8 -7 -2
right_child=2 4 6 7 8 18 13 -9 14 -11 -12 12 -14 15 -16 -17 -18 -19 -20 -21
leaf_value=-2.3876304253706406 24.887679002946921 4.3932357586424757 47.994386026716263 -0.21980655183303296 16.251015398274159 38.33950769710254 49.899791055367409 1.4559525017635797 11.565300406715124 8.2445591103570877 28.245876275828337 9.875981493132663 -1.4745414271477211 69.166200657382333 -7.1576989656815106 82.026933931735044 62.61921955659416 70.364239177856945 48.603115011834831 32.71899466351362
leaf_weight=27872 476 5257 109 31855 1140 568 30 19103 1308 1971 146 108 81764 105 34 192 92 126 90 182
leaf_count=27872 476 5257 109 31855 1140 568 30 19103 1308 1971 146 108 81764 105 34 192 92 126 90 182
internal_value=0 -0.517676 44.8374 -1.02783 7.80038 33.4004 67.8495 0.408398 14.2827 5.44347 17.4773 -1.69472 -1.45836 73.6837 11.0088 77.4855 54.6943 66.4361 39.7449 27.0548
internal_weight=0 170558 1970 160702 9856 1316 654 50958 2628 7228 1286 109744 81872 453 1342 297 201 156 658 658
internal_count=172528 170558 1970 160702 9856 1316 654 50958 2628 7228 1286 109744 81872 453 1342 297 201 156 658 658
cat_boundaries=0 2 5 8
cat_threshold=128 512 2416967680 2357618688 268507264 384 512 16384
is_linear=0
shrinkage=0.0799375


Tree=16
num_leaves=21
num_cat=2
split_feature=7 7 9 9 7 7 7 7 0 0 7 4 9 4 4 1 4 1 1 7
split_gain=5.30282e+08 9.63922e+07 6.86438e+07 2.14913e+07 1.95756e+07 7.25729e+06 4.27624e+06 4.24406e+06 2.30092e+06 2.10838e+06 1.74291e+06 1.50005e+06 1.24074e+06 1.21719e+06 1.2492e+06 1.58926e+06 1.15854e+06 1.75237e+06 2.25244e+06 955609
threshold=1093.7850000000001 246.43500000000003 2186.7700000000004 476.09000000000009 81.805000000000021 1534.2750000000003 791.18000000000018 140.17500000000004 0 1 361.00500000000005 2016.5000000000002 15.335000000000003 2020.5000000000002 2017.5000000000002 119.50000000000001 2019.5000000000002 230.50000000000003 95.500000000000014 699.46000000000015
decision_type=2 2 2 2 2 2 2 2 9 9 2 2 2 2 2 2 2 2 2 2
left_child=1 4 5 10 8 -2 19 -6 12 -10 -3 -8 -1 14 15 -13 -7 18 -18 -5
right_child=2 3 -4 6 7 16 11 -9 9 -11 -12 13 -14 -15 -16 -17 17 -19 -20 -21
leaf_value=-2.6363985087181367 24.778650297266587 3.7494315011120891 62.426776618521217 9.9870562172780595 -0.18600789308651405 34.046928304833031 3.4728163912660199 1.3600139899876948 9.4690137155942207 -1.2386959868422629 6.5334129643194609 9.6733085415683533 -1.7381984791791485 1.4417937984721296 26.10957773569751 20.549819762257364 38.855135593998405 29.199786753584871 57.75892205133588 13.512727701629652
leaf_weight=13014 656 5254 654 1959 36496 409 42 16465 108 53840 1978 117 40135 24 150 323 128 61 59 656
leaf_count=13014 656 5254 654 1959 36496 409 42 16465 108 53840 1978 117 40135 24 150 323 128 61 59 656
internal_value=0 -0.475695 41.2679 6.94275 -0.962494 30.7279 12.3194 0.294634 -1.58416 -1.21551 4.51089 18.0902 -1.95776 19.09 19.8078 17.6583 36.667 40.9848 44.8253 10.8716
internal_weight=0 170561 1967 10503 160058 1313 3271 52961 107097 53948 7232 656 53149 614 590 440 657 248 187 2615
internal_count=172528 170561 1967 10503 160058 1313 3271 52961 107097 53948 7232 656 53149 614 590 440 657 248 187 2615
cat_boundaries=0 3 5
cat_threshold=4237295649 3464980564 419502208 128 805306880
is_linear=0
shrinkage=0.0799375


Tree=17
num_leaves=21
num_cat=1
split_feature=6 6 7 7 6 10 7 7 7 7 0 7 10 4 1 4 1 1 4 1
split_gain=4.48985e+08 8.17211e+07 5.79942e+07 2.05042e+07 1.31739e+07 6.61209e+06 6.14768e+06 3.70755e+06 3.65954e+06 2.76456e+06 2.1631e+06 1.57046e+06 1.51919e+06 1.58815e+06 1.5102e+06 1.49702e+06 1.36323e+06 1.34101e+06 1.2672e+06 1.06206e+06
threshold=1081.0950000000003 276.35500000000008 2211.6300000000006 106.21500000000002 538.77500000000009 1786550.0000000002 1534.2750000000003 187.28500000000003 50.795000000000009 791.18000000000018 0 392.46000000000009 4016275.0000000005 2019.5000000000002 186.50000000000003 2020.5000000000002 161.50000000000003 173.50000000000003 2016.5000000000002 203.50000000000003
decision_type=2 2 2 2 2 2 2 2 2 2 9 2 2 2 2 2 2 2 2 2
left_child=1 3 6 8 11 19 12 -5 10 -6 -1 -3 13 -2 -15 17 -17 -7 -11 -4
right_child=2 4 5 7 9 15 -8 -9 -10 18 -12 -13 -14 14 -16 16 -18 -19 -20 -21
leaf_value=9.1471414259087389 18.568894244361999 4.1321539529830309 38.037092224035668 0.371193594705646 10.636013337704716 37.274981721394326 33.744988707738962 2.2229671684222927 -0.81882143983479405 3.1953489584080228 -1.7062445716548373 6.988573307975515 33.514757050481286 22.280355990398643 37.474459188423481 60.643725631271074 71.343690990293766 59.064906308824504 17.550064652837985 50.09892325174431
leaf_weight=108 397 3294 83 27771 1974 21 656 9197 54763 42 70835 1963 75 121 64 160 148 135 613 108
leaf_count=108 397 3294 83 27771 1974 21 656 9197 54763 42 70835 1963 75 121 64 160 148 135 613 108
internal_value=0 -0.437786 37.9632 -0.823041 7.50932 57.3919 28.2703 0.831884 -1.30973 12.1294 -1.68867 5.19878 22.8031 21.4216 27.5404 62.5473 65.7899 56.1371 16.6297 44.8622
internal_weight=0 170560 1968 162674 7886 655 1313 36968 125706 2629 70943 5257 657 582 185 464 308 156 655 191
internal_count=172528 170560 1968 162674 7886 655 1313 36968 125706 2629 70943 5257 657 582 185 464 308 156 655 191
cat_boundaries=0 3
cat_threshold=192 512 1024
is_linear=0
shrinkage=0.0799375


Tree=18
num_leaves=21
num_cat=2
split_feature=6 7 7 6 7 10 7 0 6 4 0 7 4 4 10 2 6 6 2 4
split_gain=3.80081e+08 6.93707e+07 4.90953e+07 1.53964e+07 1.42526e+07 5.62253e+06 5.2039e+06 3.51493e+06 3.18558e+06 2.14433e+06 1.88664e+06 1.75993e+06 1.36478e+06 1.37675e+06 1.33445e+06 1.31723e+06 1.21523e+06 1.213e+06 1.17278e+06 1.16447e+06
threshold=1081.0950000000003 246.43500000000003 2211.6300000000006 474.40000000000003 81.125000000000014 2003678.5000000002 1534.2750000000003 0 132.09500000000003 2017.5000000000002 1 36.965000000000011 2020.5000000000002 2021.5000000000002 5068750.0000000009 41.500000000000007 787.35500000000013 356.52000000000004 31.500000000000004 2019.5000000000002
decision_type=2 2 2 2 2 2 2 9 2 2 9 2 2 2 2 2 2 2 2 2
left_child=1 4 6 17 10 15 14 9 -6 -5 -1 -12 18 -14 19 -4 -9 -3 -7 -2
right_child=2 3 5 7 8 12 -8 16 -10 -11 11 -13 13 -15 -16 -17 -18 -19 -20 -21
leaf_value=8.7656232374530205 17.611879131397885 3.1898630616249113 37.728666794896583 12.481649726424761 -0.21165631018523023 41.516196550259806 31.047585837350141 8.2419450397618093 1.0746179718717466 22.605559569569273 -1.6990179953218016 -1.0481706057305566 63.184005011016758 47.802519521606534 33.816304169031781 52.357414821241171 -7.9756719572653285 5.5155496523909955 56.421863218067536 25.160503833126985
leaf_weight=108 419 5244 147 1303 34506 50 656 1804 19121 149 51309 55014 254 44 48 54 30 1972 106 190
leaf_count=108 419 5244 147 1303 34506 50 656 1804 19121 149 51309 55014 254 44 48 54 30 1972 106 190
internal_value=0 -0.402755 34.929 5.89089 -0.815705 52.805 26.0107 10.4265 0.246972 13.4284 -1.35115 -1.36213 57.7352 60.9165 20.9806 41.6639 7.93332 3.82544 51.6507 19.9678
internal_weight=0 170560 1968 10502 160058 655 1313 3286 53627 1452 106431 106323 454 298 657 201 1834 7216 156 609
internal_count=172528 170560 1968 10502 160058 655 1313 3286 53627 1452 106431 106323 454 298 657 201 1834 7216 156 609
cat_boundaries=0 2 4
cat_threshold=128 512 264320 512
is_linear=0
shrinkage=0.0799375


Tree=19
num_leaves=21
num_cat=3
split_feature=9 9 9 9 9 10 9 0 9 4 0 0 4 1 9 10 4 1 1 1
split_gain=3.21674e+08 5.89394e+07 4.15646e+07 1.38571e+07 1.15485e+07 4.80614e+06 4.25023e+06 2.98969e+06 2.62273e+06 1.85829e+06 1.73084e+06 1.53568e+06 1.18886e+06 1.2022e+06 1.13177e+06 1.12699e+06 1.22246e+06 1.12276e+06 1.23765e+06 1.06636e+06
threshold=1083.0150000000001 236.61500000000004 2186.7700000000004 476.09000000000009 77.595000000000013 2003678.5000000002 1518.2550000000003 0 125.64500000000002 2016.5000000000002 1 2 2020.5000000000002 95.500000000000014 357.71000000000009 4016275.0000000005 2019.5000000000002 233.50000000000003 47.500000000000007 149.50000000000003
decision_type=2 2 2 2 2 2 2 9 2 2 9 9 2 2 2 2 2 2 2 2
left_child=1 4 6 14 10 17 15 9 -6 -5 -1 -12 -7 -14 -3 16 -2 18 -4 -18
right_child=2 3 5 7 8 12 -8 -9 -10 -11 11 -13 13 -15 -16 -17 19 -19 -20 -21
leaf_value=8.4285159286802624 15.686637531013183 2.8783640179784347 45.763954322947406 9.9363116546209973 -0.26210300626710187 47.522978626721176 28.511211525521702 7.3020686754836275 0.86971871209598162 15.690237970180139 -1.9659170522057101 -1.1346989292706575 49.315028243290378 59.976282145501457 5.0923012470434159 28.693427663442172 17.5907800570048 44.846536918855179 27.202373271479445 29.67435527599519
leaf_weight=108 394 5905 33 818 34498 156 654 1818 21075 639 17042 86695 106 191 1967 74 95 92 76 92
leaf_count=108 394 5905 33 818 34498 156 654 1818 21075 639 17042 86695 106 191 1967 74 95 92 76 92
internal_value=0 -0.369997 32.1747 5.2495 -0.762931 48.6311 23.9522 9.61913 0.167119 12.3751 -1.26065 -1.27143 53.1979 56.1751 3.43158 19.3993 18.2146 38.3342 32.8298 23.5384
internal_weight=0 170565 1963 11147 159418 654 1309 3275 55573 1457 103845 103737 453 297 7872 655 581 201 109 187
internal_count=172528 170565 1963 11147 159418 654 1309 3275 55573 1457 103845 103737 453 297 7872 655 581 201 109 187
cat_boundaries=0 2 5 8
cat_threshold=128 512 384 512 262144 268435456 2357618688 65536
is_linear=0
shrinkage=0.0799375


Tree=20
num_leaves=21
num_cat=4
split_feature=8 6 9 7 8 7 7 0 0 9 0 0 8 1 1 1 1 6 8 1
split_gain=2.72633e+08 4.98131e+07 3.52896e+07 1.26488e+07 8.37172e+06 3.70261e+06 2.55478e+06 2.33825e+06 1.54609e+06 1.52887e+06 1.41164e+06 1.16884e+06 1.45585e+06 1.03455e+06 1.02064e+06 1.07874e+06 963444 947040 826121 657189
threshold=1067.5500000000002 276.35500000000008 2186.7700000000004 104.26500000000001 599.42000000000019 1534.2750000000003 180.36500000000004 0 1 417.72000000000008 2 3 782.98500000000013 210.50000000000003 271.50000000000006 29.500000000000004 59.500000000000007 65.995000000000019 13.585000000000003 53.500000000000007
decision_type=2 2 2 2 2 2 2 9 9 2 9 9 2 2 2 2 2 2 2 2
left_child=1 3 5 7 9 19 -5 18 -4 -3 -9 -6 -13 16 15 -7 -10 -12 -1 -2
right_child=2 4 8 6 11 14 -8 10 13 -11 17 12 -14 -15 -16 -17 -18 -19 -20 -21
leaf_value=-2.0421114129554163 24.223834855083101 3.4579274588576827 49.217413730660418 0.22671010457769492 12.084739479744774 17.859957755989623 1.6896255466636247 8.008971863349414 36.09415044139007 6.191339292654531 -0.99583271794443462 8.4283076762028859 -8.4735424199602463 37.833182618892913 21.096947878636374 29.588544304822918 19.772951458864846 -0.40364007918067762 -1.2704775861725199 16.797354348050042
leaf_weight=11217 88 3961 450 27777 1174 57 10516 108 39 1952 40912 763 34 108 178 422 57 29844 42300 571
leaf_count=11217 88 3961 450 27777 1174 57 10516 108 39 1952 40912 763 34 108 178 422 57 29844 42300 571
internal_value=0 -0.341179 29.5676 -0.641926 5.86425 22.0247 0.628456 -1.03304 44.7444 4.3603 -0.731475 10.376 7.61157 30.9442 26.2718 28.1937 26.41 -0.745948 -1.43194 17.7898
internal_weight=0 170558 1970 162674 7884 1316 38293 124381 654 5913 70864 1971 797 204 657 479 96 70756 53517 659
internal_count=172528 170558 1970 162674 7884 1316 38293 124381 654 5913 70864 1971 797 204 657 479 96 70756 53517 659
cat_boundaries=0 4 5 8 10
cat_threshold=4094722048 3481757782 419502208 8 128 128 512 16388 128 512
is_linear=0
shrinkage=0.0799375


Tree=21
num_leaves=21
num_cat=0
split_feature=8 9 9 8 9 10 9 9 10 8 9 8 8 4 1 4 4 1 1 10
split_gain=2.31125e+08 4.23863e+07 3.0046e+07 1.04362e+07 7.93532e+06 3.38287e+06 3.05382e+06 1.80881e+06 1.64182e+06 1.51912e+06 986483 983680 1.01803e+06 962192 1.0396e+06 966095 951431 1.15502e+06 1.99739e+06 942149
threshold=1067.5500000000002 229.01000000000002 2186.7700000000004 536.0200000000001 76.035000000000011 1786550.0000000002 1518.2550000000003 124.27500000000002 443150.00000000006 352.52500000000003 693.94500000000005 26.655000000000005 1.0000000180025095e-35 2020.5000000000002 186.50000000000003 2021.5000000000002 2019.5000000000002 231.50000000000003 101.50000000000001 4737900.0000000009
decision_type=2 2 2 2 2 2 2 2 2 2 2 2 2 2 2 2 2 2 2 2
left_child=1 4 6 9 11 -4 19 -6 -5 -3 -10 12 -1 14 -7 -15 -8 18 -18 -2
right_child=2 3 5 8 7 13 16 -9 10 -11 -12 -13 -14 15 -16 -17 17 -19 -20 -21
leaf_value=0.053947881492890037 15.508959598466602 2.3837966127727519 32.268729571198605 6.0945791955951947 -0.24530178846162798 26.383296597217882 21.760547128855134 0.69116655744413813 7.4997714904319732 4.6590802441523183 11.618171828202751 -0.90458897547826167 -1.5655234314795354 49.438084748987016 42.978112385135709 36.938401858000461 26.081746512253538 18.176545122601038 44.607005783154491 26.262668380552107
leaf_weight=2700 605 6539 191 950 35170 30 407 21079 556 2629 1122 69321 30492 260 126 47 138 58 51 57
leaf_count=2700 605 6539 191 950 35170 30 407 21079 556 2629 1122 69321 30492 260 126 47 138 58 51 57
internal_value=0 -0.313812 27.2242 4.30928 -0.657308 41.2281 20.2642 0.105635 8.75025 3.03626 10.2537 -1.07593 -1.43379 44.9225 39.7909 47.5272 24.1389 28.0558 31.0851 16.4357
internal_weight=0 170558 1970 11796 158762 654 1316 56249 2628 9168 1678 102513 33192 463 156 307 654 247 189 662
internal_count=172528 170558 1970 11796 158762 654 1316 56249 2628 9168 1678 102513 33192 463 156 307 654 247 189 662
is_linear=0
shrinkage=0.0799375


Tree=22
num_leaves=21
num_cat=0
split_feature=8 6 9 6 6 6 6 6 6 4 2 2 4 2 3 4 3 9 6 4
split_gain=1.95656e+08 3.5932e+07 2.54352e+07 8.85884e+06 6.7204e+06 2.58734e+06 1.71881e+06 1.21628e+06 1.18356e+06 903171 1.47395e+06 4.6977e+06 835036 769336 849339 972391 877515 762162 703892 679932
threshold=1067.5500000000002 228.73500000000004 2186.7700000000004 474.40000000000003 85.75500000000001 1516.6750000000002 694.09000000000015 154.02500000000003 38.165000000000006 2020.5000000000002 26.500000000000004 31.500000000000004 2017.5000000000002 39.500000000000007 1.5000000000000002 2019.5000000000002 4.5000000000000009 333.22000000000008 1.0000000180025095e-35 2019.5000000000002
decision_type=2 2 2 2 2 2 2 2 2 2 2 2 2 2 2 2 2 2 2 2
left_child=1 4 5 17 8 19 -5 -6 18 12 -11 -12 -8 14 -7 16 -16 -3 -1 -2
right_child=2 3 -4 6 7 13 9 -9 -10 10 11 -13 -14 -15 15 -17 -18 -19 -20 -21
leaf_value=0.049635435990899056 13.508753943367649 2.1052092343023614 37.932963685229169 5.9982546629114735 -0.035330990813063901 14.654695882770644 9.7150314721795183 0.90339409511138202 -0.68936035128826345 11.42521757960535 -27.173024592296436 8.4767541739180814 15.612872812228202 17.625443120861593 14.209741831385509 29.887649671210692 24.764050711672382 3.744969707652833 -1.274499861122522 19.256270972775393
leaf_weight=2700 476 5940 654 1972 34448 57 877 11855 58296 127 32 90 186 174 68 164 195 2606 51429 182
leaf_count=2700 476 5940 654 1972 34448 57 877 11855 58296 127 32 90 186 174 68 164 195 2606 51429 182
internal_value=0 -0.288726 25.0483 3.96128 -0.605479 18.6446 7.49006 0.205012 -0.939286 9.73219 5.39801 -0.877115 10.7473 22.1895 23.8294 25.0533 22.0366 2.60524 -1.20845 15.0991
internal_weight=0 170558 1970 11830 158728 1316 3284 46303 112425 1312 249 122 1063 658 484 427 263 8546 54129 658
internal_count=172528 170558 1970 11830 158728 1316 3284 46303 112425 1312 249 122 1063 658 484 427 263 8546 54129 658
is_linear=0
shrinkage=0.0799375


Tree=23
num_leaves=21
num_cat=0
split_feature=8 7 9 7 8 10 7 7 7 10 4 3 3 3 10 9 4 3 3 3
split_gain=1.65627e+08 3.0468e+07 2.15311e+07 8.36217e+06 4.60562e+06 2.86828e+06 2.28397e+06 1.89255e+06 1.41994e+06 881883 870249 924568 883347 835973 819893 791739 770727 825848 1.33888e+06 767132
threshold=1067.5500000000002 292.24500000000006 2186.7700000000004 116.39500000000002 599.42000000000019 2003678.5000000002 1534.2750000000003 57.295000000000009 191.66000000000003 5068750.0000000009 2020.5000000000002 3.5000000000000004 7.5000000000000009 10.500000000000002 218717.50000000003 417.72000000000008 2018.5000000000002 6.5000000000000009 10.500000000000002 1.5000000000000002
decision_type=2 2 2 2 2 2 2 2 2 2 2 2 2 2 2 2 2 2 2 2
left_child=1 3 6 7 15 13 9 -1 -5 -2 12 -12 -7 -4 -6 -3 17 -8 -19 -18
right_child=2 4 5 8 14 10 16 -9 -10 -11 11 -13 -14 -15 -16 -17 19 18 -20 -21
leaf_value=-1.0128218774750861 13.017007221472044 2.8232944485311418 24.210984419870844 0.3333723375017611 5.1190008020225495 24.799537902784824 5.4051126312843065 -0.39141696140539328 1.512071095384385 24.381241945581774 34.876631116482443 44.253986442529964 37.714387769562194 36.693747087679739 9.0006175970986391 4.8553595708839614 13.590665931711738 24.472131994579303 6.7659926707381244 23.244105663134366
leaf_weight=80361 612 3291 157 22456 451 50 38 51318 9209 47 104 193 106 44 1520 1952 60 86 40 433
leaf_count=80361 612 3291 157 22456 451 50 38 51318 9209 47 104 193 106 44 1520 1952 60 86 40 433
internal_value=0 -0.265646 23.0461 -0.490175 4.81828 34.9008 17.1543 -0.770648 0.676169 13.8283 38.4285 40.9731 33.579 26.9471 8.1125 3.57986 20.49 15.7383 18.8532 22.0699
internal_weight=0 170558 1970 163344 7214 654 1316 131679 31665 659 453 297 156 201 1971 5243 657 164 126 493
internal_count=172528 170558 1970 163344 7214 654 1316 131679 31665 659 453 297 156 201 1971 5243 657 164 126 493
is_linear=0
shrinkage=0.0799375


Tree=24
num_leaves=21
num_cat=4
split_feature=8 6 9 0 0 10 9 6 9 6 0 8 10 0 1 1 6 1 1 1
split_gain=1.4021e+08 2.58972e+07 1.82272e+07 6.09708e+06 5.74454e+06 2.43691e+06 1.87784e+06 1.76877e+06 1.39262e+06 1.16582e+06 1.14304e+06 914118 768488 633276 628781 662856 605953 561680 968121 501810
threshold=1067.5500000000002 236.28500000000003 2186.7700000000004 0 1 1786550.0000000002 1518.2550000000003 389.38500000000005 24.195000000000004 162.55500000000004 2 782.98500000000013 3098950.0000000005 3 271.50000000000006 33.500000000000007 694.09000000000015 203.50000000000003 131.50000000000003 164.50000000000003
decision_type=2 2 2 9 9 2 2 2 2 2 9 2 2 9 2 2 2 2 2 2
left_child=1 4 6 16 9 17 12 -5 -6 10 -1 -9 -2 -10 15 -8 -3 18 -4 -7
right_child=2 3 5 7 8 19 14 11 13 -11 -12 -13 -14 -15 -16 -17 -18 -19 -20 -21
leaf_value=8.1671455302508402 11.5909137292781 6.0033765381916577 28.945800281150241 1.9612442814048601 -1.3152206750652702 31.870810183459596 12.468864007403738 4.4306750595423674 -0.3482616051023496 1.1047253258287641 0.043247003096887698 -8.7457489880566222 19.019819425756157 -0.80106769895367902 14.748468625466804 21.463021657473202 9.2692726860743306 28.312223511050512 11.610529215980526 37.314364396019648
leaf_weight=101 556 563 38 6498 26093 176 60 3052 29549 8638 35247 34 106 59760 177 417 1023 108 45 287
leaf_count=101 556 563 38 6498 26093 176 60 3052 29549 8638 35247 34 106 59760 177 417 1023 108 45 287
internal_value=0 -0.244411 21.2041 3.47644 -0.50517 32.1114 15.7832 2.70681 -0.801409 0.272164 0.0687871 4.28544 12.781 -0.65138 18.8216 20.3323 8.05922 24.5083 19.5526 35.2467
internal_weight=0 170558 1970 11170 159388 654 1316 9584 115402 43986 35348 3086 662 89309 654 477 1586 191 83 463
internal_count=172528 170558 1970 11170 159388 654 1316 9584 115402 43986 35348 3086 662 89309 654 477 1586 191 83 463
cat_boundaries=0 2 6 8 11
cat_threshold=128 512 54873754 806879872 16573952 6 262272 512 9044320 1073874208 1677856845
is_linear=0
shrinkage=0.0799375


Tree=25
num_leaves=21
num_cat=0
split_feature=6 6 7 7 7 7 7 6 6 4 1 1 1 1 7 4 1 4 4 1
split_gain=1.18598e+08 2.20299e+07 1.53461e+07 5.45337e+06 4.08089e+06 1.66572e+06 1.25415e+06 843527 771377 724734 1.08318e+06 1.52292e+06 817808 654974 567753 982958 736725 715223 835875 813955
threshold=1081.0950000000003 266.25500000000005 2211.6300000000006 112.05500000000002 605.17500000000007 1534.2750000000003 57.295000000000009 189.57000000000002 416.84500000000008 2019.5000000000002 230.50000000000003 105.50000000000001 322.50000000000006 117.50000000000001 791.18000000000018 2016.5000000000002 299.50000000000006 2017.5000000000002 2020.5000000000002 117.50000000000001
decision_type=2 2 2 2 2 2 2 2 2 2 2 2 2 2 2 2 2 2 2 2
left_child=1 3 5 6 8 -2 -1 -5 -3 13 11 -11 -12 -7 -6 -16 17 19 -19 -17
right_child=2 4 -4 7 14 9 -8 -9 -10 10 12 -13 -14 -15 15 16 -18 18 -20 -21
leaf_value=-0.86172814314062529 11.679743583541182 2.2086963741289432 29.50592449643861 0.25707989655269586 5.9663833461340356 9.0126517590517032 -0.34749994279683372 1.2043306989901141 4.0971137281276642 19.795956877533833 2.4374835828827619 36.823727468124865 20.950054625815678 16.935053452196055 -2.9807299004493615 1.0247582217632738 16.427973862589219 15.556262919786889 -0.66069299539862014 9.1307114646595124
leaf_weight=80361 657 4600 655 25102 1312 84 48657 7897 1976 142 31 44 30 325 42 115 88 132 24 254
leaf_count=80361 657 4600 655 25102 1312 84 48657 7897 1976 142 31 44 30 325 42 115 88 132 24 254
internal_value=0 -0.224636 19.5117 -0.43325 3.7317 14.5256 -0.667796 0.483767 2.77615 17.3753 20.7959 23.8278 11.5462 15.3085 6.92618 8.84843 9.65899 8.52376 13.0616 6.60467
internal_weight=0 170560 1968 162017 8543 1313 129018 32999 6576 656 247 186 61 409 1967 655 613 525 156 369
internal_count=172528 170560 1968 162017 8543 1313 129018 32999 6576 656 247 186 61 409 1967 655 613 525 156 369
is_linear=0
shrinkage=0.0799375


Tree=26
num_leaves=21
num_cat=5
split_feature=6 0 7 7 0 0 0 10 7 7 4 4 6 7 6 0 4 2 2 2
split_gain=1.00397e+08 1.92992e+07 1.29906e+07 6.54683e+06 2.45578e+06 2.34694e+06 1.49537e+06 1.4844e+06 1.41019e+06 1.32842e+06 1.31185e+06 1.05826e+06 934196 928182 905579 818683 1.24309e+06 1.28088e+06 792691 717538
threshold=1081.0950000000003 0 2211.6300000000006 119.61500000000002 1 2 3 1723100.0000000002 1534.2750000000003 213.77500000000003 2020.5000000000002 2017.5000000000002 7.495000000000001 21.025000000000002 148.02500000000003 4 2018.5000000000002 43.500000000000007 25.500000000000004 13.500000000000002
decision_type=2 9 2 2 9 9 9 2 2 2 2 2 2 2 2 9 2 2 2 2
left_child=1 4 8 6 11 10 -3 -7 15 -5 18 -1 -6 -8 -14 -2 -17 -18 -4 -12
right_child=2 3 5 9 12 7 13 -9 -10 -11 19 -13 14 -15 -16 16 17 -19 -20 -21
leaf_value=6.5420917785803558 17.550550704757065 -0.078392482077129441 11.136367738569801 0.34388911980657483 13.813169407209001 19.754395025110387 -1.2225918287112405 -3.1669751852636883 15.986617955192086 1.4852274722711192 29.324810985740861 13.607195648216576 -3.0561763776357642 -0.62439877984698977 3.4808306033313308 2.9548181958430368 9.4876841154438374 22.179123992638392 27.847020237093222 37.60671653956836
leaf_weight=1493 111 27464 21 22757 54 185 20567 20 656 9131 104 149 141 85394 3410 154 332 60 135 190
leaf_count=1493 111 27464 21 22757 54 185 20567 20 656 9131 104 149 141 85394 3410 154 332 60 135 190
internal_value=0 -0.206678 17.9521 -0.358276 4.56155 27.1474 -0.604225 16.7033 13.3646 0.670708 30.8475 7.13989 3.37064 -0.740438 3.22125 10.7461 8.87815 11.4314 25.5993 34.6794
internal_weight=0 170560 1968 165313 5247 655 133425 205 1313 31888 450 1642 3605 105961 3551 657 546 392 156 294
internal_count=172528 170560 1968 165313 5247 655 133425 205 1313 31888 450 1642 3605 105961 3551 657 546 392 156 294
cat_boundaries=0 2 4 5 9 10
cat_threshold=262272 1049088 128 512 128 54611794 805831040 620553728 6 128
is_linear=0
shrinkage=0.0799375


Tree=27
num_leaves=21
num_cat=0
split_feature=8 8 9 6 8 10 4 10 6 6 3 4 3 3 4 3 10 4 3 3
split_gain=8.50901e+07 1.59717e+07 1.10544e+07 4.91727e+06 1.87688e+06 1.71399e+06 1.2738e+06 1.41794e+06 1.2058e+06 775878 744982 713527 663000 589598 549851 508239 505913 568464 724863 569061
threshold=1067.5500000000002 328.62000000000006 2186.7700000000004 121.51500000000001 599.42000000000019 2167276.0000000005 2019.5000000000002 2238050.0000000005 61.295000000000009 200.87500000000003 10.500000000000002 2020.5000000000002 7.5000000000000009 10.500000000000002 2018.5000000000002 3.5000000000000004 4585100.0000000009 2020.5000000000002 10.500000000000002 2.5000000000000004
decision_type=2 2 2 2 2 2 2 2 2 2 2 2 2 2 2 2 2 2 2 2
left_child=1 3 6 8 -3 10 7 -2 -1 -5 -4 12 -7 -9 -15 -13 17 18 19 -8
right_child=2 4 5 9 -6 11 16 13 -10 -11 -12 15 -14 14 -16 -17 -18 -19 -20 -21
leaf_value=-0.7188732219757904 6.7530261161412408 2.8843687987789686 16.667843758874092 0.32588114851754313 5.9054106932372887 15.953714440727316 17.485124143639741 14.480993669373611 -0.22326866975660586 1.2141022887345319 27.877215978011836 25.717934063008542 27.134253234398184 2.5277808593492357 15.795697275758444 32.839397135752982 24.179584104835193 20.524270437301865 23.031812892741829 9.2981701772750185
leaf_weight=86385 367 3943 168 19796 1971 50 77 427 49256 9207 49 100 106 56 31 181 42 90 42 184
leaf_count=86385 367 3943 168 19796 1971 50 77 427 49256 9207 49 100 106 56 31 181 42 90 42 184
internal_value=0 -0.190287 16.5186 -0.336895 3.89123 25.0129 12.297 10.5489 -0.538902 0.607848 19.2015 27.8975 23.5534 13.2588 7.25815 30.3072 15.8367 14.9438 13.2849 11.7147
internal_weight=0 170558 1970 164644 5914 654 1316 881 135641 29003 217 437 156 514 87 281 435 393 303 261
internal_count=172528 170558 1970 164644 5914 654 1316 881 135641 29003 217 437 156 514 87 281 435 393 303 261
is_linear=0
shrinkage=0.0799375


Tree=28
num_leaves=21
num_cat=0
split_feature=6 6 6 6 6 10 4 10 4 1 1 6 6 4 1 2 4 6 6 10
split_gain=7.20065e+07 1.35779e+07 9.25203e+06 3.72509e+06 2.07431e+06 1.47014e+06 1.08496e+06 1.23859e+06 882845 736157 1.17289e+06 713467 670605 624876 682862 582959 646781 512224 512651 472453
threshold=1081.0950000000003 289.24500000000006 2169.5450000000005 100.86500000000002 602.3950000000001 2167276.0000000005 2019.5000000000002 2003678.5000000002 2018.5000000000002 192.50000000000003 59.500000000000007 42.545000000000009 168.69500000000002 2020.5000000000002 169.50000000000003 43.500000000000007 2018.5000000000002 1.0000000180025095e-35 12.305000000000001 218717.50000000003
decision_type=2 2 2 2 2 2 2 2 2 2 2 2 2 2 2 2 2 2 2 2
left_child=1 3 6 11 -3 9 7 -2 -5 10 -4 17 -10 14 -7 -9 -17 -1 -19 -6
right_child=2 4 5 8 19 13 -8 15 12 -11 -12 -13 -14 -15 -16 16 -18 18 -20 -21
leaf_value=0.33589111373229152 5.7523748492751849 2.3858666496308838 21.048371584726901 -0.088583502314347543 3.1069136939421367 7.7695192898132381 14.586305256824071 13.272181953825335 0.35368142164011718 21.301402448855331 2.2678893987561022 -0.35508728366356995 1.2624692504011155 27.88488780468392 23.592231915149188 1.777076157128505 14.374885548825501 -1.3035158141002907 -0.67957527986737432 6.0862894599197155
leaf_weight=2700 321 5257 43 17327 437 20 436 446 15037 133 42 62858 7922 281 137 66 43 10238 47249 1535
leaf_count=2700 321 5257 43 17327 437 20 436 446 15037 133 42 62858 7922 281 137 66 43 10238 47249 1535
internal_value=0 -0.174954 15.2035 -0.325003 3.21522 22.9548 11.3276 9.70532 0.342172 17.5871 11.7715 -0.543442 0.667259 25.6253 21.5779 11.9913 6.7487 -0.740156 -0.790695 5.42609
internal_weight=0 170560 1968 163331 7229 656 1312 876 40286 218 85 123045 22959 438 157 555 109 60187 57487 1972
internal_count=172528 170560 1968 163331 7229 656 1312 876 40286 218 85 123045 22959 438 157 555 109 60187 57487 1972
is_linear=0
shrinkage=0.0799375


Tree=29
num_leaves=21
num_cat=0
split_feature=7 7 7 7 6 7 4 4 1 4 6 4 1 1 4 2 1 1 1 2
split_gain=6.13144e+07 1.11e+07 9.00754e+06 2.17588e+06 1.90699e+06 1.70435e+06 928610 927939 621486 660810 934678 552108 689058 600189 497203 858570 798515 603012 589242 972312
threshold=791.18000000000018 2211.6300000000006 219.41500000000002 74.195000000000007 416.84500000000008 1534.2750000000003 2018.5000000000002 2016.5000000000002 299.50000000000006 2018.5000000000002 1081.0950000000003 2017.5000000000002 117.50000000000001 57.500000000000007 2018.5000000000002 22.500000000000004 298.50000000000006 217.50000000000003 33.500000000000007 31.500000000000004
decision_type=2 2 2 2 2 2 2 2 2 2 2 2 2 2 2 2 2 2 2 2
left_child=2 5 3 -1 -4 7 -5 -2 11 10 -10 12 -9 -13 15 -7 17 -17 -16 -20
right_child=1 -3 4 6 -6 14 -8 8 9 -11 -12 13 -14 -15 18 16 -18 -19 19 -21
leaf_value=-0.5745205102069999 -4.2233719896270898 21.142530419334268 1.2895201977362762 -0.26559970399615485 3.5328126872008334 -6.4460194740791508 0.38031237336840601 -0.53839690782281713 13.527885756746908 18.828092283776083 -0.85054734167679114 12.734512244248664 6.9194656887252961 7.1563846833503462 6.4379709216608694 7.4742811809774325 1.7474249838677784 20.056037158921725 17.747339318722187 9.9098370628187968
leaf_weight=100438 42 655 9188 29686 3288 21 27305 115 88 62 43 159 254 549 62 42 43 58 267 163
leaf_count=100438 42 655 9188 29686 3288 21 27305 115 88 62 43 159 254 549 62 42 43 58 267 163
internal_value=0 12.1288 -0.186809 -0.350659 1.88074 9.12867 0.0438637 7.46501 7.85162 12.0292 8.80887 7.10277 4.5953 8.40945 12.4556 8.64175 10.8581 14.7744 13.7265 14.777
internal_weight=0 2623 169905 157429 12476 1968 56991 1312 1270 193 131 1077 369 708 656 164 143 100 492 430
internal_count=172528 2623 169905 157429 12476 1968 56991 1312 1270 193 131 1077 369 708 656 164 143 100 492 430
is_linear=0
shrinkage=0.0799375


Tree=30
num_leaves=21
num_cat=6
split_feature=0 4 0 0 0 4 4 4 1 0 6 4 0 7 6 1 7 6 1 6
split_gain=5.19457e+07 1.26069e+07 6.07134e+06 3.84566e+06 1.89853e+06 1.36408e+06 1.25442e+06 1.10656e+06 1.04682e+06 983527 905234 889024 883855 761210 707721 699247 649590 647158 601060 589428
threshold=0 2019.5000000000002 1 2 3 2020.5000000000002 2017.5000000000002 2018.5000000000002 299.50000000000006 4 7.495000000000001 2018.5000000000002 5 1093.7850000000001 276.35500000000008 197.50000000000003 1534.2750000000003 787.35500000000013 117.50000000000001 148.02500000000003
decision_type=9 2 9 9 9 2 2 2 2 9 2 2 9 2 2 2 2 2 2 2
left_child=1 6 4 5 10 -3 14 -4 -5 -9 -2 -6 16 -14 -1 -16 -8 19 -18 -12
right_child=2 3 7 8 11 -7 12 9 -10 -11 17 -13 13 -15 15 -17 18 -19 -20 -21
leaf_value=13.914105004393278 12.785925697279335 17.645641427783943 -0.64674765227554809 9.7940489934779382 0.16680792245695775 25.656339508995625 17.246894788292607 0.19191722338481434 19.104246093233133 -0.45101360979109006 -2.6043510559028968 1.0611854526464117 10.684792075462459 3.8739618173570505 2.905390119468334 6.4113601438559051 3.846890572776092 -9.3274448132431331 11.433747886272188 2.6704564193239366
leaf_weight=54 54 253 73502 454 15972 294 94 25572 93 37479 141 12788 149 354 754 702 84 30 325 3380
leaf_count=54 54 253 73502 454 15972 294 94 25572 93 37479 141 12788 149 354 754 702 84 30 325 3380
internal_value=0 9.47511 -0.202639 16.6652 0.781601 21.5579 6.38629 -0.435958 11.1734 -0.190297 2.50887 0.564293 8.57312 5.77701 4.92927 4.59584 11.0346 2.35958 9.87585 2.45921
internal_weight=0 3610 168918 1094 32365 547 2516 136553 547 63051 3605 28760 1006 503 1510 1456 503 3551 409 3521
internal_count=172528 3610 168918 1094 32365 547 2516 136553 547 63051 3605 28760 1006 503 1510 1456 503 3551 409 3521
cat_boundaries=0 2 6 7 9 13 14
cat_threshold=128 512 54790146 806355072 7882240 4 128 262144 1048576 76240765 1074267168 1644601421 2 128
is_linear=0
shrinkage=0.0799375


Tree=31
num_leaves=21
num_cat=4
split_feature=7 7 0 0 0 6 0 7 4 4 7 4 4 1 1 1 4 1 1 4
split_gain=4.39867e+07 7.94474e+06 6.61177e+06 2.73826e+06 1.68619e+06 1.55061e+06 1.37831e+06 1.21711e+06 781615 728804 682246 596110 579504 550407 541413 613566 534829 524441 523834 542684
threshold=791.18000000000018 2211.6300000000006 0 1 2 7.495000000000001 3 1534.2750000000003 2016.5000000000002 2020.5000000000002 419.50500000000005 2018.5000000000002 2020.5000000000002 97.500000000000014 210.50000000000003 59.500000000000007 2018.5000000000002 211.50000000000003 299.50000000000006 2018.5000000000002
decision_type=2 2 9 9 9 2 9 2 2 2 2 2 2 2 2 2 2 2 2 2
left_child=2 7 3 5 9 -1 11 8 -2 17 -7 -4 -8 -11 15 -6 -5 -3 -10 -20
right_child=1 4 6 16 14 10 12 -9 18 13 -12 -13 -14 -15 -16 -17 -18 -19 19 -21
leaf_value=12.285703614222458 -4.3981855549817368 9.8801749632303135 -0.28726819881728044 0.28068673075806128 13.930443522574617 1.3570307255406062 -0.64308648511844613 10.546318907519048 5.9963054855648918 19.024209811196624 3.3798442651077414 0.2464995899653501 -0.11090735068916267 26.22453887729483 14.410224654702802 0.96571281923142327 1.1158200176009676 19.929628815308085 7.6008435124445848 16.680262446075929
leaf_weight=108 42 48 29045 11068 39 1743 75835 656 1077 107 2741 24773 15799 187 108 58 8793 108 131 62
leaf_count=108 42 48 29045 11068 39 1743 75835 656 1077 107 2741 24773 15799 187 108 58 8793 108 131 62
internal_value=0 10.273 -0.158224 1.05771 17.8987 2.81543 -0.362692 7.73485 6.32896 20.7987 2.59356 -0.0415614 -0.551271 23.6056 10.028 6.18026 0.650096 16.8393 6.68379 10.5191
internal_weight=0 2623 169905 24453 655 4592 145452 1968 1312 450 4484 53818 91634 294 205 97 19861 156 1270 193
internal_count=172528 2623 169905 24453 655 4592 145452 1968 1312 450 4484 53818 91634 294 205 97 19861 156 1270 193
cat_boundaries=0 3 5 6 10
cat_threshold=38013058 269484672 7880704 262272 1049088 128 17516120 537396513 1686545993 6
is_linear=0
shrinkage=0.0799375


Tree=32
num_leaves=21
num_cat=0
split_feature=7 7 6 7 6 7 10 1 10 10 1 1 1 1 10 10 8 6 1 1
split_gain=3.72361e+07 6.72569e+06 5.69071e+06 1.43528e+06 1.17132e+06 1.0303e+06 807630 529368 398284 371079 366491 487946 321301 768586 550147 350941 307424 507599 297745 763290
threshold=791.18000000000018 2211.6300000000006 189.57000000000002 392.46000000000009 67.575000000000003 1534.2750000000003 2167276.0000000005 308.50000000000006 8497950.0000000019 2454200.0000000005 271.50000000000006 33.500000000000007 129.50000000000003 53.500000000000007 4016275.0000000005 811325.00000000012 23.985000000000003 1.0000000180025095e-35 47.500000000000007 192.50000000000003
decision_type=2 2 2 2 2 2 2 2 2 2 2 2 2 2 2 2 2 2 2 2
left_child=2 5 4 -4 16 8 7 18 12 -8 11 -7 13 -2 -15 -14 17 -1 -3 -20
right_child=1 6 3 -5 -6 10 9 -9 -10 -11 -12 -13 15 14 -16 -17 -18 -19 19 -21
leaf_value=0.3438941712050011 8.2444510143507372 16.983016508336409 0.86058844326790884 2.6223076578016471 -0.016541247919470144 4.2389021923466776 25.798123754077046 20.325350774754824 16.484337921021215 17.70977319206364 6.6056242282191873 11.842482758060623 -3.6153990793283985 0.13784076348597502 10.445413820458402 6.8488930121548997 -0.37733093745805085 -0.81116859003793651 0.80389414858673136 13.227198896142115
leaf_weight=2700 169 36 11848 3937 59714 62 40 44 22 397 178 416 21 255 38 807 67292 24414 49 89
leaf_count=2700 169 36 11848 3937 59714 62 40 44 22 397 178 416 21 255 38 807 67292 24414 49 89
internal_value=0 9.45193 -0.145576 1.29999 -0.293631 7.11658 16.4682 12.4915 5.82308 18.4514 9.7033 10.8565 5.64099 3.95175 1.47533 6.58341 -0.468897 -0.696148 10.5083 8.81684
internal_weight=0 2623 169905 15785 154120 1968 655 218 1312 437 656 478 1290 462 293 828 94406 27114 174 138
internal_count=172528 2623 169905 15785 154120 1968 655 218 1312 437 656 478 1290 462 293 828 94406 27114 174 138
is_linear=0
shrinkage=0.0799375


Tree=33
num_leaves=21
num_cat=6
split_feature=0 4 0 0 0 4 4 0 1 4 6 0 6 6 6 1 10 4 1 1
split_gain=3.20633e+07 7.94741e+06 3.86526e+06 2.35691e+06 1.08866e+06 855026 850711 750588 730931 680977 663440 603307 608624 569894 543716 549078 537785 530110 466619 462452
threshold=0 2019.5000000000002 1 2 3 2018.5000000000002 2020.5000000000002 4 299.50000000000006 2017.5000000000002 7.495000000000001 5 1081.0950000000003 787.35500000000013 276.35500000000008 197.50000000000003 1909450.0000000002 2019.5000000000002 101.50000000000001 97.500000000000014
decision_type=9 2 9 9 9 2 2 9 2 2 2 9 2 2 2 2 2 2 2 2
left_child=1 9 4 6 10 -4 -3 -7 16 14 -2 -11 -13 -12 -1 -16 -5 -6 -19 -8
right_child=2 3 5 8 17 7 19 -9 -10 11 13 12 -14 -15 15 -17 -18 18 -20 -21
leaf_value=11.793105289589313 10.755073936245802 13.896869147527187 -0.52290069709827192 9.117937162796105 0.24494647374551037 -0.48102645905597979 16.024630476400464 0.086246804402897143 15.463382839831276 8.6165960882064621 1.922678094431123 8.7440794972874034 2.6301112551404113 -9.137962413654952 2.1277182242092527 5.2344612178412389 2.4051486466012633 0.14819369556679324 1.4342225515433524 22.623218278105828
leaf_weight=54 54 253 74508 357 18747 23689 107 40161 93 503 3521 147 356 30 754 702 97 2674 5534 187
leaf_count=54 54 253 74508 357 18747 23689 107 40161 93 503 3521 147 356 30 754 702 97 2674 5534 187
internal_value=0 7.44412 -0.159202 13.1527 0.654294 -0.338919 16.9872 -0.124279 8.8454 4.99144 1.95752 6.60268 4.33109 1.82918 3.91791 3.62567 7.68389 0.479336 1.01526 20.223
internal_weight=0 3610 168918 1094 30560 138358 547 63850 547 2516 3605 1006 503 3551 1510 1456 454 26955 8208 294
internal_count=172528 3610 168918 1094 30560 138358 547 63850 547 2516 3605 1006 503 3551 1510 1456 454 26955 8208 294
cat_boundaries=0 2 6 7 9 13 14
cat_threshold=128 512 54790146 806355072 7881216 4 128 262144 1048576 4163928064 2407950420 159451266 8 128
is_linear=0
shrinkage=0.0799375


Tree=34
num_leaves=21
num_cat=0
split_feature=7 7 7 7 4 7 4 10 1 1 4 1 7 1 1 10 4 4 1 4
split_gain=2.67106e+07 4.76272e+06 4.2269e+06 1.18069e+06 947849 756812 597190 561889 492623 427803 834150 405401 546913 758817 1.52159e+06 657640 399587 399284 398320 389606
threshold=791.18000000000018 2211.6300000000006 177.00500000000002 419.50500000000005 2018.5000000000002 66.075000000000003 2016.5000000000002 2167276.0000000005 125.50000000000001 85.500000000000014 2017.5000000000002 299.50000000000006 1534.2750000000003 215.50000000000003 93.500000000000014 4148100.0000000005 2019.5000000000002 2019.5000000000002 308.50000000000006 2018.5000000000002
decision_type=2 2 2 2 2 2 2 2 2 2 2 2 2 2 2 2 2 2 2 2
left_child=2 4 5 -4 6 -1 -2 18 9 10 -8 12 -6 14 15 -14 -16 -15 -3 -7
right_child=1 7 3 -5 11 19 8 -9 -10 -11 -12 -13 13 17 16 -17 -18 -19 -20 -21
leaf_value=-0.40642620600523277 -5.0122068610147181 8.8723642133477298 0.72242233020963165 2.3952239994249602 5.097409711783409 -0.22920941268002057 -2.5534345169439332 15.563823906778483 5.9438014917056554 -1.819225503090443 8.5450740111787216 11.854236287475118 9.4990542684652297 6.5599252120598734 13.572066806245376 -0.70843998634736971 22.122517564018708 -4.6420289614009658 17.387865738538416 0.18034045506792862
leaf_weight=91743 42 174 15126 3281 413 32273 69 437 660 114 116 137 123 59 84 60 60 31 44 27482
leaf_count=91743 42 174 15126 3281 413 32273 69 437 660 114 116 137 123 59 84 60 60 31 44 27482
internal_value=0 8.0054 -0.123256 1.0206 6.04017 -0.262234 4.31575 13.9097 4.72437 2.03242 4.40581 7.82509 7.15975 9.20194 10.9908 6.15264 17.1375 2.70128 10.5926 -0.0408528
internal_weight=0 2623 169905 18407 1968 151498 1001 655 959 299 185 967 830 417 327 183 144 90 218 59755
internal_count=172528 2623 169905 18407 1968 151498 1001 655 959 299 185 967 830 417 327 183 144 90 218 59755
is_linear=0
shrinkage=0.0799375


Tree=35
num_leaves=21
num_cat=0
split_feature=7 7 6 7 8 7 10 2 2 10 10 6 6 2 3 10 2 2 10 10
split_gain=2.26114e+07 4.03177e+06 3.62425e+06 866769 713982 571254 476502 335675 504018 313847 294035 293490 409867 291524 381313 248921 246875 697906 255329 246807
threshold=791.18000000000018 2211.6300000000006 217.43500000000003 80.395000000000024 536.0200000000001 1534.2750000000003 1632650.0000000002 23.500000000000004 21.500000000000004 8497950.0000000019 2566450.0000000005 23.125000000000004 1.0000000180025095e-35 39.500000000000007 1.5000000000000002 5598425.0000000009 17.500000000000004 10.500000000000002 811325.00000000012 1602639.0000000002
decision_type=2 2 2 2 2 2 2 2 2 2 2 2 2 2 2 2 2 2 2 2
left_child=2 5 3 11 -4 9 -3 8 -8 16 -9 12 -1 14 -7 -15 17 -2 -18 -16
right_child=1 6 4 -5 -6 13 7 10 -10 -11 -12 -13 -14 15 19 -17 18 -19 -20 -21
leaf_value=0.34324395467840219 5.7187896975524692 9.3198837593193122 0.9352085763001613 0.05103666852806861 2.5916409328050345 2.5370499287467347 13.022128556414334 20.936729582280829 0.32472232994302769 14.057874307612169 14.54441163483601 -0.27420216903072808 -0.69930809980094488 6.2229019061860189 14.623325386369331 -1.2346352409293901 -3.4975525560277823 -0.81661851650788442 5.4227993278446656 8.638185211982579
leaf_weight=2700 238 182 10519 51641 1975 60 152 57 23 22 241 80666 22404 139 50 36 21 186 845 371
leaf_count=2700 238 182 10519 51641 1975 60 152 57 23 22 241 80666 22404 139 50 36 21 186 845 371
internal_value=0 7.36554 -0.113403 -0.217417 1.19705 5.55739 12.7979 14.1357 11.3536 4.59422 15.7685 -0.348486 -0.587179 7.48352 8.50006 4.68881 4.4326 2.85194 5.2064 9.34972
internal_weight=0 2623 169905 157411 12494 1968 655 473 175 1312 298 105770 25104 656 481 175 1290 424 866 421
internal_count=172528 2623 169905 157411 12494 1968 655 473 175 1312 298 105770 25104 656 481 175 1290 424 866 421
is_linear=0
shrinkage=0.0799375


Tree=36
num_leaves=21
num_cat=5
split_feature=0 7 0 0 10 7 0 8 0 7 10 10 7 7 2 2 7 7 2 3
split_gain=1.99552e+07 4.33854e+06 2.5954e+06 1.05267e+06 1.24052e+06 698716 649748 683654 647612 580012 528664 419268 386809 378857 285920 327832 318685 265839 246785 350975
threshold=0 2211.6300000000006 1 2 1723100.0000000002 1534.2750000000003 3 782.98500000000013 4 7.535000000000001 2454200.0000000005 526450.00000000012 10.025 149.58500000000004 17.500000000000004 11.500000000000002 1093.7850000000001 164.26500000000001 39.500000000000007 3.5000000000000004
decision_type=9 2 9 9 2 2 9 2 9 2 2 2 2 2 2 2 2 2 2 2
left_child=1 5 6 10 -5 11 7 9 -4 -2 -3 -1 -10 -11 15 16 -13 -8 19 -7
right_child=2 3 8 4 -6 18 17 -9 12 13 -12 14 -14 -15 -16 -17 -18 -19 -20 -21
leaf_value=10.821943151881047 9.9007280553243699 21.278262328124878 -0.044229678243020147 8.2973191191544178 -12.650550564319667 4.989819972208708 0.18655040255043812 -9.7049878006208612 -0.8701509920166498 -2.5051200356445875 13.214233727992173 2.4038965708051583 -0.34009194177866009 1.723868608274876 4.3958839616402923 0.31205527909487385 6.9503962955699645 0.70887350482800182 4.3140473181929204 9.4684330718186658
leaf_weight=55 54 60 52148 185 20 177 13814 34 9914 141 390 327 78101 3376 1497 279 141 11336 175 304
leaf_count=55 54 60 52148 185 20 177 13814 34 9914 141 390 327 78101 3376 1497 279 141 11336 175 304
internal_value=0 5.87272 -0.125563 11.775 5.96173 4.58423 0.566105 1.56879 -0.267492 1.68058 13.9798 3.92755 -0.399753 1.55431 3.75847 2.48099 3.77393 0.421813 6.88539 7.82067
internal_weight=0 3610 168918 655 205 2955 28755 3605 140163 3571 450 2299 88015 3517 2244 747 468 25150 656 481
internal_count=172528 3610 168918 655 205 2955 28755 3605 140163 3571 450 2299 88015 3517 2244 747 468 25150 656 481
cat_boundaries=0 2 6 7 9 13
cat_threshold=128 512 54790146 269484160 7881216 4 128 262144 1048576 9127512 537395489 1720099929 2
is_linear=0
shrinkage=0.0799375


Tree=37
num_leaves=21
num_cat=0
split_feature=7 4 7 7 4 7 7 4 10 10 2 3 4 10 2 10 2 4 4 2
split_gain=1.63058e+07 2.94531e+06 2.62895e+06 787916 590369 535561 461969 479649 396053 342092 337466 697836 333868 323125 359736 577466 466394 1.0575e+06 274970 263738
threshold=791.18000000000018 2019.5000000000002 170.37500000000003 392.46000000000009 2016.5000000000002 2211.6300000000006 42.875000000000007 2016.5000000000002 2003678.5000000002 2167276.0000000005 27.500000000000004 2.5000000000000004 2021.5000000000002 962750.00000000012 15.500000000000002 4283550.0000000009 10.500000000000002 2020.5000000000002 2018.5000000000002 18.500000000000004
decision_type=2 2 2 2 2 2 2 2 2 2 2 2 2 2 2 2 2 2 2 2
left_child=2 4 6 18 -2 13 -1 -8 -6 10 11 -7 -5 -3 16 -16 -15 -18 -4 -10
right_child=1 5 3 12 8 9 7 -9 19 -11 -12 -13 -14 14 15 -17 17 -19 -20 -21
leaf_value=-0.38165027820419456 -5.3962298150996988 -0.3417334703972621 0.084427383183862087 1.962540194302582 2.6953946821468668 11.465617557811491 -0.41491322221617394 0.011104950995027748 3.3413409584506182 12.124500885821048 10.759849064691609 -3.0183597980110277 -1.2354249329080109 8.1548201907732594 8.5729449714093686 21.204394593146169 -6.862083668267088 14.77788918235705 0.77506839147428819 6.3555036535569442
leaf_weight=60208 42 33 5854 3716 627 43 22529 67441 278 437 133 42 221 128 209 26 46 21 9936 558
leaf_count=60208 42 33 5854 3716 627 43 22529 67441 278 437 133 42 221 128 209 26 46 21 9936 558
internal_value=0 6.25478 -0.0963005 0.771283 3.94598 9.36265 -0.210264 -0.0955725 4.21425 10.8338 8.24562 4.30986 1.78302 7.28098 7.86597 9.97227 5.3268 -0.0768469 0.51902 5.3533
internal_weight=0 2623 169905 19727 1505 1118 150178 89970 1463 655 218 85 3937 463 430 235 195 67 15790 836
internal_count=172528 2623 169905 19727 1505 1118 150178 89970 1463 655 218 85 3937 463 430 235 195 67 15790 836
is_linear=0
shrinkage=0.0799375


Tree=38
num_leaves=21
num_cat=0
split_feature=7 4 7 7 4 1 10 9 10 4 2 4 7 4 4 1 1 9 4 1
split_gain=1.38034e+07 2.49336e+06 2.24115e+06 589922 499783 494012 604834 426464 335268 315260 314412 295912 371902 266457 253166 225111 272913 228450 417264 268904
threshold=791.18000000000018 2019.5000000000002 225.03500000000005 88.515000000000015 2016.5000000000002 308.50000000000006 3198350.0000000005 417.72000000000008 2003678.5000000002 2018.5000000000002 46.500000000000007 2020.5000000000002 1534.2750000000003 2020.5000000000002 2021.5000000000002 125.50000000000001 340.50000000000006 1518.2550000000003 2017.5000000000002 17.500000000000004
decision_type=2 2 2 2 2 2 2 2 2 2 2 2 2 2 2 2 2 2 2 2
left_child=2 4 3 -1 -2 6 11 -4 -6 -5 -7 -3 -13 -8 -9 17 -17 18 -10 -20
right_child=1 5 7 9 8 10 13 14 15 -11 -12 12 -14 -15 -16 16 -18 -19 19 -21
leaf_value=-0.26236904534454181 -4.965087450829099 4.3313591132750631 0.67621236696210751 -0.14430301746234545 2.4799388325210381 19.095380353042479 8.849373155074522 1.9281539049647465 -0.49892882617738615 0.28929271189545613 10.746621814731979 -1.7870561357221642 8.4717131497921105 13.585558828437117 -1.0208152684568925 6.4132920398867421 0.38511181241848691 -0.17164847471097117 -0.68408366570117451 9.29189812075521
leaf_weight=115090 42 243 8549 20292 627 38 183 3072 64 22704 120 24 380 130 198 508 53 93 21 97
leaf_count=115090 42 243 8549 20292 627 38 183 3072 64 22704 120 24 380 130 198 508 53 93 21 97
internal_value=0 5.75484 -0.0886025 -0.167985 3.63056 8.61434 7.93228 0.973189 3.87739 0.0846568 12.7569 6.53629 7.86222 10.8173 1.74959 4.92539 5.84382 3.05147 4.69828 7.5167
internal_weight=0 2623 169905 158086 1505 1118 960 11819 1463 42996 158 647 404 313 3270 836 561 275 182 118
internal_count=172528 2623 169905 158086 1505 1118 960 11819 1463 42996 158 647 404 313 3270 836 561 275 182 118
is_linear=0
shrinkage=0.0799375


Tree=39
num_leaves=21
num_cat=5
split_feature=0 4 0 0 7 4 4 1 7 0 2 1 1 1 1 4 1 4 1 0
split_gain=1.2413e+07 2.99407e+06 1.80903e+06 1.13285e+06 614562 501424 492986 438003 419293 417508 391428 362850 339533 334920 656801 334183 298897 291335 289478 261909
threshold=0 2019.5000000000002 1 2 164.26500000000001 2020.5000000000002 2020.5000000000002 299.50000000000006 312.64500000000004 3 38.500000000000007 97.500000000000014 51.500000000000007 210.50000000000003 166.50000000000003 2018.5000000000002 125.50000000000001 2016.5000000000002 307.50000000000006 4
decision_type=9 2 9 9 2 2 2 2 2 9 2 2 2 2 2 2 2 2 2 9
left_child=1 8 4 6 -2 9 -3 10 -1 -4 -5 12 -8 14 -13 16 -10 -11 -15 -7
right_child=2 3 5 7 -6 19 11 -9 15 17 -12 13 -14 18 -16 -17 -18 -19 -20 -21
leaf_value=9.2711446158630935 0.1130733988359231 8.3667070752342383 -0.69168654048091505 5.0897103503078034 0.72814938778366389 -0.64575860922777129 12.944216250733316 10.313783907819531 1.020405022529302 -0.47108192534297266 -2.6140414466474735 13.396942379429996 3.6350467258815646 9.2291806309050077 28.333892587731299 4.787418274258421 3.1520761970879052 -0.15588348457019616 17.804996968868284 0.20080510336431981
leaf_weight=69 28756 253 17018 407 16244 2658 67 93 615 27731 47 48 40 68 31 504 1328 57782 40 18729
leaf_count=69 28756 253 17018 407 16244 2658 67 93 615 27731 47 48 40 68 31 504 1328 57782 40 18729
internal_value=0 4.6318 -0.0990321 8.1358 0.335028 -0.256672 10.7584 5.22082 3.12655 -0.330133 4.2921 13.1816 9.46558 15.3066 19.2644 2.95321 2.47738 -0.258069 12.4083 0.0953846
internal_weight=0 3610 168918 1094 45000 123918 547 547 2516 102531 454 294 107 187 79 2447 1943 85513 108 21387
internal_count=172528 3610 168918 1094 45000 123918 547 547 2516 102531 454 294 107 187 79 2447 1943 85513 108 21387
cat_boundaries=0 2 6 7 11 14
cat_threshold=128 512 54857298 806355072 1081664000 4 128 33025 2357633024 134217984 8 0 2357487616 8388608
is_linear=0
shrinkage=0.0799375


Tree=40
num_leaves=21
num_cat=0
split_feature=6 9 6 10 1 1 4 7 1 6 4 1 1 1 10 1 4 1 4 6
split_gain=9.96614e+06 2.0866e+06 1.36793e+06 524938 2.56177e+06 4.44719e+06 637271 356986 447918 304752 399989 282911 925812 262068 339864 298423 496047 371333 344500 247166
threshold=694.09000000000015 2186.7700000000004 156.93500000000003 218717.50000000003 183.50000000000003 237.50000000000003 2018.5000000000002 336.81500000000005 101.50000000000001 30.345000000000002 2016.5000000000002 164.50000000000003 131.50000000000003 95.500000000000014 5068750.0000000009 57.500000000000007 2020.5000000000002 29.500000000000004 2019.5000000000002 1.0000000180025095e-35
decision_type=2 2 2 2 2 2 2 2 2 2 2 2 2 2 2 2 2 2 2 2
left_child=2 3 9 4 -2 -6 -5 -4 -9 19 -11 12 -3 15 -15 17 18 -8 -17 -1
right_child=1 11 7 6 5 -7 13 8 -10 10 -12 -13 -14 14 -16 16 -18 -19 -20 -21
leaf_value=0.38113505337424147 6.3605248961917065 9.1086948416457396 0.34015249783614493 2.5432628509140098 -39.923591928520388 3.0420206042054971 1.7676792290474674 -0.13310838164682945 1.6261161571973057 -0.3557503631737487 -0.0069489959565066312 9.6364093493912328 -2.4863075802043322 5.5166292669479269 12.283416100950925 2.4688570163725916 10.545974806914765 8.8356143958552131 -6.4780659755695886 -0.41042248657031166
leaf_weight=2700 115 173 17125 1395 25 40 95 1284 3306 28734 78137 422 59 677 51 56 25 95 54 37960
leaf_count=2700 115 173 17125 1395 25 40 95 1284 3306 28734 78137 422 59 677 51 56 25 95 54 37960
internal_value=0 4.36307 -0.0844067 3.35753 -0.80878 -13.4909 3.66389 0.507952 1.13399 -0.171596 -0.10073 8.40343 6.16 5.14839 5.99102 3.26062 0.386822 5.30225 -1.92366 -0.357859
internal_weight=0 3282 169246 2628 180 65 2448 21715 4590 147531 106871 654 232 1053 728 325 135 190 110 40660
internal_count=172528 3282 169246 2628 180 65 2448 21715 4590 147531 106871 654 232 1053 728 325 135 190 110 40660
is_linear=0
shrinkage=0.0799375


Tree=41
num_leaves=21
num_cat=7
split_feature=0 7 0 0 10 0 10 8 10 7 8 0 6 0 7 2 0 6 3 2
split_gain=8.98502e+06 1.77145e+06 1.4545e+06 763930 1.02187e+06 463717 421843 395187 334772 323810 308002 282241 220041 397886 220996 216990 350278 1.06229e+06 279709 229610
threshold=0 2211.6300000000006 1 2 1723100.0000000002 3 2454200.0000000005 782.98500000000013 526450.00000000012 1534.2750000000003 536.0200000000001 4 7.495000000000001 5 167.48500000000004 28.500000000000004 6 1081.0950000000003 1.5000000000000002 6.5000000000000009
decision_type=9 2 9 9 2 9 2 2 2 2 2 9 2 9 2 2 9 2 2 2
left_child=1 8 7 6 -5 -4 -3 10 -1 15 12 -7 13 -2 -14 16 17 -10 -19 -18
right_child=2 3 5 4 -6 11 -8 -9 9 -11 -12 -13 14 -15 -16 -17 19 18 -20 -21
leaf_value=9.2387194092516758 6.2339267119649628 15.980794503753364 -0.59166408208896548 5.1174580068729485 -13.894255775417536 0.053259672144685903 8.7793364646794441 -8.0812245033430958 1.7019495060389007 4.5633119492327205 1.7299562215275408 -0.20221176197572407 0.18363008658558758 0.37308740398697493 0.71651501170689946 3.4174522700875043 3.6920573926960985 3.3171809498393832 13.619664173379858 0.11536793241120134
leaf_weight=56 108 60 15237 185 20 39378 390 34 373 655 1308 92642 10715 216 9280 1003 140 22 72 634
leaf_count=56 108 60 15237 185 20 39378 390 34 373 655 1308 92642 10715 216 9280 1003 140 22 72 634
internal_value=0 3.94067 -0.0842597 7.71269 3.10972 -0.174232 9.52851 0.527194 3.11786 2.99956 0.540979 -0.126013 0.464439 2.53089 0.430951 2.54307 1.83634 3.54035 11.2098 0.752675
internal_weight=0 3610 168918 655 205 147257 450 21661 2955 2899 21627 132020 20319 324 19995 2244 1241 467 94 774
internal_count=172528 3610 168918 655 205 147257 450 21661 2955 2899 21627 132020 20319 324 19995 2244 1241 467 94 774
cat_boundaries=0 2 5 6 10 14 17 18
cat_threshold=128 512 54788098 1048704 7880704 128 0 2357501952 134217984 8 216664 805830912 1149412864 6 33554432 1048576 1572864 128
is_linear=0
shrinkage=0.0799375


Tree=42
num_leaves=21
num_cat=7
split_feature=0 4 0 0 4 0 4 8 7 4 4 0 0 4 3 7 3 0 6 6
split_gain=7.60595e+06 1.95827e+06 1.2322e+06 764753 556722 380739 346426 334587 334129 300619 295724 292702 275834 409078 328043 286030 271763 266225 512424 243870
threshold=0 2019.5000000000002 1 2 2020.5000000000002 3 2020.5000000000002 782.98500000000013 312.64500000000004 2021.5000000000002 2016.5000000000002 4 5 2016.5000000000002 2.5000000000000004 791.18000000000018 10.500000000000002 6 7.495000000000001 148.02500000000003
decision_type=9 2 9 9 2 9 2 2 2 2 2 9 9 2 2 2 2 9 2 2
left_child=1 8 7 6 5 -4 -3 17 -1 -8 -7 -6 13 14 -10 -16 -5 18 -2 -20
right_child=2 3 4 16 11 10 9 -9 12 -11 -12 -13 -14 -15 15 -17 -18 -19 19 -21
leaf_value=7.8931549504018292 8.8576011041239902 6.5941497567834499 -0.58163527999260733 3.3897336354086338 0.58308553003372865 -0.36729618917788176 11.673809338583215 -7.4356363137578292 -5.6549499942723633 4.3660422630467988 -0.080963992329032827 -0.0031551757504560077 1.3711672539016684 4.2826226913006593 2.4830975765683436 -5.7407765066191638 8.3079607645119609 0.37252723772033763 -2.2443347381558323 1.1486070412685057
leaf_weight=69 54 253 17018 462 7938 34157 252 34 40 42 70873 17271 1231 754 393 29 85 18056 141 3376
leaf_count=69 54 253 17018 462 7938 34157 252 34 40 42 70873 17271 1231 754 393 29 85 18056 141 3376
internal_value=0 3.62569 -0.0774964 6.45916 -0.160308 -0.230958 8.60645 0.485295 2.40802 10.6302 -0.174066 0.181675 2.25328 3.10939 1.26181 1.91769 4.07971 0.497979 1.12809 1.01257
internal_weight=0 3610 168918 1094 147257 122048 547 21661 2516 294 105030 25209 2447 1216 462 422 547 21627 3571 3517
internal_count=172528 3610 168918 1094 147257 122048 547 21661 2516 294 105030 25209 2447 1216 462 422 547 21627 3571 3517
cat_boundaries=0 2 5 6 10 14 15 17
cat_threshold=128 512 54788098 1048704 7880704 128 33025 2357633024 134217984 8 77811561 1879081984 1107297601 6 128 262144 1048576
is_linear=0
shrinkage=0.0799375


Tree=43
num_leaves=21
num_cat=0
split_feature=8 9 7 4 7 2 2 3 7 2 2 2 4 8 2 2 4 2 3 4
split_gain=6.11267e+06 1.21123e+06 860570 261754 275150 664464 2.3823e+06 263434 232132 335088 217133 601599 212636 338486 205654 273488 256219 390743 285944 186734
threshold=688.59000000000015 2186.7700000000004 146.16500000000002 2018.5000000000002 791.18000000000018 26.500000000000004 31.500000000000004 10.500000000000002 336.81500000000005 14.500000000000002 24.500000000000004 18.500000000000004 2018.5000000000002 15.115 14.500000000000002 7.5000000000000009 2021.5000000000002 2.5000000000000004 1.5000000000000002 2019.5000000000002
decision_type=2 2 2 2 2 2 2 2 2 2 2 2 2 2 2 2 2 2 2 2
left_child=2 3 12 -2 5 -5 -7 -6 19 -10 11 14 -1 -14 15 16 -3 -18 -19 -4
right_child=1 10 8 4 7 6 -8 -9 9 -11 -12 -13 13 -15 -16 -17 17 18 -20 -21
leaf_value=-0.22358389802168127 1.8988306250160547 14.32221103980987 0.021324613177860025 5.5306672601718585 3.6194972396801353 -23.849168359719091 2.4634852767058382 7.5654911733842205 -0.23038768643870222 1.3040235874297781 7.6109646564656019 -1.5917434847065801 -0.57591774554812558 0.03591525723144464 14.776249371854089 1.314742870479654 15.11720133541926 -5.4744735850546995 7.0345065739337382 0.51361400819681768
leaf_weight=83004 1393 33 10383 124 844 27 118 124 1250 3338 412 71 6450 55455 20 50 20 20 28 9364
leaf_count=83004 1393 33 10383 124 844 27 118 124 1250 3338 412 71 6450 55455 20 50 20 20 28 9364
internal_value=0 3.41597 -0.0660915 2.65038 3.49666 1.23495 -2.43889 4.12513 0.373773 0.885974 6.49452 4.59329 -0.139959 -0.027833 7.16123 6.15067 8.5439 5.73609 1.82229 0.254768
internal_weight=0 3284 169244 2630 1237 269 145 968 24335 4588 654 242 144909 61905 171 151 101 68 48 19747
internal_count=172528 3284 169244 2630 1237 269 145 968 24335 4588 654 242 144909 61905 171 151 101 68 48 19747
is_linear=0
shrinkage=0.0799375


Tree=44
num_leaves=21
num_cat=0
split_feature=8 9 8 10 1 1 4 1 2 10 1 10 1 4 8 1 1 1 10 8
split_gain=5.17455e+06 1.0254e+06 729836 331458 1.76599e+06 3.50932e+06 445115 238755 298341 267348 226115 227662 214235 398376 437803 208578 660222 203084 199370 179950
threshold=688.59000000000015 2186.7700000000004 134.23500000000004 218717.50000000003 183.50000000000003 233.50000000000003 2018.5000000000002 95.500000000000014 10.500000000000002 3889300.0000000005 15.500000000000002 4082950.0000000005 101.50000000000001 2019.5000000000002 536.0200000000001 164.50000000000003 131.50000000000003 149.50000000000003 2201950.0000000005 35.895000000000003
decision_type=2 2 2 2 2 2 2 2 2 2 2 2 2 2 2 2 2 2 2 2
left_child=2 3 19 4 -2 -6 -5 8 10 -9 -8 -12 -4 -14 -15 16 -3 -11 -18 -1
right_child=1 15 12 6 5 -7 7 9 -10 17 11 -13 13 14 -16 -17 18 -19 -20 -21
leaf_value=-0.25389976630402694 5.2325522041937216 6.5396247633018785 -0.040043859310944181 1.7470451775541223 -34.844148096880502 2.6495538398275027 -1.0755405379437131 4.0930379390035405 -1.6450226960207481 12.000838972251763 6.5198994975745137 -0.31793735117459704 0.12694982573982636 0.74671630808288425 3.7900970677682091 7.034084844105478 -9.7360071071580947 5.0303065932976461 0.077017334294561077 -0.066195536627139548
leaf_weight=50729 115 173 7587 1393 25 44 50 621 95 52 140 40 10493 8613 313 422 20 55 39 91509
leaf_count=50729 115 173 7587 1393 25 44 50 621 95 52 140 40 10493 8613 313 422 20 55 39 91509
internal_value=0 3.14293 -0.0608083 2.43851 -0.833343 -10.9417 2.68464 3.92492 2.1232 4.72917 3.67965 5.00052 0.320156 0.460886 0.853445 5.9755 4.04951 8.41958 -3.25173 -0.13314
internal_weight=0 3284 169244 2630 184 69 2446 1053 325 728 230 180 27006 19419 8926 654 232 107 59 142238
internal_count=172528 3284 169244 2630 184 69 2446 1053 325 728 230 180 27006 19419 8926 654 232 107 59 142238
is_linear=0
shrinkage=0.0799375


Tree=45
num_leaves=21
num_cat=5
split_feature=0 4 0 0 0 4 6 4 2 2 5 2 4 0 4 2 7 2 2 6
split_gain=4.74772e+06 1.20004e+06 916148 586799 376849 338579 323366 273572 280386 309465 460958 270464 248708 243998 284952 279185 251313 225387 303623 224955
threshold=0 2019.5000000000002 1 2 3 2020.5000000000002 308.70500000000004 2020.5000000000002 13.500000000000002 30.500000000000004 2.5000000000000004 7.5000000000000009 2021.5000000000002 4 2016.5000000000002 8.5000000000000018 791.18000000000018 43.500000000000007 38.500000000000007 7.495000000000001
decision_type=9 2 9 9 9 2 2 2 2 2 2 2 2 9 2 2 2 2 2 2
left_child=1 6 4 7 12 -4 -1 -3 11 10 -10 -9 19 14 15 -8 -17 18 -5 -2
right_child=2 3 5 17 -6 -7 13 8 9 -11 -12 -13 -14 -15 -16 16 -18 -19 -20 -21
leaf_value=7.3074248435817806 3.9827316527296581 5.1454033586319596 -0.25272337756525526 3.0938556146487328 0.11446786039805262 0.11215217349775392 -5.5440013476922756 8.4219595976987733 10.748354358762199 7.7143470968697194 24.455631681967755 -0.092463383931609869 -2.0515058872130694 0.9393304612379485 3.5392586824436414 2.1338371538632224 -5.573438423861993 6.748049847432684 -3.5058254197061447 0.69457485520049378
leaf_weight=69 135 253 94607 407 45670 19621 38 67 62 107 21 37 208 1231 754 395 29 90 50 8677
leaf_count=69 135 253 94607 407 45670 19621 38 67 62 107 21 37 208 1231 754 395 29 90 50 8677
internal_value=0 2.86456 -0.0612221 5.08273 0.207801 -0.190032 1.91141 6.94631 8.73184 10.5584 14.2219 5.39338 0.679715 1.75919 2.56035 1.01807 1.60643 3.03645 2.37166 0.744959
internal_weight=0 3610 168918 1094 54690 114228 2516 547 294 190 83 104 9020 2447 1216 462 424 547 457 8812
internal_count=172528 3610 168918 1094 54690 114228 2516 547 294 190 83 104 9020 2447 1216 462 424 547 457 8812
cat_boundaries=0 2 6 7 10 11
cat_threshold=128 512 54873682 806879616 1090183680 6 128 33816576 1048704 1048576 128
is_linear=0
shrinkage=0.0799375


Tree=46
num_leaves=21
num_cat=5
split_feature=0 0 9 0 10 0 10 10 1 1 6 10 6 0 1 6 7 1 6 1
split_gain=4.01972e+06 788562 700172 487003 809980 312591 312191 241546 177234 163318 472598 211451 152419 344381 176493 146203 140731 139796 243105 206330
threshold=0 1 2186.7700000000004 2 1692150.0000000002 3 2566450.0000000005 526450.00000000012 117.50000000000001 143.50000000000003 1516.6750000000002 2201950.0000000005 7.495000000000001 4 17.500000000000004 787.35500000000013 164.26500000000001 51.500000000000007 694.09000000000015 15.500000000000002
decision_type=9 9 2 9 2 9 2 2 2 2 2 2 2 9 2 2 2 2 2 2
left_child=2 12 7 6 -5 -3 -4 -1 17 10 11 -10 13 14 -2 16 -14 18 -9 -20
right_child=1 5 3 4 -6 -7 -8 8 9 -11 -12 -13 15 -15 -16 -17 -18 -19 19 -21
leaf_value=7.3185785176804865 1.2109956147090204 -0.27125435603060988 11.444945121804434 3.2064277611241208 -13.724075161211148 -0.030752945604519966 5.6684624167578406 -3.0415411542962927 -0.24279200526102462 2.1912191739839506 11.248352759617296 5.2075684465280174 0.18064600130204089 -0.16597655086963323 8.226775135760656 -5.1592782973001716 0.63216088449565766 0.38107688262319228 -0.030627177170819989 4.3594605770010553
leaf_weight=56 33 53517 71 184 20 97350 379 47 89 1688 51 93 8188 162 75 30 9563 598 96 238
leaf_count=56 33 53517 71 184 20 97350 379 47 89 1688 51 93 8188 162 75 30 9563 598 96 238
internal_value=0 -0.0563276 2.63581 5.0099 1.47311 -0.116078 6.43732 2.11944 2.01899 2.46511 4.44898 2.54256 0.442845 2.32804 5.56826 0.414465 0.423891 1.14357 2.34025 3.09771
internal_weight=0 168918 3610 654 204 150867 450 2956 2900 1921 233 182 18051 270 108 17781 17751 979 381 334
internal_count=172528 168918 3610 654 204 150867 450 2956 2900 1921 233 182 18051 270 108 17781 17751 979 381 334
cat_boundaries=0 2 5 6 10 13
cat_threshold=128 512 38010880 1048704 7880704 128 2419106053 2380724240 150997380 9 33554432 1048576 540672
is_linear=0
shrinkage=0.0799375


Tree=47
num_leaves=21
num_cat=5
split_feature=0 4 0 4 0 10 1 8 4 0 1 1 1 1 0 8 1 4 1 8
split_gain=3.40281e+06 912012 689973 357266 329973 375192 253219 298887 294077 250747 238751 304446 420116 244560 230527 215762 212756 211009 208807 196448
threshold=0 2020.5000000000002 1 2018.5000000000002 2 1940850.0000000002 190.50000000000003 328.62000000000006 2018.5000000000002 3 97.500000000000014 210.50000000000003 166.50000000000003 307.50000000000006 4 10.945000000000002 51.500000000000007 2021.5000000000002 45.500000000000007 782.98500000000013
decision_type=9 2 9 2 9 2 2 2 2 9 2 2 2 2 9 2 2 2 2 2
left_child=1 6 9 -4 10 -6 7 -1 -8 17 16 12 -12 -13 -9 -5 -3 19 -16 -2
right_child=2 4 3 15 5 -7 8 14 -10 -11 11 13 -14 -15 18 -17 -18 -19 -20 -21
leaf_value=6.1549877050477875 0.66819259901183703 7.2132880507845618 -0.28046842645460957 -0.49757756030009137 4.1318273964703902 -5.1637302991650982 1.8225741222250718 1.9118206512854952 4.2235288995521953 0.11686541026493243 8.2766158255405209 3.5158578306155706 20.219534766054807 11.393507802897052 2.5348437769052032 0.045091019646942912 -0.15359913852615989 -1.9311184130044359 -0.75786715781463954 -5.4179258816347851
leaf_weight=73 8778 67 65219 5158 263 31 974 733 490 38819 48 68 31 40 155 50702 40 208 597 34
leaf_count=73 8778 67 65219 5158 263 31 974 733 490 38819 48 68 31 40 155 50702 40 208 597 34
internal_value=0 2.42513 -0.0518271 -0.153376 5.31222 3.04772 1.87137 1.16203 2.62622 0.205169 7.22689 9.19591 12.9673 6.43519 0.916496 -0.00501806 4.45982 0.584646 -0.078091 0.644697
internal_weight=0 3610 168918 121079 588 294 3022 1558 1464 47839 294 187 79 108 1485 55860 107 9020 752 8812
internal_count=172528 3610 168918 121079 588 294 3022 1558 1464 47839 294 187 79 108 1485 55860 107 9020 752 8812
cat_boundaries=0 2 6 7 10 11
cat_threshold=128 512 54873618 538443904 1090052608 6 128 33816576 1048704 1048576 128
is_linear=0
shrinkage=0.0799375


Tree=48
num_leaves=21
num_cat=5
split_feature=0 0 9 0 0 0 6 8 6 1 1 1 1 1 1 6 6 1 1 1
split_gain=2.88167e+06 593656 473307 378812 238416 189257 175856 160766 155944 231356 155357 292367 255430 147476 155322 385223 137768 124816 129735 116321
threshold=0 1 2186.7700000000004 2 3 4 308.70500000000004 782.98500000000013 7.495000000000001 39.500000000000007 213.50000000000003 61.500000000000007 161.50000000000003 117.50000000000001 145.50000000000003 1516.6750000000002 43.005000000000003 188.50000000000003 226.50000000000003 164.50000000000003
decision_type=9 9 2 9 9 9 2 2 2 2 2 2 2 2 2 2 2 2 2 2
left_child=2 4 6 19 7 -3 -1 8 9 -2 11 -5 -13 -8 15 -15 -10 -16 -19 -4
right_child=1 5 3 10 -6 -7 13 -9 16 -11 -12 12 -14 14 17 -17 -18 18 -20 -21
leaf_value=5.7950256491065639 1.7816044142761165 -0.45918131714135063 3.9027166416482109 3.9570774158055788 0.083702391560198278 -0.11864585826459466 0.90628690434366266 -4.9851019638851382 -2.0007890040867684 10.59645667668973 3.2461477810535611 -11.88998109482125 -0.7413970651956131 2.3377707429954344 0.41282447184002014 10.026829461437739 0.51447712333797579 3.6417267183653386 1.7581428537298034 6.5577015824386802
leaf_weight=69 140 11627 169 41 45661 100805 966 34 141 22 107 21 35 194 317 53 10488 300 1057 281
leaf_count=69 140 11627 169 41 45661 100805 966 34 141 22 107 21 35 194 317 53 10488 300 1057 281
internal_value=0 -0.0476837 2.23172 4.18384 0.163723 -0.1539 1.80735 0.500867 0.518626 2.97993 1.09252 -1.1707 -4.92507 1.712 2.11715 3.98838 0.481107 1.841 2.17461 5.43996
internal_weight=0 168918 3610 654 56486 112432 2956 10825 10791 162 204 97 56 2887 1921 247 10629 1674 1357 450
internal_count=172528 168918 3610 654 56486 112432 2956 10825 10791 162 204 97 56 2887 1921 247 10629 1674 1357 450
cat_boundaries=0 2 6 7 10 14
cat_threshold=128 512 55004762 806879616 1090052608 6 128 38010880 1048704 1048576 0 2357469184 256 8
is_linear=0
shrinkage=0.0799375


Tree=49
num_leaves=21
num_cat=6
split_feature=0 0 9 0 0 7 9 8 6 0 2 2 2 0 6 2 7 2 3 3
split_gain=2.43942e+06 506487 400661 320684 197715 164901 150681 136977 133857 428950 136218 131525 253755 126460 178820 355614 436915 334852 235954 153875
threshold=0 1 2186.7700000000004 2 3 170.37500000000003 289.80500000000006 782.98500000000013 7.495000000000001 4 3.5000000000000004 30.500000000000004 6.5000000000000009 5 1081.0950000000003 43.500000000000007 1534.2750000000003 16.500000000000004 1.5000000000000002 10.500000000000002
decision_type=9 9 2 9 9 2 2 2 2 9 2 2 2 9 2 2 2 2 2 2
left_child=2 5 6 -4 -3 8 -1 -7 9 10 -2 12 -5 14 -8 16 18 -18 -16 -15
right_child=1 4 3 11 -6 7 13 -9 -10 -11 -12 -13 -14 19 15 -17 17 -19 -20 -21
leaf_value=5.7692791127243019 1.8495650918662392 -0.38468435725980876 5.0051415373358257 5.1810633187389881 -0.078985910263891596 0.49292474691006261 1.31317620276312 -4.5868549312629163 0.076567588764652722 0.11335664261531357 8.0137827627653113 2.9867105428765122 -3.7470726457658419 0.73987304538251375 1.7079273608990164 -1.1377085727833349 -0.086750148735145 4.6137033377611303 11.168619731992093 2.9092185301858069
leaf_weight=56 33 15237 450 29 119511 11448 709 34 22175 405 75 107 68 1326 22 102 151 270 72 248
leaf_count=56 33 15237 450 29 119511 11448 709 34 22175 405 75 107 68 1326 22 102 151 270 72 248
internal_value=0 -0.0438742 2.05334 3.84941 -0.11358 0.230959 1.66289 0.477874 0.106101 1.38265 5.61153 1.00514 -1.07727 1.58355 2.1629 3.17431 4.02835 2.92787 8.95532 1.07488
internal_weight=0 168918 3610 654 134748 34170 2956 11482 22688 513 108 204 97 2900 1326 617 515 421 94 1574
