tree
version=v3
num_class=1
num_tree_per_iteration=1
label_index=0
max_feature_idx=11
objective=regression
feature_names=symbol dayofyear dayofweek week month year quarter shift_close shift_high shift_low shift_open shift_volume
feature_infos=-1:0:1:2:3:4:5:6:7:8:9:10:11:12:13:14:15:16:17:18:19:20:21:22:23:24:25:26:27:28:29:30:31:32:33:34:35:36:37:38:39:40:41:42:43:44:45:46:47:48:49:50:51:52:53:54:55:56:57:58:59:60:61:62:63:64:65:66:67:68:69:70:71:72:73:74:75:76:77:78:79:80:81:82:83:84:85:86:87:88:89:90:91:92:93:94:95:96:97:98 [2:366] [0:4] [1:53] [1:12] [2015:2022] [1:4] [0:3731.4099999999999] [0:3773.0799999999999] [0:3696.79] [0:3744] [0:280615000]
tree_sizes=2549 2544 2556 2598 2549 2555 2521 2533 2534 2540 2506 2498 2444 2477 2417 2414 2454 2425 2451 2447 2452 2366 2424 2433 2408 2402 2417 2377 2414 2414 2425 2356 2442 2439 2399 2549 2459 2398 2473 2385 2445 2423 2459 2480 2424 2514 2407 2495 2381 2439 2451 2412 2300 2452 2465 2457 2426 2320 2407 2475 2381 2352 2424 2491 2396 2378 2332 2422 2450 2374 2404 2366 2462 2319 2432 2464 2443 2308 2501 2417 2311 2316 2445 2378 2303 2420 2440 2333 2318 2315 2448 2372 2418 2451 2317 2466 2318 2318 2432 2475 2322 2328 2418 2393 2430 2331 2360 2295 2335 2333 2334 2327 2341 2345 2321 2404 2354 2444 2377 2432 2406 2457 2362 2477 2345 2439 2489 2342 2372 2445 2426 2348 2333 2362 2382 2310 2559 2437 2343 2456 2432 2388 2473 2458 2357 2326 2507

Tree=0
num_leaves=27
num_cat=3
split_feature=9 9 8 8 7 10 0 8 8 5 8 11 7 0 8 5 0 5 8 1 5 9 7 2 5 11
split_gain=7.38448e+09 1.31867e+09 9.32658e+08 3.50942e+08 1.8457e+08 1.01125e+08 9.87042e+07 6.52128e+07 5.22414e+07 4.25481e+07 4.21353e+07 2.50269e+07 1.65919e+07 1.64976e+07 1.1692e+07 8.39792e+06 7.78856e+06 7.52831e+06 7.10457e+06 6.75572e+06 1.08153e+07 6.25691e+06 5.98186e+06 5.20921e+06 4.64148e+06 5.02201e+06
threshold=1072.2800000000002 287.2000000000001 2305.1000000000008 103.12500000000001 539.21000000000015 1525.1250000000002 0 187.66500000000002 49.82500000000001 2017.5000000000002 791.21000000000015 1819041.0000000002 418.23500000000007 1 143.36500000000004 2019.5000000000002 2 2020.5000000000002 72.695000000000007 187.50000000000003 2020.5000000000002 688.7700000000001 236.83500000000004 1.0000000180025095e-35 2019.5000000000002 4158750.0000000005
decision_type=2 2 2 2 2 2 9 2 2 2 2 2 2 9 2 2 9 2 2 2 2 2 2 2 2 2
left_child=1 3 5 6 12 24 9 14 13 -1 21 -4 -3 -8 -5 -11 -15 -7 -10 20 -13 -6 -9 -22 25 -2
right_child=2 4 11 7 10 17 8 22 18 15 -12 19 -14 16 -16 -17 -18 -19 -20 -21 23 -23 -24 -25 -26 -27
leaf_value=169.39437724642588 275.46355798431824 143.09423447175297 518.21666700777257 106.14726210921847 184.1726668893173 372.38495838790277 106.9420993585577 120.05065062738176 96.929824254580126 296.25122504191705 237.27296882508415 488.05353058331883 164.34147287992286 89.587645178910066 112.99289667594455 433.29466209603453 92.97761902232952 421.35940121486738 100.60597515832274 605.35267292834135 524.38745596764704 203.28316735789724 128.08420510922289 595.59438982221548 312.1113672651548 322.21641970908115
leaf_weight=70 406 3307 185 20658 1318 564 1903 5958 29665 22 661 37 1320 26756 9282 24 52199 94 24757 256 32 660 3961 150 186 69
leaf_count=70 406 3307 185 20658 1318 564 1903 5958 29665 22 661 37 1320 26756 9282 24 52199 94 24757 256 32 660 3961 150 186 69
internal_value=104.896 101.559 412.721 98.7858 168.44 334.918 94.8957 112 94.7652 236.692 202.252 568.209 149.156 92.1814 108.27 367.752 91.827 379.381 98.6021 587.68 567.021 190.549 123.259 583.075 290.656 282.255
internal_weight=0 182521 1979 175255 7266 1319 135396 39859 135280 116 2639 660 4627 80858 29940 46 78955 658 54422 475 219 1978 9919 182 661 475
internal_count=184500 182521 1979 175255 7266 1319 135396 39859 135280 116 2639 660 4627 80858 29940 46 78955 658 54422 475 219 1978 9919 182 661 475
cat_boundaries=0 2 6 9
cat_threshold=128 512 54923082 806880384 8176709 4 268468224 2357618944 75563040
is_linear=0
shrinkage=1


Tree=1
num_leaves=27
num_cat=2
split_feature=10 9 8 8 9 10 0 9 8 5 8 8 11 0 8 7 1 5 1 1 8 1 5 5 7 9
split_gain=5.2085e+09 9.35e+08 6.56572e+08 2.62499e+08 1.14749e+08 7.09469e+07 6.93269e+07 4.47777e+07 4.41819e+07 3.00065e+07 1.974e+07 1.77468e+07 1.76499e+07 1.16099e+07 8.16802e+06 7.59587e+06 6.49132e+06 5.88677e+06 6.38169e+06 5.738e+06 5.46454e+06 4.76437e+06 7.62736e+06 3.9913e+06 3.83687e+06 3.77054e+06
threshold=1085.5150000000001 306.42500000000007 2305.1000000000008 110.88500000000001 599.2700000000001 1525.1250000000002 0 193.22000000000003 55.005000000000003 2017.5000000000002 791.21000000000015 477.87500000000006 1819041.0000000002 1 32.255000000000003 145.40500000000003 211.50000000000003 2019.5000000000002 222.50000000000003 95.500000000000014 82.535000000000011 187.50000000000003 2020.5000000000002 2021.5000000000002 244.50500000000002 354.54000000000002
decision_type=2 2 2 2 2 2 9 2 2 2 2 2 2 9 2 2 2 2 2 2 2 2 2 2 2 2
left_child=1 3 5 6 11 -2 9 15 13 -1 -6 25 -4 -8 -15 -5 -11 -7 19 -19 -10 22 -14 -24 -9 -3
right_child=2 4 12 7 10 17 8 24 20 16 -12 -13 21 14 -16 -17 -18 18 -20 -21 -22 -23 23 -25 -26 -27
leaf_value=54.164435651927079 156.13542526161771 29.640686275907999 347.09952318218893 1.7786455884351766 77.282180803073416 218.75990306167776 4.0793803371679305 13.985057517543929 -5.887877406755754 157.87944319077656 111.16657836465112 58.244915796010368 321.7690625036459 -11.910089643017617 -8.7229877194917051 7.3775133419615138 278.36600725166562 246.13532904279469 205.57047067619854 307.24862697327774 -2.5253571337568093 420.27483594459329 416.37043279865321 363.53897679806107 20.577313795592634 40.68814898151993
leaf_weight=70 659 1322 185 16671 1320 411 1392 5299 30953 22 663 1320 37 53150 33748 9922 24 128 62 57 20705 256 131 51 3960 1982
leaf_count=70 659 1322 185 16671 1320 411 1392 5299 30953 22 663 1320 37 53150 33748 9922 24 128 62 57 20705 256 131 51 3960 1982
internal_value=0 -2.80185 258.655 -5.02416 56.3687 193.293 -8.15538 7.20865 -8.2612 110.68 88.6112 42.5416 389.082 -10.4393 -10.6711 3.86762 220.742 230.508 250.056 264.965 -4.54015 405.433 388.084 401.566 16.8045 36.2678
internal_weight=0 182523 1977 175916 6607 1317 140064 35852 139948 116 1983 4624 660 88290 86898 26593 46 658 247 185 51658 475 219 182 9259 3304
internal_count=184500 182523 1977 175916 6607 1317 140064 35852 139948 116 1983 4624 660 88290 86898 26593 46 658 247 185 51658 475 219 182 9259 3304
cat_boundaries=0 2 5
cat_threshold=128 512 54790466 806879360 8143876
is_linear=0
shrinkage=0.160217


Tree=2
num_leaves=27
num_cat=3
split_feature=9 10 10 8 8 10 0 7 7 5 8 11 9 0 1 0 1 2 8 8 5 1 5 1 1 1
split_gain=3.67396e+09 6.5866e+08 4.63778e+08 1.86135e+08 8.05993e+07 5.02409e+07 4.87164e+07 3.64831e+07 2.69311e+07 2.30652e+07 1.37573e+07 1.30046e+07 1.24398e+07 9.13126e+06 6.65801e+06 6.1417e+06 4.63457e+06 5.96995e+06 4.61992e+06 4.37806e+06 4.18426e+06 4.51139e+06 4.13322e+06 5.64117e+06 4.58388e+06 4.1234e+06
threshold=1072.2800000000002 310.56500000000005 2277.4700000000007 117.56500000000001 604.8850000000001 1525.1250000000002 0 58.485000000000007 201.52500000000003 2019.5000000000002 791.21000000000015 2242650.0000000005 471.54500000000002 1 75.500000000000014 2 249.50000000000003 1.0000000180025095e-35 92.135000000000005 153.00500000000002 2019.5000000000002 222.50000000000003 2020.5000000000002 93.500000000000014 187.50000000000003 101.50000000000001
decision_type=2 2 2 2 2 2 9 2 2 2 2 2 2 9 2 9 2 2 2 2 2 2 2 2 2 2
left_child=1 3 5 6 12 -2 9 13 19 14 -6 16 -3 -8 -1 -15 17 -4 -9 -5 -7 25 24 -24 -13 -22
right_child=2 4 11 8 10 20 7 18 -10 -11 -12 22 -14 15 -16 -17 -18 -19 -20 -21 21 -23 23 -25 -26 -27
leaf_value=29.912374283868083 131.11347967121227 30.482516831898092 204.70557192250706 2.2411734568911754 64.932097876157201 183.71087922946072 -9.9094862136299646 -4.2580733834642892 14.526327163061431 240.83661935996008 93.24795987709156 270.91411145124789 48.888864129650692 7.1101849445827048 118.22630068890409 -6.9753385993694534 321.96725011388224 292.24066533736334 -0.87872582162373747 6.7295790961898625 208.07476508436562 172.6346347604173 325.03362793454852 371.9583548721144 336.5139350018103 261.88210480135655
leaf_weight=56 661 3296 25 13981 1320 411 56461 35542 8597 24 661 35 1320 807 36 36467 93 100 14671 9282 136 62 105 176 125 50
leaf_count=56 661 3296 25 13981 1320 411 56461 35542 8597 24 661 35 1320 807 36 36467 93 100 14671 9282 136 62 105 176 125 50
internal_value=0 -2.35435 217.125 -4.21812 47.3474 162.323 -6.66891 -6.75517 6.8638 92.9471 74.3802 326.896 35.746 -8.62249 64.47 -6.66856 294.884 274.734 -3.27071 4.03206 193.628 210.063 342.72 354.424 322.164 222.539
internal_weight=0 182521 1979 175924 6597 1320 144064 143948 31860 116 1981 659 4616 93735 92 37274 218 125 50213 23263 659 248 441 281 160 186
internal_count=184500 182521 1979 175924 6597 1320 144064 143948 31860 116 1981 659 4616 93735 92 37274 218 125 50213 23263 659 248 441 281 160 186
cat_boundaries=0 2 5 8
cat_threshold=128 512 4103110656 3431426388 344004770 38013250 805306496 803840
is_linear=0
shrinkage=0.160217


Tree=3
num_leaves=27
num_cat=4
split_feature=10 7 10 8 9 10 0 8 0 5 8 11 9 5 0 7 7 5 11 8 9 5 1 1 0 9
split_gain=2.59137e+09 4.66249e+08 3.26486e+08 1.17769e+08 7.37062e+07 3.52455e+07 3.47159e+07 2.23254e+07 1.81331e+07 1.66119e+07 1.43867e+07 9.18218e+06 8.86608e+06 4.89706e+06 4.29222e+06 3.62625e+06 3.49983e+06 3.25285e+06 3.51723e+06 3.21515e+06 2.98674e+06 2.95089e+06 3.18159e+06 3.61398e+06 2.89593e+06 2.54839e+06
threshold=1085.5150000000001 277.25000000000006 2277.4700000000007 98.235000000000014 536.5200000000001 1525.1250000000002 0 170.72500000000002 1 2016.5000000000002 791.21000000000015 1819041.0000000002 387.03000000000003 2019.5000000000002 2 13.735000000000001 217.86500000000004 2019.5000000000002 4158750.0000000005 128.49500000000003 688.7700000000001 2019.5000000000002 222.50000000000003 29.500000000000004 3 61.925000000000004
decision_type=2 2 2 2 2 2 9 2 9 2 2 2 2 2 9 2 2 2 2 2 2 2 2 2 9 2
left_child=1 3 5 6 12 17 9 19 15 -1 20 -4 -3 -11 24 -8 -9 18 -2 -5 -6 -7 23 -23 -10 -16
right_child=2 4 11 7 10 21 8 16 14 13 -12 -13 -14 -15 25 -17 -18 -19 -20 -21 -22 22 -24 -25 -26 -27
leaf_value=26.20994853572817 97.318002841213101 20.016232331970194 244.36248525624038 -0.045624459611205426 46.638328499143547 154.2773057868047 -10.003246942672728 7.0765198822426676 11.873549133456798 106.51120864391821 78.306113264431744 286.38086793177501 33.576172807773048 202.25057731878621 -5.8897555701261011 -7.3319205814245256 12.490674019824182 127.95610428288649 136.4797130540951 3.403503960302551 59.838535278705436 144.21745081270279 144.97566568064045 198.5742346652938 -2.5924627699807004 -3.5754242968732637
leaf_weight=60 401 3299 186 18005 1320 411 19641 7286 353 32 663 473 1981 24 38030 38838 5290 189 69 11286 660 40 62 146 17764 17991
leaf_count=60 401 3299 186 18005 1320 411 19641 7286 353 32 663 473 1981 24 38030 38838 5290 189 69 11286 660 40 62 146 17764 17991
internal_value=0 -1.97636 182.444 -3.70133 36.037 136.405 -6.03827 3.70759 -6.11725 78.0554 57.8785 274.521 25.1038 147.542 -4.45165 -8.22772 9.35394 110.205 103.067 1.28335 51.0384 162.605 176.407 186.885 -2.30421 -5.1456
internal_weight=0 182523 1977 174600 7923 1318 132733 41867 132617 116 2643 659 5280 56 74138 58479 12576 659 470 29291 1980 659 248 186 18117 56021
internal_count=184500 182523 1977 174600 7923 1318 132733 41867 132617 116 2643 659 5280 56 74138 58479 12576 659 470 29291 1980 659 248 186 18117 56021
cat_boundaries=0 2 5 9 12
cat_threshold=128 512 4094722048 3464980566 344004770 54922586 806913152 8184900 6 33818624 268435456 525312
is_linear=0
shrinkage=0.160217


Tree=4
num_leaves=27
num_cat=3
split_feature=9 8 8 7 10 10 0 8 8 5 8 11 0 8 8 1 1 2 5 1 1 0 5 5 5 11
split_gain=1.82781e+09 3.30434e+08 2.30688e+08 9.86807e+07 3.38199e+07 2.47995e+07 2.41707e+07 2.06188e+07 1.3965e+07 1.17153e+07 6.6082e+06 6.57196e+06 5.79521e+06 4.74121e+06 4.5659e+06 3.80111e+06 3.23377e+06 4.17132e+06 3.04731e+06 3.97839e+06 3.35805e+06 2.60574e+06 2.36539e+06 2.40953e+06 2.25634e+06 2.45448e+06
threshold=1072.2800000000002 337.63000000000005 2305.1000000000008 120.93500000000002 603.3950000000001 1525.1250000000002 0 46.295000000000009 214.06500000000003 2016.5000000000002 791.21000000000015 2242650.0000000005 1 78.195000000000007 477.87500000000006 213.50000000000003 249.50000000000003 1.0000000180025095e-35 2020.5000000000002 93.500000000000014 187.50000000000003 2 2020.5000000000002 2017.5000000000002 2019.5000000000002 4158750.0000000005
decision_type=2 2 2 2 2 2 9 2 2 2 2 2 9 2 2 2 2 2 2 2 2 9 2 2 2 2
left_child=1 3 5 6 14 24 9 12 -5 -1 -6 16 -8 -9 -3 -11 17 -4 20 -20 -13 -14 23 -12 25 -2
right_child=2 4 11 8 10 -7 7 13 -10 15 22 18 21 -15 -16 -17 -18 -19 19 -21 -22 -23 -24 -25 -26 -27
leaf_value=22.010675826263949 81.928409641826676 23.118825948709425 132.21881644086201 3.4056249704187862 46.056534879571139 136.47182632334358 1.9788244930475432 -3.8823075901321493 11.252770723499037 90.326561555430956 62.102243648107198 181.7669551567102 -8.3585028955665042 -1.239189383240608 34.644213006764446 175.79542225691844 230.21827415162556 205.46262089069069 227.07473876684512 266.48131378777464 236.71568623917221 -6.1714814678789125 15.215332376435033 85.429122855157871 107.49290653786353 114.61337508430024
leaf_weight=60 406 2641 25 21864 1315 658 2014 39051 7934 34 490 37 19075 31452 1325 22 93 99 105 176 125 55073 23 148 186 69
leaf_count=60 406 2641 25 21864 1315 658 2014 39051 7934 34 490 37 19075 31452 1325 22 93 99 105 176 125 55073 23 148 186 69
internal_value=0 -1.66061 153.147 -2.91113 35.5012 114.453 -4.61766 -4.6773 5.495 65.5496 52.6255 230.477 -6.50535 -2.70319 26.9693 123.904 207.634 190.696 241.667 251.756 224.166 -6.73516 65.6937 67.5135 92.534 86.6763
internal_weight=0 182521 1979 176579 5942 1319 146781 146665 29798 116 1976 660 76162 70503 3966 56 217 124 443 281 162 74148 661 638 661 475
internal_count=184500 182521 1979 176579 5942 1319 146781 146665 29798 116 1976 660 76162 70503 3966 56 217 124 443 281 162 74148 661 638 661 475
cat_boundaries=0 2 6 9
cat_threshold=128 512 54808411 806388864 8144196 6 32768 2357600512 75497504
is_linear=0
shrinkage=0.160217


Tree=5
num_leaves=27
num_cat=3
split_feature=9 10 10 8 10 7 0 7 5 0 8 8 11 1 0 1 11 1 8 5 1 5 1 8 5 7
split_gain=1.28904e+09 2.34476e+08 1.62789e+08 5.63334e+07 4.00675e+07 1.76485e+07 1.73063e+07 1.08266e+07 9.5226e+06 8.73612e+06 6.99164e+06 5.3014e+06 4.70668e+06 2.78599e+06 2.39615e+06 2.29319e+06 2.19038e+06 2.16217e+06 2.09104e+06 1.95967e+06 2.48377e+06 1.94313e+06 2.27776e+06 1.94304e+06 1.79797e+06 1.77952e+06
threshold=1072.2800000000002 267.00500000000005 2277.4700000000007 94.365000000000023 539.67500000000007 1520.7300000000002 0 162.92500000000004 2019.5000000000002 1 791.21000000000015 392.86000000000007 2242650.0000000005 75.500000000000014 2 203.50000000000003 5613550.0000000009 244.50000000000003 21.515000000000004 2020.5000000000002 93.500000000000014 2019.5000000000002 33.500000000000007 66.615000000000023 2019.5000000000002 694.4000000000002
decision_type=2 2 2 2 2 2 9 2 2 9 2 2 2 2 9 2 2 2 2 2 2 2 2 2 2 2
left_child=1 3 5 6 11 24 8 -5 13 18 25 -3 15 -1 -11 -4 19 21 -8 -14 -21 -7 -23 -16 -2 -6
right_child=2 4 12 7 10 17 9 -9 -10 14 -12 -13 16 -15 23 -17 -18 -19 -20 20 -22 22 -24 -25 -26 -27
leaf_value=13.99259044722154 72.455110944553113 13.78147015779091 154.97386552337269 0.66030896422744767 32.73267498280088 111.68007625880072 -6.8564349693664441 6.1622977902928744 149.6692090345741 9.8910710309898278 55.168499276419773 23.928177596442772 190.27586075590511 71.120237625500224 -3.906335101286015 188.29639070595422 175.24712234711598 101.64363195610389 -4.9347823829640722 194.94445414045066 227.17941245739758 101.01580832248914 142.44126673345741 -2.1797139911185095 91.098871679526937 42.935903499364301
leaf_weight=56 477 3956 91 29984 1317 246 27623 13232 24 348 661 1985 115 36 45504 127 62 218 30679 97 167 44 151 26458 184 658
leaf_count=56 477 3956 91 29984 1317 246 27623 13232 24 348 661 1985 115 36 45504 127 62 218 30679 97 167 44 151 26458 184 658
internal_value=0 -1.39466 128.61 -2.66982 24.4659 96.1426 -4.32759 2.34492 55.0475 -4.3842 40.9056 17.1717 193.645 36.3469 -3.20636 174.387 203.165 114.696 -5.84424 207.732 215.336 121.149 133.094 -3.27106 77.6449 36.132
internal_weight=0 182521 1979 173944 8577 1320 130728 43216 116 130612 2636 5941 659 92 72310 218 441 659 58302 379 264 441 195 71962 661 1975
internal_count=184500 182521 1979 173944 8577 1320 130728 43216 116 130612 2636 5941 659 92 72310 218 441 659 58302 379 264 441 195 71962 661 1975
cat_boundaries=0 2 5 8
cat_threshold=128 512 4103110656 3464980572 293673120 33818624 268435456 525312
is_linear=0
shrinkage=0.160217


Tree=6
num_leaves=27
num_cat=3
split_feature=10 8 10 8 9 10 0 8 10 1 5 8 0 11 8 2 1 5 5 7 0 5 5 1 1 1
split_gain=9.09102e+08 1.65914e+08 1.14624e+08 4.45134e+07 2.28198e+07 1.25242e+07 1.21296e+07 8.12966e+06 7.87511e+06 7.35376e+06 5.09774e+06 4.46816e+06 3.76202e+06 3.45811e+06 3.24008e+06 2.08378e+06 3.22442e+06 1.66931e+06 1.80189e+06 1.6609e+06 3.43827e+06 1.62224e+06 1.60879e+06 1.55498e+06 1.9596e+06 1.48742e+06
threshold=1085.5150000000001 292.9550000000001 2277.4700000000007 107.23500000000001 599.2700000000001 1525.1250000000002 0 41.385000000000012 182.54500000000004 73.500000000000014 2018.5000000000002 420.21000000000009 1 1666550.0000000002 791.21000000000015 1.0000000180025095e-35 87.500000000000014 2020.5000000000002 2016.5000000000002 6.7650000000000006 2 2018.5000000000002 2016.5000000000002 319.50000000000006 185.50000000000003 19.500000000000004
decision_type=2 2 2 2 2 2 9 2 2 2 2 2 9 2 2 2 2 2 2 2 9 2 2 2 2 2
left_child=1 3 5 6 11 -2 9 12 -5 -1 -11 -3 19 -4 -6 16 -15 18 -16 20 25 23 -22 24 -7 -8
right_child=2 4 13 8 14 21 7 -9 -10 10 -12 -13 -14 15 17 -17 -18 -19 -20 -21 22 -23 -24 -25 -26 -27
leaf_value=11.24112072168475 65.164667499935788 13.444553829414678 143.39294099846003 1.2971759616484897 32.618560518215965 63.227750976424886 -3.6671693929408637 -2.28672861222763 6.4672379093658128 50.105350147988837 147.78653701146968 23.070116585614326 -4.9497350886239211 90.839994031803187 16.194084790235831 174.62724144330747 163.90194426394268 3.9386711172096032 50.152043448090929 -13.999956252678432 -3.1745313927683396 101.0690555970702 6.5898293109149275 47.620532837923044 103.01579557584675 40.303629824996491
leaf_weight=60 659 3303 176 26633 1320 48 25 68532 10562 32 24 1980 67408 20 43 394 69 23 597 152 900 490 835 27 94 94
leaf_count=60 659 3303 176 26633 1320 48 25 68532 10562 32 24 1980 67408 20 43 394 69 23 597 152 900 490 835 27 94 94
internal_value=0 -1.17054 108.062 -2.1541 22.553 80.7827 -3.47942 -3.52432 2.76528 46.2279 91.9688 17.0521 -4.74669 162.62 37.2084 169.626 147.484 46.3465 47.8705 2.09043 3.42087 96.4006 1.51601 82.8649 89.5663 28.6578
internal_weight=0 182523 1977 175257 7266 1318 138062 137946 37195 116 56 5283 69414 659 1983 483 89 663 640 2006 1854 659 1735 169 142 119
internal_count=184500 182523 1977 175257 7266 1318 138062 137946 37195 116 56 5283 69414 659 1983 483 89 663 640 2006 1854 659 1735 169 142 119
cat_boundaries=0 2 6 8
cat_threshold=128 512 38162262 806879360 540599621 6 262144 1048576
is_linear=0
shrinkage=0.160217


Tree=7
num_leaves=27
num_cat=2
split_feature=9 8 7 10 8 10 0 5 8 7 8 1 11 7 0 11 1 1 1 1 2 11 5 1 5 11
split_gain=6.4129e+08 1.18049e+08 8.1058e+07 2.52597e+07 2.47222e+07 8.81719e+06 8.67417e+06 7.5705e+06 5.19102e+06 4.7396e+06 4.17554e+06 2.84885e+06 2.43126e+06 2.41929e+06 2.14325e+06 1.93702e+06 2.2707e+06 4.54727e+06 1.82527e+06 1.75058e+06 2.82288e+06 1.55237e+06 1.50243e+06 1.74075e+06 1.54448e+06 1.71139e+06
threshold=1072.2800000000002 246.84500000000003 2293.4600000000005 475.08500000000009 88.585000000000022 1525.1250000000002 0 2020.5000000000002 699.15500000000009 133.89500000000001 36.995000000000012 75.500000000000014 2242650.0000000005 358.20500000000004 1 75912.000000000015 185.50000000000003 232.50000000000003 45.500000000000007 249.50000000000003 1.0000000180025095e-35 5613550.0000000009 2020.5000000000002 187.50000000000003 2021.5000000000002 3008550.0000000005
decision_type=2 2 2 2 2 2 9 2 2 2 2 2 2 2 9 2 2 2 2 2 2 2 2 2 2 2
left_child=1 4 5 13 6 -2 7 11 -5 -6 14 18 19 -3 -8 16 -10 -18 -1 20 -4 22 23 -14 -24 -26
right_child=2 3 12 8 9 -7 10 -9 15 -11 -12 -13 21 -15 -16 -17 17 -19 -20 -21 -22 -23 24 -25 25 -27
leaf_value=11.399476812017554 54.727809104246731 8.3895001041910007 62.147681848202566 21.885746472411622 -0.14466153124828598 80.916702094608283 1.0261264847175622 106.46773000856417 33.445838601100135 3.1903881884243974 -2.2890300191081372 39.36310250649116 98.065323366840246 14.95108815086529 -4.3005220269718532 37.022944185202775 -69.062054746768823 25.759064761628707 -38.214147605620937 139.33188786412984 122.40066347131712 119.91596459235549 159.26641535221933 143.39150017627509 93.420191117776781 158.10321061293311
leaf_weight=92 661 5291 25 1975 26697 659 2006 28 89 18531 63951 88 29 1983 60534 1175 20 37 24 93 99 62 222 87 21 21
leaf_count=92 661 5291 25 1975 26697 659 2006 28 89 18531 63951 88 29 1983 60534 1175 20 37 24 93 99 62 222 87 21 21
internal_value=0 -0.98367 90.7132 15.4505 -1.99389 67.8024 -3.14159 27.1763 27.0858 1.22179 -3.19909 17.6253 136.604 10.1783 -4.13019 34.8603 17.4556 -7.51153 1.13458 122.715 110.253 143.423 147.258 132.06 153.936 125.762
internal_weight=0 182521 1979 10570 171951 1320 126723 232 3296 45228 126491 204 659 7274 62540 1321 146 57 116 217 124 442 380 116 264 42
internal_count=184500 182521 1979 10570 171951 1320 126723 232 3296 45228 126491 204 659 7274 62540 1321 146 57 116 217 124 442 380 116 264 42
cat_boundaries=0 2 6
cat_threshold=262272 268435968 54545739 538477728 1618765057 6
is_linear=0
shrinkage=0.160217


Tree=8
num_leaves=27
num_cat=3
split_feature=10 8 7 10 8 0 7 1 0 5 7 0 5 9 11 1 1 2 5 8 2 1 5 5 11 1
split_gain=4.52317e+08 8.36754e+07 5.70642e+07 1.99184e+07 1.5895e+07 6.83742e+06 6.24639e+06 4.49695e+06 3.76993e+06 3.15891e+06 2.95908e+06 2.7751e+06 2.44688e+06 1.99743e+06 1.79022e+06 1.48203e+06 1.4259e+06 1.69353e+06 2.23924e+06 1.40725e+06 1.34185e+06 1.31644e+06 1.87055e+06 1.26965e+06 1.38282e+06 1.22178e+06
threshold=1085.5150000000001 231.56500000000003 2293.4600000000005 475.08500000000009 86.25500000000001 0 1520.7300000000002 73.500000000000014 1 2018.5000000000002 132.38500000000002 2 2017.5000000000002 354.54000000000002 1666550.0000000002 244.50000000000003 187.50000000000003 1.0000000180025095e-35 2020.5000000000002 20.545000000000005 1.0000000180025095e-35 21.500000000000004 2019.5000000000002 2019.5000000000002 4158750.0000000005 187.50000000000003
decision_type=2 2 2 2 2 9 2 2 9 2 2 9 2 2 2 2 2 2 2 2 2 2 2 2 2 2
left_child=1 4 6 13 5 7 23 20 12 -9 -6 19 -5 -3 -4 21 17 -16 -19 -7 -1 -8 -23 24 -2 -25
right_child=2 3 14 8 10 11 15 9 -10 -11 -12 -13 -14 -15 16 -17 -18 18 -20 -21 -22 22 -24 25 -26 -27
leaf_value=-22.194346663597113 37.870448907576481 6.7670198974607807 100.83033322195928 26.960915021908061 -0.21546088753111986 -4.3778167957969547 45.243255152182435 37.324655739273425 17.545882456064454 114.21828989513759 2.4106203754642892 -2.0074620652974842 48.562860711241441 12.560314213970086 80.028632746649151 57.198896948430871 127.8109639723577 77.478941251078126 124.67493814325773 -2.7920323218507224 26.713603779733845 66.860870689532462 89.038478596651473 47.887741474659627 62.128776710541253 75.287397855435302
leaf_weight=24 401 6609 175 1311 28702 26847 39 32 1837 24 17873 66195 150 1987 39 218 260 31 154 30896 36 235 167 124 71 63
leaf_count=24 401 6609 175 1311 28702 26847 39 32 1837 24 17873 66195 150 1987 39 218 260 31 154 30896 36 235 167 124 71 63
internal_value=0 -0.825728 76.2231 12.1673 -1.73143 -2.67894 56.9757 34.6401 22.7524 70.2791 0.792289 -2.71644 28.9804 8.10616 114.718 68.0054 119.739 110.37 116.766 -3.52872 7.15042 73.3474 76.074 45.946 41.5195 57.1187
internal_weight=0 182523 1977 11894 170629 124054 1318 116 3298 56 46575 123938 1461 8596 659 659 484 224 185 57743 60 441 402 659 472 187
internal_count=184500 182523 1977 11894 170629 124054 1318 116 3298 56 46575 123938 1461 8596 659 659 484 224 185 57743 60 441 402 659 472 187
cat_boundaries=0 2 4 7
cat_threshold=128 512 128 512 4170219552 2407950364 360781984
is_linear=0
shrinkage=0.160217


Tree=9
num_leaves=27
num_cat=3
split_feature=10 7 7 0 9 7 0 5 9 8 0 5 7 11 1 1 11 9 4 5 5 3 1 5 5 7
split_gain=3.18989e+08 5.93625e+07 4.02437e+07 1.39315e+07 1.12349e+07 4.40518e+06 3.89204e+06 3.50105e+06 3.3019e+06 3.08831e+06 1.90232e+06 1.56078e+06 1.40721e+06 1.29396e+06 1.29585e+06 1.90666e+06 1.19883e+06 1.17012e+06 1.15305e+06 1.10714e+06 1.07664e+06 1.04605e+06 1.01145e+06 1.64697e+06 931454 1.87144e+06
threshold=1085.5150000000001 257.88000000000005 2293.4600000000005 0 536.5200000000001 1520.7300000000002 1 2019.5000000000002 155.66500000000002 44.355000000000011 2 2017.5000000000002 358.20500000000004 2242650.0000000005 192.50000000000003 131.50000000000003 6571250.0000000009 783.80000000000007 4.5000000000000009 2016.5000000000002 2018.5000000000002 35.500000000000007 103.50000000000001 2019.5000000000002 2018.5000000000002 6.7650000000000006
decision_type=2 2 2 9 2 2 9 2 2 2 9 2 2 2 2 2 2 2 2 2 2 2 2 2 2 2
left_child=1 3 5 6 12 -2 7 -1 24 -5 11 18 -3 14 15 -4 -15 -12 -6 -20 -11 22 -7 -24 -8 -26
right_child=2 4 13 9 10 21 8 -9 -10 20 17 -13 -14 16 -16 -17 -18 -19 19 -21 -22 -23 23 -25 25 -27
leaf_value=17.381550883800276 38.584639935476417 6.3735461223871832 93.586457078886838 -2.9482148930744474 15.594689784664101 53.515982423813391 -0.52242917158660696 86.094223215019611 3.0229116560796445 -2.0755168124324697 16.772117818775833 40.782271956488728 11.149318739510543 103.64370090512026 95.855113634486798 44.666479428483449 71.44537579275989 -15.227917331130062 21.916025729684311 34.081905657609028 -0.65524438892675452 47.936736159743248 61.341076620046969 93.061495200163222 10.514537988347588 0.79469692698461203
leaf_weight=92 659 3963 43 70614 341 211 23114 24 13416 26662 1318 150 2638 410 135 39 32 30 487 317 28183 215 178 55 534 10640
leaf_count=92 659 3963 43 70614 341 211 23114 24 13416 26662 1318 150 2638 410 135 39 32 30 487 317 28183 215 178 55 534 10640
internal_value=0 -0.693296 64.0109 -1.36066 11.8165 47.8472 0.966248 29.0902 0.891778 -2.24748 20.6436 25.2201 8.28212 96.3381 86.2058 70.3197 101.313 15.9417 23.4016 26.7128 -1.34569 57.1098 61.5517 68.8287 0.058181 1.2592
internal_weight=0 182523 1977 173279 9244 1318 47820 116 47704 125459 2643 1295 6601 659 217 82 442 1348 1145 804 54845 659 444 233 34288 11174
internal_count=184500 182523 1977 173279 9244 1318 47820 116 47704 125459 2643 1295 6601 659 217 82 442 1348 1145 804 54845 659 444 233 34288 11174
cat_boundaries=0 4 6 8
cat_threshold=54874074 806879872 8177152 6 128 512 128 512
is_linear=0
shrinkage=0.160217


Tree=10
num_leaves=27
num_cat=2
split_feature=10 8 7 10 8 0 5 10 8 9 1 1 9 0 2 1 11 1 2 1 5 11 5 5 1 1
split_gain=2.24962e+08 4.21666e+07 2.83813e+07 1.00159e+07 8.71048e+06 3.59938e+06 4.26226e+06 3.1631e+06 2.10537e+06 1.53886e+06 1.52127e+06 1.4516e+06 1.43078e+06 1.12413e+06 1.06853e+06 2.71682e+06 1.77907e+06 1.75272e+06 4.14397e+06 1.23232e+06 1.22618e+06 1.3762e+06 1.12813e+06 892044 983063 1.57637e+06
threshold=1085.5150000000001 231.56500000000003 2293.4600000000005 539.67500000000007 70.555000000000021 0 2020.5000000000002 1525.1250000000002 126.74500000000002 329.39000000000004 73.500000000000014 43.500000000000007 688.7700000000001 1 1.0000000180025095e-35 57.500000000000007 2242650.0000000005 328.50000000000006 2.5000000000000004 185.50000000000003 2020.5000000000002 2006350.0000000002 2020.5000000000002 2018.5000000000002 317.50000000000006 189.50000000000003
decision_type=2 2 2 2 2 9 2 2 2 2 2 2 2 9 2 2 2 2 2 2 2 2 2 2 2 2
left_child=1 4 7 9 5 6 10 -2 -6 -3 11 -1 -5 -7 15 -4 -17 19 -19 20 -16 -22 -18 24 25 -9
right_child=2 3 14 12 8 13 -8 23 -10 -11 -12 -13 -14 -15 17 16 22 18 -20 -21 21 -23 -24 -25 -26 -27
leaf_value=5.9541625786815562 32.332428755573069 4.6186047072191672 14.957579829866713 13.607564035905673 -0.3675664932003832 -3.4343226996920087 76.805262496871975 20.745223633740792 1.6154816331208246 8.9293355593408563 24.818114229867369 -41.863319862520179 21.070161721719874 -1.9279942967607446 49.292121164586909 48.964021019876149 70.444677146657554 99.333397593815889 17.141118585893341 95.293442751542969 62.257585517633146 91.886402149500356 112.25338326408955 51.491987103912756 11.144377830939977 56.226161771291082
leaf_weight=88 659 5948 21 1315 41468 14760 28 50 20555 3308 96 20 1323 93614 31 35 30 32 31 243 56 143 37 490 29 90
leaf_count=88 659 5948 21 1315 41468 14760 28 50 20555 3308 96 20 1323 93614 31 35 30 32 31 243 56 143 37 490 29 90
internal_value=0 -0.582218 53.7552 8.64129 -1.22516 -2.09023 17.4371 40.1813 0.289634 6.15922 10.1433 -2.90094 17.3502 -2.13345 80.9031 67.4355 78.2398 83.9937 58.8896 87.3373 78.9315 83.5487 93.5331 48.0302 37.9929 43.5544
internal_weight=0 182523 1977 11894 170629 108606 232 1318 62023 9256 204 108 2638 108374 659 123 102 536 63 473 230 199 67 659 169 140
internal_count=184500 182523 1977 11894 170629 108606 232 1318 62023 9256 204 108 2638 108374 659 123 102 536 63 473 230 199 67 659 169 140
cat_boundaries=0 2 5
cat_threshold=262272 268435968 32768 2357469184 32
is_linear=0
shrinkage=0.160217


Tree=11
num_leaves=27
num_cat=3
split_feature=10 7 7 10 0 10 0 1 8 0 5 5 5 7 1 1 1 1 2 7 11 5 7 5 1 11
split_gain=1.58652e+08 2.98037e+07 2.00155e+07 7.48886e+06 5.93002e+06 2.23073e+06 2.21511e+06 2.49084e+06 1.93849e+06 1.59499e+06 1.58447e+06 1.17083e+06 1.12167e+06 1.10075e+06 1.0051e+06 1.73029e+06 993235 1.64763e+06 970131 964212 890502 1.07019e+06 866435 795588 790576 779296
threshold=1085.5150000000001 223.16500000000002 2293.4600000000005 475.08500000000009 0 1525.1250000000002 1 73.500000000000014 27.785000000000004 2 2018.5000000000002 2018.5000000000002 2017.5000000000002 6.7650000000000006 73.500000000000014 45.500000000000007 13.500000000000002 25.500000000000004 2.5000000000000004 57.435000000000009 4916150.0000000009 2019.5000000000002 788.3850000000001 2018.5000000000002 187.50000000000003 2242650.0000000005
decision_type=2 2 2 2 9 2 9 2 2 9 2 2 2 2 2 2 2 2 2 2 2 2 2 2 2 2
left_child=1 4 5 -3 6 20 7 18 -6 12 -9 -8 -5 14 15 -13 -4 -18 -1 -15 21 -2 -11 -10 -23 -19
right_child=2 3 16 9 8 -7 11 10 23 22 -12 13 -14 19 -16 -17 17 25 -20 -21 -22 24 -24 -25 -26 -27
leaf_value=-13.465765832708961 20.904779169696077 4.7086891757291527 98.631874797685199 16.246672294878298 -2.4716880610615259 40.334924518557585 -0.17040135802797621 24.583530926642535 -1.6405353039912498 10.718544461695842 79.041850759413904 13.620242125703358 30.872472045340032 -11.418127586231829 13.630753207299183 -17.866600152858979 23.603381113754324 59.967682854733724 29.751152483711852 1.4013787900232528 47.274437975065155 28.105904625928336 -18.73819542108718 -0.63706849802979959 50.087326261958523 72.193398144003851
leaf_weight=40 418 9253 26 1311 43829 659 27741 32 41439 1811 24 96 150 152 354 84 22 198 20 16438 52 126 26 39723 63 413
leaf_count=40 418 9253 26 1311 43829 659 27741 32 41439 1811 24 96 150 152 354 84 22 198 20 16438 52 126 26 39723 63 413
internal_value=0 -0.488984 45.1428 7.04516 -1.04532 33.7436 0.532225 21.7466 -1.61295 13.6005 47.9228 0.47254 17.6276 1.51439 8.67422 -1.07362 67.9411 66.6805 0.939882 1.28392 27.1522 25.4284 10.2459 -1.14941 35.4331 68.2315
internal_weight=0 182523 1977 12551 169972 1318 44981 116 124991 3298 56 44865 1461 17124 534 180 659 633 60 16590 659 607 1837 81162 189 611
internal_count=184500 182523 1977 12551 169972 1318 44981 116 124991 3298 56 44865 1461 17124 534 180 659 633 60 16590 659 607 1837 81162 189 611
cat_boundaries=0 4 6 8
cat_threshold=55005074 806879872 1081926720 4 128 512 128 512
is_linear=0
shrinkage=0.160217


Tree=12
num_leaves=27
num_cat=2
split_feature=10 0 7 9 0 8 5 10 8 7 7 1 1 5 1 2 11 1 1 11 5 11 5 5 8 11
split_gain=1.11887e+08 2.20323e+07 1.41157e+07 8.12575e+06 2.58682e+06 1.94258e+06 1.92273e+06 1.57319e+06 1.2217e+06 1.04169e+06 1.65053e+06 860605 844262 802091 800904 1.19028e+06 1.45057e+06 1.01391e+06 991877 769687 908993 735253 1.35317e+06 694433 719037 628014
threshold=1085.5150000000001 0 2293.4600000000005 122.61500000000002 1 64.50500000000001 2017.5000000000002 1525.1250000000002 192.09500000000003 6.7650000000000006 148.60500000000005 190.50000000000003 19.500000000000004 2019.5000000000002 187.50000000000003 1.0000000180025095e-35 2914650.0000000005 51.500000000000007 355.50000000000006 2006350.0000000002 2020.5000000000002 5168350.0000000009 2019.5000000000002 2016.5000000000002 791.21000000000015 4916150.0000000009
decision_type=2 9 2 2 9 2 2 2 2 2 2 2 2 2 2 2 2 2 2 2 2 2 2 2 2 2
left_child=1 4 7 5 6 -3 11 25 -5 12 -11 -1 -6 -8 15 16 -4 -17 -16 -19 -21 -9 -23 24 -13 -2
right_child=2 3 14 8 9 -7 13 21 -10 10 -12 23 -14 -15 18 17 -18 19 -20 20 -22 22 -24 -25 -26 -27
leaf_value=9.3652287702803836 21.354351572677974 -1.5942564667342636 -0.17454129289494041 0.87637599986876025 -4.1825283409331506 -0.35188350586974232 25.851464987616222 36.790290377710598 2.999693739717662 -9.5887512197027114 7.4737654977545223 15.537238184655722 28.944801207053729 56.067465671933512 63.92342404496523 69.873449928545341 53.503205996371968 24.763393189779229 28.085544361176943 29.828110085822221 61.685059617281695 15.725670009434383 51.668238544514224 24.389267833160343 -6.14186137191607 39.700279094216796
leaf_weight=796 607 100818 24 16977 25 47541 170 508 11784 152 3419 453 94 26 354 82 28 30 21 31 89 116 35 225 43 52
leaf_count=796 607 100818 24 16977 25 47541 170 508 11784 152 3419 453 94 26 354 82 28 30 21 31 89 116 35 225 43 52
internal_value=0 -0.410641 37.9101 -0.718297 9.65835 -1.19614 14.8399 28.3373 1.74634 7.21934 6.7475 12.9971 21.9853 29.8597 57.0558 50.6376 28.7289 55.5482 61.9165 47.717 53.4554 33.8726 24.0567 17.0067 13.6578 22.802
internal_weight=0 182523 1977 177120 5403 148359 1713 1318 28761 3690 3571 1517 119 196 659 284 52 232 375 150 120 659 151 721 496 659
internal_count=184500 182523 1977 177120 5403 148359 1713 1318 28761 3690 3571 1517 119 196 659 284 52 232 375 150 120 659 151 721 496 659
cat_boundaries=0 2 4
cat_threshold=262272 1049088 128 512
is_linear=0
shrinkage=0.160217


Tree=13
num_leaves=27
num_cat=4
split_feature=10 9 7 0 7 7 5 0 5 7 0 1 1 0 5 3 1 5 1 1 1 5 11 5 11 5
split_gain=7.89067e+07 1.59501e+07 9.95487e+06 5.09823e+06 1.71077e+06 1.52568e+06 1.20775e+06 1.47513e+06 1.18446e+06 1.6864e+06 2.07492e+06 1.97699e+06 1.94532e+06 1.19523e+06 1.01328e+06 894131 780081 734879 722371 1.72103e+06 788236 2.3179e+06 757526 948280 670618 656970
threshold=1085.5150000000001 329.39000000000004 2293.4600000000005 0 694.4000000000002 67.655000000000015 2019.5000000000002 1 2018.5000000000002 6.7650000000000006 2 131.50000000000003 45.500000000000007 3 2016.5000000000002 46.500000000000007 21.500000000000004 2020.5000000000002 11.500000000000002 21.500000000000004 47.500000000000007 2021.5000000000002 1758350.0000000002 2020.5000000000002 3360750.0000000005 2018.5000000000002
decision_type=2 2 2 9 2 2 2 9 2 2 9 2 2 9 2 2 2 2 2 2 2 2 2 2 2 2
left_child=1 3 6 8 -3 -5 7 15 13 10 11 12 -10 14 -1 16 -2 -12 -4 -20 -21 22 -22 24 -24 -7
right_child=2 4 18 5 -6 25 -8 -9 9 -11 17 -13 -14 -15 -16 -17 -18 -19 19 20 21 -23 23 -25 -26 -27
leaf_value=8.8937862309280113 2.6947772488864561 6.364548944600533 77.897955646988308 -1.346364193264932 12.902005495411412 -0.89290357915384899 30.683488135071613 11.271267751200414 49.469507606560732 2.1357625268438536 -1.9068329116710077 55.78976261923458 -13.686531815908495 0.31981409111801401 42.823880351919421 10.602650918585962 30.789547674543609 15.300738008604315 2.9425331935912924 67.623443760470607 39.211686715666268 -1.8966603386251117 21.139153973499404 59.189467201300836 48.046662064841335 0.37657520791416282
leaf_weight=117 27 4625 20 103582 1321 19262 437 355 21 12007 162 53 31 18298 28 79 420 105 22 51 148 24 29 233 132 22911
leaf_count=117 27 4625 20 103582 1321 19262 437 355 21 12007 162 53 31 18298 28 79 420 105 22 51 148 24 29 233 132 22911
internal_value=0 -0.344849 31.8363 -0.619687 7.81695 -1.01554 23.7972 20.3814 1.25221 2.46492 13.089 31.056 11.8188 0.438909 14.4493 25.8246 29.0925 4.68473 47.9145 46.976 48.5461 46.8271 48.9846 52.6557 43.2 -0.203244
internal_weight=0 182523 1977 176577 5946 145755 1318 881 30822 12379 372 105 52 18443 145 526 447 267 659 639 617 566 542 394 161 42173
internal_count=184500 182523 1977 176577 5946 145755 1318 881 30822 12379 372 105 52 18443 145 526 447 267 659 639 617 566 542 394 161 42173
cat_boundaries=0 4 5 8 10
cat_threshold=54790338 806355584 7882240 4 128 38011008 1048576 524288 128 1049088
is_linear=0
shrinkage=0.160217


Tree=14
num_leaves=27
num_cat=5
split_feature=10 10 7 0 0 8 8 5 1 0 5 1 0 5 1 1 10 0 11 11 2 1 1 11 11 5
split_gain=5.56854e+07 1.1347e+07 7.01103e+06 3.02367e+06 1.9991e+06 984531 975526 930352 1.18424e+06 989128 1.08423e+06 1.03624e+06 856631 3.13667e+06 1.24314e+06 850986 836331 779070 3.18078e+06 1.5214e+06 688370 1.06356e+06 680532 648395 780428 919340
threshold=1085.5150000000001 267.00500000000005 2293.4600000000005 0 1 26.145000000000003 167.85000000000005 2020.5000000000002 33.500000000000007 2 2018.5000000000002 288.50000000000006 3 2017.5000000000002 211.50000000000003 298.50000000000006 1525.1250000000002 4 1943650.0000000002 2867600.0000000005 1.0000000180025095e-35 61.500000000000007 306.50000000000006 3008550.0000000005 5525550.0000000009 2020.5000000000002
decision_type=2 2 2 9 9 2 2 2 2 9 2 2 9 2 2 2 2 9 2 2 2 2 2 2 2 2
left_child=1 3 7 6 -3 -5 12 9 -9 15 -11 16 13 -1 -15 20 -12 19 -19 22 21 -2 -4 -21 25 -25
right_child=2 4 17 5 -6 -7 -8 8 -10 10 11 -13 -14 14 -16 -17 -18 18 -20 23 -22 -23 -24 24 -26 -27
leaf_value=-3.6061405811932361 -17.382300036193566 10.510437821253399 56.185739483441004 -1.6383694350556928 4.2083053179965058 -0.67692215787691656 1.8361337397005226 2.8258483817468729 45.299041892865624 1.7183504975320618 15.456772903384392 31.254734233502546 0.067967675053038273 19.853847593830508 72.580553628102635 11.38013500496208 -14.408883986816438 34.094527178822133 -33.218610593686087 15.697163320067244 29.589829977447589 23.532613469290421 88.702404224233888 34.504743842693571 26.844893814719928 54.31927807331293
leaf_weight=95 21 1597 95 40258 6982 85201 10936 22 72 149 324 107 37408 22 24 113 26 182 20 25 411 73 20 99 65 153
leaf_count=95 21 1597 95 40258 6982 85201 10936 22 72 149 324 107 37408 22 24 113 26 182 20 25 411 73 20 99 65 153
internal_value=0 -0.289596 26.7447 -0.570141 5.39862 -0.985358 0.504368 19.9982 35.3585 18.8185 13.3663 17.4565 0.11663 12.1598 47.3635 23.5672 13.2382 40.2378 26.136 44.9162 26.7609 14.392 61.8408 40.5385 42.4976 46.535
internal_weight=0 182523 1977 173944 8579 125459 48485 1318 94 1224 606 457 37549 141 46 618 350 659 202 457 505 94 115 342 317 252
internal_count=184500 182523 1977 173944 8579 125459 48485 1318 94 1224 606 457 37549 141 46 618 350 659 202 457 505 94 115 342 317 252
cat_boundaries=0 4 6 7 8 9
cat_threshold=54873802 806879872 1618527745 6 128 512 128 262272 128
is_linear=0
shrinkage=0.160217


Tree=15
num_leaves=27
num_cat=1
split_feature=8 7 8 9 8 5 0 5 1 1 1 5 1 2 1 10 3 1 3 1 2 1 1 1 1 2
split_gain=3.94546e+07 7.04031e+06 6.39547e+06 2.12798e+06 1.22375e+06 1.14615e+06 935404 1.77826e+06 799496 747335 1.50929e+06 687854 769152 750652 983827 603662 941052 1.02075e+06 672469 711627 594478 1.97162e+06 1.31712e+06 2.36287e+06 1.14932e+06 2.90967e+06
threshold=791.21000000000015 2293.4600000000005 173.97000000000003 415.93500000000006 69.895000000000024 2018.5000000000002 0 2017.5000000000002 211.50000000000003 21.500000000000004 15.500000000000002 2016.5000000000002 115.50000000000001 1.0000000180025095e-35 57.500000000000007 1525.1250000000002 31.500000000000004 93.500000000000014 8.5000000000000018 194.50000000000003 1.0000000180025095e-35 254.50000000000003 185.50000000000003 57.500000000000007 328.50000000000006 2.5000000000000004
decision_type=2 2 2 2 2 2 9 2 2 2 2 2 2 2 2 2 2 2 2 2 2 2 2 2 2 2
left_child=2 5 4 -4 6 11 7 -1 -9 10 -7 -2 13 14 -13 18 17 -17 -11 -20 21 22 23 -3 -22 -26
right_child=1 20 3 -5 -6 9 -8 8 -10 15 -12 12 -14 -15 -16 16 -18 -19 19 -21 24 -23 -24 -25 25 -27
leaf_value=-2.0900902304824345 -8.908897765447783 -17.010716083509191 1.7159237226466795 6.1873987381692892 0.0087095364609134883 17.846866271216616 -0.93717795439734497 16.400072865364773 58.684330090238134 32.271548850182569 -34.538934521581083 -40.5862363495729 14.671561421136133 8.5820604182573632 5.2888242449753733 19.774871064778353 14.325873748799573 38.922320353653184 6.6710742939039704 20.344938343101134 38.803801732978258 50.451675523384402 -19.483071446701612 53.556690940882987 49.65713288625836 -19.215161397125787
leaf_weight=70 43 21 15873 3300 54752 48 107819 22 24 55 20 20 692 232 30 140 164 146 200 191 473 45 28 29 32 31
leaf_count=70 43 21 15873 3300 54752 48 107819 22 24 55 20 20 692 232 30 140 164 146 200 191 473 45 28 29 32 31
internal_value=0 19.446 -0.282085 2.48554 -0.608255 14.674 -0.921221 12.8803 38.4615 18.6323 2.43927 10.9219 11.7974 4.7446 -13.0612 19.8612 24.0013 29.5494 15.6839 13.3506 33.791 23.7457 8.33838 23.9184 36.0962 15.7676
internal_weight=0 2640 181860 19173 162687 1981 107935 116 46 964 68 1017 974 282 50 896 450 286 446 391 659 123 78 50 536 63
internal_count=184500 2640 181860 19173 162687 1981 107935 116 46 964 68 1017 974 282 50 896 450 286 446 391 659 123 78 50 536 63
cat_boundaries=0 1
cat_threshold=384
is_linear=0
shrinkage=0.160217


Tree=16
num_leaves=27
num_cat=5
split_feature=8 7 0 8 5 8 7 5 0 5 0 11 11 5 7 0 5 1 11 11 1 1 1 1 0 5
split_gain=2.78248e+07 4.96508e+06 4.68562e+06 1.80397e+06 808305 779775 760825 1.538e+06 1.09739e+06 1.63563e+06 749104 2.42139e+06 1.0179e+06 746410 620421 606218 605619 569092 550806 737510 548955 804994 527047 1.06441e+06 515312 487389
threshold=791.21000000000015 2293.4600000000005 0 95.585000000000022 2018.5000000000002 420.21000000000009 6.7650000000000006 2020.5000000000002 1 2016.5000000000002 2 1604622.0000000002 2867600.0000000005 2016.5000000000002 73.615000000000023 3 2019.5000000000002 19.500000000000004 3311050.0000000005 5437125.0000000009 293.50000000000006 213.50000000000003 21.500000000000004 15.500000000000002 4 2020.5000000000002
decision_type=2 2 9 2 2 2 2 2 9 2 9 2 2 2 2 9 2 2 2 2 2 2 2 2 9 2
left_child=2 4 5 13 -2 6 7 8 9 17 12 -12 -3 -4 -8 -15 -5 -1 25 -20 21 -21 23 -6 -17 -14
right_child=1 10 3 16 22 -7 14 -9 -10 -11 11 -13 18 15 -16 24 -18 -19 19 20 -22 -23 -24 -25 -26 -27
leaf_value=-14.836617694983282 9.1720621085567071 46.116932419077088 -1.2650856278834843 -0.036405235433251658 14.987499202945783 5.551639951926898 -8.2553947024519641 38.304702228046317 -1.5684495316824476 46.868191461650625 25.35423696897276 -22.687307411922934 -3.8565077050170751 7.4485438026431394 2.1358463195651169 0.22393277855698523 1.1820379762178854 15.833946518532478 37.380059583621239 7.8830261369674854 -4.3008112609789135 49.031332561602362 16.67908831952327 -29.005223513102912 -0.68553836740025453 24.503311705664398
leaf_weight=24 1017 115 42313 24352 48 2954 152 42 204 37 170 32 21 239 4973 20988 18371 44 192 26 20 23 896 20 67167 60
leaf_count=24 1017 115 42313 24352 48 2954 152 42 204 37 170 32 21 239 4973 20988 18371 44 192 26 20 23 896 20 67167 60
internal_value=0 16.3304 -0.236898 -0.416262 12.3229 3.44955 2.32188 9.53815 5.62813 18.0412 28.3771 16.9067 32.3689 -0.711707 1.82766 -0.446813 0.487528 5.00904 28.6925 32.2745 18.0676 27.1976 15.6471 2.04845 -0.46901 17.1508
internal_weight=0 2640 181860 173430 1981 8430 5476 351 309 105 659 202 457 130707 5125 88394 42723 68 342 261 69 49 964 68 88155 81
internal_count=184500 2640 181860 173430 1981 8430 5476 351 309 105 659 202 457 130707 5125 88394 42723 68 342 261 69 49 964 68 88155 81
cat_boundaries=0 2 4 5 8 12
cat_threshold=33816704 1049216 128 1048576 128 4196418 268435456 1573888 25904956 536872224 1659249165 6
is_linear=0
shrinkage=0.160217


Tree=17
num_leaves=27
num_cat=5
split_feature=0 5 8 0 11 11 11 8 9 0 2 11 11 5 0 5 7 0 2 11 3 1 1 1 1 11
split_gain=1.97772e+07 5.93707e+06 2.71903e+06 1.75506e+06 2.65142e+06 841570 939960 758514 809889 700971 671324 1.75941e+06 621772 620729 704463 505849 867150 719590 486263 477961 591897 434114 485538 420885 819662 403421
threshold=0 2019.5000000000002 140.51500000000001 1 2135650.0000000005 2496750.0000000005 653334.50000000012 392.86000000000007 783.80000000000007 2 1.0000000180025095e-35 2914650.0000000005 3008550.0000000005 2016.5000000000002 3 2016.5000000000002 6.7650000000000006 4 1.0000000180025095e-35 2961550.0000000005 46.500000000000007 185.50000000000003 53.500000000000007 73.500000000000014 45.500000000000007 1604622.0000000002
decision_type=9 2 2 9 2 2 2 2 2 9 2 2 2 2 9 2 2 9 2 2 2 2 2 2 2 2
left_child=1 13 9 4 -3 6 -5 -4 18 -2 11 -6 -7 -1 -15 -11 17 23 -9 -12 21 22 -21 24 -17 -8
right_child=2 3 7 5 10 12 25 8 -10 15 19 -13 -14 14 -16 16 -18 -19 -20 20 -22 -23 -24 -25 -26 -27
leaf_value=4.330408231745027 -0.98431852038013612 72.407420193961229 0.97034585663407857 -17.600236393381163 -28.70662962114805 -21.131731449815589 20.824111179351796 -0.26080849727173311 -22.553171610173212 -0.7697195435364006 37.363642052353391 24.356675270068287 12.340359434715054 12.859245482968365 5.7280459142518501 11.943809983094688 -0.11579417743338112 1.8468233499644688 4.8765465130676029 35.850308440059287 6.7022207740301951 35.83538126236872 17.165616181802246 13.819443353969385 -19.225981546925365 10.6650600992053
leaf_weight=1028 49813 33 22434 20 20 28 342 584 30 33464 112 81 29 770 770 63 69743 1924 2487 51 39 106 119 235 33 142
leaf_count=1028 49813 33 22434 20 20 28 342 584 30 33464 112 81 29 770 770 63 69743 1924 2487 51 39 106 119 235 33 142
internal_value=0 11.5957 -0.237088 21.3497 27.8528 14.0989 16.4371 1.295 3.64368 -0.489056 25.5956 13.8491 -4.10207 7.37919 9.41434 -0.25501 -0.015813 3.07642 3.8996 28.3741 25.1778 27.7885 22.771 9.86971 1.22919 17.8436
internal_weight=0 3690 180810 1122 561 561 504 25535 3101 155275 528 101 57 2568 1540 105462 71998 2255 3071 427 315 276 170 331 96 484
internal_count=184500 3690 180810 1122 561 561 504 25535 3101 155275 528 101 57 2568 1540 105462 71998 2255 3071 427 315 276 170 331 96 484
cat_boundaries=0 2 3 6 7 10
cat_threshold=128 512 128 2282782721 2407983114 218110368 128 38078466 1048704 1574400
is_linear=0
shrinkage=0.160217


Tree=18
num_leaves=27
num_cat=3
split_feature=9 7 0 5 2 1 0 1 1 1 1 1 1 2 1 1 5 2 0 11 1 1 5 7 1 1
split_gain=1.39956e+07 2.94169e+06 2.31429e+06 878902 855250 3.11775e+06 640817 582979 1.07288e+06 570518 903307 730529 2.18165e+06 766465 2.04496e+06 652844 960354 558415 516424 433845 1.18424e+06 2.39065e+06 602481 402695 891617 2.39582e+06
threshold=688.7700000000001 2293.4600000000005 0 2020.5000000000002 1.0000000180025095e-35 21.500000000000004 1 15.500000000000002 27.500000000000004 187.50000000000003 176.50000000000003 247.50000000000003 257.50000000000006 2.5000000000000004 328.50000000000006 51.500000000000007 2021.5000000000002 1.0000000180025095e-35 2 219673.50000000003 185.50000000000003 266.50000000000006 2019.5000000000002 6.7650000000000006 131.50000000000003 45.500000000000007
decision_type=2 2 9 2 2 2 9 2 2 2 2 2 2 2 2 2 2 2 9 2 2 2 2 2 2 2
left_child=2 4 6 18 5 -2 23 -3 -9 10 15 17 -13 -14 -15 -10 -17 -11 -4 20 -6 -22 -21 24 25 -1
right_child=1 7 3 -5 19 -7 -8 8 9 11 -12 12 13 14 -16 16 -18 -19 -20 22 21 -23 -24 -25 -26 -27
leaf_value=14.198669463649827 -49.014313944119557 41.736751329413103 -1.3302214200349445 0.44187934385721261 11.925386959402305 5.1215146875052238 0.89464586189288564 -14.346437728606846 33.950301129388258 56.519889539873255 -17.764045948894438 -31.750738857278602 31.008094877986363 29.302994184406149 -21.374454973275402 16.936531946743774 -20.546467920758843 28.932641545180516 -0.44661908029841013 8.4723145827798803 -61.861448439863914 7.5767963453158309 15.165829025342928 2.7090362443866969 23.277743749998656 -31.323387238420906
leaf_weight=115 29 30 20046 25755 94 468 20295 24 46 23 21 20 137 60 31 143 20 104 111024 1551 20 35 444 3845 80 40
leaf_count=115 29 30 20046 25755 94 468 20295 24 46 23 21 20 137 60 31 143 20 104 111024 1551 20 35 444 3845 80 40
internal_value=0 10.3405 -0.187992 -0.413736 7.951 1.96268 1.26406 19.9167 18.8759 20.1939 13.9116 24.047 18.9866 23.4372 12.0392 17.0943 12.3374 33.9288 -0.581894 9.33915 0.999622 -17.6735 9.962 3.09496 9.54098 2.45104
internal_weight=0 3300 181200 156825 2641 497 24375 659 629 605 230 375 248 228 91 209 163 127 131070 2144 149 55 1995 4080 235 155
internal_count=184500 3300 181200 156825 2641 497 24375 659 629 605 230 375 248 228 91 209 163 127 131070 2144 149 55 1995 4080 235 155
cat_boundaries=0 3 5 8
cat_threshold=38013058 269484672 7880704 262272 1049088 33024 2357501952 201326880
is_linear=0
shrinkage=0.160217


Tree=19
num_leaves=27
num_cat=5
split_feature=0 5 7 1 1 1 1 5 0 11 9 0 11 1 10 1 2 5 2 2 1 1 0 11 0 7
split_gain=9.96412e+06 3.39087e+06 1.52041e+06 930839 2.19556e+06 856104 2.61881e+06 800572 959320 1.09575e+06 710942 707561 984712 669469 605818 880442 1.11004e+06 581772 567513 549120 963478 2.66511e+06 524874 550836 514907 508596
threshold=0 2020.5000000000002 172.40500000000003 19.500000000000004 11.500000000000002 45.500000000000007 53.500000000000007 2017.5000000000002 1 682250.00000000012 2257.9350000000004 2 1604622.0000000002 117.50000000000001 1525.1250000000002 125.50000000000001 1.0000000180025095e-35 2017.5000000000002 1.5000000000000002 1.0000000180025095e-35 21.500000000000004 15.500000000000002 3 1.0000000180025095e-35 4 1085.7900000000002
decision_type=9 2 2 2 2 2 2 2 9 2 2 9 2 2 2 2 2 2 2 2 2 2 9 2 9 2
left_child=1 7 17 4 -3 18 -7 -1 14 -10 13 -12 -13 -8 15 16 -9 24 -5 20 21 -4 23 -19 -2 -11
right_child=2 3 19 5 -6 6 10 8 9 25 11 12 -14 -15 -16 -17 -18 22 -20 -21 -22 -23 -24 -25 -26 -27
leaf_value=3.5154555692827292 -1.3316262493863642 30.526648922888715 1.0099640285619753 56.312794304063218 -36.674004822597915 -32.927564843266246 26.109246290775665 -16.437045309978512 -32.473313959117306 13.870768260006452 24.606629976670899 14.730084052455458 -19.184506262133578 61.220940127052842 11.007102146649867 52.547060409710205 26.649328296814005 4.4782279336929962 26.698771913759792 1.6423620255063587 0.086652496281549182 -37.503856846450887 -0.27703424626879197 0.45078889566279579 -0.3878170558489083 3.4437584518236912
leaf_weight=1540 21043 26 148 26 24 24 46 20 20 150 226 142 26 20 664 22 66 908 46 14803 3210 67 68441 21822 50368 602
leaf_count=1540 21043 26 148 26 24 24 46 20 20 150 226 142 26 20 664 22 66 908 46 14803 3210 67 68441 21822 50368 602
internal_value=0 8.23081 -0.168153 19.2096 -1.72967 21.0926 18.6678 6.10018 8.67821 4.48119 21.3598 18.7818 8.94873 36.7492 12.6533 23.9458 16.6292 -0.323726 37.3927 1.21937 -0.608797 -10.992 -0.0554993 0.611405 -0.666174 5.52361
internal_weight=0 3690 180810 606 50 556 484 3084 1544 772 460 394 168 66 772 108 86 162582 72 18228 3425 215 91171 22730 71411 752
internal_count=184500 3690 180810 606 50 556 484 3084 1544 772 460 394 168 66 772 108 86 162582 72 18228 3425 215 91171 22730 71411 752
cat_boundaries=0 2 3 4 8 11
cat_threshold=128 512 128 128 63392810 268435840 1157244485 6 2224062817 3431244040 226499360
is_linear=0
shrinkage=0.160217


Tree=20
num_leaves=27
num_cat=5
split_feature=9 7 0 2 1 1 5 1 1 1 1 1 3 2 1 0 1 1 2 0 0 11 0 1 1 9
split_gain=7.13412e+06 1.74428e+06 1.12746e+06 650200 2.16561e+06 4.33818e+06 547031 465343 732473 414168 1.43891e+06 1.16797e+06 596274 548843 1.38204e+06 409851 405240 2.01947e+06 3.15799e+06 410076 352565 491015 341914 340399 7.12938e+06 394527
threshold=599.2700000000001 2293.4600000000005 0 1.0000000180025095e-35 21.500000000000004 11.500000000000002 2017.5000000000002 15.500000000000002 27.500000000000004 331.50000000000006 321.50000000000006 355.50000000000006 41.500000000000007 1.0000000180025095e-35 233.50000000000003 1 325.50000000000006 332.50000000000006 2.5000000000000004 2 3 2459150.0000000005 4 251.50000000000003 239.50000000000003 1505.4400000000003
decision_type=2 2 9 2 2 2 2 2 2 2 2 2 2 2 2 9 2 2 2 9 9 2 9 2 2 2
left_child=2 3 -1 4 5 -2 22 -3 -9 10 12 -11 13 14 -10 -8 19 18 -18 -5 21 -15 -4 24 25 -6
right_child=1 7 6 16 23 -7 15 8 9 11 -12 -13 -14 20 -16 -17 17 -19 -20 -21 -22 -23 -24 -25 -26 -27
leaf_value=0.79914130114017801 15.827988064906288 33.747837317134952 -1.4043519833212617 10.162692402329535 2.7000905990195809 -88.434710444247258 0.37319372223642705 -14.127194679883676 12.824398210821187 39.226025143732436 -27.237830524604515 -5.7994567214603148 28.123956430343235 37.741147337344771 -36.126532568027145 -0.33221918174919862 10.716402827222348 6.8203172935595724 -66.078806711824626 5.4576901098341555 5.3278867077301717 16.232977574943455 -0.48591765360388767 8.2213428899234433 -92.891031291578827 15.939826664500849
leaf_weight=27405 21 30 13090 755 277 20 34400 24 57 50 22 21 72 31 20 54825 28 259 27 1611 107 225 50820 210 20 73
leaf_count=27405 21 30 13090 755 277 20 34400 24 57 50 22 21 72 31 20 54825 28 259 27 1611 107 225 50820 210 20 73
internal_value=0 6.72739 -0.147133 5.22498 0.553756 -35.0319 -0.31651 14.2531 13.3233 14.4123 12.8837 25.9086 14.6077 12.396 0.10986 -0.0602482 6.30738 0.899337 -26.9831 7.0251 15.0021 18.1293 -0.674326 3.0693 0.14516 5.46152
internal_weight=0 3960 180540 3301 621 41 153135 659 629 605 534 71 512 440 77 89225 2680 314 55 2366 363 256 63910 580 370 350
internal_count=184500 3960 180540 3301 621 41 153135 659 629 605 534 71 512 440 77 89225 2680 314 55 2366 363 256 63910 580 370 350
cat_boundaries=0 3 7 8 9 12
cat_threshold=54790274 806355584 7880704 9127800 1074300160 1686513229 6 128 128 8421664 3422855424 75499040
is_linear=0
shrinkage=0.160217


Tree=21
num_leaves=27
num_cat=3
split_feature=0 5 0 1 1 1 2 1 1 1 1 1 5 9 1 1 5 0 11 7 1 1 1 1 11 10
split_gain=5.12229e+06 1.94373e+06 902233 734507 728415 1.36751e+06 718623 881102 883124 1.23727e+06 688947 1.82135e+06 580519 577855 554547 677254 551707 493739 742893 487242 482294 446635 695851 440782 420597 1.26515e+06
threshold=0 2020.5000000000002 1 103.50000000000001 19.500000000000004 11.500000000000002 1.0000000180025095e-35 51.500000000000007 39.500000000000007 21.500000000000004 45.500000000000007 53.500000000000007 2019.5000000000002 2257.9350000000004 350.50000000000006 329.50000000000006 2019.5000000000002 2 1604622.0000000002 788.3850000000001 117.50000000000001 331.50000000000006 317.50000000000006 192.50000000000003 3836950.0000000005 1525.1250000000002
decision_type=9 2 9 2 2 2 2 2 2 2 2 2 2 2 2 2 2 9 2 2 2 2 2 2 2 2
left_child=1 3 19 6 5 -3 7 8 9 -1 -6 -12 -5 20 15 17 -4 -15 23 -2 -13 22 24 -19 25 -14
right_child=2 4 16 12 10 -7 -8 -9 -10 -11 11 13 21 14 -16 -17 -18 18 -20 -21 -22 -23 -24 -25 -26 -27
leaf_value=-32.80949027879776 1.1191675503792171 21.146971783490624 -0.42000511926148698 4.6640577302547479 30.501263987358492 -31.888456793169688 2.6279329482215865 2.2597449309309154 -48.258910003307186 12.480333547443678 -29.324803563447563 20.792072892199808 16.577501898197511 17.909074771839872 -12.368226817207763 38.101317655624577 0.21485104188148249 -5.7054387542754652 -20.864313838466089 -20.8329442185908 50.593888206225671 26.015238001025704 -19.49193879415898 16.076049558703659 18.80016802111555 -10.817541905167777
leaf_weight=32 14734 26 115560 1846 72 24 692 88 22 30 24 46 119 201 20 30 50490 33 24 26 20 48 20 86 119 68
leaf_count=32 14734 26 115560 1846 72 24 692 88 22 30 24 46 119 201 20 30 50490 33 24 26 20 48 20 86 119 68
internal_value=0 5.90173 -0.120229 4.28771 14.2131 -4.31004 0.3243 -8.9438 -20.6809 -10.8951 15.8788 13.7036 5.83022 15.9485 13.6244 15.0144 -0.226954 13.001 4.53279 1.07977 29.8229 11.5862 9.46169 10.0358 11.3541 6.61567
internal_weight=0 3690 180810 3084 606 50 864 172 84 62 556 484 2220 460 394 374 166050 344 143 14760 66 374 326 119 306 187
internal_count=184500 3690 180810 3084 606 50 864 172 84 62 556 484 2220 460 394 374 166050 344 143 14760 66 374 326 119 306 187
cat_boundaries=0 2 5 6
cat_threshold=128 512 38010880 1048704 1589248 128
is_linear=0
shrinkage=0.160217


Tree=22
num_leaves=27
num_cat=1
split_feature=9 7 0 2 1 1 1 1 2 1 1 1 11 1 2 1 1 8 5 2 1 1 5 1 1 1
split_gain=3.68145e+06 853478 682247 408597 1.1791e+06 2.97141e+06 383085 550534 1.21105e+06 723086 563795 1.37737e+06 553202 475007 440024 360818 410924 351278 333758 298947 593064 1.5623e+06 317982 334101 298914 1.39093e+06
threshold=599.2700000000001 2293.4600000000005 0 1.0000000180025095e-35 21.500000000000004 11.500000000000002 15.500000000000002 187.50000000000003 1.0000000180025095e-35 87.500000000000014 247.50000000000003 257.50000000000006 5613550.0000000009 237.50000000000003 1.0000000180025095e-35 355.50000000000006 308.50000000000006 173.97000000000003 2020.5000000000002 1.0000000180025095e-35 21.500000000000004 13.500000000000002 2021.5000000000002 51.500000000000007 325.50000000000006 332.50000000000006
decision_type=2 2 9 2 2 2 2 2 2 2 2 2 2 2 2 2 2 2 2 2 2 2 2 2 2 2
left_child=2 3 17 4 5 -2 -3 8 9 -8 13 -12 15 14 -9 16 -13 -1 -10 20 21 -19 -22 -24 -5 -26
right_child=1 6 -4 24 -6 -7 7 10 18 -11 11 12 -14 -15 -16 -17 -18 19 -20 -21 22 -23 23 -25 25 -27
leaf_value=0.12276957261675736 15.91342176488944 27.785159222516533 -0.31175271136936661 5.2564743986576747 1.9351664740921286 -70.375736871514604 -42.93371787046754 38.732503087718726 -6.6386824025109625 -2.4126932671106567 -31.605374703107668 10.241451013188348 -10.763339028956532 43.241931370884863 12.319566443700019 -4.9385828758938235 25.476970392215339 2.6507130239428078 11.382702202256755 1.3917874664299634 0.45800570121374512 -29.132048076691284 -1.501009020538207 -22.46596748173269 -23.144708128751521 4.909294501007845
leaf_weight=40575 21 30 125460 2366 580 20 20 20 31 26 20 99 24 22 85 21 84 102 177 11773 2483 65 50 32 55 259
leaf_count=40575 21 30 125460 2366 580 20 20 20 31 26 20 99 24 22 85 21 84 102 177 11773 2483 65 50 32 55 259
internal_value=0 4.83295 -0.105399 3.78201 0.0790045 -26.1789 10.0972 9.25358 3.49422 -20.0305 13.1546 8.70899 12.2453 21.8357 17.3506 14.9523 17.2348 0.364621 8.69682 1.0414 -0.468501 -9.71983 0.133827 -9.68246 4.64006 -0.00462518
internal_weight=0 3960 180540 3301 621 41 659 629 254 46 375 248 228 127 105 204 183 55080 208 14505 2732 167 2565 82 2680 314
internal_count=184500 3960 180540 3301 621 41 659 629 254 46 375 248 228 127 105 204 183 55080 208 14505 2732 167 2565 82 2680 314
cat_boundaries=0 4
cat_threshold=55446226 806355616 1618665993 4
is_linear=0
shrinkage=0.160217


Tree=23
num_leaves=27
num_cat=3
split_feature=0 5 11 10 5 0 5 3 2 1 1 1 1 11 11 1 1 1 2 1 0 1 1 10 11 1
split_gain=2.79864e+06 1.21612e+06 1.86654e+06 883036 435123 442046 367354 455998 339662 646210 5.54252e+06 561225 3.27894e+06 338386 324342 313375 360271 503354 366989 335647 280375 279001 304187 260993 386095 219820
threshold=0 2019.5000000000002 2135650.0000000005 333.76500000000004 2016.5000000000002 1 2016.5000000000002 5.5000000000000009 1.0000000180025095e-35 251.50000000000003 244.50000000000003 21.500000000000004 15.500000000000002 3204607.0000000005 2347625.0000000005 325.50000000000006 185.50000000000003 171.50000000000003 1.0000000180025095e-35 115.50000000000001 2 45.500000000000007 115.50000000000001 1525.1250000000002 4229250.0000000009 15.500000000000002
decision_type=9 2 2 2 2 9 2 2 2 2 2 2 2 2 2 2 2 2 2 2 9 2 2 2 2 2
left_child=1 6 -3 4 20 -6 7 -1 9 10 11 12 -5 21 -4 16 17 19 -18 23 -2 -8 -23 24 -15 -16
right_child=3 2 14 8 5 -7 13 -9 -10 -11 -12 -13 -14 15 25 -17 18 -19 -20 -21 -22 22 -24 -25 -26 -27
leaf_value=-15.031298227808401 -1.1403627327276222 49.415031112126179 -8.4684695995302146 8.7913167593917123 -0.40951257550330117 0.23384636814295365 23.147792507587301 1.6861310818014945 2.3966938001412594 4.6674195258920985 -79.136549566134491 0.55930801386571516 -64.303585475775705 -10.13845691723945 25.050520696653098 -9.5283774856190533 -6.3510852959527231 -23.711739945393017 13.816804807794847 11.38267484017052 -0.29279093640910397 -4.2181367306462052 10.504663592154769 -8.007732845116081 12.707780820589061 10.191437525100895
leaf_weight=46 13878 33 23 50 40133 86448 36 468 4997 388 24 666 23 29 27 46 28 20 134 78 36048 43 222 79 55 478
leaf_count=46 13878 33 23 50 40133 86448 36 468 4997 388 24 666 23 29 27 46 28 20 134 78 36048 43 222 79 55 478
internal_value=0 6.19228 12.4488 -0.0623817 -0.128131 0.029853 3.50691 0.190018 1.82515 -0.65616 -3.3633 -0.902462 -14.2386 5.72105 10.1384 3.03034 4.39607 0.712318 10.331 2.73921 -0.528679 9.91354 8.11568 -1.39692 4.82039 10.9859
internal_weight=0 1845 561 182655 176507 126581 1284 514 6148 1151 763 739 73 770 528 469 423 261 162 241 49926 301 265 163 84 505
internal_count=184500 1845 561 182655 176507 126581 1284 514 6148 1151 763 739 73 770 528 469 423 261 162 241 49926 301 265 163 84 505
cat_boundaries=0 1 4 7
cat_threshold=128 2419105792 2411100754 402721186 243368291 3691290880 92803616
is_linear=0
shrinkage=0.160217


Tree=24
num_leaves=27
num_cat=2
split_feature=0 5 11 5 8 11 11 1 1 2 1 1 1 1 11 1 1 5 1 1 1 5 0 1 1 1
split_gain=1.97371e+06 893609 1.27367e+06 816191 638958 389116 432780 689347 381131 295128 587307 2.5419e+06 322015 4.95501e+06 293408 290767 359247 338248 434484 754742 285859 285739 318996 283933 1.15009e+06 525324
threshold=0 2017.5000000000002 2103000.0000000005 2020.5000000000002 252.92500000000004 2242650.0000000005 5168350.0000000009 323.50000000000006 337.50000000000006 1.0000000180025095e-35 21.500000000000004 15.500000000000002 251.50000000000003 244.50000000000003 1028962.5000000001 109.50000000000001 131.50000000000003 2020.5000000000002 210.50000000000003 168.50000000000003 349.50000000000006 2016.5000000000002 1 13.500000000000002 23.500000000000004 49.500000000000007
decision_type=9 2 2 2 2 2 2 2 2 2 2 2 2 2 2 2 2 2 2 2 2 2 9 2 2 2
left_child=1 -1 3 -3 21 -4 15 -8 -9 10 11 -6 13 -12 -15 23 -17 20 19 -19 -18 -2 -23 -7 -25 -26
right_child=4 2 5 -5 9 6 7 8 -10 -11 12 -13 -14 14 -16 16 17 18 -20 -21 -22 22 -24 24 25 -27
leaf_value=1.0621297349924188 -0.44837560228441431 16.035316908625962 -14.192141710777507 54.673352929085674 4.1872646333691002 18.759774960801636 5.2584769953287873 -33.085333287049473 -1.8068882971351341 1.6027076233964497 0.52657339420378457 -45.751309792538194 2.9986495873668217 -43.160956735754311 -70.604965838764613 25.772813676298082 6.2870668544529904 6.7384090903913778 10.386384751495727 48.495372125704534 25.614719969694836 0.39899604784228326 -0.16349248927166821 -34.097876544806802 18.708571373944057 -0.12176798631062816
leaf_weight=770 49849 36 22 23 84 31 242 20 20 8203 1096 38 640 20 20 42 304 20 83 25 21 37080 85625 20 59 107
leaf_count=770 49849 36 22 23 84 31 242 20 20 8203 1096 38 640 20 20 42 304 20 83 25 21 37080 85625 20 59 107
internal_value=0 5.20017 8.21253 31.0976 -0.0524012 6.88358 7.35004 2.03796 -17.4461 1.18613 -0.614269 -11.3674 0.124402 -1.49489 -56.883 9.45398 11.5977 10.2835 17.2596 29.9367 7.53593 -0.124906 0.00650409 4.56393 2.19795 6.57095
internal_weight=0 1845 1075 59 182655 1016 994 282 40 10101 1898 122 1776 1136 40 712 495 453 128 45 325 172554 122705 217 186 166
internal_count=184500 1845 1075 59 182655 1016 994 282 40 10101 1898 122 1776 1136 40 712 495 453 128 45 325 172554 122705 217 186 166
cat_boundaries=0 1 5
cat_threshold=128 63393402 536871296 1157375492 4
is_linear=0
shrinkage=0.160217


Tree=25
num_leaves=27
num_cat=2
split_feature=0 5 1 1 1 1 2 1 1 1 1 1 5 1 3 1 1 1 0 9 5 5 1 1 1 3
split_gain=1.4158e+06 683498 633115 550128 558083 2.36208e+06 850760 1.86604e+06 1.06464e+06 2.06615e+06 635419 461038 547424 423159 511647 988191 526737 463855 363954 375805 337479 313137 297558 1.76367e+06 1.25737e+06 290332
threshold=0 2019.5000000000002 358.50000000000006 351.50000000000006 331.50000000000006 324.50000000000006 1.0000000180025095e-35 53.500000000000007 247.50000000000003 282.50000000000006 192.50000000000003 157.50000000000003 2020.5000000000002 288.50000000000006 37.500000000000007 238.50000000000003 53.500000000000007 95.500000000000014 1 783.80000000000007 2020.5000000000002 2020.5000000000002 190.50000000000003 183.50000000000003 187.50000000000003 1.5000000000000002
decision_type=9 2 2 2 2 2 2 2 2 2 2 2 2 2 2 2 2 2 9 2 2 2 2 2 2 2
left_child=1 22 3 4 5 6 7 -3 10 -10 11 12 -9 14 15 16 25 20 19 -2 -18 -20 23 -1 -25 -8
right_child=18 2 -4 -5 -6 -7 13 8 9 -11 -12 -13 -14 -15 -16 -17 17 -19 21 -21 -22 -23 -24 24 -26 -27
leaf_value=1.1582739031647455 0.27243852335007479 -31.079065708587681 34.660763714991425 -20.432434227516318 21.673098426464943 -49.002078243059181 -3.4083777929683174 -2.0482606611530079 -53.288954426670593 16.436959162690279 33.24842764393761 -14.545812682443303 29.633250676511981 19.82398036357386 -5.548569718351013 31.182900476062819 -14.795066497881486 7.3331776350036124 -0.33532534159929162 -17.664127680185118 3.2287705014666543 0.35816147245055741 3.4546835141193317 -50.26011789272976 1.6018430368105572 17.110565396110694
leaf_weight=1278 59010 46 20 20 58 20 20 28 20 24 32 20 28 82 68 48 48 326 101772 30 60 19998 1240 30 20 154
leaf_count=1278 59010 46 20 20 58 20 20 28 20 24 32 20 28 82 68 48 48 326 101772 30 60 19998 1240 30 20 154
internal_value=0 3.10282 6.4101 5.89738 6.38407 5.51809 6.60415 -2.80564 5.7508 -15.2567 14.3094 6.33505 13.7925 8.91574 7.68027 9.05155 7.30434 4.31838 -0.0631432 0.26328 -4.78183 -0.221417 1.6699 0.00339283 -29.5153 14.7521
internal_weight=0 3690 1122 1102 1082 1024 1004 198 152 44 108 76 56 806 724 656 608 434 180810 59040 108 121770 2568 1328 50 174
internal_count=184500 3690 1122 1102 1082 1024 1004 198 152 44 108 76 56 806 724 656 608 434 180810 59040 108 121770 2568 1328 50 174
cat_boundaries=0 2 6
cat_threshold=128 512 55379994 538443937 578478617 6
is_linear=0
shrinkage=0.160217


Tree=26
num_leaves=27
num_cat=4
split_feature=0 5 11 0 5 0 7 10 11 1 1 11 1 3 1 1 3 5 2 1 1 1 3 1 2 0
split_gain=1.09383e+06 553411 1.0809e+06 380537 288802 274910 412852 274037 424017 505983 359484 380020 253193 246460 226146 615771 389335 349982 344901 1.67965e+06 238102 385926 850437 381575 268491 195111
threshold=0 2017.5000000000002 1758350.0000000002 1 2020.5000000000002 2 35.345000000000006 1525.1250000000002 5437125.0000000009 325.50000000000006 59.500000000000007 6081250.0000000009 25.500000000000004 8.5000000000000018 187.50000000000003 178.50000000000003 30.500000000000004 2018.5000000000002 1.0000000180025095e-35 257.50000000000006 97.500000000000014 15.500000000000002 4.5000000000000009 61.500000000000007 1.5000000000000002 3
decision_type=9 2 2 9 2 9 2 2 2 2 2 2 2 2 2 2 2 2 2 2 2 2 2 2 2 9
left_child=1 13 -3 -2 25 6 -6 12 14 10 -10 -12 -4 -1 15 17 -16 -9 19 -18 21 -19 -23 24 -24 -5
right_child=3 2 7 4 5 -7 -8 8 9 -11 11 -13 -14 -15 16 -17 18 20 -20 -21 -22 22 23 -25 -26 -27
leaf_value=-6.2272319835011256 0.8709969406101673 37.306994150245735 -1.155574325552545 -0.6534004752328848 7.9865877431172603 0.016965725019963764 0.91607033993224007 -10.789706136653807 -13.81771859737654 -19.41312619469435 -7.6241280747961584 10.802427334570224 18.583145129351365 1.8146365855809132 20.797068564601329 -22.495353578942009 -42.192731548429592 19.311257503738382 9.4103511967516944 13.804352304274078 12.065511778826339 -30.22040775015471 25.578322968136028 -4.7467796218586198 4.8618322639603093 -0.11455131302657591
leaf_weight=115 11070 28 22 20046 217 18786 9176 32 31 35 41 96 69 655 61 22 20 31 265 44 129 21 26 60 42 123360
leaf_count=115 11070 28 22 20046 217 18786 9176 32 31 35 41 96 69 655 61 22 20 31 265 44 129 21 26 60 42 123360
internal_value=0 3.87123 6.24063 -0.039024 -0.0977823 0.371122 1.07827 5.40982 4.61011 -1.8885 1.76246 5.28791 13.8111 0.613578 6.36206 3.4841 9.04077 5.1602 6.86103 -3.69475 6.81197 3.04693 -0.336927 4.56584 12.7829 -0.189928
internal_weight=0 1845 1075 182655 171585 28179 9393 1047 956 203 168 137 91 770 753 363 390 341 329 64 309 180 149 128 68 143406
internal_count=184500 1845 1075 182655 171585 28179 9393 1047 956 203 168 137 91 770 753 363 390 341 329 64 309 180 149 128 68 143406
cat_boundaries=0 1 4 8 11
cat_threshold=128 33816576 1049216 1048576 96702315 1879049224 1177027905 4 33024 2625904640 201327648
is_linear=0
shrinkage=0.160217


Tree=27
num_leaves=27
num_cat=2
split_feature=0 2 1 1 1 1 5 7 1 7 1 1 2 2 5 11 5 1 1 7 0 1 1 5 7 7
split_gain=805281 289091 990364 5.54406e+06 1.32133e+06 7.08802e+06 1.02472e+06 671553 602749 509185 432387 1.71158e+06 3.72898e+06 1.06631e+07 402111 390714 468882 411584 1.22059e+07 371223 339907 398142 1.26183e+06 312710 309852 322081
threshold=0 1.0000000180025095e-35 21.500000000000004 15.500000000000002 45.500000000000007 53.500000000000007 2018.5000000000002 1085.7900000000002 39.500000000000007 7.495000000000001 325.50000000000006 332.50000000000006 2.5000000000000004 3.5000000000000004 2018.5000000000002 623862.50000000012 2020.5000000000002 244.50000000000003 252.50000000000003 2293.4600000000005 1 185.50000000000003 180.50000000000003 2016.5000000000002 7.495000000000001 148.60500000000005
decision_type=9 2 2 2 2 2 2 2 2 2 2 2 2 2 2 2 2 2 2 2 9 2 2 2 2 2
left_child=1 2 3 14 7 6 -6 8 -4 -7 20 12 -12 -14 -1 16 -11 -17 -19 -20 21 22 -3 -23 -22 -26
right_child=-2 10 4 -5 5 9 -8 -9 -10 15 11 -13 13 -15 -16 17 -18 18 19 -21 24 23 -24 -25 25 -27
leaf_value=-3.4087331039033364 -0.068123963111680938 3.581776092042865 2.8035130398011443 -75.726302100391109 -41.501547129992204 15.424116859462131 -92.789141228558336 40.703316933198039 34.209320647735723 -1.5316585347667855 9.4434334427257554 2.0591065277685932 -118.93799904685785 20.887350234655457 22.882003534842919 5.2458439341771799 -18.61223979152722 -117.28239039671277 3.9546533907871178 19.711156193604634 11.483647920850341 2.1245664011171246 -36.242036753570858 10.505324899754653 -7.3266151379916193 1.8851796846741211
leaf_weight=28 177120 744 62 28 20 63 20 25 21 261 56 516 28 28 32 515 49 22 261 45 84 160 21 400 100 3791
leaf_count=28 177120 744 62 28 20 63 20 25 21 261 56 516 28 28 32 515 49 22 261 45 84 160 21 400 100 3791
internal_value=0 1.63888 -0.385028 -16.8586 0.677784 -0.784476 -67.1454 17.6833 10.7496 1.39845 2.13738 -1.83772 -19.791 -49.0254 10.613 0.632088 -4.23149 2.42059 -2.01539 6.27179 2.6084 4.82833 2.48857 8.11082 1.85161 1.64843
internal_weight=0 7380 1452 88 1364 1256 40 108 83 1216 5928 628 112 56 60 1153 310 843 328 306 5300 1325 765 560 3975 3891
internal_count=184500 7380 1452 88 1364 1256 40 108 83 1216 5928 628 112 56 60 1153 310 843 328 306 5300 1325 765 560 3975 3891
cat_boundaries=0 2 3
cat_threshold=262272 1049088 128
is_linear=0
shrinkage=0.160217


Tree=28
num_leaves=27
num_cat=3
split_feature=0 5 5 0 1 2 1 1 1 1 5 7 5 7 0 11 7 11 11 4 1 2 1 2 1 1
split_gain=567913 290466 243030 273082 235792 271902 319521 613083 403680 1.29608e+06 383130 246545 417765 217792 204963 595876 367397 357256 400378 201584 407957 256745 298073 223351 695588 458446
threshold=0 2018.5000000000002 2018.5000000000002 1 93.500000000000014 1.0000000180025095e-35 53.500000000000007 45.500000000000007 23.500000000000004 15.500000000000002 2021.5000000000002 6.7650000000000006 2019.5000000000002 119.00500000000001 2 1758350.0000000002 266.99500000000006 2570950.0000000005 2778250.0000000005 3.5000000000000004 129.50000000000003 1.0000000180025095e-35 51.500000000000007 2.5000000000000004 328.50000000000006 185.50000000000003
decision_type=9 2 2 9 2 2 2 2 2 2 2 2 2 2 9 2 2 2 2 2 2 2 2 2 2 2
left_child=1 -1 -2 4 5 6 7 8 9 -4 -9 12 -6 -11 15 -3 -16 -18 -19 21 -21 -17 -23 -22 25 -25
right_child=2 14 3 -5 11 -7 -8 10 -10 13 -12 -13 -14 -15 16 19 17 18 -20 20 23 22 -24 24 -26 -27
leaf_value=0.48111621690633971 -0.22470603496185201 30.76396568106264 0.7806413893569436 -0.058230176858547436 0.49516196785958588 0.30608851053195779 0.90728345083607753 -8.9993514000732873 1.4026243173408359 -10.710274079976839 -28.599590097739505 0.79032014531492811 10.04042461020806 -24.255996919892308 -4.7731201869862847 -11.853850064304707 2.7506846047299138 -23.906971883967177 -0.47342977306880557 16.164315426951706 6.6772319903974529 7.7013547882462614 -5.426032795967032 -9.5403792243943428 -23.204540751165812 9.0084457259335515
leaf_weight=4108 98592 22 256 52352 284 6176 576 128 416 50 32 17979 201 78 203 39 2163 27 61 81 295 111 74 48 29 119
leaf_count=4108 98592 22 256 52352 284 6176 576 128 416 50 32 17979 201 78 203 39 2163 27 61 81 295 111 74 48 29 119
internal_value=0 1.37631 -0.05721 0.153074 0.575486 -0.168342 -2.07595 -3.86589 -2.05518 -5.80114 -12.9194 0.886477 4.45103 -18.9647 2.50443 4.69572 1.74773 2.34356 -7.66327 4.03424 5.62977 -0.0400738 2.4504 3.89189 -0.300335 3.67705
internal_weight=0 7380 177120 78528 26176 7712 1536 960 800 384 160 18464 485 128 3272 818 2454 2251 88 796 572 224 185 491 196 167
internal_count=184500 7380 177120 78528 26176 7712 1536 960 800 384 160 18464 485 128 3272 818 2454 2251 88 796 572 224 185 491 196 167
cat_boundaries=0 2 5 6
cat_threshold=262272 1049088 63019879 1342210176 1157367365 128
is_linear=0
shrinkage=0.160217


Tree=29
num_leaves=27
num_cat=2
split_feature=0 1 3 7 5 1 1 7 1 7 2 1 1 1 1 1 1 1 7 1 5 2 1 1 0 1
split_gain=400513 247356 1.4855e+06 401544 254604 358925 2.6738e+06 320098 314863 481541 338226 765464 1.17853e+06 3.60873e+06 616287 1.24991e+06 810434 2.26477e+06 354779 352395 269452 224257 830389 904756 716073 612906
threshold=0 357.50000000000006 51.500000000000007 1520.7300000000002 2019.5000000000002 331.50000000000006 328.50000000000006 2293.4600000000005 308.50000000000006 1085.7900000000002 1.0000000180025095e-35 23.500000000000004 45.500000000000007 57.500000000000007 185.50000000000003 201.50000000000003 247.50000000000003 264.50000000000006 2293.4600000000005 107.50000000000001 2020.5000000000002 1.0000000180025095e-35 53.500000000000007 45.500000000000007 1 21.500000000000004
decision_type=9 2 2 2 2 2 2 2 2 2 2 2 2 2 2 2 2 2 2 2 2 2 2 2 9 2
left_child=1 4 -3 -4 -1 6 8 -7 10 -10 11 -6 -13 -14 18 -16 -17 -18 19 20 -15 22 23 25 -25 -2
right_child=21 2 3 -5 5 7 -8 -9 9 -11 -12 12 13 14 15 16 17 -19 -20 -21 -22 -23 -24 24 -26 -27
leaf_value=0.66089029158300128 -3.298847660057552 -45.936862064684583 -3.578604155280106 18.818179150313597 -24.238490702979291 4.7000566140627971 -56.117045182062178 20.178238230626476 0.5037838792407261 21.51475065251892 3.3283671130839605 26.168812196194544 -68.865366682402552 -15.299812322406158 -42.979671785095135 15.423685683420546 -56.643563405796506 6.7973466096654311 24.895312300195119 13.468535084357761 7.8349735902981106 0.041175803526407068 -0.067765301803534961 -13.050031314902984 -3.5189514517112896 0.37799047503963007
leaf_weight=5040 2112 20 98 26 36 94 20 54 56 56 1536 40 20 28 20 52 20 52 29 59 24 142272 29184 300 660 2592
leaf_count=5040 2112 20 98 26 36 94 20 54 56 56 1536 40 20 28 20 52 20 52 29 59 24 142272 29184 300 660 2592
internal_value=0 1.1558 -5.41784 1.1175 1.28821 2.72798 2.17735 10.3475 2.75224 11.0093 2.26958 -2.01017 0.316056 -3.08563 1.54676 -5.81232 0.182429 -10.8251 9.11609 4.99359 -4.62222 -0.0480445 -0.412313 -2.18761 -6.67001 -1.27283
internal_weight=0 7380 144 124 7236 2196 2048 148 2028 112 1916 380 344 304 284 144 124 72 140 111 52 177120 34848 5664 960 4704
internal_count=184500 7380 144 124 7236 2196 2048 148 2028 112 1916 380 344 304 284 144 124 72 140 111 52 177120 34848 5664 960 4704
cat_boundaries=0 2 6
cat_threshold=262272 1049088 54677338 805831808 8127813 6
is_linear=0
shrinkage=0.160217


Tree=30
num_leaves=27
num_cat=3
split_feature=0 1 7 1 1 1 1 11 2 2 5 7 0 1 1 1 7 5 0 2 1 1 1 1 9 3
split_gain=289834 241917 419458 257423 2.08961e+06 266804 1.55895e+06 263108 528753 1.24854e+06 207468 498359 328632 326313 464109 248268 343873 377829 231375 231166 256755 977995 422781 1.68439e+06 726574 216201
threshold=0 103.50000000000001 358.20500000000004 183.50000000000003 189.50000000000003 244.50000000000003 251.50000000000003 5613550.0000000009 3.5000000000000004 2.5000000000000004 2018.5000000000002 1085.7900000000002 1 291.50000000000006 185.50000000000003 93.500000000000014 40.035000000000004 2020.5000000000002 2 1.0000000180025095e-35 53.500000000000007 45.500000000000007 23.500000000000004 15.500000000000002 287.2000000000001 10.500000000000002
decision_type=9 2 2 2 2 2 2 2 2 2 2 2 9 2 2 2 2 2 9 2 2 2 2 2 2 2
left_child=1 -1 -3 -4 -5 -6 -7 -8 9 -9 11 18 15 14 -13 19 17 -17 -2 20 21 22 23 -12 -25 -21
right_child=10 2 3 4 5 6 7 8 -10 -11 12 13 -14 -15 -16 16 -18 -19 -20 25 -22 -23 -24 24 -26 -27
leaf_value=-0.81904683637525499 0.19182620239812626 25.655283270763398 6.2436196063243372 -40.985034096680984 6.9341229541376608 -31.956775059877714 4.486684088033674 2.6527392233058387 16.843846490969494 -43.291211695838903 3.7330729640293985 -17.73294198733991 0.04002510932454071 -25.70080049290052 2.1313138056557421 3.5495446278278986 1.3173290146721295 22.160847974049496 -0.32569417813944496 1.2066827058455238 1.1963327430229109 -22.560200545703481 3.534986427320101 -16.162318130773524 -53.858620256254895 -2.3290264606894193
leaf_weight=548 32713 21 392 29 268 35 459 49 22 22 112 51 69530 26 74 84 7952 42 68809 2142 252 70 182 35 21 560
leaf_count=548 32713 21 392 29 268 35 459 49 22 22 112 51 69530 26 74 84 7952 42 68809 2142 252 70 182 35 21 560
internal_value=0 1.99258 3.1959 2.82627 1.31088 2.74548 0.83312 2.91219 -4.85869 -11.5834 -0.0202368 -0.172629 0.171089 -9.3701 -5.97331 0.965957 1.44891 9.75332 -0.158949 -0.18747 -2.8467 -5.27252 -1.81498 -7.61077 -30.2985 0.473893
internal_weight=0 1845 1297 1276 884 855 587 552 93 71 182655 101673 80982 151 125 11452 8078 126 101522 3374 672 420 350 168 56 2702
internal_count=184500 1845 1297 1276 884 855 587 552 93 71 182655 101673 80982 151 125 11452 8078 126 101522 3374 672 420 350 168 56 2702
cat_boundaries=0 1 4 8
cat_threshold=128 54788162 268436096 70779392 1208640528 538446513 578215962 6
is_linear=0
shrinkage=0.160217


Tree=31
num_leaves=27
num_cat=2
split_feature=0 1 1 2 11 2 1 1 1 1 7 7 1 5 1 1 0 1 3 3 5 5 1 1 5 11
split_gain=237331 180444 657963 1.24835e+06 387480 171833 566495 3.65744e+06 768767 4.06137e+06 532190 432217 416841 415593 312519 7.93516e+06 313897 311204 298638 1.82274e+06 541563 443300 225087 286400 201412 281511
threshold=0 363.50000000000006 357.50000000000006 3.5000000000000004 22704.500000000004 1.0000000180025095e-35 13.500000000000002 21.500000000000004 45.500000000000007 53.500000000000007 694.4000000000002 1085.7900000000002 39.500000000000007 2018.5000000000002 251.50000000000003 244.50000000000003 1 224.50000000000003 27.500000000000004 26.500000000000004 2020.5000000000002 2020.5000000000002 127.50000000000001 87.500000000000014 2019.5000000000002 1.0000000180025095e-35
decision_type=9 2 2 2 2 2 2 2 2 2 2 2 2 2 2 2 9 2 2 2 2 2 2 2 2 2
left_child=1 2 5 4 -4 6 10 -8 11 13 -1 12 -9 -10 15 16 17 22 19 21 -20 -18 23 -11 -7 -26
right_child=-2 -3 3 -5 -6 24 7 8 9 14 -12 -13 -14 -15 -16 -17 18 -19 20 -21 -22 -23 -24 -25 25 -27
leaf_value=1.962216903320835 -0.037116435324070794 10.682116481956474 -20.34379031174868 -47.965079361540994 4.5584055012372815 0.76652126495816864 -51.588548445985722 0.95114466721947255 -34.861201676199229 2.8098506380179682 34.769566226153486 31.5895763991793 27.068343337531022 -67.523286768149489 4.2008520221267167 -84.940631388985821 1.6920014895418924 -22.74213271310602 5.8130150068797688 -44.505467849043349 31.734257071681505 17.437298077217157 3.8219529669913919 -17.07829282252812 15.623656572913099 2.4988500143869583
leaf_weight=30 177120 48 23 20 53 4048 36 62 20 34 22 25 21 20 424 28 306 20 150 21 24 54 90 41 43 1717
leaf_count=30 177120 48 23 20 53 4048 36 62 20 34 22 25 21 20 424 28 306 20 150 21 24 54 90 41 43 1717
internal_value=0 0.889583 0.826688 -12.3502 -2.97779 1.0015 -0.573062 -1.19341 0.160491 -0.975722 15.8423 13.1217 7.55912 -51.1923 0.709399 -1.21817 1.94971 -3.66945 3.82005 1.3773 9.38836 4.0538 -1.58 -8.06234 1.38864 2.81951
internal_weight=0 7380 7332 96 76 7236 1428 1376 1340 1232 52 108 83 40 1192 768 740 185 555 381 174 360 165 75 5808 1760
internal_count=184500 7380 7332 96 76 7236 1428 1376 1340 1232 52 108 83 40 1192 768 740 185 555 381 174 360 165 75 5808 1760
cat_boundaries=0 2 4
cat_threshold=262272 1049088 0 1048576
is_linear=0
shrinkage=0.160217


Tree=32
num_leaves=27
num_cat=3
split_feature=2 1 1 0 5 1 1 7 7 7 10 7 0 0 1 5 1 1 1 1 1 2 1 1 1 5
split_gain=204963 704332 1.14832e+06 2.38921e+06 890078 647431 2.10965e+06 4.70875e+06 685666 654311 561700 394760 266101 263912 251480 383869 600096 300878 3.16233e+06 338074 2.17412e+06 4.6292e+06 284054 263659 1.0001e+06 541396
threshold=1.0000000180025095e-35 53.500000000000007 45.500000000000007 0 2016.5000000000002 21.500000000000004 13.500000000000002 602.81000000000006 694.4000000000002 1085.7900000000002 68.75500000000001 257.88000000000005 1 2 25.500000000000004 2017.5000000000002 15.500000000000002 185.50000000000003 182.50000000000003 325.50000000000006 332.50000000000006 2.5000000000000004 21.500000000000004 357.50000000000006 361.50000000000006 2018.5000000000002
decision_type=2 2 2 9 2 2 2 2 2 2 2 2 9 9 2 2 2 2 2 2 2 2 2 2 2 2
left_child=1 2 5 4 -4 6 8 10 -1 -7 -8 -6 -5 14 15 -2 -17 18 -16 -19 21 -21 -18 25 -25 -22
right_child=13 -3 3 12 11 9 7 -9 -10 -11 -12 -13 -14 -15 17 16 22 19 -20 20 23 -23 -24 24 -26 -27
leaf_value=0.67169491566370265 -2.1371158317784538 -0.03030084293627984 -9.0607218691410942 -0.083091353193604861 -34.435913385254587 0.48786195128784576 -4.0082052637267997 -85.808034839373093 29.198903469784362 26.528400502428013 -12.339885349236503 -61.069204596822175 -5.9839516967396333 0.05296959903660426 0.53457317293395545 2.9286643995739561 33.753074475973335 4.0765421158471415 -55.902518343308891 15.577088659976052 0.11462131760297929 -76.552037743455259 10.987549143642445 -30.298882964131007 11.924099107519371 17.122982741353539
leaf_weight=1278 78 30400 30 300 50 2675 544 20 22 25 336 20 600 145236 1288 80 34 1120 26 28 116 28 24 24 36 82
leaf_count=1278 78 30400 30 300 50 2675 544 20 22 25 336 20 600 145236 1288 80 34 1120 26 28 116 28 24 24 36 82
internal_value=0 -0.341209 -1.94318 -6.89097 -29.2273 -0.933425 -2.97365 -8.93648 1.15446 0.728978 -7.18939 -42.0455 -4.03953 0.0835728 1.57763 6.84678 11.9246 1.1692 -0.582144 2.77399 -1.87206 -30.4875 24.3329 4.33905 -4.9651 7.15849
internal_weight=0 36300 5900 1000 100 4900 2200 900 1300 2700 880 70 900 148200 2964 216 138 2748 1314 1434 314 56 58 258 60 198
internal_count=184500 36300 5900 1000 100 4900 2200 900 1300 2700 880 70 900 148200 2964 216 138 2748 1314 1434 314 56 58 258 60 198
cat_boundaries=0 3 6 8
cat_threshold=33556864 805307008 525312 4027613184 3432409108 344152240 128 512
is_linear=0
shrinkage=0.160217


Tree=33
num_leaves=27
num_cat=3
split_feature=0 2 1 1 0 5 1 1 7 7 7 7 7 1 5 1 11 0 1 1 7 11 7 7 8 1
split_gain=188869 148669 462204 961023 1.12911e+06 604031 482353 1.44639e+06 2.58059e+06 428924 360642 343945 276453 275034 257999 193900 181890 159682 159531 4.35052e+06 5.64978e+06 348788 283834 278985 230014 228921
threshold=0 1.0000000180025095e-35 53.500000000000007 45.500000000000007 1 2016.5000000000002 21.500000000000004 15.500000000000002 475.37500000000006 1085.7900000000002 788.3850000000001 201.52500000000003 7.495000000000001 49.500000000000007 2020.5000000000002 43.500000000000007 337118.00000000006 2 251.50000000000003 244.50000000000003 475.37500000000006 271622.50000000006 132.38500000000002 2293.4600000000005 1095.5150000000001 187.50000000000003
decision_type=9 2 2 2 9 2 2 2 2 2 2 2 2 2 2 2 2 9 2 2 2 2 2 2 2 2
left_child=1 2 3 6 5 -5 7 10 16 15 -1 13 14 -7 17 -8 -9 -4 19 24 21 -21 -23 -20 -14 -26
right_child=-2 -3 12 4 -6 11 9 8 -10 -11 -12 -13 18 -15 -16 -17 -18 -19 23 20 -22 22 -24 -25 25 -27
leaf_value=-0.0063514096257553006 -0.11125474847519529 0.36209322323346493 7.2640627220310252 -7.1350355141921229 -3.3382392186816126 -36.90677394658222 0.28187347695939236 -1.2227219799942 -69.603888880593786 22.278108348372683 21.970878332470264 -52.064652200368059 0.13879714289480943 -12.651209271673094 11.438859360925587 9.4575396830187941 -12.132131758500265 0.27393744961721833 0.67219453393645257 4.3234147610333862 -101.55033957533509 -12.519147415614356 -26.477589305427944 13.372684866539231 1.881779809256843 13.710185813271041
leaf_weight=460 125460 47424 104 30 220 30 775 53 20 25 20 20 5425 20 92 64 151 334 3315 23 21 127 53 45 126 63
leaf_count=460 125460 47424 104 30 220 30 775 53 20 25 20 20 5425 20 92 64 151 334 3315 23 21 127 53 45 126 63
internal_value=0 0.236226 -0.277441 -2.57152 -10.573 -23.778 -0.938553 -4.05162 -14.6823 1.59802 0.909368 -34.3075 0.16779 -27.2046 3.72587 0.981805 -9.29783 2.10579 -0.0372309 -0.54343 -22.4391 -14.2552 -16.6291 0.842291 0.330214 5.82458
internal_weight=0 59040 11616 1888 320 100 1568 704 224 864 480 70 9728 50 530 839 204 438 9198 5838 224 203 180 3360 5614 189
internal_count=184500 59040 11616 1888 320 100 1568 704 224 864 480 70 9728 50 530 839 204 438 9198 5838 224 203 180 3360 5614 189
cat_boundaries=0 4 8 11
cat_threshold=38028952 538445473 1618666008 6 37748872 536871424 5767168 4 33554560 1049761 8
is_linear=0
shrinkage=0.160217


Tree=34
num_leaves=27
num_cat=2
split_feature=5 0 1 7 1 1 2 5 1 9 7 1 0 3 1 11 11 5 2 2 1 2 2 1 1 7
split_gain=178808 331433 253993 610668 240962 1.25562e+06 2.99242e+06 234121 612340 307575 247309 842453 225678 267100 230327 299574 302922 294771 215690 209817 717474 1.46715e+06 275114 956944 5.76849e+06 302122
threshold=2019.5000000000002 0 101.50000000000001 11.045000000000002 247.50000000000003 251.50000000000003 1.0000000180025095e-35 2020.5000000000002 67.500000000000014 471.54500000000002 35.345000000000006 45.500000000000007 1 34.500000000000007 129.50000000000003 2961550.0000000005 2242650.0000000005 2020.5000000000002 1.0000000180025095e-35 2.5000000000000004 357.50000000000006 3.5000000000000004 3.5000000000000004 328.50000000000006 335.50000000000006 2293.4600000000005
decision_type=2 9 2 2 2 2 2 2 2 2 2 2 9 2 2 2 2 2 2 2 2 2 2 2 2 2
left_child=-1 2 7 -4 12 6 -6 8 -2 -10 11 -9 13 14 -5 16 18 -17 -16 -7 22 -22 23 -21 -25 -24
right_child=1 -3 3 4 5 19 -8 10 9 -11 -12 -13 -14 -15 15 17 -18 -19 -20 20 21 -23 25 24 -26 -27
leaf_value=-0.10426640393245538 0.74806384503973233 0.062227852623000297 13.7390941391669 12.55039126243838 -55.621742468474054 2.1194390225678714 5.7409089404078717 28.33608791291995 -4.9657334482780975 -16.985883173534038 0.66674483072827173 -7.3300818620970878 1.8737608444639846 21.118239135795193 -8.5946177188022261 -10.542118599338963 20.769125262920653 5.8611023633197554 6.7419888788446034 1.8631716996456238 6.8462218501206502 -40.221321521476163 1.7275676066491104 -70.982564549755537 5.2198823691654379 15.475948153440847
leaf_weight=128400 799 46563 106 80 34 1632 51 34 343 65 1870 34 3071 28 29 66 33 49 125 374 34 34 465 34 102 45
leaf_count=128400 799 46563 106 80 34 1632 51 34 343 65 1870 34 3071 28 29 66 33 49 125 374 34 34 465 34 102 45
internal_value=0 0.238609 1.09855 1.67967 1.47631 0.371265 -18.8042 -0.0790489 -1.83068 -6.88071 1.01188 10.503 2.36676 5.87058 4.90663 2.88179 6.83896 -3.55292 3.85393 0.970497 -0.752916 -16.6876 0.309394 -2.32187 -13.8307 2.94066
internal_weight=0 56100 9537 6392 6286 2805 85 3145 1207 408 1938 68 3481 410 382 302 187 115 154 2720 1088 68 1020 510 136 510
internal_count=184500 56100 9537 6392 6286 2805 85 3145 1207 408 1938 68 3481 410 382 302 187 115 154 2720 1088 68 1020 510 136 510
cat_boundaries=0 3 4
cat_threshold=38044131 268435968 68683264 262272
is_linear=0
shrinkage=0.160217


Tree=35
num_leaves=27
num_cat=4
split_feature=0 7 5 7 0 0 1 5 0 2 1 7 1 11 8 1 1 7 7 9 1 1 7 2 2 7
split_gain=172148 176885 163822 311092 725011 270394 261948 352577 175896 169826 420250 1.33035e+06 729360 463146 380041 189281 3.61606e+06 3.75877e+06 774260 225089 175963 706831 1.52632e+06 978928 2.12139e+06 1.99965e+06
threshold=0 11.045000000000002 2015.5000000000002 1.0000000180025095e-35 1 2 73.500000000000014 2019.5000000000002 3 1.0000000180025095e-35 21.500000000000004 1085.7900000000002 13.500000000000002 13082.500000000002 105.37500000000001 251.50000000000003 244.50000000000003 418.23500000000007 98.585000000000022 783.80000000000007 325.50000000000006 332.50000000000006 1520.7300000000002 2.5000000000000004 3.5000000000000004 137.34500000000003
decision_type=9 2 2 2 9 9 2 2 9 2 2 2 2 2 2 2 2 2 2 2 2 2 2 2 2 2
left_child=1 -1 8 4 6 -6 -4 -8 -2 10 11 12 -5 -14 -15 16 -12 18 -18 -17 -11 22 23 -22 25 -25
right_child=2 -3 3 9 5 -7 7 -9 -10 20 15 -13 13 14 -16 19 17 -19 -20 -21 21 -23 -24 24 -26 -27
leaf_value=-0.71680731909019435 -1.4718892782313791 1.0786465206088371 2.5018126447569768 0.63287757082279883 -0.24116800457954224 2.4652947995445271 11.581643275348029 32.854245281877347 -0.17585095560699157 0.22111732215550572 -0.0014382479940556502 -40.981716625287106 16.825896427927201 -4.413647579880398 -12.664987137135231 0.38284332254039316 -6.3890299693464003 -79.698128843993146 -19.561361337268171 6.4145121343222291 0.80752304415933063 0.1601318714572646 -44.078855539278749 -8.1995935911217508 1.0872345005070938 -32.467172251755819
leaf_weight=13183 3084 1577 36 990 1915 1869 60 30 20560 103699 16106 23 22 499 201 8082 360 21 168 162 1089 9653 23 435 544 109
leaf_count=13183 3084 1577 36 990 1915 1869 60 30 20560 103699 16106 23 22 499 201 8082 360 21 168 162 1089 9653 23 435 544 109
internal_value=0 -0.524621 0.0456566 0.10898 1.51883 1.09859 13.0191 18.6725 -0.345596 0.0702098 -0.294504 -2.70544 -2.19121 -6.06358 -6.78296 -0.126507 -0.437297 -13.2241 -10.5802 0.50137 0.154274 -0.430521 -3.02214 -2.58838 -5.9874 -13.062
internal_weight=0 14760 169740 146096 3910 3784 126 90 23644 142186 26634 1735 1712 722 700 24899 16655 549 528 8244 115552 11853 2200 2177 1088 544
internal_count=184500 14760 169740 146096 3910 3784 126 90 23644 142186 26634 1735 1712 722 700 24899 16655 549 528 8244 115552 11853 2200 2177 1088 544
cat_boundaries=0 3 6 10 13
cat_threshold=32768 2290360320 67108896 33554560 1048576 524288 4094690624 1141590804 277207042 6 176423328 256 25690624
is_linear=0
shrinkage=0.160217


Tree=36
num_leaves=27
num_cat=5
split_feature=0 5 0 7 1 1 5 7 0 8 1 0 5 7 2 1 11 0 1 1 5 7 1 1 1 1
split_gain=136210 133231 150369 113249 95153.8 681520 1.69835e+06 240064 156784 125870 196698 91422.9 88828.5 504107 221748 498410 537559 141597 103547 218101 100539 149093 127832 3.97515e+06 267750 349062
threshold=0 2020.5000000000002 1 17.345000000000002 357.50000000000006 358.50000000000006 2019.5000000000002 1520.7300000000002 2 131.70500000000001 362.50000000000006 3 2021.5000000000002 7.495000000000001 1.0000000180025095e-35 15.500000000000002 1879600.0000000002 4 19.500000000000004 33.500000000000007 2019.5000000000002 145.40500000000003 183.50000000000003 187.50000000000003 101.50000000000001 61.500000000000007
decision_type=9 2 9 2 2 2 2 2 9 2 2 9 2 2 2 2 2 9 2 2 2 2 2 2 2 2
left_child=4 11 -3 -4 12 6 -6 8 9 -7 -11 -2 20 -14 15 -15 -17 18 -16 -20 -1 -22 24 -24 25 -23
right_child=1 2 3 -5 5 7 -8 -9 -10 10 -12 -13 13 14 17 16 -18 -19 19 -21 21 22 23 -25 -26 -27
leaf_value=0.2792218076607309 -0.5570657587770923 -0.25416213566244367 2.8493925938422731 0.47465828500067886 1.3065550822177332 -0.36746538994842126 -55.874452603426185 15.983077916424138 2.5455047507156308 -23.68356661906018 -2.8801442094252865 -0.071707845923122931 21.346967518414065 10.973822500623893 11.752066727298514 -4.6701585859666377 -36.025650315893003 -3.33460633969788 -13.239809276922029 6.0026463227084399 -0.44754507941544158 3.1220599641814588 -55.332295072357638 1.6334046216997826 4.4972673121399751 -2.7349495482569024
leaf_weight=12600 10794 9090 531 17649 40 56 20 25 171 20 28 127986 23 20 30 32 25 245 21 54 1183 656 32 1811 924 434
leaf_count=12600 10794 9090 531 17649 40 56 20 25 171 20 28 127986 23 20 30 32 25 245 21 54 1183 656 32 1811 924 434
internal_value=0 -0.0458838 0.277866 0.54372 0.412876 -2.16614 -17.7538 0.951398 -0.41512 -5.04293 -11.5482 -0.109503 0.464428 -1.75841 -3.00297 -10.7872 -18.4226 -1.29044 3.46669 0.614755 0.521133 1.12591 1.60851 0.644308 2.49085 0.790003
internal_weight=0 166050 27270 18180 18450 360 60 300 275 104 48 138780 18090 450 427 77 57 350 105 75 17640 5040 3857 1843 2014 1090
internal_count=184500 166050 27270 18180 18450 360 60 300 275 104 48 138780 18090 450 427 77 57 350 105 75 17640 5040 3857 1843 2014 1090
cat_boundaries=0 3 6 9 12 15
cat_threshold=38011008 1049216 573440 3624931328 2374854992 25504408 128 1048576 49152 33024 2147753984 67108896 128 512 524288
is_linear=0
shrinkage=0.160217


Tree=37
num_leaves=27
num_cat=2
split_feature=0 7 1 7 1 1 1 2 7 5 9 1 0 7 1 1 2 1 1 1 1 2 1 10 1 1
split_gain=115328 359244 511317 259480 217558 475148 210934 287207 113544 112835 231989 395164 175410 230708 147068 1.38769e+06 161297 559432 1.46575e+06 107864 542719 102574 122333 136455 111007 1.97994e+06
threshold=0 7.495000000000001 17.500000000000004 277.25000000000006 357.50000000000006 363.50000000000006 131.50000000000003 1.0000000180025095e-35 694.4000000000002 2020.5000000000002 1505.4400000000003 313.50000000000006 1 35.345000000000006 328.50000000000006 329.50000000000006 3.5000000000000004 357.50000000000006 364.50000000000006 45.500000000000007 73.500000000000014 1.0000000180025095e-35 57.500000000000007 390.34000000000009 185.50000000000003 192.50000000000003
decision_type=9 2 2 2 2 2 2 2 2 2 2 2 9 2 2 2 2 2 2 2 2 2 2 2 2 2
left_child=1 2 -1 -3 -5 8 7 -4 -6 10 -2 -12 13 19 21 -16 -17 -18 -19 -11 -21 22 23 -15 -24 -26
right_child=9 3 6 4 5 -7 -8 -9 -10 12 11 -13 -14 14 15 16 17 18 -20 20 -22 -23 24 -25 25 -27
leaf_value=-11.967164251292402 -0.069985896097585404 -5.9015690511384689 -3.1550237066861935 1.060199376365679 -10.406943009245648 10.551836743075167 23.912546750528204 19.230726489569591 -27.274763505071572 14.497260838936489 -22.399744279829967 1.9136458777048391 0.069949342296218728 -1.4642213136082562 -43.071129776009514 1.5843577814338454 2.5817644280333005 -51.293696712429096 10.045558963324913 -18.953094213759226 10.554609269184247 1.4660071848959131 2.87661309964676 -10.493028201435497 -50.174038711251796 1.6175852749490982
leaf_weight=23 151047 151 28 3356 21 22 38 31 20 40 32 37 23634 227 20 380 80 20 20 20 80 4400 340 53 20 360
leaf_count=23 151047 151 28 3356 21 22 38 31 20 40 32 37 23634 227 20 380 80 20 20 20 80 4400 340 53 20 360
internal_value=0 0.885469 9.51037 0.598037 0.885091 -8.44288 14.603 8.60698 -18.6352 -0.0181232 -0.0742287 -9.36213 0.267398 1.03562 0.885309 -1.68806 -0.0327338 -5.15352 -20.6241 7.46569 4.65306 1.13311 -0.331612 -3.17325 0.773468 -1.10829
internal_weight=0 3690 120 3570 3419 63 97 59 41 180810 151116 69 29694 6060 5920 520 500 120 40 140 100 5400 1000 280 720 380
internal_count=184500 3690 120 3570 3419 63 97 59 41 180810 151116 69 29694 6060 5920 520 500 120 40 140 100 5400 1000 280 720 380
cat_boundaries=0 2 5
cat_threshold=128 1048576 33916771 805307904 1574145
is_linear=0
shrinkage=0.160217


Tree=38
num_leaves=27
num_cat=6
split_feature=0 5 11 0 5 7 0 1 1 3 1 5 5 0 1 2 0 1 0 1 1 7 10 3 11 2
split_gain=101492 87529.1 84931.6 195517 306296 143532 114750 147552 221340 143219 99616 115626 96189.7 164303 209764 204593 80387.7 182857 73409.4 124244 1.28816e+06 1.18554e+06 155082 359482 195087 265434
threshold=0 2015.5000000000002 1.0000000180025095e-35 1 2020.5000000000002 17.345000000000002 2 45.500000000000007 49.500000000000007 5.5000000000000009 73.500000000000014 2017.5000000000002 2021.5000000000002 3 15.500000000000002 1.0000000180025095e-35 4 29.500000000000004 5 183.50000000000003 187.50000000000003 602.81000000000006 693.43000000000018 25.500000000000004 2534150.0000000005 1.0000000180025095e-35
decision_type=9 2 2 9 2 2 9 2 2 2 2 2 2 9 2 2 9 2 9 2 2 2 2 2 2 2
left_child=1 16 3 4 10 -4 7 9 -9 -5 -3 -12 18 14 -14 -16 17 -1 19 22 21 -21 -7 24 25 -24
right_child=-2 2 5 6 -6 12 -8 8 -10 -11 11 -13 13 -15 15 -17 -18 -19 -20 20 -22 -23 23 -25 -26 -27
leaf_value=-6.8223798842126522 -0.081518977125958264 -5.5274962235380958 -4.7231178940617138 1.1997798425661412 22.404164624374342 0.83595976120998094 1.7644116693979426 -16.918155138612409 -1.2124329208874052 13.821541600282277 -1.2184861076180034 11.214783524281881 3.4530547053598548 -0.22050348678597465 -18.285809253811976 -4.9328478724165548 -0.045542558119142845 -0.7927187259001417 0.16190696816980485 -8.4844219177919911 0.48488801272663584 -49.486412887679613 21.069319713091069 17.551091377272886 0.96771542963199741 4.3602266155656517
leaf_weight=140 125460 24 151 100 28 3962 1228 24 572 30 32 48 60 1071 36 162 6425 1659 37789 85 4616 23 29 43 549 154
leaf_count=140 125460 24 151 100 28 3962 1228 24 572 30 32 48 60 1071 36 162 6425 1659 37789 85 4616 23 29 43 549 154
internal_value=0 0.173203 0.251711 1.25283 6.99983 0.208856 0.824551 -0.767559 -1.84488 4.1125 3.52556 6.24148 0.224186 -1.12008 -4.66503 -7.36066 -0.311688 -1.25498 0.261996 0.660903 0.0802027 -17.2163 1.2414 3.31414 2.47782 7.00812
internal_weight=0 59040 50816 2086 132 48730 1954 726 596 130 104 80 48579 1329 258 198 8224 1799 47250 9461 4724 108 4737 775 732 183
internal_count=184500 59040 50816 2086 132 48730 1954 726 596 130 104 80 48579 1329 258 198 8224 1799 47250 9461 4724 108 4737 775 732 183
cat_boundaries=0 4 7 10 13 16 19
cat_threshold=55449736 538444417 2701058624 6 37748864 0 512 0 524800 8437760 38011008 128 512 38011008 0 8913408 33816704 1048704 8389120
is_linear=0
shrinkage=0.160217


Tree=39
num_leaves=27
num_cat=3
split_feature=5 8 0 11 5 2 1 1 3 3 1 11 5 1 1 3 1 1 5 0 1 11 11 5 1 0
split_gain=89962.7 343000 139418 314488 496116 155319 400960 324592 1.26488e+06 149169 378075 318487 377448 169987 253633 187174 119763 269630 112892 112096 111383 109505 170181 278427 106970 92951
threshold=2016.5000000000002 791.21000000000015 0 2103000.0000000005 2020.5000000000002 1.0000000180025095e-35 27.500000000000004 244.50000000000003 39.500000000000007 46.500000000000007 332.50000000000006 3008550.0000000005 2018.5000000000002 185.50000000000003 176.50000000000003 28.500000000000004 31.500000000000004 11.500000000000002 2018.5000000000002 1 190.50000000000003 5710350.0000000009 2914650.0000000005 2019.5000000000002 164.50000000000003 2
decision_type=2 2 9 2 2 2 2 2 2 2 2 2 2 2 2 2 2 2 2 9 2 2 2 2 2 9
left_child=1 19 3 4 -2 6 -5 20 -9 13 -11 -12 -13 14 16 -15 17 -7 -17 -1 21 22 -8 -24 -18 -4
right_child=2 -3 25 5 -6 9 7 8 -10 10 11 12 -14 15 -16 18 24 -19 -20 -21 -22 -23 23 -25 -26 -27
leaf_value=-0.51319109180636846 3.0480807997945774 -14.48342433619899 -0.29301642298214053 -24.286181134461874 31.392432839807523 -4.5299888178884329 -8.8347491980639603 -43.620132651407452 3.3185876908863632 -18.935404207509183 -13.437399022636445 -5.3412338782552311 20.569997504673697 17.210911396921833 -14.605104087135501 7.6693755690352319 -0.25259659491648551 13.727315002046618 1.7374335480908927 -0.0057101178993900934 11.498737580779711 -8.4934666622342068 -1.2683447566158284 20.385938993615035 9.248279865658283 0.10530769790886624
leaf_weight=16418 51 43 17303 20 23 33 20 20 56 30 24 27 31 31 26 141 389 56 198 34939 37 23 35 27 33 114466
leaf_count=16418 51 43 17303 20 23 33 20 20 56 30 24 27 31 31 26 141 389 56 198 34939 37 23 35 27 33 114466
internal_value=0 -0.180021 0.069535 1.69493 11.8578 1.11012 -2.575 -0.583146 -9.03372 1.97082 -3.54557 2.08487 8.50788 2.65201 0.83136 5.29441 1.61678 6.95775 4.2047 -0.168045 3.9397 1.27603 4.01626 8.16175 0.490364 0.0529842
internal_weight=0 51400 133100 1331 74 1257 238 218 76 1019 112 82 58 907 537 370 511 89 339 51357 142 105 82 62 422 131769
internal_count=184500 51400 133100 1331 74 1257 238 218 76 1019 112 82 58 907 537 370 511 89 339 51357 142 105 82 62 422 131769
cat_boundaries=0 1 4 7
cat_threshold=128 47286755 3691290888 95949344 2147516416 2290362368 134285346
is_linear=0
shrinkage=0.160217


Tree=40
num_leaves=27
num_cat=3
split_feature=2 1 1 0 5 7 1 1 1 7 7 0 5 8 0 5 1 7 7 1 1 7 8 7 3 7
