tree
version=v3
num_class=1
num_tree_per_iteration=1
label_index=0
max_feature_idx=10
objective=regression
feature_names=symbol dayofyear week month year quarter shift_close shift_high shift_low shift_open shift_volume
feature_infos=-1:68:81:78:0:1:2:3:4:5:6:7:8:9:10:11:12:13:14:16:17:18:19:20:21:22:23:24:25:26:27:28:29:30:31:32:33:34:35:36:37:38:39:41:42:43:44:46:47:48:49:51:53:54:56:57:60:61:62:64:65:66:67:70:71:72:74:75:76:77:79:80:82:83:84:85:86:89:91:92:93:94:95:96:97:98:99:55:52:88:73:40:58:59:63:45:50:87:90:15 [2:366] [1:53] [1:12] [2015:2022] [1:4] [0:3731.4099999999999] [0:3773.0799999999999] [0:3696.79] [0:3744] [0:280615000]
tree_sizes=1990 2054 2055 2049 2043 1988 2057 1999 2049 2029 1997 2069 1988 2046 1975 2030 2025 2023 2028 1992 1997 1967 1916 1936 1990 1927 1978 1920 1910 1901 1987 1953 1909 1974 1883 1899 1941 1881 1920 1961 1928 1936 1965 1892 1867 1939 1924 1928 1933 1905 1942 1915 1931 1937 1902 1886 1881 1936 1900 1902 1936 1898 1935 1899 1949 1922 1943 1969 1973 1889 1934 2000 2012 1991 2059 1945 2030 1894 1891 1869 1920 1923 1936 1914 1915 1899 1946 1953 1941 1916 1928 1926 1955 1909 1910 1945 1915 1875 1986 1920 1975 1949 2102 1842 2057 1944 1938 1995 1944 1942 1966 1973 1964 1853 1961 1951 1939 1854 1913 2030 2011 1977 1920 1939 1880 1873 1882 1889 1895 1920 2011 1938 1904 1911 1890 2030 1896 1905 1991 1910 1920 1925 1891 1916 2001 1877 1891 1887 1847 1888 2020 2009 1869 1928 1946 1857 1956 1941 1887 1984 2033 1945 1956 1935 2039 1874 1889 1960 1866 1935 1865 1941 1929 1924 1923 1964 2013 1938 1883 1944 1921 1885 1846 1920 1925 1884 1912 1932 1897 2033 1906 1961 1909 1886 2002 1994 1907 1972 1919

Tree=0
num_leaves=21
num_cat=0
split_feature=9 7 7 7 7 7 7 7 7 7 10 7 7 7 4 1 7 1 4 1
split_gain=7.60413e+09 1.34976e+09 9.83482e+08 3.67876e+08 1.65614e+08 1.00634e+08 6.95318e+07 5.47344e+07 3.21079e+07 2.76833e+07 2.73545e+07 1.01205e+07 8.43321e+06 8.28292e+06 5.95979e+06 7.83971e+06 5.79385e+06 5.25406e+06 5.22152e+06 9.98723e+06
threshold=1081.5950000000003 311.74000000000007 2182.6750000000006 108.21500000000002 605.0150000000001 1531.8700000000001 187.14000000000001 52.755000000000003 790.8950000000001 419.32000000000005 1785914.0000000002 142.82500000000002 238.48500000000004 78.175000000000026 2019.5000000000002 230.50000000000003 32.995000000000012 101.50000000000001 2020.5000000000002 182.50000000000003
decision_type=2 2 2 2 2 2 2 2 2 2 2 2 2 2 2 2 2 2 2 2
left_child=1 3 5 7 9 -2 11 16 -6 -3 -4 -5 -8 -9 -7 17 -1 -16 19 -12
right_child=2 4 10 6 8 14 12 13 -10 -11 18 -13 -14 -15 15 -17 -18 -19 -20 -21
leaf_value=104.80347095378713 206.21978478615563 132.11019631307278 322.83112239126444 112.51574705711364 157.94590106915297 244.60273292768053 119.35274326228594 107.86114825021822 179.58642414315139 144.64363754401919 304.94633271794737 115.7982988080219 123.91516256983448 109.8694614450158 260.36457193616548 235.44922504796403 106.25563763039057 290.92878136895195 365.09392093314932 356.64383953784647
leaf_weight=44681 654 2631 191 17174 1312 410 5920 30110 658 1969 30 9226 4601 23260 135 61 28921 50 306 128
leaf_count=44681 654 2631 191 17174 1312 410 5920 30110 658 1969 30 9226 4601 23260 135 61 28921 50 306 128
internal_value=112.056 110.254 268.408 108.83 145.781 228.416 115.853 106.787 165.175 137.475 348.385 113.663 121.348 108.736 250.541 260.425 105.374 268.645 358.894 346.855
internal_weight=0 170463 1965 163893 6570 1310 36921 126972 1970 4600 655 26400 10521 53370 656 246 73602 185 464 158
internal_count=172428 170463 1965 163893 6570 1310 36921 126972 1970 4600 655 26400 10521 53370 656 246 73602 185 464 158
is_linear=0
shrinkage=1


Tree=1
num_leaves=21
num_cat=2
split_feature=8 8 7 7 7 7 7 7 7 7 7 0 7 7 1 0 4 4 4 8
split_gain=6.43724e+09 1.14037e+09 8.35028e+08 3.11467e+08 1.39651e+08 8.58361e+07 6.38962e+07 4.17562e+07 2.69117e+07 2.37703e+07 1.11152e+07 7.4109e+06 6.45922e+06 6.07706e+06 5.2741e+06 5.21234e+06 5.20888e+06 5.10433e+06 4.9183e+06 4.55515e+06
threshold=1067.2700000000002 304.18000000000006 2182.6750000000006 104.26500000000001 605.0150000000001 1531.8700000000001 191.41000000000003 50.285000000000004 790.8950000000001 477.86000000000007 140.06500000000003 0 71.985000000000014 230.85500000000005 186.50000000000003 1 2019.5000000000002 2020.5000000000002 2020.5000000000002 386.08500000000009
decision_type=2 2 2 2 2 2 2 2 2 2 2 9 2 2 2 9 2 2 2 2
left_child=1 3 5 7 9 16 10 11 -6 19 -5 -1 -9 -8 18 -13 -2 -7 -4 -3
right_child=2 4 14 6 8 17 13 12 -10 -11 -12 15 -14 -15 -16 -17 -18 -19 -20 -21
leaf_value=8.3500392696234833 82.067350236786098 17.316953399622431 179.01775527175741 0.21107511827042735 42.22151265935743 124.60313896128636 6.6647339561935937 -4.1041095635327691 62.074029698083038 32.471590993385533 3.4424177369387809 -7.2237474122883203 -2.3554765341238078 10.64357921661578 223.6645086597542 -5.7573957963457332 97.899087194971727 145.30139815698124 212.82045988254086 23.383649467389137
leaf_weight=216 472 1972 32 19168 1312 567 4602 28158 654 1313 10544 24247 25928 5253 378 45771 186 89 245 1321
leaf_count=216 472 1972 32 19168 1312 567 4602 28158 654 1313 10544 24247 25928 5253 378 45771 186 89 245 1321
internal_value=0 -1.66 143.708 -2.9693 30.9903 106.951 3.20785 -4.93529 48.8262 23.3771 1.35779 -6.2209 -3.26584 8.78559 217.44 -6.26615 86.5456 127.416 208.93 19.7508
internal_weight=0 170459 1969 163887 6572 1314 39567 124320 1966 4606 29712 70234 54086 9855 655 70018 658 656 277 3293
internal_count=172428 170459 1969 163887 6572 1314 39567 124320 1966 4606 29712 70234 54086 9855 655 70018 658 656 277 3293
cat_boundaries=0 3 6
cat_threshold=264576 268435968 17408 2416967680 2357618688 71680
is_linear=0
shrinkage=0.0799375


Tree=2
num_leaves=21
num_cat=2
split_feature=6 9 6 6 9 9 6 6 9 6 6 0 6 6 4 6 4 4 1 0
split_gain=5.45044e+09 9.67825e+08 7.06831e+08 2.4973e+08 1.37196e+08 7.0988e+07 5.02696e+07 3.27848e+07 3.19088e+07 1.28925e+07 7.62604e+06 6.59982e+06 6.16569e+06 5.53928e+06 5.20048e+06 4.81573e+06 4.40766e+06 4.32909e+06 4.32362e+06 3.81773e+06
threshold=1081.0950000000003 289.41500000000002 2164.4350000000004 99.695000000000007 539.62000000000012 1515.4300000000001 171.91500000000002 46.405000000000008 786.54500000000019 417.02500000000003 217.49500000000003 0 130.71500000000003 69.325000000000003 2020.5000000000002 694.4000000000002 2020.5000000000002 2019.5000000000002 186.50000000000003 1
decision_type=2 2 2 2 2 2 2 2 2 2 2 9 2 2 2 2 2 2 2 9
left_child=1 3 5 7 9 17 12 11 15 -3 -8 -1 -5 -9 -10 -6 -7 -2 -4 -13
right_child=2 4 18 6 8 16 10 13 14 -11 -12 19 -14 -15 -16 -17 -18 -19 -20 -21
leaf_value=13.221469152500704 75.734032870655611 16.117989096743287 192.43849533811957 -0.14910410343662184 33.829048601069225 114.45514516988187 4.9670894393553535 -3.917869175530897 58.501185105127497 25.485385521469887 8.9217073798437703 -6.8927050670783299 2.2888138539472989 -2.3328591095468876 22.64744641599405 42.216945555204738 133.68914816250953 90.130132781137817 205.7863296222626 -5.4822052979865852
leaf_weight=108 468 3277 277 17853 1308 566 6580 30842 627 1316 5919 17031 10544 25939 27 658 89 188 378 48433
leaf_count=108 468 3277 277 17853 1308 566 6580 30842 627 1316 5919 17031 10544 25939 27 658 89 188 378 48433
internal_value=0 -1.5263 132.337 -2.7924 27.1288 98.4551 2.61548 -4.59997 41.7257 18.8021 6.83984 -5.81762 0.756112 -3.1938 57.0218 36.6368 117.073 79.8625 200.148 -5.85016
internal_weight=0 170462 1966 163249 7213 1311 40896 122353 2620 4593 12499 65572 28397 56781 654 1966 655 656 655 65464
internal_count=172428 170462 1966 163249 7213 1311 40896 122353 2620 4593 12499 65572 28397 56781 654 1966 655 656 655 65464
cat_boundaries=0 2 5
cat_threshold=262272 268435968 268435456 2357618688 65536
is_linear=0
shrinkage=0.0799375


Tree=3
num_leaves=21
num_cat=2
split_feature=6 6 6 6 8 6 8 6 10 6 6 0 4 6 0 6 4 3 2 4
split_gain=4.61393e+09 8.2007e+08 5.9835e+08 2.24198e+08 1.00394e+08 5.97261e+07 3.94384e+07 3.65167e+07 2.38352e+07 1.76454e+07 1.68001e+07 6.9693e+06 6.95152e+06 6.79234e+06 4.99652e+06 4.73654e+06 4.35294e+06 6.30446e+06 3.98619e+06 3.79486e+06
threshold=1081.0950000000003 308.78000000000003 2164.4350000000004 111.15500000000002 599.2700000000001 1516.6750000000002 192.59500000000003 56.375000000000007 1785914.0000000002 787.62500000000011 475.17000000000002 0 2020.5000000000002 144.65500000000003 1 83.805000000000021 2020.5000000000002 6.5000000000000009 23.500000000000004 2019.5000000000002
decision_type=2 2 2 2 2 2 2 2 2 2 2 9 2 2 9 2 2 2 2 2
left_child=1 3 5 7 10 19 13 11 -4 -6 -3 -1 -11 -5 -13 -9 17 -10 -18 -2
right_child=2 4 8 6 9 -7 -8 15 16 12 -12 14 -14 -15 -16 -17 18 -19 -20 -21
leaf_value=-5.6893573983162362 69.709373865097774 16.768148345522619 160.32142368311261 0.53340987328722622 36.046103317755176 107.66265149107201 7.6508575978384705 -2.9693554069195347 149.72768617773573 53.862879111214994 27.488071929938997 12.369252376452037 13.818649702237817 3.206406548854174 -4.1992182526503097 -1.3633129082273268 190.6535991055998 190.78813939187265 209.2158278518263 83.252380532483969
leaf_weight=49925 471 3282 191 15844 1318 655 9227 30049 30 627 1306 108 29 9852 29643 19252 159 128 147 185
leaf_count=49925 471 3282 191 15844 1318 655 9227 30049 30 627 1306 108 29 9852 29643 19252 159 128 147 185
internal_value=0 -1.40429 121.759 -2.5137 26.3055 90.5854 3.16798 -4.05212 184.15 41.3794 19.8197 -5.11017 52.0931 1.55825 -4.13493 -2.3422 193.95 183.013 199.585 73.5313
internal_weight=0 170462 1966 163900 6562 1311 34923 128977 655 1974 4588 79676 656 25696 29751 49301 464 158 306 656
internal_count=172428 170462 1966 163900 6562 1311 34923 128977 655 1974 4588 79676 656 25696 29751 49301 464 158 306 656
cat_boundaries=0 3 6
cat_threshold=4237295616 3464980572 268507266 128 268435968 1024
is_linear=0
shrinkage=0.0799375


Tree=4
num_leaves=21
num_cat=1
split_feature=9 9 9 9 9 9 9 9 9 9 0 9 9 4 1 1 9 8 4 1
split_gain=3.90712e+09 6.95144e+08 5.05042e+08 1.79465e+08 9.83993e+07 5.11663e+07 3.73797e+07 2.27531e+07 2.24372e+07 9.90862e+06 5.62404e+06 5.36525e+06 5.30656e+06 4.00438e+06 5.35134e+06 4.74213e+06 3.94043e+06 3.70022e+06 3.64576e+06 3.35152e+06
threshold=1081.5950000000003 289.41500000000002 2159.4400000000001 97.145000000000024 539.62000000000012 1515.4300000000001 175.25500000000002 786.54500000000019 44.555000000000007 389.72000000000008 0 129.06500000000003 228.75500000000002 2019.5000000000002 231.50000000000003 95.500000000000014 67.125000000000014 688.5100000000001 2020.5000000000002 186.50000000000003
decision_type=2 2 2 2 2 2 2 2 2 2 9 2 2 2 2 2 2 2 2 2
left_child=1 3 5 8 9 -2 11 17 10 -3 -1 -5 -8 -7 15 -15 -10 -6 -9 -4
right_child=2 4 19 6 7 13 12 18 16 -11 -12 -13 -14 14 -16 -17 -18 -19 -20 -21
leaf_value=1.7277266218812311 67.613166480813177 12.722406383544875 162.60719478553929 -0.21103521488851731 28.575346559847652 94.329973940422619 4.5849919633247396 49.49114354826019 -3.4161708267116153 20.225100198125705 -5.0596849276230147 1.9673513925284021 8.0576231369016966 105.26342497359529 86.427067157513633 132.77650444953318 -2.0967481374467556 35.91390591857553 19.471715559717129 174.3456825787103
leaf_weight=791 655 2624 277 18522 1303 408 7234 628 30798 1969 62188 11845 4600 128 60 59 27271 663 27 378
leaf_count=791 655 2624 277 18522 1303 408 7234 628 30798 1969 62188 11845 4600 128 60 59 27271 663 27 378
internal_value=0 -1.2919 112.075 -2.36499 22.9915 83.416 2.12383 35.3502 -3.92993 15.9389 -4.97497 0.63867 5.93485 99.2162 107.279 113.958 -2.79653 31.0505 48.2544 169.387
internal_weight=0 170463 1965 163249 7214 1310 42201 2621 121048 4593 62979 30367 11834 655 247 187 58069 1966 655 655
internal_count=172428 170463 1965 163249 7214 1310 42201 2621 121048 4593 62979 30367 11834 655 247 187 58069 1966 655 655
cat_boundaries=0 3
cat_threshold=38014402 806880896 1885252
is_linear=0
shrinkage=0.0799375


Tree=5
num_leaves=21
num_cat=0
split_feature=9 8 9 9 8 9 9 10 9 9 8 9 4 1 9 4 1 1 9 10
split_gain=3.30749e+09 5.88577e+08 4.27528e+08 1.51697e+08 8.36273e+07 4.33158e+07 3.09706e+07 2.01984e+07 1.95171e+07 1.93469e+07 8.38081e+06 4.9874e+06 4.33538e+06 5.84373e+06 3.95118e+06 3.39083e+06 4.52988e+06 4.01506e+06 3.16178e+06 3.14438e+06
threshold=1081.5950000000003 285.88000000000005 2159.4400000000001 98.50500000000001 535.93000000000018 1515.4300000000001 171.91500000000002 1785914.0000000002 47.005000000000003 786.54500000000019 386.08500000000009 222.82500000000002 2020.5000000000002 182.50000000000003 127.21500000000002 2019.5000000000002 231.50000000000003 95.500000000000014 693.43000000000018 4903200.0000000009
decision_type=2 2 2 2 2 2 2 2 2 2 2 2 2 2 2 2 2 2 2 2
left_child=1 3 5 8 10 19 14 -4 -1 18 -3 -8 13 -9 -5 -7 17 -17 -6 -2
right_child=2 4 7 6 9 15 11 12 -10 -11 -12 -13 -14 -15 -16 16 -18 -19 -20 -21
leaf_value=-4.5254653486677583 60.593524498384106 11.669234190918715 133.92072530804759 -0.20951873659073239 26.292836131119078 86.789858204393283 3.9663216646500783 122.68784261995653 -2.4926161598597347 44.397221649990328 18.563490431761451 7.2050492839738149 170.49613193420893 161.61977434902792 1.6875612390645858 96.8503305009489 79.520760161176284 122.16651252201483 33.087445328492031 81.301718840161769
leaf_weight=66347 604 2629 191 17202 1322 408 7235 31 55361 655 1972 5238 305 128 11847 128 60 59 655 51
leaf_count=66347 604 2629 191 17202 1322 408 7235 31 55361 655 1972 5238 305 128 11847 128 60 59 655 51
internal_value=0 -1.18864 103.116 -2.17742 21.1253 76.7486 1.99473 155.847 -3.60079 32.4898 14.6242 5.32643 164.867 154.047 0.564165 91.2862 98.7052 104.851 28.5443 62.2085
internal_weight=0 170463 1965 163230 7233 1310 41522 655 121708 2632 4601 12473 464 159 29049 655 247 187 1977 655
internal_count=172428 170463 1965 163230 7233 1310 41522 655 121708 2632 4601 12473 464 159 29049 655 247 187 1977 655
is_linear=0
shrinkage=0.0799375


Tree=6
num_leaves=21
num_cat=2
split_feature=6 7 6 7 7 7 7 7 7 7 0 0 7 7 4 7 4 3 3 3
split_gain=2.80006e+09 4.99138e+08 3.62923e+08 1.45877e+08 5.17401e+07 3.74046e+07 2.59706e+07 2.45727e+07 1.14287e+07 8.05932e+06 5.3663e+06 4.17874e+06 3.64594e+06 3.46571e+06 3.01186e+06 3.00622e+06 2.98228e+06 4.09783e+06 3.01833e+06 2.67629e+06
threshold=1081.0950000000003 336.29500000000002 2164.4350000000004 117.44500000000001 605.0150000000001 1531.8700000000001 59.815000000000005 202.88500000000002 790.8950000000001 477.86000000000007 0 1 152.49500000000003 89.415000000000006 2019.5000000000002 259.77000000000004 2019.5000000000002 7.5000000000000009 3.5000000000000004 6.5000000000000009
decision_type=2 2 2 2 2 2 2 2 2 2 9 9 2 2 2 2 2 2 2 2
left_child=1 3 5 6 9 14 10 12 -6 -3 -1 -12 -5 -8 -2 -9 -7 18 -18 -4
right_child=2 4 19 7 8 16 13 15 -10 -11 11 -13 -14 -15 -16 -17 17 -19 -20 -21
leaf_value=-4.5143055086792874 53.597582947227913 13.888261592771871 137.27852340747873 0.69144854163143898 27.998561118356331 79.874129755263425 -2.1056001720201634 5.3199187880606633 40.916185384127893 21.557007685775183 11.85715951803655 -3.2669008477209114 2.7427425284457674 -0.68169906355377607 65.582306565022776 8.3353548254922849 89.689619641637748 73.018795081021068 111.42954501338411 147.78549651680328
leaf_weight=46711 466 2630 271 13853 1312 410 32020 5917 657 1313 108 36854 9223 16578 189 3286 123 61 62 384
leaf_count=46711 466 2630 271 13853 1312 410 32020 5917 657 1313 108 36854 9223 16578 189 3286 123 61 62 384
internal_value=0 -1.09394 94.8529 -1.91385 21.7267 70.5745 -3.08962 2.90415 32.3092 16.442 -3.94326 -3.21951 1.51131 -1.61987 57.0578 6.39662 84.0682 91.0508 96.9874 143.443
internal_weight=0 170462 1966 164550 5912 1311 132271 32279 1969 3943 83673 36962 23076 48598 655 9203 656 246 185 655
internal_count=172428 170462 1966 164550 5912 1311 132271 32279 1969 3943 83673 36962 23076 48598 655 9203 656 246 185 655
cat_boundaries=0 3 5
cat_threshold=4237295616 3431426132 268507266 262272 268435968
is_linear=0
shrinkage=0.0799375


Tree=7
num_leaves=21
num_cat=0
split_feature=9 9 9 9 9 9 9 9 10 9 9 4 1 9 9 9 4 1 4 9
split_gain=2.37063e+09 4.22615e+08 3.06358e+08 1.15918e+08 5.17294e+07 3.09656e+07 2.20499e+07 1.78489e+07 1.72034e+07 9.44623e+06 9.39148e+06 3.80914e+06 4.66544e+06 3.5998e+06 3.14656e+06 3.12991e+06 3.03868e+06 2.80057e+06 2.77203e+06 2.74534e+06
threshold=1081.5950000000003 309.12000000000006 2159.4400000000001 116.605 603.57500000000016 1515.4300000000001 57.965000000000011 194.79000000000005 1785914.0000000002 417.14000000000004 786.54500000000019 2020.5000000000002 186.50000000000003 32.045000000000009 88.735000000000014 1.0000000180025095e-35 2020.5000000000002 93.500000000000014 2017.5000000000002 148.15500000000003
decision_type=2 2 2 2 2 2 2 2 2 2 2 2 2 2 2 2 2 2 2 2
left_child=1 3 5 6 9 -2 13 19 -4 -3 -6 12 -10 15 -8 -1 18 -13 -12 -5
right_child=2 4 8 7 10 -7 14 -9 11 -11 16 17 -14 -15 -16 -17 -18 -19 -20 -21
leaf_value=-1.5155022037054759 52.685024409170843 11.107768293643238 111.70773387503596 0.59031762988930869 25.837723852398785 77.270372852846506 -1.9689906677600799 5.511037318210942 103.2097855137426 18.433263693028913 35.725401944003593 134.89013831494532 137.16847739280124 -3.0883264392267464 -0.62501322079867061 -4.3259689217960355 11.293136492155364 151.17646608542117 48.220354678835008 2.389034113491999
leaf_weight=2700 655 2624 191 13194 1310 655 33987 9203 33 1969 479 106 126 38344 16553 40719 27 199 149 9205
leaf_count=2700 655 2624 191 13194 1310 655 33987 9203 33 1969 479 106 126 38344 16553 40719 27 199 149 9205
internal_value=0 -1.00628 87.2993 -1.80243 18.8921 64.9788 -2.8414 2.54724 131.937 14.2482 29.7464 140.258 130.135 -3.65275 -1.52881 -4.1512 37.5625 145.526 38.6915 1.32951
internal_weight=0 170463 1965 163905 6558 1310 132303 31602 655 4593 1965 464 159 81763 50540 43419 655 305 628 22399
internal_count=172428 170463 1965 163905 6558 1310 132303 31602 655 4593 1965 464 159 81763 50540 43419 655 305 628 22399
is_linear=0
shrinkage=0.0799375


Tree=8
num_leaves=21
num_cat=2
split_feature=9 7 9 7 7 7 7 7 0 7 7 0 1 4 7 7 4 2 7 4
split_gain=2.00681e+09 3.59231e+08 2.5935e+08 8.77127e+07 5.75928e+07 2.6962e+07 1.79983e+07 1.17017e+07 1.1616e+07 6.69716e+06 3.48277e+06 3.35866e+06 2.76735e+06 2.807e+06 2.58756e+06 2.58517e+06 2.53736e+06 2.30048e+06 2.15714e+06 2.04766e+06
threshold=1081.5950000000003 278.86500000000007 2159.4400000000001 94.27500000000002 541.45000000000016 1531.8700000000001 161.16500000000002 790.8950000000001 0 360.32000000000005 219.29500000000004 1 271.50000000000006 2019.5000000000002 21.025000000000002 66.575000000000003 2019.5000000000002 33.500000000000007 699.30000000000007 2020.5000000000002
decision_type=2 2 2 2 2 2 2 2 9 2 2 9 2 2 2 2 2 2 2 2
left_child=1 3 5 8 9 16 -5 18 14 -3 -8 -10 13 -7 -1 -13 -2 -4 -6 -9
right_child=2 4 17 6 7 12 10 19 11 -11 -12 15 -14 -15 -16 -17 -18 -19 -20 -21
leaf_value=-4.4576888281039597 45.114911088350183 8.0556826766116192 117.25076727809979 0.18866076688785036 20.44737091402444 69.285427821088334 2.7014740784349103 35.518937812859875 11.369824505637828 13.76216012870454 5.2794850012939296 -2.5773528097757894 62.700775294102591 81.780520131053208 -3.3075319604169597 -1.5482424316526602 56.115592927560606 126.92836937775813 26.062893367109638 12.180705304333474
leaf_weight=19474 465 2629 375 29090 1313 282 9218 633 108 2628 5259 38140 178 196 34899 26391 189 280 656 25
leaf_count=19474 465 2629 375 29090 1313 282 9218 633 108 2628 5259 38140 178 196 34899 26391 189 280 656 25
internal_value=0 -0.925838 80.3215 -1.73394 15.7382 59.7847 1.33485 25.4032 -2.85733 10.9084 3.63798 -2.13179 71.2367 74.4124 -3.71878 -2.15615 48.2957 121.392 22.3185 34.6327
internal_weight=0 170463 1965 162579 7884 1310 43567 2627 119012 5257 14477 64639 656 478 54373 64531 654 655 1969 658
internal_count=172428 170463 1965 162579 7884 1310 43567 2627 119012 5257 14477 64639 656 478 54373 64531 654 655 1969 658
cat_boundaries=0 3 6
cat_threshold=4103077920 3464980574 285284482 384 512 1024
is_linear=0
shrinkage=0.0799375


Tree=9
num_leaves=21
num_cat=1
split_feature=7 7 7 7 7 7 10 7 7 7 7 0 4 1 7 10 4 1 4 1
split_gain=1.69899e+09 3.03772e+08 2.19766e+08 7.42957e+07 4.86348e+07 2.2899e+07 1.46025e+07 1.31876e+07 1.13213e+07 9.83857e+06 5.66925e+06 3.71481e+06 3.08598e+06 3.63904e+06 3.01765e+06 2.6521e+06 3.2145e+06 2.34592e+06 2.38406e+06 2.32554e+06
threshold=1093.1200000000001 278.86500000000007 2182.6750000000006 109.43500000000002 541.45000000000016 1531.8700000000001 1785914.0000000002 57.295000000000009 183.68500000000003 790.8950000000001 360.32000000000005 0 2020.5000000000002 173.50000000000003 27.745000000000001 4903200.0000000009 2019.5000000000002 271.50000000000006 2019.5000000000002 161.50000000000003
decision_type=2 2 2 2 2 2 2 2 2 2 2 9 2 2 2 2 2 2 2 2
left_child=1 3 5 7 10 15 -4 11 -5 -6 -3 -1 13 -8 -13 16 -2 18 -7 -14
right_child=2 4 6 8 9 17 12 -9 -10 -11 -12 14 19 -15 -16 -17 -18 -19 -20 -21
leaf_value=4.2172759121656149 39.067100500699254 7.4117366834126912 93.051018924574947 0.76811542389275755 20.534476942262504 63.747343946164797 80.647105558793825 -1.4306098205734514 3.964571631014536 31.838703881442925 12.662056127528512 -3.7223474312340317 117.23601311157854 115.22289265507945 -2.7291399287823896 62.528823169229241 51.618470787878749 57.689233995562944 75.262562289570241 131.3331509378956
leaf_weight=433 418 2629 191 25078 1969 282 23 47308 9866 656 2628 34114 158 135 45780 48 190 178 196 148
leaf_count=433 418 2629 191 25078 1969 282 23 47308 9866 656 2628 34114 158 135 45780 48 190 178 196 148
internal_value=0 -0.852256 73.8671 -1.59527 14.4736 54.9864 111.683 -2.48941 1.6706 23.3597 10.0364 -3.11297 119.348 110.201 -3.15284 44.4227 42.9911 65.5483 68.4722 124.063
internal_weight=0 170461 1967 162579 7882 1312 655 127635 34944 2625 5257 80327 464 158 79894 656 608 656 478 306
internal_count=172428 170461 1967 162579 7882 1312 655 127635 34944 2625 5257 80327 464 158 79894 656 608 656 478 306
cat_boundaries=0 3
cat_threshold=33819072 805832192 803844
is_linear=0
shrinkage=0.0799375


Tree=10
num_leaves=21
num_cat=0
split_feature=9 7 9 7 9 7 10 7 7 7 10 1 1 9 4 1 10 4 7 7
split_gain=1.43827e+09 2.57903e+08 1.85879e+08 6.03042e+07 4.64421e+07 1.92851e+07 1.23785e+07 1.20238e+07 1.07774e+07 8.02212e+06 3.86171e+06 4.23562e+06 6.77449e+06 2.92202e+06 2.83227e+06 3.34887e+06 2.35312e+06 3.04573e+06 2.30577e+06 2.02899e+06
threshold=1081.5950000000003 268.81500000000005 2159.4400000000001 93.095000000000013 475.05500000000006 1531.8700000000001 1785914.0000000002 155.52000000000001 699.30000000000007 39.905000000000008 218950.00000000003 183.50000000000003 238.50000000000003 356.89000000000004 2020.5000000000002 173.50000000000003 4015500.0000000005 2019.5000000000002 213.67500000000004 1.0000000180025095e-35
decision_type=2 2 2 2 2 2 2 2 2 2 2 2 2 2 2 2 2 2 2 2
left_child=1 3 5 9 13 16 -4 -5 -6 19 11 -10 -13 -3 15 -8 17 -2 -9 -1
right_child=2 4 6 7 8 -7 14 18 10 -11 -12 12 -14 -15 -16 -17 -18 -19 -20 -21
leaf_value=-0.98882340211005493 35.253474079874749 6.6467047636965138 85.613581726876816 0.075728606616521255 16.474041400944255 60.297710440723193 73.455546083342696 2.1446682447956515 23.721036813298401 -1.8087930630593914 27.50935151827813 -34.274629837803424 20.520463766706524 10.539691682631599 114.36149496256657 106.01371554717062 54.541027935013609 47.682082655736771 4.2166921302236782 -3.2348563541211939
leaf_weight=2700 397 3295 191 28438 1964 656 24 9878 113 62218 1142 25 34 1968 305 135 72 185 5259 53429
leaf_count=2700 397 3295 191 28438 1964 656 24 9878 113 62218 1142 25 34 1968 305 135 72 185 5259 53429
internal_value=0 -0.783711 67.9986 -1.49782 12.7545 50.6124 102.768 1.0445 20.2235 -2.4339 25.8274 14.6582 -2.70178 8.10245 109.825 101.11 40.8958 39.2058 2.86455 -3.12681
internal_weight=0 170463 1965 161922 8541 1310 655 43575 3278 118347 1314 172 59 5263 464 159 654 582 15137 56129
internal_count=172428 170463 1965 161922 8541 1310 655 43575 3278 118347 1314 172 59 5263 464 159 654 582 15137 56129
is_linear=0
shrinkage=0.0799375


Tree=11
num_leaves=21
num_cat=2
split_feature=6 6 6 7 9 7 7 7 0 0 6 7 7 1 7 1 1 7 1 6
split_gain=1.21785e+09 2.18179e+08 1.5792e+08 5.11052e+07 3.91865e+07 1.62142e+07 1.04436e+07 9.3426e+06 7.07562e+06 2.76262e+06 2.50993e+06 2.08461e+06 2.07484e+06 1.95194e+06 1.89398e+06 1.77059e+06 2.00407e+06 1.68469e+06 1.51995e+06 1.15215e+06
threshold=1081.0950000000003 266.26500000000004 2164.4350000000004 92.055000000000021 475.05500000000006 1531.8700000000001 152.49500000000003 790.8950000000001 0 1 356.78500000000003 699.30000000000007 213.67500000000004 271.50000000000006 20.545000000000005 186.50000000000003 131.50000000000003 70.52500000000002 93.500000000000014 121.52500000000002
decision_type=2 2 2 2 2 2 2 2 9 9 2 2 2 2 2 2 2 2 2 2
left_child=1 3 5 8 10 -2 19 11 14 -10 -3 -6 -8 -7 -1 16 18 -11 -4 -5
right_child=2 4 15 6 7 13 12 -9 9 17 -12 -13 -14 -15 -16 -17 -18 -19 -20 -21
leaf_value=-3.5710776806465629 37.640882266465852 6.1057564781672973 91.762622552971408 -0.36765701256007444 15.157161661346139 58.090494961137338 1.938021350122842 27.122039320915658 10.567474759721208 -1.9812512065750563 9.7145529278267642 20.362875965938521 3.8809049552569892 48.258781216491073 -2.5774396260755665 98.192180230817286 80.942413873737252 -1.0991043132193312 112.61634426840881 0.68589858086284206
leaf_weight=18579 655 3283 145 17904 1964 478 10539 657 108 42443 1971 656 5268 178 36031 378 105 20523 27 10536
leaf_count=18579 655 3283 145 17904 1964 478 10539 657 108 42443 1971 656 5268 178 36031 378 105 20523 27 10536
internal_value=0 -0.72134 62.5554 -1.37776 11.7384 46.5402 0.938225 18.5984 -2.24852 -1.67079 7.4596 16.4607 2.58553 55.4244 -2.91496 94.6076 89.7088 -1.69346 95.0497 0.0226477
internal_weight=0 170462 1966 161931 8531 1311 44247 3277 117684 63074 5254 2620 15807 656 54610 655 277 62966 172 28440
internal_count=172428 170462 1966 161931 8531 1311 44247 3277 117684 63074 5254 2620 15807 656 54610 655 277 62966 172 28440
cat_boundaries=0 3 5
cat_threshold=4103077888 3481757790 285284482 2176 268435968
is_linear=0
shrinkage=0.0799375


Tree=12
num_leaves=21
num_cat=0
split_feature=8 7 7 7 8 7 7 7 7 7 7 4 1 1 7 2 4 4 4 1
split_gain=1.03156e+09 1.84425e+08 1.33298e+08 5.54106e+07 1.9562e+07 1.38174e+07 1.10189e+07 8.0431e+06 4.10004e+06 3.08904e+06 2.07681e+06 1.80434e+06 2.58552e+06 2.93153e+06 1.74178e+06 1.64073e+06 1.59045e+06 1.70245e+06 1.73901e+06 1.6096e+06
threshold=1067.2700000000002 336.29500000000002 2182.6750000000006 121.36500000000002 599.2700000000001 1531.8700000000001 63.525000000000013 213.67500000000004 790.8950000000001 419.32000000000005 35.155000000000008 2019.5000000000002 230.50000000000003 101.50000000000001 1.0000000180025095e-35 33.500000000000007 2016.5000000000002 2020.5000000000002 2017.5000000000002 119.50000000000001
decision_type=2 2 2 2 2 2 2 2 2 2 2 2 2 2 2 2 2 2 2 2
left_child=1 3 5 6 9 -2 10 -5 -6 -3 14 -7 13 -13 -1 -4 -10 18 19 -18
right_child=2 4 15 7 8 11 -8 -9 16 -11 -12 12 -14 -15 -16 -17 17 -19 -20 -21
leaf_value=-0.75086172474053414 34.655143442301849 7.7235957234976027 83.500657581147522 1.1741680031455841 17.142357566705336 47.796138451981861 -0.85493922553158697 4.1540322395379556 10.020192087747148 12.201525012141639 -1.9448858921541947 55.042990997582137 42.173219954019523 77.745831229130786 -2.8399093766812031 91.649596090029746 16.262259477552014 5.4979458072083354 34.401732721632371 27.206806188538973
leaf_weight=2700 658 1974 375 21749 1317 410 46560 7887 43 1964 39638 135 61 50 46016 280 117 25 145 324
leaf_count=2700 658 1974 375 21749 1317 410 46560 7887 43 1964 39638 135 61 50 46016 280 117 25 145 324
internal_value=0 -0.664338 57.5281 -1.1626 13.2109 42.8423 -1.85011 1.9672 19.7122 9.95693 -2.37454 51.053 56.4764 61.1872 -2.72413 86.987 24.8864 25.9323 26.8038 24.3041
internal_weight=0 170459 1969 164550 5909 1314 134914 29636 1971 3938 88354 656 246 185 48716 655 654 611 586 441
internal_count=172428 170459 1969 164550 5909 1314 134914 29636 1971 3938 88354 656 246 185 48716 655 654 611 586 441
is_linear=0
shrinkage=0.0799375


Tree=13
num_leaves=21
num_cat=2
split_feature=9 7 9 7 7 7 10 7 7 0 0 10 9 9 1 7 7 1 7 1
split_gain=8.7267e+08 1.57305e+08 1.12794e+08 3.70193e+07 2.81501e+07 1.16609e+07 1.04611e+07 7.56979e+06 6.67325e+06 5.07231e+06 2.51869e+06 2.00953e+06 1.66605e+06 1.617e+06 1.61146e+06 1.58072e+06 1.517e+06 1.48404e+06 1.27665e+06 1.15313e+06
threshold=1081.5950000000003 268.81500000000005 2159.4400000000001 92.055000000000021 477.86000000000007 1531.8700000000001 1785914.0000000002 145.96500000000003 790.8950000000001 0 1 5068150.0000000009 356.89000000000004 14.615 233.50000000000003 699.30000000000007 230.85500000000005 271.50000000000006 72.675000000000026 29.500000000000004
decision_type=2 2 2 2 2 2 2 2 2 9 9 2 2 2 2 2 2 2 2 2
left_child=1 3 5 9 12 11 14 -5 15 13 -11 -2 -3 -1 -4 -6 -9 19 -12 -7
right_child=2 4 6 7 8 17 -8 16 -10 10 18 -13 -14 -15 -16 -17 -18 -19 -20 -21
leaf_value=-3.2789799095025454 30.646595201481237 5.2380622665327365 57.466132857077604 -0.027444159903899524 12.833297429194891 38.571154268731597 86.537394835745005 1.7525642550707605 22.969129139099024 10.262586193249495 -1.6707835394932125 47.985798716014578 8.1799955441943926 -2.2385631664940728 72.257946636408363 17.364898139191457 3.6628444142314192 40.7075526638626 -0.8761753813106633 50.726762187135343
leaf_weight=12318 608 3295 103 27121 1969 57 464 13829 658 108 44669 46 1963 42411 88 656 3288 178 18178 421
leaf_count=12318 608 3295 103 27121 1969 57 464 13829 658 108 44669 46 1963 42411 88 656 3288 178 18178 421
internal_value=0 -0.610402 52.9669 -1.16811 9.96274 39.4233 80.0519 0.803278 15.7705 -1.90917 -1.41901 31.8677 6.33642 -2.47228 64.2885 13.9659 2.11951 46.9546 -1.44072 49.279
internal_weight=0 170463 1965 161922 8541 1310 655 44238 3283 117684 62955 654 5258 54729 191 2625 17117 656 62847 478
internal_count=172428 170463 1965 161922 8541 1310 655 44238 3283 117684 62955 654 5258 54729 191 2625 17117 656 62847 478
cat_boundaries=0 3 6
cat_threshold=4103077888 3481757790 402724994 262272 512 262144
is_linear=0
shrinkage=0.0799375


Tree=14
num_leaves=21
num_cat=0
split_feature=8 9 9 9 9 9 10 9 8 9 10 1 1 4 1 1 10 4 8 1
split_gain=7.39394e+08 1.32789e+08 9.56047e+07 3.13409e+07 2.36325e+07 9.6634e+06 8.85474e+06 6.2083e+06 5.5028e+06 4.38801e+06 2.66546e+06 3.00008e+06 6.41864e+06 2.45482e+06 2.49984e+06 1.82671e+06 1.74608e+06 2.62133e+06 1.4685e+06 1.45448e+06
threshold=1067.2700000000002 266.34500000000008 2159.4400000000001 93.475000000000009 475.05500000000006 1515.4300000000001 1785914.0000000002 156.98500000000004 688.5100000000001 42.135000000000012 218950.00000000003 183.50000000000003 233.50000000000003 2020.5000000000002 168.50000000000003 95.500000000000014 4015500.0000000005 2019.5000000000002 352.24000000000007 183.50000000000003
decision_type=2 2 2 2 2 2 2 2 2 2 2 2 2 2 2 2 2 2 2 2
left_child=1 3 5 9 18 16 -4 -5 -6 -1 11 -10 -13 14 -8 -15 17 -2 -3 -19
right_child=2 4 6 7 8 -7 13 -9 10 -11 -12 12 -14 15 -16 -17 -18 19 -20 -21
leaf_value=-2.2260641548076872 24.380902265821437 4.7960130160103391 59.150615891261502 0.092647996447981634 11.808935178890801 43.144388899857283 45.752382101085104 2.127178150081432 17.476718481088508 -1.255506226997732 19.948029126077287 -35.933361803441649 14.771019974094822 75.358324330321167 75.444438983928165 88.403455017157157 41.007094826280593 30.52148675220122 7.5535922499066182 45.429117194811504
leaf_weight=59625 404 3265 191 28406 1960 655 21 14464 115 59441 1130 25 44 107 138 198 74 115 1984 66
leaf_count=59625 404 3265 191 28406 1960 655 21 14464 115 59441 1130 25 44 107 138 198 74 115 1984 66
internal_value=0 -0.562387 48.7047 -1.07424 9.16276 36.2675 73.6533 0.779083 14.4925 -1.74154 18.4952 9.57136 -3.60555 79.6201 71.5295 83.8326 29.4311 27.9653 5.83834 35.9621
internal_weight=0 170459 1969 161936 8523 1314 655 42870 3274 119066 1314 184 69 464 159 305 659 585 5249 181
internal_count=172428 170459 1969 161936 8523 1314 655 42870 3274 119066 1314 184 69 464 159 305 659 585 5249 181
is_linear=0
shrinkage=0.0799375


Tree=15
num_leaves=21
num_cat=3
split_feature=8 6 6 6 6 6 10 6 0 4 0 0 4 8 2 2 2 4 10 4
split_gain=6.25921e+08 1.1286e+08 8.12944e+07 2.52743e+07 2.32358e+07 8.22932e+06 7.58344e+06 5.30502e+06 5.03892e+06 3.11009e+06 2.73367e+06 2.34754e+06 1.97397e+06 1.83401e+06 1.79671e+06 1.78909e+06 1.62392e+06 1.47227e+06 2.29635e+06 1.38402e+06
threshold=1067.2700000000002 243.79500000000004 2164.4350000000004 475.17000000000002 81.915000000000006 1516.6750000000002 2003050.0000000002 133.52500000000003 0 2017.5000000000002 1 2 2020.5000000000002 352.24000000000007 27.500000000000004 33.500000000000007 13.500000000000002 2019.5000000000002 3098050.0000000005 2020.5000000000002
decision_type=2 2 2 2 2 2 2 2 9 2 9 9 2 2 2 2 2 2 2 2
left_child=1 4 5 13 10 17 15 -6 9 -5 -1 -12 14 -3 -8 -4 -14 18 -2 -7
right_child=2 3 6 8 7 19 12 -9 -10 -11 11 -13 16 -15 -16 -17 -18 -19 -20 -21
leaf_value=-2.1225078444055554 21.983985019246465 4.0860609560582377 47.922861280418523 15.829119248466169 -0.25573031673788116 38.228017022397211 49.307460095933642 1.4301179047180104 10.319158419112984 28.171177755312435 9.9591437494287067 -1.3400845421166292 69.250066509082501 6.9411984622856577 70.598781495110359 63.101389200243744 81.755659995997135 33.154989416405336 36.046245590820583 48.970838664602496
leaf_weight=53297 385 5242 109 1304 33793 566 32 18434 1828 145 108 54327 103 1981 126 92 193 182 92 89
leaf_count=53297 385 5242 109 1304 33793 566 32 18434 1828 145 108 54327 103 1981 126 92 193 182 92 89
internal_value=0 -0.517431 44.8119 7.51081 -1.04442 33.3431 67.8176 0.339306 13.3334 16.9476 -1.71523 -1.31584 73.5443 4.86914 66.2939 54.8762 77.4094 27.0344 24.6977 39.6893
internal_weight=0 170459 1969 10500 159959 1314 655 52227 3277 1449 107732 54435 454 7223 158 201 296 659 477 655
internal_count=172428 170459 1969 10500 159959 1314 655 52227 3277 1449 107732 54435 454 7223 158 201 296 659 477 655
cat_boundaries=0 2 5 8
cat_threshold=128 512 4237295649 3464980566 268507266 384 512 16384
is_linear=0
shrinkage=0.0799375


Tree=16
num_leaves=21
num_cat=2
split_feature=7 7 9 7 7 7 7 7 7 0 0 4 1 1 4 4 4 1 4 1
split_gain=5.29363e+08 9.58749e+07 6.8555e+07 2.14734e+07 1.96856e+07 7.12947e+06 4.54446e+06 3.30314e+06 2.81388e+06 2.42094e+06 2.15328e+06 1.39467e+06 1.95415e+06 2.2444e+06 1.32538e+06 1.20088e+06 1.23987e+06 1.35815e+06 1.10974e+06 1.50103e+06
threshold=1093.1200000000001 246.17500000000004 2159.4400000000001 541.45000000000016 81.805000000000021 1531.8700000000001 137.96500000000003 790.8950000000001 392.21500000000009 0 1 2019.5000000000002 230.50000000000003 101.50000000000001 2016.5000000000002 2020.5000000000002 2017.5000000000002 117.50000000000001 2019.5000000000002 183.50000000000003
decision_type=2 2 2 2 2 2 2 2 2 9 9 2 2 2 2 2 2 2 2 2
left_child=1 4 5 8 9 18 -6 -5 -3 -1 -11 -7 13 -13 -9 16 17 -16 -2 -20
right_child=2 3 -4 7 6 11 -8 14 -10 10 -12 12 -14 -15 15 -17 -18 -19 19 -21
leaf_value=-2.2265714906594773 22.690223080024445 3.9635753602413142 62.353004960335873 11.544996490783511 -0.21251206931484518 33.719367498319592 1.3710758469672226 4.5258968673210873 7.4510115917081023 9.2663578022085442 -1.3750721651847195 39.992812385841084 28.918052437533664 59.723454074760156 10.176340804081763 1.8859429892474786 26.107328786769724 20.287332649499273 24.753079179931781 39.688407362260129
leaf_weight=27855 466 5916 655 1969 35787 410 17119 43 1971 112 79076 134 61 51 115 25 148 325 124 66
leaf_count=27855 466 5916 655 1969 35787 410 17119 43 1971 112 79076 134 61 51 115 25 148 325 124 66
internal_value=0 -0.475521 41.232 6.91948 -0.961528 30.6867 0.299896 13.182 4.83512 -1.58499 -1.35885 36.5801 41.3447 45.4383 18.0949 19.0466 19.7761 17.6453 24.7924 29.945
internal_weight=0 170461 1967 10512 159949 1312 52906 2625 7887 107043 79188 656 246 185 656 613 588 440 656 190
internal_count=172428 170461 1967 10512 159949 1312 52906 2625 7887 107043 79188 656 246 185 656 613 588 440 656 190
cat_boundaries=0 3 5
cat_threshold=2416967680 2357618688 268507264 192 536871424
is_linear=0
shrinkage=0.0799375


Tree=17
num_leaves=21
num_cat=2
split_feature=6 6 6 7 7 10 7 6 6 6 0 0 4 4 1 6 1 10 4 1
split_gain=4.48186e+08 8.1484e+07 5.8241e+07 2.19677e+07 1.19796e+07 6.43831e+06 5.96466e+06 4.78868e+06 3.03474e+06 2.23109e+06 2.14467e+06 1.94159e+06 1.90971e+06 1.56388e+06 1.52121e+06 1.45075e+06 1.40063e+06 1.36036e+06 1.39813e+06 1.29521e+06
threshold=1081.0950000000003 289.3250000000001 2164.4350000000004 118.50500000000001 605.0150000000001 1785914.0000000002 1531.8700000000001 61.315000000000005 189.57000000000002 417.02500000000003 0 1 2017.5000000000002 2020.5000000000002 186.50000000000003 24.175000000000004 161.50000000000003 5068150.0000000009 2019.5000000000002 149.50000000000003
decision_type=2 2 2 2 2 2 2 2 2 2 9 9 2 2 2 2 2 2 2 2
left_child=1 3 6 7 9 -4 17 10 -5 -3 -1 12 -6 14 -7 -12 -15 18 -2 -20
right_child=2 4 5 8 11 13 -8 -9 -10 -11 15 -13 -14 16 -16 -17 -18 -19 19 -21
leaf_value=2.9343627256756393 19.234216817319329 4.6036382868268859 45.04963690549652 0.60882883838782076 14.269088278868812 40.394109107977108 33.611455021588469 -0.59418417581055927 2.3482173621446876 8.0083927325872235 -2.1267655654821165 9.5875248522049734 23.948124854367791 60.581348685774991 59.972745896613354 -1.4150225574274859 71.458574014206931 35.932588420304853 21.202491904323942 34.463877466154699
leaf_weight=654 419 3282 191 21106 1038 32 656 46555 9205 1967 26479 782 149 158 126 59245 148 47 99 90
leaf_count=654 419 3282 191 21106 1038 32 656 46555 9205 1967 26479 782 149 158 126 59245 148 47 99 90
internal_value=0 -0.437401 37.9489 -0.804906 7.87416 57.4139 28.223 -1.24771 1.13706 5.87956 -1.59994 13.1913 15.3551 62.5011 56.0134 -1.63468 65.8468 22.8254 21.811 27.5206
internal_weight=0 170462 1966 163244 7218 655 1311 132933 30311 5249 86378 1969 1187 464 158 85724 306 655 608 189
internal_count=172428 170462 1966 163244 7218 655 1311 132933 30311 5249 86378 1969 1187 464 158 85724 306 655 608 189
cat_boundaries=0 3 5
cat_threshold=33819074 806879872 836612 128 512
is_linear=0
shrinkage=0.0799375


Tree=18
num_leaves=21
num_cat=3
split_feature=6 7 6 7 6 10 7 7 0 0 0 6 4 2 2 4 2 4 10 4
split_gain=3.79403e+08 6.91415e+07 4.93038e+07 1.49386e+07 1.45417e+07 5.48336e+06 5.04897e+06 3.16754e+06 2.43092e+06 2.10743e+06 1.81015e+06 1.80785e+06 1.79831e+06 1.51869e+06 1.43205e+06 1.42554e+06 1.28753e+06 1.23296e+06 1.17875e+06 1.37251e+06
threshold=1081.0950000000003 252.33500000000001 2164.4350000000004 86.235000000000014 539.06500000000017 2003050.0000000002 1531.8700000000001 145.96500000000003 0 1 2 356.78500000000003 2016.5000000000002 31.500000000000004 18.500000000000004 2020.5000000000002 27.500000000000004 2021.5000000000002 4015500.0000000005 2019.5000000000002
decision_type=2 2 2 2 2 2 2 2 9 9 9 2 2 2 2 2 2 2 2 2
left_child=1 3 6 9 11 13 18 -5 12 -1 -11 -3 -6 14 -4 16 -7 -17 19 -2
right_child=2 4 5 7 8 15 -8 -9 -10 10 -12 -13 -14 -15 -16 17 -18 -19 -20 -21
leaf_value=-1.6751107433651604 17.14228178425018 3.2931548112782241 46.192584529124503 -0.076595657844331047 10.949244469163196 37.167255714218292 30.924726559546368 1.3036652651821141 8.5199391907669497 8.9178603932117717 -1.0000106754159814 5.9217811499457653 16.896059810282338 48.676021484143313 26.651235733241403 63.080993540712427 55.179482738903403 48.224712436115084 30.506807482276411 25.497893619104911
leaf_weight=52657 397 4608 41 32429 667 32 656 15801 1323 108 59611 2624 634 102 58 254 126 42 74 184
leaf_count=52657 397 4608 41 32429 667 32 656 15801 1323 108 59611 2624 634 102 58 254 126 42 74 184
internal_value=0 -0.402377 34.9157 -0.801196 6.09647 52.8251 25.9671 0.375603 11.1939 -1.30626 -0.980581 4.24692 13.7418 41.8225 34.7523 57.694 51.537 60.9766 21.0011 19.7893
internal_weight=0 170462 1966 160606 9856 655 1311 48230 2624 112376 59719 7232 1301 201 99 454 158 296 655 581
internal_count=172428 170462 1966 160606 9856 655 1311 48230 2624 112376 59719 7232 1301 201 99 454 158 296 655 581
cat_boundaries=0 2 5 8
cat_threshold=128 512 4094722049 3481757782 419502208 128 268435968 1024
is_linear=0
shrinkage=0.0799375


Tree=19
num_leaves=21
num_cat=3
split_feature=9 9 9 9 9 10 9 0 9 4 0 0 4 1 4 1 1 1 9 10
split_gain=3.21022e+08 5.876e+07 4.15633e+07 1.40561e+07 1.16692e+07 4.6099e+06 4.22316e+06 2.87525e+06 2.75443e+06 1.8003e+06 1.7864e+06 1.58763e+06 1.30209e+06 1.47964e+06 1.10765e+06 1.40679e+06 2.02478e+06 1.06534e+06 1.05145e+06 988840
threshold=1081.5950000000003 236.38500000000002 2159.4400000000001 475.05500000000006 77.575000000000003 1785914.0000000002 1515.4300000000001 0 125.575 2017.5000000000002 1 2 2020.5000000000002 168.50000000000003 2019.5000000000002 231.50000000000003 101.50000000000001 97.500000000000014 332.81000000000006 4015500.0000000005
decision_type=2 2 2 2 2 2 2 9 2 2 9 9 2 2 2 2 2 2 2 2
left_child=1 4 6 18 10 -4 19 9 -6 -5 -1 -12 13 -7 -8 16 -16 -14 -3 -2
right_child=2 3 5 7 8 12 14 -9 -10 -11 11 -13 17 -15 15 -17 -18 -19 -20 -21
leaf_value=8.5799047856020962 18.25418079395061 2.7554530358067968 38.104692026389351 11.485338313272448 -0.26743561463374449 27.171510132151603 25.881723007508242 7.3677649035241881 0.89293070852064726 20.761290797212045 -2.2423513312591332 -1.1726330771891662 49.568239272446419 49.994009559826132 30.987763702893293 22.00788275355173 49.681556538459013 59.474010737737444 4.7148940749018919 28.070528597068272
leaf_weight=108 581 5254 191 1304 34472 21 408 1825 21057 149 9815 93855 109 138 136 60 51 196 2624 74
leaf_count=108 581 5254 191 1304 34472 21 408 1825 21057 149 9815 93855 109 138 136 60 51 196 2624 74
internal_value=0 -0.369958 32.1255 5.23844 -0.762706 48.567 23.9041 9.63722 0.172584 12.3518 -1.26316 -1.27412 52.8717 46.9838 28.4434 32.6723 36.0912 55.9376 3.40811 19.3641
internal_weight=0 170463 1965 11156 159307 655 1310 3278 55529 1453 103778 103670 464 159 655 247 187 305 7878 655
internal_count=172428 170463 1965 11156 159307 655 1310 3278 55529 1453 103778 103670 464 159 655 247 187 305 7878 655
cat_boundaries=0 2 5 7
cat_threshold=128 512 2176 512 262144 0 2357600256
is_linear=0
shrinkage=0.0799375


Tree=20
num_leaves=21
num_cat=4
split_feature=8 6 6 7 8 7 7 7 0 9 0 1 0 8 1 7 1 1 6 0
split_gain=2.72137e+08 4.96959e+07 3.53372e+07 1.27632e+07 8.21638e+06 3.61693e+06 3.0131e+06 1.81773e+06 1.72626e+06 1.606e+06 1.44952e+06 1.38205e+06 1.14066e+06 1.28015e+06 1.00163e+06 956115 938674 976903 846387 2.4284e+06
threshold=1067.2700000000002 276.37500000000006 2164.4350000000004 116.38500000000001 599.2700000000001 1531.8700000000001 55.425000000000004 187.14000000000001 0 417.14000000000004 1 210.50000000000003 2 782.87500000000011 59.500000000000007 22.005000000000006 271.50000000000006 29.500000000000004 7.495000000000001 3
decision_type=2 2 2 2 2 2 2 2 9 2 9 2 9 2 2 2 2 2 2 9
left_child=1 3 5 6 9 -2 8 -5 18 -3 -4 14 -6 -14 -12 -10 17 -7 19 -1
right_child=2 4 10 7 12 16 -8 -9 15 -11 11 -13 13 -15 -16 -17 -18 -19 -20 -21
leaf_value=13.771839485452888 17.798033488959717 3.4397983956083644 49.141627810378793 0.42015290493720941 12.023171460106271 18.200647377111974 -0.52607710637613758 1.7596058041047049 -1.7891051978537107 6.2403032995707921 35.402141176853725 38.726262229614846 8.368001376829179 -7.4808906378000106 18.76265972811419 -1.1660731646080518 21.225923346669152 29.364734255888962 -3.0903447278112806 1.2774276600487062
leaf_weight=108 658 3941 451 21760 1173 57 53971 9216 22119 1959 39 108 764 34 57 54573 178 421 166 675
leaf_count=108 658 3941 451 21760 1173 57 53971 9216 22119 1959 39 108 764 34 57 54573 178 421 166 675
internal_value=0 -0.340916 29.5482 -0.641227 5.86248 21.9868 -0.984826 0.818669 -1.30372 4.36968 44.716 30.9996 10.3309 7.59735 25.5288 -1.34559 26.1877 28.0343 2.07229 3.19332
internal_weight=0 170459 1969 162588 7871 1314 131612 30976 77641 5900 655 204 1971 798 96 76692 656 478 949 783
internal_count=172428 170459 1969 162588 7871 1314 131612 30976 77641 5900 655 204 1971 798 96 76692 656 478 949 783
cat_boundaries=0 4 5 7 10
cat_threshold=54790594 806913664 8176708 6 128 128 512 128 1049088 1048576
is_linear=0
shrinkage=0.0799375


Tree=21
num_leaves=21
num_cat=0
split_feature=8 9 9 8 9 10 9 9 9 10 1 1 1 4 1 9 1 4 1 1
split_gain=2.30704e+08 4.22276e+07 2.99588e+07 1.00272e+07 8.50808e+06 3.25326e+06 3.0123e+06 2.00454e+06 2.00444e+06 1.29835e+06 2.72721e+06 4.90684e+06 1.2121e+06 1.19414e+06 1.23506e+06 1.03031e+06 1.02086e+06 949760 1.11845e+06 1.67802e+06
threshold=1067.2700000000002 236.38500000000002 2159.4400000000001 470.94500000000011 76.795000000000016 2003050.0000000002 1515.4300000000001 693.43000000000018 132.12500000000003 218950.00000000003 183.50000000000003 237.50000000000003 289.50000000000006 2020.5000000000002 168.50000000000003 36.315000000000005 95.500000000000014 2019.5000000000002 231.50000000000003 95.500000000000014
decision_type=2 2 2 2 2 2 2 2 2 2 2 2 2 2 2 2 2 2 2 2
left_child=1 4 6 -3 15 12 -2 -5 -6 10 -9 -12 -4 14 -7 -1 -15 -8 19 -19
right_child=2 3 5 7 8 13 17 9 -10 -11 11 -13 -14 16 -16 -17 -18 18 -20 -21
leaf_value=-1.3337502504909586 16.4272418482456 2.8928566714321451 28.925782178662974 6.5468800915280738 -0.188413452693973 21.227827554837219 21.71209559657877 11.624024542229938 0.82872713001591836 11.576672372648767 -36.618678662019413 8.9652733502041446 42.948447582340364 41.539438723094641 42.070576076122499 -0.82834244981453775 51.418193149839567 25.897650654447393 18.490928253372523 42.205301012888455
leaf_weight=50868 659 7867 147 1979 37775 21 408 113 18416 1130 25 38 54 104 138 52248 191 128 60 59
leaf_count=50868 659 7867 147 1979 37775 21 408 113 18416 1130 25 38 54 104 138 52248 191 128 60 59
internal_value=0 -0.313536 27.2064 4.44178 -0.646424 41.1722 20.2441 8.15115 0.144944 10.582 4.19487 -9.12985 32.6972 44.9226 39.321 -1.07766 47.9388 24.0837 27.9989 31.0471
internal_weight=0 170459 1969 11152 159307 655 1314 3285 56191 1306 176 63 201 454 159 103116 295 655 247 187
internal_count=172428 170459 1969 11152 159307 655 1314 3285 56191 1306 176 63 201 454 159 103116 295 655 247 187
is_linear=0
shrinkage=0.0799375


Tree=22
num_leaves=21
num_cat=0
split_feature=8 6 6 6 8 6 6 6 9 4 4 3 6 2 2 3 4 6 8 3
split_gain=1.95299e+08 3.59983e+07 2.54585e+07 1.03508e+07 4.67025e+06 2.61504e+06 2.39757e+06 1.55988e+06 830636 947404 808745 904930 765424 734992 729615 734455 938284 669250 1.04038e+06 655466
threshold=1067.2700000000002 308.78000000000003 2164.4350000000004 119.855 599.2700000000001 1516.6750000000002 61.315000000000005 200.87500000000003 786.54500000000019 2016.5000000000002 2019.5000000000002 8.5000000000000018 417.02500000000003 43.500000000000007 39.500000000000007 1.5000000000000002 2020.5000000000002 1.0000000180025095e-35 13.615 6.5000000000000009
decision_type=2 2 2 2 2 2 2 2 2 2 2 2 2 2 2 2 2 2 2 2
left_child=1 3 5 6 12 10 17 -5 -6 -10 -2 -12 -3 -11 15 -7 -17 -1 -19 -4
right_child=2 4 19 7 8 14 -8 -9 9 13 11 -13 -14 -15 -16 16 -18 18 -20 -21
leaf_value=0.16787880884108672 13.326446523036823 3.227890945979063 34.883841484910349 0.46210789644988604 7.6202108548469143 15.267314617545184 -0.36563005130882575 1.742340624365702 -0.65231338470672784 10.775472906108249 17.08374481873394 32.281736756029737 5.3149316878845942 18.750552824859994 17.749962064320751 23.267389766198317 33.405908431231417 -1.8382756668818248 -1.0015816617973656 40.036933517981815
leaf_weight=2700 477 2626 271 21089 1320 57 47887 8546 41 524 152 30 1962 86 174 354 70 10922 72756 384
leaf_count=2700 477 2626 271 21089 1320 57 47887 8546 41 524 152 30 1962 86 174 354 70 10922 72756 384
internal_value=0 -0.288473 25.0319 -0.52086 5.51853 18.6138 -0.819308 0.831296 8.77292 11.1099 15.0575 19.5924 4.12041 11.9004 22.1912 23.797 24.9428 -1.07082 -1.11079 37.9061
internal_weight=0 170459 1969 163900 6559 1314 134265 29635 1971 651 659 182 4588 610 655 481 424 86378 83678 655
internal_count=172428 170459 1969 163900 6559 1314 134265 29635 1971 651 659 182 4588 610 655 481 424 86378 83678 655
is_linear=0
shrinkage=0.0799375


Tree=23
num_leaves=21
num_cat=0
split_feature=8 7 9 7 8 10 7 7 7 4 3 10 3 4 3 3 10 4 4 3
split_gain=1.65326e+08 3.05903e+07 2.14722e+07 9.34084e+06 3.41845e+06 2.76988e+06 2.2344e+06 2.13559e+06 1.40648e+06 1.04773e+06 1.05466e+06 991013 1.96475e+06 3.92592e+06 930858 1.17667e+06 927011 859276 850929 1.03122e+06
threshold=1067.2700000000002 336.29500000000002 2159.4400000000001 122.04500000000002 688.5100000000001 2003050.0000000002 1531.8700000000001 64.475000000000009 219.29500000000004 2020.5000000000002 7.5000000000000009 218950.00000000003 6.5000000000000009 2020.5000000000002 7.5000000000000009 4.5000000000000009 5068150.0000000009 2021.5000000000002 2019.5000000000002 6.5000000000000009
decision_type=2 2 2 2 2 2 2 2 2 2 2 2 2 2 2 2 2 2 2 2
left_child=1 3 6 7 -3 14 16 -1 -5 10 -7 12 -6 -14 15 -4 18 -11 -2 -20
right_child=2 4 5 8 11 9 -8 -9 -10 17 -12 -13 13 -15 -16 -17 -18 -19 19 -21
leaf_value=-0.97370461009786213 11.050416603287688 4.3573630293475611 31.389267114039061 0.51327411347603624 10.087085885932545 23.845042680248561 20.438637704401856 -0.30320506870908115 1.8002643124794013 42.899612984175 37.677341208814461 9.8668724508447152 7.8454613874986805 -30.862891890739274 32.137761421011426 13.347088748905907 24.789248130645369 30.515302831819696 13.062618641055394 25.465753525801077
leaf_weight=89690 426 4595 41 21747 113 53 656 45883 7230 253 106 1130 44 27 107 53 46 42 119 67
leaf_count=89690 426 4595 41 21747 113 53 656 45883 7230 253 106 1130 44 27 107 53 46 42 119 67
internal_value=0 -0.265413 23.0311 -0.46834 5.38557 34.8545 17.1369 -0.746782 0.83439 38.3147 33.0704 8.98101 3.54017 -6.87945 27.0356 21.2219 13.8446 41.1388 13.0211 17.5328
internal_weight=0 170459 1969 164550 5909 655 1314 135573 28977 454 159 1314 184 71 201 94 658 295 612 186
internal_count=172428 170459 1969 164550 5909 655 1314 135573 28977 454 159 1314 184 71 201 94 658 295 612 186
is_linear=0
shrinkage=0.0799375


Tree=24
num_leaves=21
num_cat=3
split_feature=8 0 6 6 0 10 0 6 6 6 1 6 6 8 6 2 1 10 1 10
split_gain=1.39955e+08 2.60975e+07 1.82528e+07 8.97502e+06 3.32788e+06 2.48338e+06 2.29852e+06 1.87384e+06 1.52476e+06 1.15277e+06 1.05229e+06 896717 1.08037e+06 729664 677818 617954 681777 648792 603528 591626
threshold=1067.2700000000002 0 2164.4350000000004 124.23500000000001 1 2165550.0000000005 2 1516.6750000000002 222.74500000000003 25.725000000000005 293.50000000000006 417.02500000000003 7.495000000000001 782.87500000000011 148.00500000000002 39.500000000000007 93.500000000000014 4147500.0000000005 53.500000000000007 4015500.0000000005
decision_type=2 9 2 2 9 2 9 2 2 2 2 2 2 2 2 2 2 2 2 2
left_child=1 4 7 6 -1 10 -3 18 -5 -8 -4 12 -6 -13 -14 16 17 -9 -2 -20
right_child=2 3 5 8 11 -7 9 15 -10 -11 -12 13 14 -15 -16 -17 -18 -19 19 -21
leaf_value=8.3075419584119281 18.752594954496637 -0.068632612117719538 21.845842662809375 0.51721718370809888 13.726305157027772 35.569184865414222 -1.286276473801923 19.618369450712201 1.832077226082133 -0.69846813095031091 34.56804099642482 5.3389004451486297 -3.0621952106664461 -6.4751854626452197 2.7318795795048798 14.697634305974162 22.621565935883485 9.3348633954527624 10.914438706777439 19.571229105947278
leaf_weight=1639 92 30098 162 20057 54 437 29357 126 7838 77866 56 1859 141 34 1516 174 298 57 511 56
leaf_count=1639 92 30098 162 20057 54 437 29357 126 7838 77866 56 1859 141 34 1516 174 298 57 511 56
internal_value=0 -0.244196 21.1903 -0.42052 5.30274 32.0914 -0.68609 15.7559 0.886671 -0.859327 25.117 3.91699 2.60153 5.12664 2.23881 18.7842 20.2617 16.4168 12.7455 11.7701
internal_weight=0 170459 1969 165216 5243 655 137321 1314 27895 107223 218 3604 1711 1893 1657 655 481 183 659 567
internal_count=172428 170459 1969 165216 5243 655 137321 1314 27895 107223 218 3604 1711 1893 1657 655 481 183 659 567
cat_boundaries=0 2 4 8
cat_threshold=262272 1049088 128 512 54611802 805831040 83682816 6
is_linear=0
shrinkage=0.0799375


Tree=25
num_leaves=21
num_cat=0
split_feature=6 6 6 7 6 7 7 7 4 2 1 7 1 2 1 4 6 1 4 7
split_gain=1.18387e+08 2.21823e+07 1.54392e+07 5.76446e+06 3.73555e+06 1.60067e+06 1.14575e+06 1.13019e+06 787660 984534 1.17199e+06 719330 688731 1.05312e+06 914652 718570 681365 667647 617766 587489
threshold=1081.0950000000003 276.37500000000006 2164.4350000000004 102.99500000000002 602.9000000000002 1531.8700000000001 170.25500000000002 37.695000000000007 2018.5000000000002 22.500000000000004 298.50000000000006 419.32000000000005 33.500000000000007 31.500000000000004 95.500000000000014 2019.5000000000002 1.0000000180025095e-35 217.50000000000003 2019.5000000000002 790.8950000000001
decision_type=2 2 2 2 2 2 2 2 2 2 2 2 2 2 2 2 2 2 2 2
left_child=1 3 5 7 11 -2 -5 16 9 -7 17 -3 -10 14 15 -14 -1 -11 -16 -6
right_child=2 4 -4 6 19 8 -8 -9 12 10 -12 -13 13 -15 18 -17 -18 -19 -20 -21
leaf_value=0.264628659121383 11.700668726094722 2.2900609991306426 29.526309404450373 0.1248164907298378 5.9575792421739733 -3.2333066179151633 1.0534137773035568 -0.48368131173542012 11.012901189892412 11.987996597753535 3.8898406828226859 4.1612068931432029 9.1421483477325385 14.969451548612007 23.178382448683568 22.230764390007575 -1.0390394889489556 25.231699842346156 33.980675541222411 8.8866725869240195
leaf_weight=2700 655 3936 655 26421 1311 22 12511 70905 62 42 43 1970 39 163 84 86 50051 58 57 657
leaf_count=2700 655 3936 655 26421 1311 22 12511 70905 62 42 43 1970 39 163 84 86 50051 58 57 657
internal_value=0 -0.22438 19.5043 -0.425055 3.9193 14.4968 0.423226 -0.692129 17.2882 12.5067 14.9284 2.91421 18.8944 20.0328 23.1341 18.1494 -0.972313 19.6731 27.5498 6.93552
internal_weight=0 170462 1966 162588 7874 1311 38932 123656 656 165 143 5906 491 429 266 125 52751 100 141 1968
internal_count=172428 170462 1966 162588 7874 1311 38932 123656 656 165 143 5906 491 429 266 125 52751 100 141 1968
is_linear=0
shrinkage=0.0799375


Tree=26
num_leaves=21
num_cat=5
split_feature=6 0 6 0 7 0 0 10 7 4 4 7 4 0 4 2 2 2 6 6
split_gain=1.00218e+08 1.91494e+07 1.30693e+07 6.56653e+06 2.5916e+06 2.5193e+06 2.23062e+06 1.41473e+06 1.35518e+06 1.31933e+06 1.16984e+06 968667 946411 813918 1.25826e+06 1.17235e+06 783247 758892 736110 815316
threshold=1081.0950000000003 0 2164.4350000000004 1 170.25500000000002 2 3 1691525.0000000002 1531.8700000000001 2020.5000000000002 2017.5000000000002 22.475000000000005 2018.5000000000002 4 2018.5000000000002 43.500000000000007 14.500000000000002 31.500000000000004 7.495000000000001 194.67500000000004
decision_type=2 9 2 9 2 9 9 2 2 2 2 2 2 9 2 2 2 2 2 2
left_child=1 5 8 4 -3 10 9 -8 13 17 -1 -5 -13 -2 -15 -16 -11 -4 -7 -20
right_child=2 3 6 11 -6 18 7 -9 -10 16 -12 12 -14 14 15 -17 -18 -19 19 -21
leaf_value=6.5233976617868707 17.591215413004686 0.034323099815768816 17.658574015776956 -1.1805721938610152 1.292249152767921 12.608346161826686 19.827013233739461 -2.5564016939079379 15.906602426732732 29.229717542726423 13.95155776909885 -0.84579455976805262 -0.31988128347700528 2.9435478243431774 9.6099669264182168 21.754837799518359 37.818095271161496 29.463589737969595 -0.0021180521071802586 3.6635654521615746
leaf_weight=1493 110 40978 52 22581 14055 54 184 20 656 108 149 45560 42042 154 331 60 185 106 443 3107
leaf_count=1493 110 40978 52 22581 14055 54 184 20 656 108 149 45560 42042 154 331 60 185 106 443 3107
internal_value=0 -0.206443 17.9454 -0.357524 0.355523 4.54367 27.1661 16.8087 13.3382 30.7946 7.15406 -0.71367 -0.593398 10.7654 8.90097 11.4747 34.6548 25.5813 3.33782 3.20613
internal_weight=0 170462 1966 165216 55033 5246 655 204 1311 451 1642 110183 87602 655 545 391 293 158 3604 3550
internal_count=172428 170462 1966 165216 55033 5246 655 204 1311 451 1642 110183 87602 655 545 391 293 158 3604 3550
cat_boundaries=0 2 6 8 9 10
cat_threshold=262272 1049088 54742618 805830784 1090315776 6 128 512 128 128
is_linear=0
shrinkage=0.0799375


Tree=27
num_leaves=21
num_cat=0
split_feature=8 6 6 6 6 10 4 10 6 6 3 3 4 10 3 4 3 10 3 4
split_gain=8.49658e+07 1.60823e+07 1.1056e+07 4.94211e+06 1.86474e+06 1.73641e+06 1.32448e+06 1.36135e+06 1.05654e+06 896527 831288 857961 735248 680882 1.7381e+06 3.11349e+06 642400 595872 555446 578276
threshold=1067.2700000000002 332.83500000000004 2164.4350000000004 105.43500000000002 694.4000000000002 2165550.0000000005 2019.5000000000002 2236650.0000000005 189.57000000000002 53.245000000000012 7.5000000000000009 2.5000000000000004 2020.5000000000002 218950.00000000003 6.5000000000000009 2020.5000000000002 7.5000000000000009 4584250.0000000009 10.500000000000002 2018.5000000000002
decision_type=2 2 2 2 2 2 2 2 2 2 2 2 2 2 2 2 2 2 2 2
left_child=1 3 6 9 -3 10 7 -2 -5 -1 11 -4 16 14 -6 -16 -7 -8 -9 -20
right_child=2 4 5 8 13 12 17 18 -10 -11 -12 -13 -14 -15 15 -17 -18 -19 19 -21
leaf_value=-0.75643664092745144 6.7924300816889787 3.1511756721817172 22.318928296430382 0.19661006328961569 8.0822219651589116 16.247570386375941 14.945073253730031 14.348320081549371 1.1346147854873108 -0.32120709487004451 23.708876301476622 7.3607702351985784 30.37321771413772 7.2969287657612583 5.9655942707957683 -29.155355945734634 27.108817067546717 25.079396568209859 2.486579105166614 16.093050658534359
leaf_weight=74981 368 4593 43 28370 112 52 391 427 10518 50688 118 57 279 1130 40 27 106 41 56 31
leaf_count=74981 368 4593 43 28370 112 52 391 427 10518 50688 118 57 279 1130 40 27 106 41 56 31
internal_value=0 -0.190149 16.5108 -0.337196 3.90975 24.9949 12.2814 10.5047 0.450312 -0.580889 19.1636 13.7962 27.9028 6.57132 1.99035 -8.19238 23.5369 15.9081 13.162 7.33763
internal_weight=0 170459 1969 164557 5902 655 1314 882 38888 125669 218 100 437 1309 179 67 158 432 514 87
internal_count=172428 170459 1969 164557 5902 655 1314 882 38888 125669 218 100 437 1309 179 67 158 432 514 87
is_linear=0
shrinkage=0.0799375


Tree=28
num_leaves=21
num_cat=0
split_feature=6 6 6 6 6 10 4 4 10 1 6 4 1 10 1 4 1 1 10 1
split_gain=7.18708e+07 1.37037e+07 9.35256e+06 3.48982e+06 2.62535e+06 1.46985e+06 1.16907e+06 1.11563e+06 1.2e+06 812882 682266 622342 567367 558568 534486 728378 525387 518979 507456 710623
threshold=1081.0950000000003 266.26500000000004 2164.4350000000004 80.52500000000002 539.06500000000017 2165550.0000000005 2018.5000000000002 2019.5000000000002 2003050.0000000002 308.50000000000006 168.70500000000001 2020.5000000000002 169.50000000000003 443250.00000000006 298.50000000000006 2018.5000000000002 97.500000000000014 119.50000000000001 4584250.0000000009 105.50000000000001
decision_type=2 2 2 2 2 2 2 2 2 2 2 2 2 2 2 2 2 2 2 2
left_child=1 3 7 -1 -3 9 -5 8 -2 -4 -8 12 -7 -6 -10 -16 -13 -15 -9 -20
right_child=2 4 5 6 13 11 10 18 14 -11 -12 16 -14 17 15 -17 -18 -19 19 -21
leaf_value=-0.60735869668580433 5.7649144826806911 2.0132387449766522 15.173946999728795 -0.20289993814658486 3.472419906178478 9.407926482144509 0.30861931767739703 13.726819721800963 13.160349751447512 27.340868212168356 1.2177535292165274 23.36293607346618 23.531559345790864 3.8524350105063139 1.7753998187457425 14.884351488588321 30.583071454893254 6.8610742588822866 12.272177312356957 33.341744945565836
leaf_weight=106397 321 5907 174 26981 926 21 21571 394 442 44 6982 102 137 535 68 45 177 1163 20 21
leaf_count=106397 321 5907 174 26981 926 21 21571 394 442 44 6982 102 137 535 68 45 177 1163 20 21
internal_value=0 -0.174746 15.197 -0.339255 2.94789 22.9972 0.174401 11.2996 9.65581 17.6321 0.530929 25.6726 21.6559 5.05188 11.9059 6.99761 27.9454 5.91318 14.6091 23.0757
internal_weight=0 170462 1966 161931 8531 655 55534 1311 876 218 28553 437 158 2624 555 113 279 1698 435 41
internal_count=172428 170462 1966 161931 8531 655 55534 1311 876 218 28553 437 158 2624 555 113 279 1698 435 41
is_linear=0
shrinkage=0.0799375


Tree=29
num_leaves=21
num_cat=0
split_feature=7 6 7 7 7 7 4 4 1 4 7 4 1 1 4 2 1 1 2 1
split_gain=6.11039e+07 1.11926e+07 8.97477e+06 2.53278e+06 1.71569e+06 1.67483e+06 986163 918037 569695 646527 957915 589042 693531 624215 527574 906651 1.10308e+06 571884 802301 754312
threshold=790.8950000000001 2164.4350000000004 238.48500000000004 74.195000000000007 1531.8700000000001 419.32000000000005 2016.5000000000002 2018.5000000000002 299.50000000000006 2018.5000000000002 1093.1200000000001 2017.5000000000002 57.500000000000007 115.50000000000001 2018.5000000000002 27.500000000000004 296.50000000000006 29.500000000000004 31.500000000000004 95.500000000000014
decision_type=2 2 2 2 2 2 2 2 2 2 2 2 2 2 2 2 2 2 2 2
left_child=2 4 3 -1 6 -4 -2 -5 11 10 -10 13 -13 -8 15 -6 -17 -16 19 -19
right_child=1 -3 5 7 14 -7 8 -9 9 -11 -12 12 -14 -15 17 16 -18 18 -20 -21
leaf_value=-0.58000787972632317 -4.4776807978404065 21.159179591612514 1.3960027273270657 -0.22521730126815476 -1.3052652221223922 3.5735501885215064 -0.4897619522946467 0.40627348010239889 13.75587046683053 18.554098288859041 -0.49476310134212237 13.111444616362393 7.114147894362155 6.6790701153989156 6.2166719894938343 17.965172747290723 2.1729760966017571 13.006326241746278 10.302444772314949 21.453035650228898
leaf_weight=100388 43 655 7232 30408 44 3281 111 28496 84 62 47 159 548 258 57 76 45 130 163 141
leaf_count=100388 43 655 7232 30408 44 3281 111 28496 84 62 47 159 548 258 57 76 45 130 163 141
internal_value=0 12.108 -0.186545 -0.335843 9.09536 2.0756 7.42618 0.0802791 7.82961 11.8291 8.64379 7.11201 8.46326 4.52269 12.4334 8.52076 12.0935 13.7478 14.7365 17.4025
internal_weight=0 2623 169805 159292 1968 10513 1312 58904 1269 193 131 1076 707 369 656 165 121 491 434 271
internal_count=172428 2623 169805 159292 1968 10513 1312 58904 1269 193 131 1076 707 369 656 165 121 491 434 271
is_linear=0
shrinkage=0.0799375


Tree=30
num_leaves=21
num_cat=4
split_feature=7 6 0 0 0 6 0 7 10 4 4 4 7 4 1 6 1 4 1 1
split_gain=5.17262e+07 9.47458e+06 7.77804e+06 3.32653e+06 1.87592e+06 1.66196e+06 1.53864e+06 1.45242e+06 1.22664e+06 876352 834839 801205 747716 710367 597360 594315 507490 492980 768461 968891
threshold=790.8950000000001 2164.4350000000004 0 1 2 7.495000000000001 3 1531.8700000000001 1691525.0000000002 2020.5000000000002 2016.5000000000002 2018.5000000000002 419.32000000000005 2018.5000000000002 97.500000000000014 12.305000000000001 211.50000000000003 2019.5000000000002 230.50000000000003 105.50000000000001
decision_type=2 2 9 9 9 2 9 2 2 2 2 2 2 2 2 2 2 2 2 2
left_child=2 7 3 5 9 -1 11 10 -6 16 -2 -4 -7 -5 -11 -8 -3 -9 19 -19
right_child=1 4 6 13 8 12 15 17 -10 14 -12 -13 -14 -15 -16 -17 -18 18 -20 -21
leaf_value=12.851420967623199 -4.1199234706103516 11.567544701532645 -0.35347771276281853 0.27082890695508033 13.616775620586967 1.5217728334355038 -1.1469654811077052 9.7411230629667802 -7.2217476534871716 20.822951712406013 7.2038119945104739 0.25547629876364014 3.6403162597909007 1.1926633962687612 28.347669310858851 -0.53049558341257808 21.317347278083954 13.647812644659247 6.485680417177881 27.347745028137428
leaf_weight=108 43 50 30051 12074 184 1741 11495 410 20 106 1269 25540 2740 9580 187 76476 108 142 61 43
leaf_count=108 43 50 30051 12074 184 1741 11495 410 20 106 1269 25540 2740 9580 187 76476 108 142 61 43
internal_value=0 11.1402 -0.171633 1.09351 19.4678 3.04678 -0.402948 8.3684 11.0325 22.5383 6.83262 -0.0736946 2.81721 0.678348 25.6271 -0.610979 18.234 11.4396 14.2694 16.8349
internal_weight=0 2623 169805 26243 655 4589 143562 1968 204 451 1312 55591 4481 21654 293 87971 158 656 246 185
internal_count=172428 2623 169805 26243 655 4589 143562 1968 204 451 1312 55591 4481 21654 293 87971 158 656 246 185
cat_boundaries=0 3 5 6 10
cat_threshold=54790274 269484672 7880704 262272 1049088 128 739192 537396512 1720100425 6
is_linear=0
shrinkage=0.0799375


Tree=31
num_leaves=21
num_cat=5
split_feature=0 4 0 0 7 1 4 4 0 0 7 7 1 4 7 1 1 1 6 1
split_gain=4.39723e+07 1.09267e+07 5.25123e+06 3.34014e+06 1.6148e+06 1.23486e+06 1.11146e+06 1.03275e+06 1.01846e+06 779206 812756 728776 688145 625434 625344 650427 507461 896945 485294 460293
threshold=0 2019.5000000000002 1 2 336.29500000000002 299.50000000000006 2017.5000000000002 2020.5000000000002 3 4 1093.1200000000001 1531.8700000000001 117.50000000000001 2017.5000000000002 291.79500000000007 197.50000000000003 159.50000000000003 210.50000000000003 787.62500000000011 190.50000000000003
decision_type=9 2 9 9 2 2 2 2 9 9 2 2 2 2 2 2 2 2 2 2
left_child=1 6 4 7 -2 -5 14 -3 13 11 -11 -8 -13 -4 -1 -16 -9 -18 -6 -12
right_child=2 3 8 5 18 -7 9 16 -10 10 19 12 -14 -15 15 -17 17 -19 -20 -21
leaf_value=12.840314860768716 0.50694697597963234 16.602539391951641 -0.46874212153202388 8.7723287130638106 2.2328542955304349 18.885520568980386 16.801545709594219 20.300925575980262 -0.58493049611457171 10.396259076655012 -0.30323144393559959 2.5100839717419041 10.624787689975262 0.077955013701010795 2.5261471320420545 5.9085758163408713 37.901420160965429 23.315523404443468 -8.1390155476970047 5.6041990857009312
leaf_weight=55 28005 253 22278 453 4314 93 93 149 80746 147 137 84 326 33448 753 702 36 108 29 219
leaf_count=55 28005 253 22278 453 4314 93 93 149 80746 147 137 84 326 33448 753 702 36 108 29 219
internal_value=0 8.72009 -0.18645 15.4216 0.729137 10.3068 5.84604 19.9811 -0.40351 7.90448 5.29093 10.2095 8.96248 -0.140577 4.47456 4.15815 23.5789 26.9671 2.16356 3.33095
internal_weight=0 3608 168820 1092 32348 546 2516 546 136472 1006 503 503 410 55726 1510 1455 293 144 4343 356
internal_count=172428 3608 168820 1092 32348 546 2516 546 136472 1006 503 503 410 55726 1510 1455 293 144 4343 356
cat_boundaries=0 2 6 7 11 12
cat_threshold=128 512 54790146 806355072 7882240 4 128 9127800 525601 1720098909 2 128
is_linear=0
shrinkage=0.0799375


Tree=32
num_leaves=21
num_cat=0
split_feature=7 6 7 6 7 7 10 10 1 6 8 1 1 1 1 1 10 10 1 1
split_gain=3.70835e+07 6.77319e+06 5.76161e+06 1.60066e+06 1.06327e+06 1.03936e+06 815159 424479 391033 359504 603583 343278 321345 766768 316766 385534 312328 293234 278232 711252
threshold=790.8950000000001 2164.4350000000004 180.21500000000003 417.02500000000003 71.305000000000021 1531.8700000000001 1631912.5000000002 8495600.0000000019 164.50000000000003 1.0000000180025095e-35 10.955000000000002 141.50000000000003 203.50000000000003 47.500000000000007 29.500000000000004 265.50000000000006 2565450.0000000005 5597675.0000000009 45.500000000000007 117.50000000000001
decision_type=2 2 2 2 2 2 2 2 2 2 2 2 2 2 2 2 2 2 2 2
left_child=2 5 4 -4 9 7 12 18 11 -1 -11 -8 13 -3 -7 -16 -10 -17 -2 -20
right_child=1 6 3 -5 -6 14 8 -9 16 10 -12 -13 -14 -15 15 17 -18 -19 19 -21
leaf_value=0.44752612788375273 8.9667618704752652 18.145585808221984 0.85616019194984905 2.8121907272475264 -0.020934403496406129 3.9906665120089677 17.001519543668518 16.795942918046634 25.345859325434247 -1.0895930468369157 -0.42042803840671361 8.1732659719602587 14.866861677199989 1.9211966021745852 11.611416777030698 8.821929076537435 18.739534609262197 0.97050094318437652 1.6709726604703821 6.3144651209921303
leaf_weight=2700 140 30 14472 3279 54334 57 145 22 57 9579 85441 35 103 49 409 152 236 38 278 872
leaf_count=2700 140 30 14472 3279 54334 57 145 22 57 9579 85441 35 103 49 409 152 236 38 278 872
internal_value=0 9.43255 -0.145323 1.21749 -0.304419 7.08896 16.4736 5.78979 18.2233 -0.462042 -0.487887 15.2861 11.9246 8.0856 9.68702 10.2289 20.0265 7.25193 5.60181 5.192
internal_weight=0 2623 169805 17751 152054 1968 655 1312 473 97720 95020 180 182 79 656 599 293 190 1290 1150
internal_count=172428 2623 169805 17751 152054 1968 655 1312 473 97720 95020 180 182 79 656 599 293 190 1290 1150
is_linear=0
shrinkage=0.0799375


Tree=33
num_leaves=21
num_cat=7
split_feature=0 4 0 0 0 1 4 4 4 0 6 4 0 6 6 1 0 6 10 6
split_gain=3.18674e+07 7.96138e+06 3.90726e+06 2.47738e+06 1.15403e+06 994541 877665 797371 763254 647769 641595 598018 589176 633704 563800 516434 485786 471432 457228 456987
threshold=0 2019.5000000000002 1 2 3 299.50000000000006 2020.5000000000002 2020.5000000000002 2017.5000000000002 4 7.495000000000001 2018.5000000000002 5 1081.0950000000003 276.37500000000006 197.50000000000003 6 148.00500000000002 1908575.0000000002 787.62500000000011
decision_type=9 2 9 9 9 2 2 2 2 9 2 2 9 2 2 2 9 2 2 2
left_child=1 8 4 7 10 18 9 -3 14 -4 -2 -6 -10 -14 -1 -16 -8 -12 -5 -19
right_child=2 3 6 5 11 -7 16 -9 12 -11 17 -13 13 -15 15 -17 -18 19 -20 -21
leaf_value=11.852881769481373 10.653011717989765 14.087640662908722 -0.17278478824196275 8.67964603286309 0.14248627366658609 16.438496081657199 0.55042756746891719 20.217377192218638 8.6721359318613054 -0.57092082915324871 -2.6539338680628362 0.90042508101382956 8.9221333872230186 2.6834666139500643 2.0832604966276711 5.0962400891878978 -0.18979720613092932 2.1483689684903311 2.4646219723999341 -7.9257449495538648
leaf_weight=54 54 253 40302 357 14966 93 9378 293 503 74317 141 11974 147 356 754 702 14279 3380 96 29
leaf_count=54 54 253 40302 357 14966 93 9378 293 503 74317 141 11974 147 356 754 702 14279 3380 96 29
internal_value=0 7.42343 -0.158727 13.1437 0.659386 8.74896 -0.339476 17.0652 4.97011 -0.430994 2.0013 0.479189 6.67591 4.41915 3.83359 3.536 0.103792 1.87527 7.36274 2.06262
internal_weight=0 3608 168820 1092 30544 546 138276 546 2516 114619 3604 26940 1006 503 1510 1456 23657 3550 453 3409
internal_count=172428 3608 168820 1092 30544 546 138276 546 2516 114619 3604 26940 1006 503 1510 1456 23657 3550 453 3409
cat_boundaries=0 2 6 7 9 13 14 18
cat_threshold=128 512 54790146 806355072 7881216 4 128 262144 1048576 743000 524577 1686545497 2 128 77809533 1074299912 3791816005 2
is_linear=0
shrinkage=0.0799375


Tree=34
num_leaves=21
num_cat=0
split_feature=7 7 7 4 7 7 4 10 1 1 1 7 1 1 10 4 4 1 1 4
split_gain=2.65892e+07 4.72947e+06 4.25362e+06 986576 940926 936295 627585 574764 544631 529203 909032 508991 713755 997262 550374 503479 460153 459793 477217 858859
threshold=790.8950000000001 2182.6750000000006 208.93500000000003 2018.5000000000002 419.32000000000005 75.785000000000011 2016.5000000000002 2165550.0000000005 299.50000000000006 192.50000000000003 59.500000000000007 1531.8700000000001 225.50000000000003 93.500000000000014 4147500.0000000005 2018.5000000000002 2019.5000000000002 125.50000000000001 85.500000000000014 2017.5000000000002
decision_type=2 2 2 2 2 2 2 2 2 2 2 2 2 2 2 2 2 2 2 2
left_child=2 3 5 6 -4 -1 -2 9 11 10 -3 -5 13 14 -13 -7 -14 18 19 -8
right_child=1 7 4 8 -6 15 17 -9 -10 -11 -12 12 16 -15 -16 -17 -18 -19 -20 -21
leaf_value=-0.38508923493478248 -5.1745241678317733 13.754401316561051 0.85351009613946927 5.0913405199517898 2.4040133158795962 -0.20773326721198968 -2.4606389713762367 15.543785376121942 12.521072587062463 13.664541457089584 -2.7768710628670195 9.7646315651876776 7.0149236227524057 15.508945922195242 0.37320578719775266 0.27952530819157101 -5.2860795403515954 5.8730587269229879 -1.9737714995675293 8.801073693323664
leaf_weight=101712 43 43 10520 413 3281 28245 69 437 137 133 42 123 52 151 59 26047 31 660 114 116
leaf_count=101712 43 43 10520 413 3281 28245 69 437 137 133 42 123 52 151 59 26047 31 660 114 116
internal_value=0 7.98718 -0.123013 6.02882 1.22212 -0.242012 4.27132 13.8708 7.85169 10.516 5.58735 7.07973 9.05341 10.7064 6.72056 0.0260327 2.42038 4.69496 2.09424 4.60095
internal_weight=0 2623 169805 1968 13801 156004 1002 655 966 218 85 829 416 333 182 54292 83 959 299 185
internal_count=172428 2623 169805 1968 13801 156004 1002 655 966 218 85 829 416 333 182 54292 83 959 299 185
is_linear=0
shrinkage=0.0799375


Tree=35
num_leaves=21
num_cat=0
split_feature=7 6 6 7 6 7 10 2 2 6 10 8 10 10 2 2 10 2 2 10
split_gain=2.25085e+07 4.06577e+06 3.64459e+06 1.13313e+06 621579 577515 499811 447972 771563 366980 341640 308334 291814 258730 271587 559141 245103 230960 535030 227546
threshold=790.8950000000001 2164.4350000000004 162.56500000000003 392.21500000000009 37.085000000000008 1531.8700000000001 2165550.0000000005 27.500000000000004 7.5000000000000009 1.0000000180025095e-35 6774800.0000000009 9.8350000000000026 2452725.0000000005 5692450.0000000009 42.500000000000007 15.500000000000002 726708.00000000012 19.500000000000004 10.500000000000002 1663350.0000000002
decision_type=2 2 2 2 2 2 2 2 2 2 2 2 2 2 2 2 2 2 2 2
left_child=2 5 4 -4 9 10 7 8 -3 -1 16 -11 -8 -7 15 -15 -2 18 -18 -9
right_child=1 6 3 -5 -6 13 12 19 -10 11 -12 -13 -14 14 -16 -17 17 -19 -20 -21
leaf_value=0.43259622036682005 -4.2136812134629249 13.607556531233552 0.59007431447537018 2.0938598781340327 -0.13241677768306803 8.2361631828685695 20.87687423714096 11.177348360680723 -1.7074755004683091 -0.95033400847659721 12.242628166294253 -0.43086772565109988 13.706733683479417 0.12740571623616928 -2.4405157302073279 12.456495650817191 5.8150575106955449 5.3160065889677597 0.36249884178930902 20.434138220303094
leaf_weight=2700 21 38 17092 3940 96641 532 40 113 47 8906 36 40526 397 47 30 47 228 795 232 20
leaf_count=2700 21 38 17092 3940 96641 532 40 113 47 8906 36 40526 397 47 30 47 228 795 232 20
internal_value=0 7.34876 -0.11318 0.871786 -0.252424 5.53301 12.804 9.6756 5.14093 -0.474891 4.56458 -0.524459 14.364 7.46967 4.18028 6.29339 4.34775 4.49108 3.06522 12.5724
internal_weight=0 2623 169805 21032 148773 1968 655 218 85 52132 1312 49432 437 656 124 94 1276 1255 460 133
internal_count=172428 2623 169805 21032 148773 1968 655 218 85 52132 1312 49432 437 656 124 94 1276 1255 460 133
is_linear=0
shrinkage=0.0799375


Tree=36
num_leaves=21
num_cat=6
split_feature=0 7 0 0 10 7 0 0 7 10 8 10 7 8 7 3 2 2 7 0
split_gain=1.9836e+07 4.31171e+06 2.63248e+06 946117 1.04068e+06 723392 718116 582229 575487 519434 440249 431086 351016 335527 294432 239900 295035 212239 212000 270718
threshold=0 2182.6750000000006 1 2 1691525.0000000002 1531.8700000000001 3 4 7.535000000000001 2452725.0000000005 782.87500000000011 526450.00000000012 149.44500000000002 64.905000000000015 164.15500000000003 1.5000000000000002 38.500000000000007 42.500000000000007 699.30000000000007 5
decision_type=9 2 9 9 2 2 9 9 2 2 2 2 2 2 2 2 2 2 2 9
left_child=1 5 6 9 17 11 8 -4 -2 -3 12 -1 -10 -9 -8 -7 -17 -5 -13 -20
right_child=2 3 7 4 -6 15 14 13 10 -11 -12 18 -14 -15 -16 16 -18 -19 19 -21
leaf_value=10.893619173972533 9.7979773066697522 21.076260848415664 -0.66511915778580732 6.7972981061315476 -10.893463577173408 2.0938661287380413 0.17149681412346104 -0.30637971199977798 -2.3350828112670658 13.084318093147852 -7.5649893833845399 2.3806987242806392 1.7355835932562067 -0.025356208933017165 0.70428311830297496 8.6004667256038694 4.7665444600931677 13.214940056111471 5.8666644582646095 3.4284621668716539
leaf_weight=55 54 60 20639 141 20 60 15168 75127 141 391 34 558 3375 42510 11772 409 187 43 480 1204
leaf_count=55 54 60 20639 141 20 60 15168 75127 141 391 34 558 3375 42510 11772 409 187 43 480 1204
internal_value=0 5.8568 -0.125197 11.7405 6.11615 4.57151 0.546323 -0.273559 1.60493 13.8416 1.48477 3.90283 1.57233 -0.20481 0.404159 6.91273 7.39776 8.29844 3.73123 4.1787
internal_weight=0 3608 168820 655 204 2953 30544 138276 3604 451 3550 2297 3516 117637 26940 656 596 184 2242 1684
internal_count=172428 3608 168820 655 204 2953 30544 138276 3604 451 3550 2297 3516 117637 26940 656 596 184 2242 1684
cat_boundaries=0 2 6 7 9 13 14
cat_threshold=128 512 54790146 806355072 7881216 4 128 262144 1048576 0 2357651456 134217984 8 128
is_linear=0
shrinkage=0.0799375


Tree=37
num_leaves=21
num_cat=0
split_feature=8 7 4 8 7 2 10 4 4 2 2 7 10 2 2 7 10 4 2 4
split_gain=1.6226e+07 3.38782e+06 2.18878e+06 800700 753684 529056 690986 537770 456058 422290 1.01535e+06 520053 410882 349667 377706 591930 293290 286518 375583 269651
threshold=1067.2700000000002 246.17500000000004 2019.5000000000002 535.93000000000018 83.675000000000026 44.500000000000007 3197150.0000000005 2020.5000000000002 2018.5000000000002 8.5000000000000018 18.500000000000004 1531.8700000000001 2606350.0000000005 43.500000000000007 18.500000000000004 1531.8700000000001 2527579.0000000005 2018.5000000000002 41.500000000000007 2018.5000000000002
decision_type=2 2 2 2 2 2 2 2 2 2 2 2 2 2 2 2 2 2 2 2
left_child=1 4 12 -3 -1 6 7 9 -6 -4 -11 -12 17 14 15 -14 -13 -2 -19 -15
right_child=2 3 5 -5 8 -7 -8 -9 -10 10 11 16 13 19 -16 -17 -18 18 -20 -21
leaf_value=-0.29292658725988346 -0.099358851242039289 0.90433480610448425 10.550488004514104 2.515560333156563 -0.16814714820350654 13.861726473317066 11.999927352405367 9.2236505016642383 0.3106788794703001 -7.4340216998109163 9.6441882070227383 -5.9374638124717958 9.5342911649729167 -2.0186214872850239 8.9633330636962718 -0.13100490065042825 6.7309610248683525 2.0205260751640295 8.8690877046958398 7.8290420718386802
leaf_weight=109045 171 7882 55 2628 24566 160 305 381 26338 48 90 28 70 56 227 96 20 161 75 26
leaf_count=109045 171 7882 55 2628 24566 160 305 381 26338 48 90 28 70 56 227 96 20 161 75 26
internal_value=0 -0.0830187 7.21534 1.30722 -0.174369 9.61609 8.88299 7.35423 0.0796 4.39828 2.57808 6.06116 4.25642 5.85348 6.84414 3.94542 -0.658288 2.39232 4.19758 1.10502
internal_weight=0 170459 1969 10510 159949 1087 927 622 50904 241 186 138 882 475 393 166 48 407 236 82
internal_count=172428 170459 1969 10510 159949 1087 927 622 50904 241 186 138 882 475 393 166 48 407 236 82
is_linear=0
shrinkage=0.0799375


Tree=38
num_leaves=21
num_cat=0
split_feature=9 4 7 7 4 10 1 10 9 4 4 1 1 7 10 4 7 2 4 1
split_gain=1.37909e+07 2.44844e+06 2.26138e+06 664203 588513 577168 505265 595877 454929 549122 415021 370343 1.06423e+06 439676 324990 314448 311180 285580 254543 251245
threshold=786.54500000000019 2019.5000000000002 170.25500000000002 392.21500000000009 2016.5000000000002 636766.50000000012 308.50000000000006 3197150.0000000005 30.765000000000004 2016.5000000000002 2020.5000000000002 57.500000000000007 107.50000000000001 1531.8700000000001 2003050.0000000002 2021.5000000000002 1.0000000180025095e-35 46.500000000000007 2018.5000000000002 15.500000000000002
decision_type=2 2 2 2 2 2 2 2 2 2 2 2 2 2 2 2 2 2 2 2
left_child=2 4 8 18 -2 -3 7 10 16 -10 11 -7 -13 -14 -6 -5 -1 -8 -4 -16
right_child=1 5 3 15 14 6 17 -9 9 -11 -12 12 13 -15 19 -17 -18 -19 -20 -21
leaf_value=0.40986037468612496 -5.7977312968297827 -4.8675625990981191 0.0664054847683785 1.8163602132103478 2.534136361673077 9.6731550664306845 19.065233627205334 10.987777677786374 -0.40798422297996179 -0.00064587659899538279 8.3302914145997615 -8.9982779360934497 8.796951735363006 -0.6056365751569901 -2.9463835364577413 -1.3138471912852834 -0.47775478473669403 11.099413530460652 0.73080620699238374 5.1880608734914953
leaf_weight=2700 41 20 5859 3726 626 58 38 312 28754 79942 389 41 94 48 25 217 38681 119 9929 809
leaf_count=2700 41 20 5859 3726 626 58 38 312 28754 79942 389 41 94 48 25 217 38681 119 9929 809
internal_value=0 5.75562 -0.0885017 0.716026 3.6456 8.58583 8.83075 8.13063 -0.194275 -0.108402 6.71534 4.10812 2.34341 5.61899 3.91087 1.64409 -0.41984 13.0298 0.484245 4.94415
internal_weight=0 2620 169808 19731 1501 1119 1099 942 150077 108696 630 241 183 142 1460 3943 41381 157 15788 834
internal_count=172428 2620 169808 19731 1501 1119 1099 942 150077 108696 630 241 183 142 1460 3943 41381 157 15788 834
is_linear=0
shrinkage=0.0799375


Tree=39
num_leaves=21
num_cat=6
split_feature=0 4 0 0 4 0 1 4 7 1 2 4 1 0 7 1 1 4 1 0
split_gain=1.24048e+07 3.04251e+06 1.81818e+06 1.18755e+06 714796 523912 509568 500648 414012 396719 367546 351646 400210 350256 344983 327024 587746 314302 313244 287519
threshold=0 2019.5000000000002 1 2 2018.5000000000002 3 299.50000000000006 2020.5000000000002 311.74000000000007 97.500000000000014 38.500000000000007 2017.5000000000002 197.50000000000003 4 167.38500000000002 210.50000000000003 166.50000000000003 2021.5000000000002 51.500000000000007 5
decision_type=9 2 9 9 2 9 2 2 2 2 2 2 2 9 2 2 2 2 2 9
left_child=1 8 14 7 13 -6 10 -3 -1 18 -5 12 -10 -4 -2 16 -11 -16 -9 -13
right_child=2 3 4 6 5 -7 -8 9 11 15 -12 19 -14 -15 17 -17 -18 -19 -20 -21
leaf_value=9.2668461954001842 0.27831470679581982 8.4423180165951699 -0.14029815793505229 4.9547716485909987 -0.35338429002685301 0.13506917923191647 10.676199413419541 12.702812258725766 0.84673709015883369 13.873119512563525 -2.5112304911567382 5.4642382097709934 3.5111117542735988 -0.48527335093784907 1.0313355426379105 12.649403247774417 28.004861123041604 -1.3451116486368251 3.6895877412583835 2.5584813584749941
leaf_weight=68 9679 253 30056 406 19669 48887 93 67 740 48 47 503 702 50362 9798 108 31 369 39 503
leaf_count=68 9679 253 30056 406 19669 48887 93 67 740 48 47 503 702 50362 9798 108 31 369 39 503
internal_value=0 4.6316 -0.0989735 8.16793 -0.194734 -0.00510204 5.19184 10.8499 3.1151 13.2983 4.18007 2.94414 2.14385 -0.356418 0.619585 15.5135 19.4246 0.945082 9.38804 4.09119
internal_weight=0 3608 168820 1092 148974 68556 546 546 2516 293 453 2448 1442 80418 19846 187 79 10167 106 1006
internal_count=172428 3608 168820 1092 148974 68556 546 546 2516 293 453 2448 1442 80418 19846 187 79 10167 106 1006
cat_boundaries=0 2 5 6 10 14 15
cat_threshold=128 512 38010882 1048704 7880704 128 3627057152 2357618768 159451264 8 151735832 537461025 1686282843 6 128
is_linear=0
shrinkage=0.0799375


Tree=40
num_leaves=21
num_cat=0
split_feature=6 6 6 10 1 1 4 6 1 6 4 1 1 10 6 10 4 1 1 4
split_gain=9.89724e+06 2.11982e+06 1.41395e+06 399699 1.55163e+06 2.878e+06 625357 370987 364759 296294 386609 281337 722524 398893 275298 242433 230501 651305 301316 222161
threshold=694.4000000000002 2164.4350000000004 141.65500000000003 218950.00000000003 183.50000000000003 237.50000000000003 2018.5000000000002 356.78500000000003 101.50000000000001 26.885000000000002 2016.5000000000002 164.50000000000003 131.50000000000003 2200550.0000000005 1.0000000180025095e-35 1631912.5000000002 2020.5000000000002 208.50000000000003 308.50000000000006 2019.5000000000002
decision_type=2 2 2 2 2 2 2 2 2 2 2 2 2 2 2 2 2 2 2 2
left_child=2 3 9 4 -2 -6 -5 19 -9 14 -11 12 -3 -14 -1 -13 -17 -18 -19 -4
right_child=1 11 7 6 5 -7 -8 8 -10 10 -12 15 13 -15 -16 16 17 18 -20 -21
leaf_value=0.38415759034413421 5.308259058196918 8.8386144688382284 0.087643631027263844 2.493018753545877 -31.429721166700769 3.1339581806345937 5.0764786522902954 -0.071155728162242485 1.6554407366999027 -0.3626303891582156 -0.026633570963318365 6.760256974089252 -10.202289493532533 3.3971981667121187 -0.45793436411923649 8.5749903104851164 23.011603799380282 7.4397397409277088 15.888853162738933 0.60735640208363673
leaf_weight=2700 114 172 10914 1395 25 40 1049 1076 2860 29994 80919 129 21 40 30549 140 33 79 41 10138
leaf_count=2700 114 172 10914 1395 25 40 1049 1076 2860 29994 80919 129 21 40 30549 140 33 79 41 10138
internal_value=0 4.35073 -0.084021 3.33486 -0.311312 -10.1657 3.60191 0.471104 1.18344 -0.180242 -0.117497 8.41863 6.18795 -1.28651 -0.389552 9.64988 10.9215 13.0672 10.3288 0.337922
internal_weight=0 3278 169150 2623 179 65 2444 24988 3936 144162 110913 655 233 61 33249 422 293 153 120 21052
internal_count=172428 3278 169150 2623 179 65 2444 24988 3936 144162 110913 655 233 61 33249 422 293 153 120 21052
is_linear=0
shrinkage=0.0799375


Tree=41
num_leaves=21
num_cat=6
split_feature=0 6 0 0 10 0 10 0 10 7 8 6 2 3 2 6 2 0 6 3
split_gain=8.99406e+06 1.80002e+06 1.43583e+06 679605 886616 491445 396133 352921 339352 301457 295015 251474 244810 214457 214602 186973 177332 280299 1.01439e+06 286186
threshold=0 2164.4350000000004 1 2 1691525.0000000002 3 2452725.0000000005 4 526450.00000000012 1531.8700000000001 782.87500000000011 7.495000000000001 6.5000000000000009 1.5000000000000002 39.500000000000007 43.025000000000013 28.500000000000004 5 1081.0950000000003 1.5000000000000002
decision_type=9 2 9 9 2 9 2 9 2 2 2 2 2 2 2 2 2 9 2 2
left_child=1 8 5 6 -5 10 -3 -4 -1 16 11 12 -2 -11 -15 -13 17 18 -10 -20
right_child=2 3 7 4 -6 -7 -8 -9 9 13 -12 15 -14 14 -16 -17 -18 -19 19 -21
leaf_value=9.2763516155479486 2.8701314507034694 15.720723938627501 -0.58159362042107088 5.2242357820523457 -12.48941412570546 0.17471155209145781 8.7432300947437351 -0.17110597634688607 1.6552687693767916 -0.051622733546731012 -6.5907665633229868 -2.0724970777264198 12.449134048360772 5.9425590417945546 2.6102513117813069 0.86170248300625063 3.3439975466952303 0.93515446361033172 3.0161250497378265 13.453887398877622
leaf_weight=56 115 60 15227 184 20 34156 391 110421 373 60 34 141 20 420 175 8706 1003 773 22 71
leaf_count=56 115 60 15227 184 20 34156 391 110421 373 60 34 141 20 420 175 8706 1003 773 22 71
internal_value=0 3.94383 -0.084245 7.74583 3.32357 0.313419 9.4624 -0.220894 3.11381 2.99462 0.838119 0.867189 4.29099 4.50329 4.9626 0.814933 2.55383 1.91412 3.44393 10.986
internal_weight=0 3608 168820 655 204 43172 451 125648 2953 2897 9016 8982 135 655 595 8847 2242 1239 466 93
internal_count=172428 3608 168820 655 204 43172 451 125648 2953 2897 9016 8982 135 655 595 8847 2242 1239 466 93
cat_boundaries=0 2 6 7 10 14 15
cat_threshold=128 512 54857234 806355072 1081664000 4 128 33816576 1048704 1048576 0 2357501952 134217984 8 128
is_linear=0
shrinkage=0.0799375


Tree=42
num_leaves=21
num_cat=7
split_feature=0 4 0 0 4 3 0 4 7 3 0 6 4 8 0 4 7 0 3 3
split_gain=7.61457e+06 1.97271e+06 1.23074e+06 742764 564208 358890 351952 329800 328198 302058 285297 475444 278377 265903 254712 246409 384745 346398 256329 233378
threshold=0 2019.5000000000002 1 2 2020.5000000000002 10.500000000000002 3 2020.5000000000002 311.74000000000007 3.5000000000000004 4 7.495000000000001 2016.5000000000002 782.87500000000011 5 2016.5000000000002 790.8950000000001 6 2.5000000000000004 7.5000000000000009
decision_type=9 2 9 9 2 2 9 2 2 2 9 2 2 2 9 2 2 9 2 2
left_child=1 8 10 7 6 -5 -4 -3 -1 -9 11 -2 -8 -13 -6 16 18 -17 -10 -11
right_child=2 3 4 5 14 -7 12 9 15 19 -12 13 -14 -15 -16 17 -18 -19 -20 -21
leaf_value=7.8845797258660211 8.5249985930570666 6.6398136967959269 -0.58007937884832295 3.3164160996207679 0.56198239172014597 8.9691200321186688 -0.37834396291934624 7.0663038561920883 -2.4277135044260025 15.612370564514109 0.31516958181238131 1.0369191742480717 -0.094624221199433312 -6.0642475102761093 0.0040057062084789194 4.098122691374507 -6.1452548952105248 1.6029599519626994 2.0475465882640922 9.9772777097662164
leaf_weight=68 54 253 17018 461 7618 85 32771 102 91 84 23332 3516 67852 34 16625 754 43 754 806 107
leaf_count=68 54 253 17018 461 7618 85 32771 102 91 84 23332 3516 67852 34 16625 754 43 754 806 107
internal_value=0 3.6288 -0.0775133 6.47606 -0.17156 4.12126 -0.243935 8.59766 2.40741 10.581 0.417752 1.07914 -0.187008 0.968872 0.179575 2.25519 1.23935 2.88839 1.59349 12.457
internal_weight=0 3608 168820 1092 141884 546 117641 546 2516 293 26936 3604 100623 3550 24243 2448 940 1508 897 191
internal_count=172428 3608 168820 1092 141884 546 117641 546 2516 293 26936 3604 100623 3550 24243 2448 940 1508 897 191
cat_boundaries=0 2 6 7 11 13 17 18
cat_threshold=128 512 54790146 1048704 7881216 4 128 33025 2357633024 134217984 8 262144 1048576 77809513 1879081984 1207960897 10 128
is_linear=0
shrinkage=0.0799375


Tree=43
num_leaves=21
num_cat=0
split_feature=6 6 6 4 7 2 2 3 4 8 3 2 4 2 3 4 2 8 2 3
split_gain=6.08863e+06 1.22764e+06 932805 278947 262728 436649 1.56026e+06 327229 236913 329435 224458 350625 280992 389638 286457 211354 374032 320539 173874 360825
threshold=694.4000000000002 2164.4350000000004 156.91500000000002 2018.5000000000002 790.8950000000001 26.500000000000004 31.500000000000004 10.500000000000002 2018.5000000000002 16.085000000000004 6.5000000000000009 7.5000000000000009 2021.5000000000002 2.5000000000000004 1.5000000000000002 2018.5000000000002 14.500000000000002 535.93000000000018 18.500000000000004 3.5000000000000004
decision_type=2 2 2 2 2 2 2 2 2 2 2 2 2 2 2 2 2 2 2 2
left_child=2 3 8 18 5 -5 -7 -6 -1 -10 11 12 -3 -14 -15 -4 -17 -18 19 -2
right_child=1 10 15 4 7 6 -8 -9 9 -11 -12 -13 13 14 -16 16 17 -19 -20 -21
leaf_value=-0.2261434928819272 2.0210713500299162 14.526921778323455 0.10533330692073151 4.6887797686867909 3.5621678569408046 -19.462208749773872 2.2853358156466435 7.9606570228123861 -0.54241530258033188 0.041968146931054585 7.75143604015215 2.5291517717759757 14.903542364214415 -5.6756207359276978 6.8445230969444664 -0.027934673062473204 0.78331362692460349 2.8553508078671821 2.456626050205315 -3.090415735269632
leaf_weight=83836 300 33 8261 125 842 26 111 124 6916 56702 384 170 20 20 28 4006 8925 504 970 125
leaf_count=83836 300 33 8261 125 842 26 111 124 6916 56702 384 170 20 20 28 4006 8925 504 970 125
internal_value=0 3.41247 -0.0658714 2.63939 3.51802 1.27274 -1.84432 4.12694 -0.137878 -0.0215611 6.50815 4.74597 8.4759 5.53573 1.62757 0.423511 0.619154 0.894075 1.8659 0.517611
internal_weight=0 3278 169150 2623 1228 262 137 966 147454 63618 655 271 101 68 48 21696 13435 9429 1395 425
internal_count=172428 3278 169150 2623 1228 262 137 966 147454 63618 655 271 101 68 48 21696 13435 9429 1395 425
is_linear=0
shrinkage=0.0799375


Tree=44
num_leaves=21
num_cat=0
split_feature=8 9 9 4 10 2 1 1 1 8 1 1 4 1 1 1 10 4 1 10
split_gain=5.13946e+06 1.02343e+06 785911 239717 430484 399637 2.35296e+06 225842 577928 223353 277959 211704 329873 266935 216379 476129 408290 228879 273033 200200
threshold=688.5100000000001 2159.4400000000001 139.00500000000002 2018.5000000000002 962650.00000000012 26.500000000000004 221.50000000000003 161.50000000000003 131.50000000000003 352.24000000000007 101.50000000000001 15.500000000000002 2020.5000000000002 299.50000000000006 55.500000000000007 99.500000000000014 3761350.0000000005 2019.5000000000002 71.500000000000014 2527579.0000000005
decision_type=2 2 2 2 2 2 2 2 2 2 2 2 2 2 2 2 2 2 2 2
left_child=2 3 -1 -2 5 -5 -7 8 -3 -4 -11 -6 13 14 -13 17 -17 -16 -19 -10
right_child=1 7 9 4 11 6 -8 -9 19 10 -12 12 -14 -15 15 16 -18 18 -20 -21
leaf_value=-0.13337135355969698 1.7092276712071219 6.1697399463138423 0.2465722833667672 3.7038173365978446 -1.0993053378324138 -21.091484005131331 2.6794894943219809 7.0445467294939359 -9.6370045957888859 -0.19224883543552124 1.312657308865131 6.6525268875531145 8.8796785772631281 7.1673811110998713 1.5244771572645666 2.4576457716175679 8.3048935016128311 1.1637603925547153 -9.9038168425343525 0.4385031416195484
leaf_weight=143522 1393 174 21679 152 47 33 137 427 20 1080 2864 98 94 130 63 322 100 24 35 34
leaf_count=143522 1393 174 21679 152 47 33 137 427 20 1080 2864 98 94 130 63 322 100 24 35 34
internal_value=0 3.13279 -0.060566 2.42813 3.23897 0.725845 -1.93694 5.95982 3.92787 0.347238 0.900564 4.12527 4.40884 3.86423 3.19516 2.57208 3.8436 -1.82602 -5.40294 -3.29548
internal_weight=0 3283 169145 2628 1235 322 170 655 228 25623 3944 913 866 772 642 544 422 122 59 54
internal_count=172428 3283 169145 2628 1235 322 170 655 228 25623 3944 913 866 772 642 544 422 122 59 54
is_linear=0
shrinkage=0.0799375


Tree=45
num_leaves=21
num_cat=5
split_feature=0 4 0 0 0 4 7 2 2 4 2 2 2 5 4 0 2 4 2 6
split_gain=4.76251e+06 1.22441e+06 934982 595856 345784 328460 314768 267836 272294 254270 270450 253427 241801 346044 220190 218834 216631 210331 196057 188356
threshold=0 2019.5000000000002 1 2 3 2020.5000000000002 311.74000000000007 43.500000000000007 38.500000000000007 2020.5000000000002 13.500000000000002 7.5000000000000009 30.500000000000004 2.5000000000000004 2021.5000000000002 4 27.500000000000004 2021.5000000000002 44.500000000000007 7.495000000000001
decision_type=9 2 9 9 9 2 2 2 2 2 2 2 2 2 2 9 2 2 2 2
left_child=1 6 4 9 14 15 -1 8 -5 -3 11 17 13 -12 19 -4 -8 -11 -14 -2
right_child=2 3 5 7 -6 -7 16 -9 -10 10 12 -13 18 -15 -16 -17 -18 -19 -20 -21
leaf_value=7.2715289688824996 3.6892516526642107 5.2631289784364998 -0.52599298265134842 3.0042603143512334 0.12307563608313059 0.10621726507657001 1.0053497309316197 7.0903027482224923 -3.2465157732436074 12.873550888318119 10.740082305390734 0.013559452440867764 5.4552278805198515 22.618653855298437 -1.9297910168317818 -0.19777569855229973 2.5093339047646825 3.9127563178774705 12.607661259563153 0.68044129003090892
leaf_weight=68 135 253 15507 406 44611 19846 1222 90 50 33 62 36 69 21 204 79840 1226 34 38 8677
leaf_count=68 135 253 15507 406 44611 19846 1222 90 50 33 62 36 69 21 204 79840 1226 34 38 8677
internal_value=0 2.86986 -0.0612798 5.11304 0.214411 -0.189633 1.90765 3.04966 2.31875 6.99231 8.72356 5.42324 10.5119 13.7506 0.665699 -0.251232 1.75859 8.32899 7.99736 0.726545
internal_weight=0 3608 168820 1092 53627 115193 2516 546 456 546 293 103 190 83 9016 95347 2448 67 107 8812
internal_count=172428 3608 168820 1092 53627 115193 2516 546 456 546 293 103 190 83 9016 95347 2448 67 107 8812
cat_boundaries=0 2 6 7 10 14
cat_threshold=128 512 54873682 806879616 1081795072 6 128 33816576 1048704 1048576 33025 2357501952 134217984 8
is_linear=0
shrinkage=0.0799375


Tree=46
num_leaves=21
num_cat=5
split_feature=0 0 6 0 10 0 10 10 0 6 1 1 6 1 1 6 10 6 6 1
split_gain=4.03167e+06 794863 705122 450075 737448 308221 297267 244868 196343 163811 153441 187294 271031 193634 168446 383332 212852 155246 148297 186589
threshold=0 1 2164.4350000000004 2 1691525.0000000002 3 2452725.0000000005 526450.00000000012 4 787.62500000000011 117.50000000000001 57.500000000000007 694.4000000000002 15.500000000000002 143.50000000000003 1516.6750000000002 2200550.0000000005 539.06500000000017 7.495000000000001 39.500000000000007
decision_type=9 9 2 9 2 9 2 2 9 2 2 2 2 2 2 2 2 2 2 2
left_child=2 5 7 6 -5 9 -4 -1 -3 18 11 12 17 -14 15 16 -12 -9 19 -2
right_child=1 8 3 4 -6 -7 -8 10 -10 -11 14 -13 13 -15 -16 -17 -18 -19 -20 -21
leaf_value=7.3562061616504684 1.9123453662483805 -0.49041027957279715 11.77374536234074 3.2576143529092474 -12.897087481784048 0.09727668556454222 5.7302881504609369 2.7923229568184307 -0.14341825378627618 -5.4254315345387774 -0.024859333388241308 0.21308095807121236 0.13663362177892191 4.2968917052312259 2.1584521088645672 10.734446131969403 5.4435800455531007 -5.6426742859982379 0.55177203489626814 9.8286960610966503
leaf_weight=56 140 11619 60 184 20 45644 391 22 100737 29 89 542 96 280 1688 49 93 38 10629 22
leaf_count=56 140 11619 60 184 20 45644 391 22 100737 29 89 542 96 280 1688 49 93 38 10629 22
internal_value=0 -0.0563841 2.6405 5.02059 1.59448 0.188275 6.39307 2.12148 -0.179342 0.571703 2.02024 1.20528 2.43862 3.23477 2.43556 4.46008 2.76976 -2.54993 0.58836 2.98856
internal_weight=0 168820 3608 655 204 56464 451 2953 112356 10820 2897 978 436 376 1919 231 182 60 10791 162
internal_count=172428 168820 3608 655 204 56464 451 2953 112356 10820 2897 978 436 376 1919 231 182 60 10791 162
cat_boundaries=0 2 6 7 10 14
cat_threshold=128 512 54873682 806879616 1627054592 6 128 38010880 1048704 1048576 0 2357469184 256 8
is_linear=0
shrinkage=0.0799375


Tree=47
num_leaves=21
num_cat=5
split_feature=0 4 0 4 0 10 0 1 2 8 1 1 8 4 1 1 1 1 1 0
split_gain=3.41292e+06 928968 676004 424858 420864 348389 284183 240790 240761 233018 231399 488784 256057 401885 257003 239078 319017 225964 206976 204152
threshold=0 2019.5000000000002 1 2018.5000000000002 2 2098450.0000000005 3 299.50000000000006 38.500000000000007 328.44500000000005 101.50000000000001 53.500000000000007 2139.0000000000005 2020.5000000000002 211.50000000000003 210.50000000000003 166.50000000000003 250.50000000000003 31.500000000000004 4
decision_type=9 2 9 2 9 2 9 2 2 2 2 2 2 2 2 2 2 2 2 9
left_child=1 9 -2 19 10 7 -5 8 -6 -1 11 18 -12 14 -14 16 -15 -16 -3 -4
right_child=2 4 3 6 5 -7 -8 -9 -10 -11 12 -13 13 15 17 -17 -18 -19 -20 -21
leaf_value=6.0408262975454567 0.41040953674327363 4.1600577591632275 -0.39962430465857079 -0.17559410748027193 3.4037831466728345 -2.0432029350822143 0.16061784720304612 7.5402988428296069 -3.1493485762698299 1.4581008320842639 14.561712717033434 -1.3163643254169126 -1.2458908860507543 8.3032533946223133 12.113962370661925 6.7009909465182727 18.800427027483348 3.670436498114142 11.379712987895857 -0.13593766805800428
leaf_weight=73 18042 60 29355 25259 342 84 44095 80 40 2443 28 73 48 46 27 108 31 81 44 52069
leaf_count=73 18042 60 29355 25259 342 84 44095 80 40 2443 28 73 48 46 27 108 31 81 44 52069
internal_value=0 2.42944 -0.0518794 -0.10722 4.38314 2.64349 0.0381659 3.55289 2.71745 1.59112 5.96496 3.69741 7.21401 6.6098 3.62059 9.12972 12.5334 5.7833 7.21624 -0.231068
internal_weight=0 3608 168820 150778 1092 546 69354 462 382 2516 546 177 369 341 156 185 77 108 104 81424
internal_count=172428 3608 168820 150778 1092 546 69354 462 382 2516 546 177 369 341 156 185 77 108 104 81424
cat_boundaries=0 2 5 6 10 14
cat_threshold=128 512 38010880 1048704 7880704 128 4163928064 2410047572 159451282 8 346038629 3706101768 134225284 9
is_linear=0
shrinkage=0.0799375


Tree=48
num_leaves=21
num_cat=7
split_feature=0 0 6 0 6 6 0 1 1 1 7 1 0 8 0 1 1 0 6 7
split_gain=2.8892e+06 594741 482369 349641 240655 220569 772956 174771 338118 211691 171106 157705 156827 156489 166367 163125 152066 134524 191181 331870
threshold=0 1 2164.4350000000004 2 162.56500000000003 7.495000000000001 3 201.50000000000003 131.50000000000003 161.50000000000003 291.79500000000007 101.50000000000001 4 782.87500000000011 5 253.50000000000003 17.500000000000004 6 1081.0950000000003 1531.8700000000001
decision_type=9 9 2 9 2 2 9 2 2 2 2 2 9 2 9 2 2 9 2 2
left_child=2 4 10 -4 5 6 16 8 -5 -10 -1 -6 -3 14 -13 -16 -2 18 -12 -20
right_child=1 12 3 7 11 -7 -8 -9 9 -11 17 13 -14 -15 15 -17 -18 -19 19 -21
leaf_value=6.2223217169503178 2.0799674387451588 -0.45924041431011758 5.4107064933578393 3.9412836561375504 0.024047723724526494 0.030069561441042735 0.36038161238941641 3.3288107917256222 -11.956290284786299 -1.2570148184555054 1.4452177184755355 0.1379348887522166 -0.12484187648534167 -4.8386928700018208 1.1090044650539843 0.39201462115189567 9.5298345439597885 1.1952173920116047 7.3490778605308789 2.5037893988737898
leaf_weight=55 22 9815 451 41 4608 39119 756 115 21 27 710 3627 102541 34 4562 3650 86 1573 110 505
leaf_count=55 22 9815 451 41 4608 39119 756 115 21 27 710 3627 102541 34 4562 3650 86 1573 110 505
internal_value=0 -0.0477329 2.23528 4.204 0.163898 0.0579728 1.3213 1.21136 -1.38873 -5.9412 1.80614 0.420971 -0.154092 0.575019 0.590576 0.789364 7.33404 1.72228 2.32143 3.37065
internal_weight=0 168820 3608 655 56464 39983 864 204 89 48 2953 16481 112356 11873 11839 8212 108 2898 1325 615
internal_count=172428 168820 3608 655 56464 39983 864 204 89 48 2953 16481 112356 11873 11839 8212 108 2898 1325 615
cat_boundaries=0 2 6 7 10 14 17 18
cat_threshold=128 512 54873682 806879616 1627054592 6 128 64 1572864 8388608 0 2357469184 0 8 3072 805306368 11534336 128
is_linear=0
shrinkage=0.0799375


Tree=49
num_leaves=21
num_cat=7
split_feature=0 0 6 0 7 0 6 0 2 2 6 8 2 2 6 7 7 0 8 0
split_gain=2.44917e+06 506361 410656 297493 172605 170119 149817 353819 145082 254215 144998 130421 119979 136498 177090 166090 125411 171153 189975 120691
threshold=0 1 2164.4350000000004 2 170.25500000000002 3 7.495000000000001 4 30.500000000000004 6.5000000000000009 289.3250000000001 782.87500000000011 17.500000000000004 10.500000000000002 694.4000000000002 605.0150000000001 1531.8700000000001 5 1067.2700000000002 6
decision_type=9 9 2 9 2 9 2 9 2 2 2 2 2 2 2 2 2 9 2 9
left_child=2 4 10 -4 6 -3 7 -2 9 -5 -1 -6 13 14 15 -12 17 -15 -19 -14
right_child=1 5 3 8 11 -7 -8 -9 -10 -11 12 -13 19 16 -16 -17 -18 18 -20 -21
leaf_value=5.7274298091983127 5.300492771873901 -0.3630936737053379 4.9875897800145603 5.1942451809279326 0.50458512597168637 -0.079673839040093855 0.070719414715495157 0.25511716154028119 3.1985482341391149 -3.7419829633535127 1.5759142507852058 -4.4521421998377786 2.6588762121510205 1.3329112640348089 2.3020971595491742 -5.689068994062775 2.1204518881989127 -0.30978341368111906 -5.2441666266075204 1.3270002027101617
leaf_weight=55 108 15227 451 29 11420 121245 20408 378 107 68 44 34 870 125 472 37 113 115 88 1034
leaf_count=55 108 15227 451 29 11420 121245 20408 378 107 68 44 34 870 125 472 37 113 115 88 1034
internal_value=0 -0.0439176 2.05806 3.87454 0.240395 -0.111321 0.103753 1.49081 1.11448 -1.06976 1.6621 0.489863 1.5849 0.873013 1.70951 -1.74327 -0.175959 -0.967189 -2.33418 1.95654
internal_weight=0 168820 3608 655 32348 136472 20894 486 204 97 2953 11454 2898 994 553 81 441 328 203 1904
internal_count=172428 168820 3608 655 32348 136472 20894 486 204 97 2953 11454 2898 994 553 81 441 328 203 1904
cat_boundaries=0 2 6 7 11 14 15 16
